FANN_FLO_2.1
num_layers=3
learning_rate=0.700000
connection_rate=1.000000
network_type=0
learning_momentum=0.000000
training_algorithm=2
train_error_function=1
train_stop_function=0
cascade_output_change_fraction=0.010000
quickprop_decay=-0.000100
quickprop_mu=1.750000
rprop_increase_factor=1.200000
rprop_decrease_factor=0.500000
rprop_delta_min=0.000000
rprop_delta_max=50.000000
rprop_delta_zero=0.100000
cascade_output_stagnation_epochs=12
cascade_candidate_change_fraction=0.010000
cascade_candidate_stagnation_epochs=12
cascade_max_out_epochs=150
cascade_max_cand_epochs=150
cascade_num_candidate_groups=2
bit_fail_limit=3.49999994039535522461e-01
cascade_candidate_limit=1.00000000000000000000e+03
cascade_weight_multiplier=4.00000005960464477539e-01
cascade_activation_functions_count=10
cascade_activation_functions=3 5 7 8 10 11 14 15 16 17 
cascade_activation_steepnesses_count=4
cascade_activation_steepnesses=2.50000000000000000000e-01 5.00000000000000000000e-01 7.50000000000000000000e-01 1.00000000000000000000e+00 
layer_sizes=901 101 37 
scale_included=0
neurons (num_inputs, activation_function, activation_steepness)=(0, 0, 0.00000000000000000000e+00) (0, 0, 0.00000000000000000000e+00) (0, 0, 0.00000000000000000000e+00) (0, 0, 0.00000000000000000000e+00) (0, 0, 0.00000000000000000000e+00) (0, 0, 0.00000000000000000000e+00) (0, 0, 0.00000000000000000000e+00) (0, 0, 0.00000000000000000000e+00) (0, 0, 0.00000000000000000000e+00) (0, 0, 0.00000000000000000000e+00) (0, 0, 0.00000000000000000000e+00) (0, 0, 0.00000000000000000000e+00) (0, 0, 0.00000000000000000000e+00) (0, 0, 0.00000000000000000000e+00) (0, 0, 0.00000000000000000000e+00) (0, 0, 0.00000000000000000000e+00) (0, 0, 0.00000000000000000000e+00) (0, 0, 0.00000000000000000000e+00) (0, 0, 0.00000000000000000000e+00) (0, 0, 0.00000000000000000000e+00) (0, 0, 0.00000000000000000000e+00) (0, 0, 0.00000000000000000000e+00) (0, 0, 0.00000000000000000000e+00) (0, 0, 0.00000000000000000000e+00) (0, 0, 0.00000000000000000000e+00) (0, 0, 0.00000000000000000000e+00) (0, 0, 0.00000000000000000000e+00) (0, 0, 0.00000000000000000000e+00) (0, 0, 0.00000000000000000000e+00) (0, 0, 0.00000000000000000000e+00) (0, 0, 0.00000000000000000000e+00) (0, 0, 0.00000000000000000000e+00) (0, 0, 0.00000000000000000000e+00) (0, 0, 0.00000000000000000000e+00) (0, 0, 0.00000000000000000000e+00) (0, 0, 0.00000000000000000000e+00) (0, 0, 0.00000000000000000000e+00) (0, 0, 0.00000000000000000000e+00) (0, 0, 0.00000000000000000000e+00) (0, 0, 0.00000000000000000000e+00) (0, 0, 0.00000000000000000000e+00) (0, 0, 0.00000000000000000000e+00) (0, 0, 0.00000000000000000000e+00) (0, 0, 0.00000000000000000000e+00) (0, 0, 0.00000000000000000000e+00) (0, 0, 0.00000000000000000000e+00) (0, 0, 0.00000000000000000000e+00) (0, 0, 0.00000000000000000000e+00) (0, 0, 0.00000000000000000000e+00) (0, 0, 0.00000000000000000000e+00) (0, 0, 0.00000000000000000000e+00) (0, 0, 0.00000000000000000000e+00) (0, 0, 0.00000000000000000000e+00) (0, 0, 0.00000000000000000000e+00) (0, 0, 0.00000000000000000000e+00) (0, 0, 0.00000000000000000000e+00) (0, 0, 0.00000000000000000000e+00) (0, 0, 0.00000000000000000000e+00) (0, 0, 0.00000000000000000000e+00) (0, 0, 0.00000000000000000000e+00) (0, 0, 0.00000000000000000000e+00) (0, 0, 0.00000000000000000000e+00) (0, 0, 0.00000000000000000000e+00) (0, 0, 0.00000000000000000000e+00) (0, 0, 0.00000000000000000000e+00) (0, 0, 0.00000000000000000000e+00) (0, 0, 0.00000000000000000000e+00) (0, 0, 0.00000000000000000000e+00) (0, 0, 0.00000000000000000000e+00) (0, 0, 0.00000000000000000000e+00) (0, 0, 0.00000000000000000000e+00) (0, 0, 0.00000000000000000000e+00) (0, 0, 0.00000000000000000000e+00) (0, 0, 0.00000000000000000000e+00) (0, 0, 0.00000000000000000000e+00) (0, 0, 0.00000000000000000000e+00) (0, 0, 0.00000000000000000000e+00) (0, 0, 0.00000000000000000000e+00) (0, 0, 0.00000000000000000000e+00) (0, 0, 0.00000000000000000000e+00) (0, 0, 0.00000000000000000000e+00) (0, 0, 0.00000000000000000000e+00) (0, 0, 0.00000000000000000000e+00) (0, 0, 0.00000000000000000000e+00) (0, 0, 0.00000000000000000000e+00) (0, 0, 0.00000000000000000000e+00) (0, 0, 0.00000000000000000000e+00) (0, 0, 0.00000000000000000000e+00) (0, 0, 0.00000000000000000000e+00) (0, 0, 0.00000000000000000000e+00) (0, 0, 0.00000000000000000000e+00) (0, 0, 0.00000000000000000000e+00) (0, 0, 0.00000000000000000000e+00) (0, 0, 0.00000000000000000000e+00) (0, 0, 0.00000000000000000000e+00) (0, 0, 0.00000000000000000000e+00) (0, 0, 0.00000000000000000000e+00) (0, 0, 0.00000000000000000000e+00) (0, 0, 0.00000000000000000000e+00) (0, 0, 0.00000000000000000000e+00) (0, 0, 0.00000000000000000000e+00) (0, 0, 0.00000000000000000000e+00) (0, 0, 0.00000000000000000000e+00) (0, 0, 0.00000000000000000000e+00) (0, 0, 0.00000000000000000000e+00) (0, 0, 0.00000000000000000000e+00) (0, 0, 0.00000000000000000000e+00) (0, 0, 0.00000000000000000000e+00) (0, 0, 0.00000000000000000000e+00) (0, 0, 0.00000000000000000000e+00) (0, 0, 0.00000000000000000000e+00) (0, 0, 0.00000000000000000000e+00) (0, 0, 0.00000000000000000000e+00) (0, 0, 0.00000000000000000000e+00) (0, 0, 0.00000000000000000000e+00) (0, 0, 0.00000000000000000000e+00) (0, 0, 0.00000000000000000000e+00) (0, 0, 0.00000000000000000000e+00) (0, 0, 0.00000000000000000000e+00) (0, 0, 0.00000000000000000000e+00) (0, 0, 0.00000000000000000000e+00) (0, 0, 0.00000000000000000000e+00) (0, 0, 0.00000000000000000000e+00) (0, 0, 0.00000000000000000000e+00) (0, 0, 0.00000000000000000000e+00) (0, 0, 0.00000000000000000000e+00) (0, 0, 0.00000000000000000000e+00) (0, 0, 0.00000000000000000000e+00) (0, 0, 0.00000000000000000000e+00) (0, 0, 0.00000000000000000000e+00) (0, 0, 0.00000000000000000000e+00) (0, 0, 0.00000000000000000000e+00) (0, 0, 0.00000000000000000000e+00) (0, 0, 0.00000000000000000000e+00) (0, 0, 0.00000000000000000000e+00) (0, 0, 0.00000000000000000000e+00) (0, 0, 0.00000000000000000000e+00) (0, 0, 0.00000000000000000000e+00) (0, 0, 0.00000000000000000000e+00) (0, 0, 0.00000000000000000000e+00) (0, 0, 0.00000000000000000000e+00) (0, 0, 0.00000000000000000000e+00) (0, 0, 0.00000000000000000000e+00) (0, 0, 0.00000000000000000000e+00) (0, 0, 0.00000000000000000000e+00) (0, 0, 0.00000000000000000000e+00) (0, 0, 0.00000000000000000000e+00) (0, 0, 0.00000000000000000000e+00) (0, 0, 0.00000000000000000000e+00) (0, 0, 0.00000000000000000000e+00) (0, 0, 0.00000000000000000000e+00) (0, 0, 0.00000000000000000000e+00) (0, 0, 0.00000000000000000000e+00) (0, 0, 0.00000000000000000000e+00) (0, 0, 0.00000000000000000000e+00) (0, 0, 0.00000000000000000000e+00) (0, 0, 0.00000000000000000000e+00) (0, 0, 0.00000000000000000000e+00) (0, 0, 0.00000000000000000000e+00) (0, 0, 0.00000000000000000000e+00) (0, 0, 0.00000000000000000000e+00) (0, 0, 0.00000000000000000000e+00) (0, 0, 0.00000000000000000000e+00) (0, 0, 0.00000000000000000000e+00) (0, 0, 0.00000000000000000000e+00) (0, 0, 0.00000000000000000000e+00) (0, 0, 0.00000000000000000000e+00) (0, 0, 0.00000000000000000000e+00) (0, 0, 0.00000000000000000000e+00) (0, 0, 0.00000000000000000000e+00) (0, 0, 0.00000000000000000000e+00) (0, 0, 0.00000000000000000000e+00) (0, 0, 0.00000000000000000000e+00) (0, 0, 0.00000000000000000000e+00) (0, 0, 0.00000000000000000000e+00) (0, 0, 0.00000000000000000000e+00) (0, 0, 0.00000000000000000000e+00) (0, 0, 0.00000000000000000000e+00) (0, 0, 0.00000000000000000000e+00) (0, 0, 0.00000000000000000000e+00) (0, 0, 0.00000000000000000000e+00) (0, 0, 0.00000000000000000000e+00) (0, 0, 0.00000000000000000000e+00) (0, 0, 0.00000000000000000000e+00) (0, 0, 0.00000000000000000000e+00) (0, 0, 0.00000000000000000000e+00) (0, 0, 0.00000000000000000000e+00) (0, 0, 0.00000000000000000000e+00) (0, 0, 0.00000000000000000000e+00) (0, 0, 0.00000000000000000000e+00) (0, 0, 0.00000000000000000000e+00) (0, 0, 0.00000000000000000000e+00) (0, 0, 0.00000000000000000000e+00) (0, 0, 0.00000000000000000000e+00) (0, 0, 0.00000000000000000000e+00) (0, 0, 0.00000000000000000000e+00) (0, 0, 0.00000000000000000000e+00) (0, 0, 0.00000000000000000000e+00) (0, 0, 0.00000000000000000000e+00) (0, 0, 0.00000000000000000000e+00) (0, 0, 0.00000000000000000000e+00) (0, 0, 0.00000000000000000000e+00) (0, 0, 0.00000000000000000000e+00) (0, 0, 0.00000000000000000000e+00) (0, 0, 0.00000000000000000000e+00) (0, 0, 0.00000000000000000000e+00) (0, 0, 0.00000000000000000000e+00) (0, 0, 0.00000000000000000000e+00) (0, 0, 0.00000000000000000000e+00) (0, 0, 0.00000000000000000000e+00) (0, 0, 0.00000000000000000000e+00) (0, 0, 0.00000000000000000000e+00) (0, 0, 0.00000000000000000000e+00) (0, 0, 0.00000000000000000000e+00) (0, 0, 0.00000000000000000000e+00) (0, 0, 0.00000000000000000000e+00) (0, 0, 0.00000000000000000000e+00) (0, 0, 0.00000000000000000000e+00) (0, 0, 0.00000000000000000000e+00) (0, 0, 0.00000000000000000000e+00) (0, 0, 0.00000000000000000000e+00) (0, 0, 0.00000000000000000000e+00) (0, 0, 0.00000000000000000000e+00) (0, 0, 0.00000000000000000000e+00) (0, 0, 0.00000000000000000000e+00) (0, 0, 0.00000000000000000000e+00) (0, 0, 0.00000000000000000000e+00) (0, 0, 0.00000000000000000000e+00) (0, 0, 0.00000000000000000000e+00) (0, 0, 0.00000000000000000000e+00) (0, 0, 0.00000000000000000000e+00) (0, 0, 0.00000000000000000000e+00) (0, 0, 0.00000000000000000000e+00) (0, 0, 0.00000000000000000000e+00) (0, 0, 0.00000000000000000000e+00) (0, 0, 0.00000000000000000000e+00) (0, 0, 0.00000000000000000000e+00) (0, 0, 0.00000000000000000000e+00) (0, 0, 0.00000000000000000000e+00) (0, 0, 0.00000000000000000000e+00) (0, 0, 0.00000000000000000000e+00) (0, 0, 0.00000000000000000000e+00) (0, 0, 0.00000000000000000000e+00) (0, 0, 0.00000000000000000000e+00) (0, 0, 0.00000000000000000000e+00) (0, 0, 0.00000000000000000000e+00) (0, 0, 0.00000000000000000000e+00) (0, 0, 0.00000000000000000000e+00) (0, 0, 0.00000000000000000000e+00) (0, 0, 0.00000000000000000000e+00) (0, 0, 0.00000000000000000000e+00) (0, 0, 0.00000000000000000000e+00) (0, 0, 0.00000000000000000000e+00) (0, 0, 0.00000000000000000000e+00) (0, 0, 0.00000000000000000000e+00) (0, 0, 0.00000000000000000000e+00) (0, 0, 0.00000000000000000000e+00) (0, 0, 0.00000000000000000000e+00) (0, 0, 0.00000000000000000000e+00) (0, 0, 0.00000000000000000000e+00) (0, 0, 0.00000000000000000000e+00) (0, 0, 0.00000000000000000000e+00) (0, 0, 0.00000000000000000000e+00) (0, 0, 0.00000000000000000000e+00) (0, 0, 0.00000000000000000000e+00) (0, 0, 0.00000000000000000000e+00) (0, 0, 0.00000000000000000000e+00) (0, 0, 0.00000000000000000000e+00) (0, 0, 0.00000000000000000000e+00) (0, 0, 0.00000000000000000000e+00) (0, 0, 0.00000000000000000000e+00) (0, 0, 0.00000000000000000000e+00) (0, 0, 0.00000000000000000000e+00) (0, 0, 0.00000000000000000000e+00) (0, 0, 0.00000000000000000000e+00) (0, 0, 0.00000000000000000000e+00) (0, 0, 0.00000000000000000000e+00) (0, 0, 0.00000000000000000000e+00) (0, 0, 0.00000000000000000000e+00) (0, 0, 0.00000000000000000000e+00) (0, 0, 0.00000000000000000000e+00) (0, 0, 0.00000000000000000000e+00) (0, 0, 0.00000000000000000000e+00) (0, 0, 0.00000000000000000000e+00) (0, 0, 0.00000000000000000000e+00) (0, 0, 0.00000000000000000000e+00) (0, 0, 0.00000000000000000000e+00) (0, 0, 0.00000000000000000000e+00) (0, 0, 0.00000000000000000000e+00) (0, 0, 0.00000000000000000000e+00) (0, 0, 0.00000000000000000000e+00) (0, 0, 0.00000000000000000000e+00) (0, 0, 0.00000000000000000000e+00) (0, 0, 0.00000000000000000000e+00) (0, 0, 0.00000000000000000000e+00) (0, 0, 0.00000000000000000000e+00) (0, 0, 0.00000000000000000000e+00) (0, 0, 0.00000000000000000000e+00) (0, 0, 0.00000000000000000000e+00) (0, 0, 0.00000000000000000000e+00) (0, 0, 0.00000000000000000000e+00) (0, 0, 0.00000000000000000000e+00) (0, 0, 0.00000000000000000000e+00) (0, 0, 0.00000000000000000000e+00) (0, 0, 0.00000000000000000000e+00) (0, 0, 0.00000000000000000000e+00) (0, 0, 0.00000000000000000000e+00) (0, 0, 0.00000000000000000000e+00) (0, 0, 0.00000000000000000000e+00) (0, 0, 0.00000000000000000000e+00) (0, 0, 0.00000000000000000000e+00) (0, 0, 0.00000000000000000000e+00) (0, 0, 0.00000000000000000000e+00) (0, 0, 0.00000000000000000000e+00) (0, 0, 0.00000000000000000000e+00) (0, 0, 0.00000000000000000000e+00) (0, 0, 0.00000000000000000000e+00) (0, 0, 0.00000000000000000000e+00) (0, 0, 0.00000000000000000000e+00) (0, 0, 0.00000000000000000000e+00) (0, 0, 0.00000000000000000000e+00) (0, 0, 0.00000000000000000000e+00) (0, 0, 0.00000000000000000000e+00) (0, 0, 0.00000000000000000000e+00) (0, 0, 0.00000000000000000000e+00) (0, 0, 0.00000000000000000000e+00) (0, 0, 0.00000000000000000000e+00) (0, 0, 0.00000000000000000000e+00) (0, 0, 0.00000000000000000000e+00) (0, 0, 0.00000000000000000000e+00) (0, 0, 0.00000000000000000000e+00) (0, 0, 0.00000000000000000000e+00) (0, 0, 0.00000000000000000000e+00) (0, 0, 0.00000000000000000000e+00) (0, 0, 0.00000000000000000000e+00) (0, 0, 0.00000000000000000000e+00) (0, 0, 0.00000000000000000000e+00) (0, 0, 0.00000000000000000000e+00) (0, 0, 0.00000000000000000000e+00) (0, 0, 0.00000000000000000000e+00) (0, 0, 0.00000000000000000000e+00) (0, 0, 0.00000000000000000000e+00) (0, 0, 0.00000000000000000000e+00) (0, 0, 0.00000000000000000000e+00) (0, 0, 0.00000000000000000000e+00) (0, 0, 0.00000000000000000000e+00) (0, 0, 0.00000000000000000000e+00) (0, 0, 0.00000000000000000000e+00) (0, 0, 0.00000000000000000000e+00) (0, 0, 0.00000000000000000000e+00) (0, 0, 0.00000000000000000000e+00) (0, 0, 0.00000000000000000000e+00) (0, 0, 0.00000000000000000000e+00) (0, 0, 0.00000000000000000000e+00) (0, 0, 0.00000000000000000000e+00) (0, 0, 0.00000000000000000000e+00) (0, 0, 0.00000000000000000000e+00) (0, 0, 0.00000000000000000000e+00) (0, 0, 0.00000000000000000000e+00) (0, 0, 0.00000000000000000000e+00) (0, 0, 0.00000000000000000000e+00) (0, 0, 0.00000000000000000000e+00) (0, 0, 0.00000000000000000000e+00) (0, 0, 0.00000000000000000000e+00) (0, 0, 0.00000000000000000000e+00) (0, 0, 0.00000000000000000000e+00) (0, 0, 0.00000000000000000000e+00) (0, 0, 0.00000000000000000000e+00) (0, 0, 0.00000000000000000000e+00) (0, 0, 0.00000000000000000000e+00) (0, 0, 0.00000000000000000000e+00) (0, 0, 0.00000000000000000000e+00) (0, 0, 0.00000000000000000000e+00) (0, 0, 0.00000000000000000000e+00) (0, 0, 0.00000000000000000000e+00) (0, 0, 0.00000000000000000000e+00) (0, 0, 0.00000000000000000000e+00) (0, 0, 0.00000000000000000000e+00) (0, 0, 0.00000000000000000000e+00) (0, 0, 0.00000000000000000000e+00) (0, 0, 0.00000000000000000000e+00) (0, 0, 0.00000000000000000000e+00) (0, 0, 0.00000000000000000000e+00) (0, 0, 0.00000000000000000000e+00) (0, 0, 0.00000000000000000000e+00) (0, 0, 0.00000000000000000000e+00) (0, 0, 0.00000000000000000000e+00) (0, 0, 0.00000000000000000000e+00) (0, 0, 0.00000000000000000000e+00) (0, 0, 0.00000000000000000000e+00) (0, 0, 0.00000000000000000000e+00) (0, 0, 0.00000000000000000000e+00) (0, 0, 0.00000000000000000000e+00) (0, 0, 0.00000000000000000000e+00) (0, 0, 0.00000000000000000000e+00) (0, 0, 0.00000000000000000000e+00) (0, 0, 0.00000000000000000000e+00) (0, 0, 0.00000000000000000000e+00) (0, 0, 0.00000000000000000000e+00) (0, 0, 0.00000000000000000000e+00) (0, 0, 0.00000000000000000000e+00) (0, 0, 0.00000000000000000000e+00) (0, 0, 0.00000000000000000000e+00) (0, 0, 0.00000000000000000000e+00) (0, 0, 0.00000000000000000000e+00) (0, 0, 0.00000000000000000000e+00) (0, 0, 0.00000000000000000000e+00) (0, 0, 0.00000000000000000000e+00) (0, 0, 0.00000000000000000000e+00) (0, 0, 0.00000000000000000000e+00) (0, 0, 0.00000000000000000000e+00) (0, 0, 0.00000000000000000000e+00) (0, 0, 0.00000000000000000000e+00) (0, 0, 0.00000000000000000000e+00) (0, 0, 0.00000000000000000000e+00) (0, 0, 0.00000000000000000000e+00) (0, 0, 0.00000000000000000000e+00) (0, 0, 0.00000000000000000000e+00) (0, 0, 0.00000000000000000000e+00) (0, 0, 0.00000000000000000000e+00) (0, 0, 0.00000000000000000000e+00) (0, 0, 0.00000000000000000000e+00) (0, 0, 0.00000000000000000000e+00) (0, 0, 0.00000000000000000000e+00) (0, 0, 0.00000000000000000000e+00) (0, 0, 0.00000000000000000000e+00) (0, 0, 0.00000000000000000000e+00) (0, 0, 0.00000000000000000000e+00) (0, 0, 0.00000000000000000000e+00) (0, 0, 0.00000000000000000000e+00) (0, 0, 0.00000000000000000000e+00) (0, 0, 0.00000000000000000000e+00) (0, 0, 0.00000000000000000000e+00) (0, 0, 0.00000000000000000000e+00) (0, 0, 0.00000000000000000000e+00) (0, 0, 0.00000000000000000000e+00) (0, 0, 0.00000000000000000000e+00) (0, 0, 0.00000000000000000000e+00) (0, 0, 0.00000000000000000000e+00) (0, 0, 0.00000000000000000000e+00) (0, 0, 0.00000000000000000000e+00) (0, 0, 0.00000000000000000000e+00) (0, 0, 0.00000000000000000000e+00) (0, 0, 0.00000000000000000000e+00) (0, 0, 0.00000000000000000000e+00) (0, 0, 0.00000000000000000000e+00) (0, 0, 0.00000000000000000000e+00) (0, 0, 0.00000000000000000000e+00) (0, 0, 0.00000000000000000000e+00) (0, 0, 0.00000000000000000000e+00) (0, 0, 0.00000000000000000000e+00) (0, 0, 0.00000000000000000000e+00) (0, 0, 0.00000000000000000000e+00) (0, 0, 0.00000000000000000000e+00) (0, 0, 0.00000000000000000000e+00) (0, 0, 0.00000000000000000000e+00) (0, 0, 0.00000000000000000000e+00) (0, 0, 0.00000000000000000000e+00) (0, 0, 0.00000000000000000000e+00) (0, 0, 0.00000000000000000000e+00) (0, 0, 0.00000000000000000000e+00) (0, 0, 0.00000000000000000000e+00) (0, 0, 0.00000000000000000000e+00) (0, 0, 0.00000000000000000000e+00) (0, 0, 0.00000000000000000000e+00) (0, 0, 0.00000000000000000000e+00) (0, 0, 0.00000000000000000000e+00) (0, 0, 0.00000000000000000000e+00) (0, 0, 0.00000000000000000000e+00) (0, 0, 0.00000000000000000000e+00) (0, 0, 0.00000000000000000000e+00) (0, 0, 0.00000000000000000000e+00) (0, 0, 0.00000000000000000000e+00) (0, 0, 0.00000000000000000000e+00) (0, 0, 0.00000000000000000000e+00) (0, 0, 0.00000000000000000000e+00) (0, 0, 0.00000000000000000000e+00) (0, 0, 0.00000000000000000000e+00) (0, 0, 0.00000000000000000000e+00) (0, 0, 0.00000000000000000000e+00) (0, 0, 0.00000000000000000000e+00) (0, 0, 0.00000000000000000000e+00) (0, 0, 0.00000000000000000000e+00) (0, 0, 0.00000000000000000000e+00) (0, 0, 0.00000000000000000000e+00) (0, 0, 0.00000000000000000000e+00) (0, 0, 0.00000000000000000000e+00) (0, 0, 0.00000000000000000000e+00) (0, 0, 0.00000000000000000000e+00) (0, 0, 0.00000000000000000000e+00) (0, 0, 0.00000000000000000000e+00) (0, 0, 0.00000000000000000000e+00) (0, 0, 0.00000000000000000000e+00) (0, 0, 0.00000000000000000000e+00) (0, 0, 0.00000000000000000000e+00) (0, 0, 0.00000000000000000000e+00) (0, 0, 0.00000000000000000000e+00) (0, 0, 0.00000000000000000000e+00) (0, 0, 0.00000000000000000000e+00) (0, 0, 0.00000000000000000000e+00) (0, 0, 0.00000000000000000000e+00) (0, 0, 0.00000000000000000000e+00) (0, 0, 0.00000000000000000000e+00) (0, 0, 0.00000000000000000000e+00) (0, 0, 0.00000000000000000000e+00) (0, 0, 0.00000000000000000000e+00) (0, 0, 0.00000000000000000000e+00) (0, 0, 0.00000000000000000000e+00) (0, 0, 0.00000000000000000000e+00) (0, 0, 0.00000000000000000000e+00) (0, 0, 0.00000000000000000000e+00) (0, 0, 0.00000000000000000000e+00) (0, 0, 0.00000000000000000000e+00) (0, 0, 0.00000000000000000000e+00) (0, 0, 0.00000000000000000000e+00) (0, 0, 0.00000000000000000000e+00) (0, 0, 0.00000000000000000000e+00) (0, 0, 0.00000000000000000000e+00) (0, 0, 0.00000000000000000000e+00) (0, 0, 0.00000000000000000000e+00) (0, 0, 0.00000000000000000000e+00) (0, 0, 0.00000000000000000000e+00) (0, 0, 0.00000000000000000000e+00) (0, 0, 0.00000000000000000000e+00) (0, 0, 0.00000000000000000000e+00) (0, 0, 0.00000000000000000000e+00) (0, 0, 0.00000000000000000000e+00) (0, 0, 0.00000000000000000000e+00) (0, 0, 0.00000000000000000000e+00) (0, 0, 0.00000000000000000000e+00) (0, 0, 0.00000000000000000000e+00) (0, 0, 0.00000000000000000000e+00) (0, 0, 0.00000000000000000000e+00) (0, 0, 0.00000000000000000000e+00) (0, 0, 0.00000000000000000000e+00) (0, 0, 0.00000000000000000000e+00) (0, 0, 0.00000000000000000000e+00) (0, 0, 0.00000000000000000000e+00) (0, 0, 0.00000000000000000000e+00) (0, 0, 0.00000000000000000000e+00) (0, 0, 0.00000000000000000000e+00) (0, 0, 0.00000000000000000000e+00) (0, 0, 0.00000000000000000000e+00) (0, 0, 0.00000000000000000000e+00) (0, 0, 0.00000000000000000000e+00) (0, 0, 0.00000000000000000000e+00) (0, 0, 0.00000000000000000000e+00) (0, 0, 0.00000000000000000000e+00) (0, 0, 0.00000000000000000000e+00) (0, 0, 0.00000000000000000000e+00) (0, 0, 0.00000000000000000000e+00) (0, 0, 0.00000000000000000000e+00) (0, 0, 0.00000000000000000000e+00) (0, 0, 0.00000000000000000000e+00) (0, 0, 0.00000000000000000000e+00) (0, 0, 0.00000000000000000000e+00) (0, 0, 0.00000000000000000000e+00) (0, 0, 0.00000000000000000000e+00) (0, 0, 0.00000000000000000000e+00) (0, 0, 0.00000000000000000000e+00) (0, 0, 0.00000000000000000000e+00) (0, 0, 0.00000000000000000000e+00) (0, 0, 0.00000000000000000000e+00) (0, 0, 0.00000000000000000000e+00) (0, 0, 0.00000000000000000000e+00) (0, 0, 0.00000000000000000000e+00) (0, 0, 0.00000000000000000000e+00) (0, 0, 0.00000000000000000000e+00) (0, 0, 0.00000000000000000000e+00) (0, 0, 0.00000000000000000000e+00) (0, 0, 0.00000000000000000000e+00) (0, 0, 0.00000000000000000000e+00) (0, 0, 0.00000000000000000000e+00) (0, 0, 0.00000000000000000000e+00) (0, 0, 0.00000000000000000000e+00) (0, 0, 0.00000000000000000000e+00) (0, 0, 0.00000000000000000000e+00) (0, 0, 0.00000000000000000000e+00) (0, 0, 0.00000000000000000000e+00) (0, 0, 0.00000000000000000000e+00) (0, 0, 0.00000000000000000000e+00) (0, 0, 0.00000000000000000000e+00) (0, 0, 0.00000000000000000000e+00) (0, 0, 0.00000000000000000000e+00) (0, 0, 0.00000000000000000000e+00) (0, 0, 0.00000000000000000000e+00) (0, 0, 0.00000000000000000000e+00) (0, 0, 0.00000000000000000000e+00) (0, 0, 0.00000000000000000000e+00) (0, 0, 0.00000000000000000000e+00) (0, 0, 0.00000000000000000000e+00) (0, 0, 0.00000000000000000000e+00) (0, 0, 0.00000000000000000000e+00) (0, 0, 0.00000000000000000000e+00) (0, 0, 0.00000000000000000000e+00) (0, 0, 0.00000000000000000000e+00) (0, 0, 0.00000000000000000000e+00) (0, 0, 0.00000000000000000000e+00) (0, 0, 0.00000000000000000000e+00) (0, 0, 0.00000000000000000000e+00) (0, 0, 0.00000000000000000000e+00) (0, 0, 0.00000000000000000000e+00) (0, 0, 0.00000000000000000000e+00) (0, 0, 0.00000000000000000000e+00) (0, 0, 0.00000000000000000000e+00) (0, 0, 0.00000000000000000000e+00) (0, 0, 0.00000000000000000000e+00) (0, 0, 0.00000000000000000000e+00) (0, 0, 0.00000000000000000000e+00) (0, 0, 0.00000000000000000000e+00) (0, 0, 0.00000000000000000000e+00) (0, 0, 0.00000000000000000000e+00) (0, 0, 0.00000000000000000000e+00) (0, 0, 0.00000000000000000000e+00) (0, 0, 0.00000000000000000000e+00) (0, 0, 0.00000000000000000000e+00) (0, 0, 0.00000000000000000000e+00) (0, 0, 0.00000000000000000000e+00) (0, 0, 0.00000000000000000000e+00) (0, 0, 0.00000000000000000000e+00) (0, 0, 0.00000000000000000000e+00) (0, 0, 0.00000000000000000000e+00) (0, 0, 0.00000000000000000000e+00) (0, 0, 0.00000000000000000000e+00) (0, 0, 0.00000000000000000000e+00) (0, 0, 0.00000000000000000000e+00) (0, 0, 0.00000000000000000000e+00) (0, 0, 0.00000000000000000000e+00) (0, 0, 0.00000000000000000000e+00) (0, 0, 0.00000000000000000000e+00) (0, 0, 0.00000000000000000000e+00) (0, 0, 0.00000000000000000000e+00) (0, 0, 0.00000000000000000000e+00) (0, 0, 0.00000000000000000000e+00) (0, 0, 0.00000000000000000000e+00) (0, 0, 0.00000000000000000000e+00) (0, 0, 0.00000000000000000000e+00) (0, 0, 0.00000000000000000000e+00) (0, 0, 0.00000000000000000000e+00) (0, 0, 0.00000000000000000000e+00) (0, 0, 0.00000000000000000000e+00) (0, 0, 0.00000000000000000000e+00) (0, 0, 0.00000000000000000000e+00) (0, 0, 0.00000000000000000000e+00) (0, 0, 0.00000000000000000000e+00) (0, 0, 0.00000000000000000000e+00) (0, 0, 0.00000000000000000000e+00) (0, 0, 0.00000000000000000000e+00) (0, 0, 0.00000000000000000000e+00) (0, 0, 0.00000000000000000000e+00) (0, 0, 0.00000000000000000000e+00) (0, 0, 0.00000000000000000000e+00) (0, 0, 0.00000000000000000000e+00) (0, 0, 0.00000000000000000000e+00) (0, 0, 0.00000000000000000000e+00) (0, 0, 0.00000000000000000000e+00) (0, 0, 0.00000000000000000000e+00) (0, 0, 0.00000000000000000000e+00) (0, 0, 0.00000000000000000000e+00) (0, 0, 0.00000000000000000000e+00) (0, 0, 0.00000000000000000000e+00) (0, 0, 0.00000000000000000000e+00) (0, 0, 0.00000000000000000000e+00) (0, 0, 0.00000000000000000000e+00) (0, 0, 0.00000000000000000000e+00) (0, 0, 0.00000000000000000000e+00) (0, 0, 0.00000000000000000000e+00) (0, 0, 0.00000000000000000000e+00) (0, 0, 0.00000000000000000000e+00) (0, 0, 0.00000000000000000000e+00) (0, 0, 0.00000000000000000000e+00) (0, 0, 0.00000000000000000000e+00) (0, 0, 0.00000000000000000000e+00) (0, 0, 0.00000000000000000000e+00) (0, 0, 0.00000000000000000000e+00) (0, 0, 0.00000000000000000000e+00) (0, 0, 0.00000000000000000000e+00) (0, 0, 0.00000000000000000000e+00) (0, 0, 0.00000000000000000000e+00) (0, 0, 0.00000000000000000000e+00) (0, 0, 0.00000000000000000000e+00) (0, 0, 0.00000000000000000000e+00) (0, 0, 0.00000000000000000000e+00) (0, 0, 0.00000000000000000000e+00) (0, 0, 0.00000000000000000000e+00) (0, 0, 0.00000000000000000000e+00) (0, 0, 0.00000000000000000000e+00) (0, 0, 0.00000000000000000000e+00) (0, 0, 0.00000000000000000000e+00) (0, 0, 0.00000000000000000000e+00) (0, 0, 0.00000000000000000000e+00) (0, 0, 0.00000000000000000000e+00) (0, 0, 0.00000000000000000000e+00) (0, 0, 0.00000000000000000000e+00) (0, 0, 0.00000000000000000000e+00) (0, 0, 0.00000000000000000000e+00) (0, 0, 0.00000000000000000000e+00) (0, 0, 0.00000000000000000000e+00) (0, 0, 0.00000000000000000000e+00) (0, 0, 0.00000000000000000000e+00) (0, 0, 0.00000000000000000000e+00) (0, 0, 0.00000000000000000000e+00) (0, 0, 0.00000000000000000000e+00) (0, 0, 0.00000000000000000000e+00) (0, 0, 0.00000000000000000000e+00) (0, 0, 0.00000000000000000000e+00) (0, 0, 0.00000000000000000000e+00) (0, 0, 0.00000000000000000000e+00) (0, 0, 0.00000000000000000000e+00) (0, 0, 0.00000000000000000000e+00) (0, 0, 0.00000000000000000000e+00) (0, 0, 0.00000000000000000000e+00) (0, 0, 0.00000000000000000000e+00) (0, 0, 0.00000000000000000000e+00) (0, 0, 0.00000000000000000000e+00) (0, 0, 0.00000000000000000000e+00) (0, 0, 0.00000000000000000000e+00) (0, 0, 0.00000000000000000000e+00) (0, 0, 0.00000000000000000000e+00) (0, 0, 0.00000000000000000000e+00) (0, 0, 0.00000000000000000000e+00) (0, 0, 0.00000000000000000000e+00) (0, 0, 0.00000000000000000000e+00) (0, 0, 0.00000000000000000000e+00) (0, 0, 0.00000000000000000000e+00) (0, 0, 0.00000000000000000000e+00) (0, 0, 0.00000000000000000000e+00) (0, 0, 0.00000000000000000000e+00) (0, 0, 0.00000000000000000000e+00) (0, 0, 0.00000000000000000000e+00) (0, 0, 0.00000000000000000000e+00) (0, 0, 0.00000000000000000000e+00) (0, 0, 0.00000000000000000000e+00) (0, 0, 0.00000000000000000000e+00) (0, 0, 0.00000000000000000000e+00) (0, 0, 0.00000000000000000000e+00) (0, 0, 0.00000000000000000000e+00) (0, 0, 0.00000000000000000000e+00) (0, 0, 0.00000000000000000000e+00) (0, 0, 0.00000000000000000000e+00) (0, 0, 0.00000000000000000000e+00) (0, 0, 0.00000000000000000000e+00) (0, 0, 0.00000000000000000000e+00) (0, 0, 0.00000000000000000000e+00) (0, 0, 0.00000000000000000000e+00) (0, 0, 0.00000000000000000000e+00) (0, 0, 0.00000000000000000000e+00) (0, 0, 0.00000000000000000000e+00) (0, 0, 0.00000000000000000000e+00) (0, 0, 0.00000000000000000000e+00) (0, 0, 0.00000000000000000000e+00) (0, 0, 0.00000000000000000000e+00) (0, 0, 0.00000000000000000000e+00) (0, 0, 0.00000000000000000000e+00) (0, 0, 0.00000000000000000000e+00) (0, 0, 0.00000000000000000000e+00) (0, 0, 0.00000000000000000000e+00) (0, 0, 0.00000000000000000000e+00) (0, 0, 0.00000000000000000000e+00) (0, 0, 0.00000000000000000000e+00) (0, 0, 0.00000000000000000000e+00) (0, 0, 0.00000000000000000000e+00) (0, 0, 0.00000000000000000000e+00) (0, 0, 0.00000000000000000000e+00) (0, 0, 0.00000000000000000000e+00) (0, 0, 0.00000000000000000000e+00) (0, 0, 0.00000000000000000000e+00) (0, 0, 0.00000000000000000000e+00) (0, 0, 0.00000000000000000000e+00) (0, 0, 0.00000000000000000000e+00) (0, 0, 0.00000000000000000000e+00) (0, 0, 0.00000000000000000000e+00) (0, 0, 0.00000000000000000000e+00) (0, 0, 0.00000000000000000000e+00) (0, 0, 0.00000000000000000000e+00) (0, 0, 0.00000000000000000000e+00) (0, 0, 0.00000000000000000000e+00) (0, 0, 0.00000000000000000000e+00) (0, 0, 0.00000000000000000000e+00) (0, 0, 0.00000000000000000000e+00) (0, 0, 0.00000000000000000000e+00) (0, 0, 0.00000000000000000000e+00) (0, 0, 0.00000000000000000000e+00) (0, 0, 0.00000000000000000000e+00) (0, 0, 0.00000000000000000000e+00) (0, 0, 0.00000000000000000000e+00) (0, 0, 0.00000000000000000000e+00) (0, 0, 0.00000000000000000000e+00) (0, 0, 0.00000000000000000000e+00) (0, 0, 0.00000000000000000000e+00) (0, 0, 0.00000000000000000000e+00) (0, 0, 0.00000000000000000000e+00) (0, 0, 0.00000000000000000000e+00) (0, 0, 0.00000000000000000000e+00) (0, 0, 0.00000000000000000000e+00) (0, 0, 0.00000000000000000000e+00) (0, 0, 0.00000000000000000000e+00) (0, 0, 0.00000000000000000000e+00) (0, 0, 0.00000000000000000000e+00) (0, 0, 0.00000000000000000000e+00) (0, 0, 0.00000000000000000000e+00) (0, 0, 0.00000000000000000000e+00) (0, 0, 0.00000000000000000000e+00) (0, 0, 0.00000000000000000000e+00) (0, 0, 0.00000000000000000000e+00) (0, 0, 0.00000000000000000000e+00) (0, 0, 0.00000000000000000000e+00) (0, 0, 0.00000000000000000000e+00) (0, 0, 0.00000000000000000000e+00) (0, 0, 0.00000000000000000000e+00) (0, 0, 0.00000000000000000000e+00) (0, 0, 0.00000000000000000000e+00) (0, 0, 0.00000000000000000000e+00) (0, 0, 0.00000000000000000000e+00) (0, 0, 0.00000000000000000000e+00) (0, 0, 0.00000000000000000000e+00) (0, 0, 0.00000000000000000000e+00) (0, 0, 0.00000000000000000000e+00) (0, 0, 0.00000000000000000000e+00) (0, 0, 0.00000000000000000000e+00) (0, 0, 0.00000000000000000000e+00) (0, 0, 0.00000000000000000000e+00) (0, 0, 0.00000000000000000000e+00) (0, 0, 0.00000000000000000000e+00) (0, 0, 0.00000000000000000000e+00) (0, 0, 0.00000000000000000000e+00) (0, 0, 0.00000000000000000000e+00) (0, 0, 0.00000000000000000000e+00) (0, 0, 0.00000000000000000000e+00) (0, 0, 0.00000000000000000000e+00) (0, 0, 0.00000000000000000000e+00) (0, 0, 0.00000000000000000000e+00) (0, 0, 0.00000000000000000000e+00) (0, 0, 0.00000000000000000000e+00) (0, 0, 0.00000000000000000000e+00) (0, 0, 0.00000000000000000000e+00) (0, 0, 0.00000000000000000000e+00) (0, 0, 0.00000000000000000000e+00) (0, 0, 0.00000000000000000000e+00) (0, 0, 0.00000000000000000000e+00) (0, 0, 0.00000000000000000000e+00) (0, 0, 0.00000000000000000000e+00) (0, 0, 0.00000000000000000000e+00) (0, 0, 0.00000000000000000000e+00) (0, 0, 0.00000000000000000000e+00) (0, 0, 0.00000000000000000000e+00) (0, 0, 0.00000000000000000000e+00) (0, 0, 0.00000000000000000000e+00) (0, 0, 0.00000000000000000000e+00) (0, 0, 0.00000000000000000000e+00) (0, 0, 0.00000000000000000000e+00) (0, 0, 0.00000000000000000000e+00) (0, 0, 0.00000000000000000000e+00) (0, 0, 0.00000000000000000000e+00) (0, 0, 0.00000000000000000000e+00) (0, 0, 0.00000000000000000000e+00) (0, 0, 0.00000000000000000000e+00) (0, 0, 0.00000000000000000000e+00) (0, 0, 0.00000000000000000000e+00) (0, 0, 0.00000000000000000000e+00) (0, 0, 0.00000000000000000000e+00) (0, 0, 0.00000000000000000000e+00) (0, 0, 0.00000000000000000000e+00) (0, 0, 0.00000000000000000000e+00) (0, 0, 0.00000000000000000000e+00) (0, 0, 0.00000000000000000000e+00) (0, 0, 0.00000000000000000000e+00) (0, 0, 0.00000000000000000000e+00) (0, 0, 0.00000000000000000000e+00) (0, 0, 0.00000000000000000000e+00) (0, 0, 0.00000000000000000000e+00) (0, 0, 0.00000000000000000000e+00) (0, 0, 0.00000000000000000000e+00) (0, 0, 0.00000000000000000000e+00) (0, 0, 0.00000000000000000000e+00) (0, 0, 0.00000000000000000000e+00) (0, 0, 0.00000000000000000000e+00) (0, 0, 0.00000000000000000000e+00) (0, 0, 0.00000000000000000000e+00) (0, 0, 0.00000000000000000000e+00) (0, 0, 0.00000000000000000000e+00) (0, 0, 0.00000000000000000000e+00) (0, 0, 0.00000000000000000000e+00) (0, 0, 0.00000000000000000000e+00) (0, 0, 0.00000000000000000000e+00) (0, 0, 0.00000000000000000000e+00) (0, 0, 0.00000000000000000000e+00) (0, 0, 0.00000000000000000000e+00) (0, 0, 0.00000000000000000000e+00) (0, 0, 0.00000000000000000000e+00) (0, 0, 0.00000000000000000000e+00) (0, 0, 0.00000000000000000000e+00) (0, 0, 0.00000000000000000000e+00) (0, 0, 0.00000000000000000000e+00) (0, 0, 0.00000000000000000000e+00) (0, 0, 0.00000000000000000000e+00) (0, 0, 0.00000000000000000000e+00) (0, 0, 0.00000000000000000000e+00) (0, 0, 0.00000000000000000000e+00) (0, 0, 0.00000000000000000000e+00) (0, 0, 0.00000000000000000000e+00) (901, 10, 5.00000000000000000000e-01) (901, 10, 5.00000000000000000000e-01) (901, 10, 5.00000000000000000000e-01) (901, 10, 5.00000000000000000000e-01) (901, 10, 5.00000000000000000000e-01) (901, 10, 5.00000000000000000000e-01) (901, 10, 5.00000000000000000000e-01) (901, 10, 5.00000000000000000000e-01) (901, 10, 5.00000000000000000000e-01) (901, 10, 5.00000000000000000000e-01) (901, 10, 5.00000000000000000000e-01) (901, 10, 5.00000000000000000000e-01) (901, 10, 5.00000000000000000000e-01) (901, 10, 5.00000000000000000000e-01) (901, 10, 5.00000000000000000000e-01) (901, 10, 5.00000000000000000000e-01) (901, 10, 5.00000000000000000000e-01) (901, 10, 5.00000000000000000000e-01) (901, 10, 5.00000000000000000000e-01) (901, 10, 5.00000000000000000000e-01) (901, 10, 5.00000000000000000000e-01) (901, 10, 5.00000000000000000000e-01) (901, 10, 5.00000000000000000000e-01) (901, 10, 5.00000000000000000000e-01) (901, 10, 5.00000000000000000000e-01) (901, 10, 5.00000000000000000000e-01) (901, 10, 5.00000000000000000000e-01) (901, 10, 5.00000000000000000000e-01) (901, 10, 5.00000000000000000000e-01) (901, 10, 5.00000000000000000000e-01) (901, 10, 5.00000000000000000000e-01) (901, 10, 5.00000000000000000000e-01) (901, 10, 5.00000000000000000000e-01) (901, 10, 5.00000000000000000000e-01) (901, 10, 5.00000000000000000000e-01) (901, 10, 5.00000000000000000000e-01) (901, 10, 5.00000000000000000000e-01) (901, 10, 5.00000000000000000000e-01) (901, 10, 5.00000000000000000000e-01) (901, 10, 5.00000000000000000000e-01) (901, 10, 5.00000000000000000000e-01) (901, 10, 5.00000000000000000000e-01) (901, 10, 5.00000000000000000000e-01) (901, 10, 5.00000000000000000000e-01) (901, 10, 5.00000000000000000000e-01) (901, 10, 5.00000000000000000000e-01) (901, 10, 5.00000000000000000000e-01) (901, 10, 5.00000000000000000000e-01) (901, 10, 5.00000000000000000000e-01) (901, 10, 5.00000000000000000000e-01) (901, 10, 5.00000000000000000000e-01) (901, 10, 5.00000000000000000000e-01) (901, 10, 5.00000000000000000000e-01) (901, 10, 5.00000000000000000000e-01) (901, 10, 5.00000000000000000000e-01) (901, 10, 5.00000000000000000000e-01) (901, 10, 5.00000000000000000000e-01) (901, 10, 5.00000000000000000000e-01) (901, 10, 5.00000000000000000000e-01) (901, 10, 5.00000000000000000000e-01) (901, 10, 5.00000000000000000000e-01) (901, 10, 5.00000000000000000000e-01) (901, 10, 5.00000000000000000000e-01) (901, 10, 5.00000000000000000000e-01) (901, 10, 5.00000000000000000000e-01) (901, 10, 5.00000000000000000000e-01) (901, 10, 5.00000000000000000000e-01) (901, 10, 5.00000000000000000000e-01) (901, 10, 5.00000000000000000000e-01) (901, 10, 5.00000000000000000000e-01) (901, 10, 5.00000000000000000000e-01) (901, 10, 5.00000000000000000000e-01) (901, 10, 5.00000000000000000000e-01) (901, 10, 5.00000000000000000000e-01) (901, 10, 5.00000000000000000000e-01) (901, 10, 5.00000000000000000000e-01) (901, 10, 5.00000000000000000000e-01) (901, 10, 5.00000000000000000000e-01) (901, 10, 5.00000000000000000000e-01) (901, 10, 5.00000000000000000000e-01) (901, 10, 5.00000000000000000000e-01) (901, 10, 5.00000000000000000000e-01) (901, 10, 5.00000000000000000000e-01) (901, 10, 5.00000000000000000000e-01) (901, 10, 5.00000000000000000000e-01) (901, 10, 5.00000000000000000000e-01) (901, 10, 5.00000000000000000000e-01) (901, 10, 5.00000000000000000000e-01) (901, 10, 5.00000000000000000000e-01) (901, 10, 5.00000000000000000000e-01) (901, 10, 5.00000000000000000000e-01) (901, 10, 5.00000000000000000000e-01) (901, 10, 5.00000000000000000000e-01) (901, 10, 5.00000000000000000000e-01) (901, 10, 5.00000000000000000000e-01) (901, 10, 5.00000000000000000000e-01) (901, 10, 5.00000000000000000000e-01) (901, 10, 5.00000000000000000000e-01) (901, 10, 5.00000000000000000000e-01) (901, 10, 5.00000000000000000000e-01) (0, 10, 0.00000000000000000000e+00) (101, 10, 5.00000000000000000000e-01) (101, 10, 5.00000000000000000000e-01) (101, 10, 5.00000000000000000000e-01) (101, 10, 5.00000000000000000000e-01) (101, 10, 5.00000000000000000000e-01) (101, 10, 5.00000000000000000000e-01) (101, 10, 5.00000000000000000000e-01) (101, 10, 5.00000000000000000000e-01) (101, 10, 5.00000000000000000000e-01) (101, 10, 5.00000000000000000000e-01) (101, 10, 5.00000000000000000000e-01) (101, 10, 5.00000000000000000000e-01) (101, 10, 5.00000000000000000000e-01) (101, 10, 5.00000000000000000000e-01) (101, 10, 5.00000000000000000000e-01) (101, 10, 5.00000000000000000000e-01) (101, 10, 5.00000000000000000000e-01) (101, 10, 5.00000000000000000000e-01) (101, 10, 5.00000000000000000000e-01) (101, 10, 5.00000000000000000000e-01) (101, 10, 5.00000000000000000000e-01) (101, 10, 5.00000000000000000000e-01) (101, 10, 5.00000000000000000000e-01) (101, 10, 5.00000000000000000000e-01) (101, 10, 5.00000000000000000000e-01) (101, 10, 5.00000000000000000000e-01) (101, 10, 5.00000000000000000000e-01) (101, 10, 5.00000000000000000000e-01) (101, 10, 5.00000000000000000000e-01) (101, 10, 5.00000000000000000000e-01) (101, 10, 5.00000000000000000000e-01) (101, 10, 5.00000000000000000000e-01) (101, 10, 5.00000000000000000000e-01) (101, 10, 5.00000000000000000000e-01) (101, 10, 5.00000000000000000000e-01) (101, 10, 5.00000000000000000000e-01) (0, 10, 0.00000000000000000000e+00) 
connections (connected_to_neuron, weight)=(0, 1.50000000000000000000e+03) (1, 1.50000000000000000000e+03) (2, 1.50000000000000000000e+03) (3, 1.50000000000000000000e+03) (4, 1.50000000000000000000e+03) (5, 1.50000000000000000000e+03) (6, 1.50000000000000000000e+03) (7, 1.50000000000000000000e+03) (8, 1.50000000000000000000e+03) (9, 1.50000000000000000000e+03) (10, 1.50000000000000000000e+03) (11, 1.49999987792968750000e+03) (12, 1.49993957519531250000e+03) (13, 1.49999926757812500000e+03) (14, 1.49999926757812500000e+03) (15, 1.49996459960937500000e+03) (16, -1.05234863281250000000e+02) (17, -1.48791345214843750000e+03) (18, -2.67083801269531250000e+02) (19, 6.83398771286010742188e+00) (20, 2.05220203399658203125e+01) (21, 1.49999975585937500000e+03) (22, 1.49999987792968750000e+03) (23, 1.49999987792968750000e+03) (24, 1.49999987792968750000e+03) (25, 1.50000000000000000000e+03) (26, 1.50000000000000000000e+03) (27, 1.50000000000000000000e+03) (28, 1.50000000000000000000e+03) (29, 1.49999987792968750000e+03) (30, 1.50000000000000000000e+03) (31, 1.50000000000000000000e+03) (32, 1.50000000000000000000e+03) (33, 1.50000000000000000000e+03) (34, 1.50000000000000000000e+03) (35, 1.50000000000000000000e+03) (36, 1.50000000000000000000e+03) (37, 1.50000000000000000000e+03) (38, 1.50000000000000000000e+03) (39, 1.50000000000000000000e+03) (40, 1.50000000000000000000e+03) (41, 1.50000000000000000000e+03) (42, 6.75193862915039062500e+01) (43, -1.49705297851562500000e+03) (44, -1.50000000000000000000e+03) (45, -1.49784838867187500000e+03) (46, -1.50000000000000000000e+03) (47, -1.50000000000000000000e+03) (48, -1.49458789062500000000e+03) (49, -1.50000000000000000000e+03) (50, -1.49999987792968750000e+03) (51, -1.49461865234375000000e+03) (52, 1.49999987792968750000e+03) (53, 1.49999987792968750000e+03) (54, 1.50000000000000000000e+03) (55, 1.50000000000000000000e+03) (56, 1.50000000000000000000e+03) (57, 1.50000000000000000000e+03) (58, 1.50000000000000000000e+03) (59, 1.50000000000000000000e+03) (60, 1.50000000000000000000e+03) (61, 1.50000000000000000000e+03) (62, 1.50000000000000000000e+03) (63, 1.50000000000000000000e+03) (64, 1.50000000000000000000e+03) (65, 1.50000000000000000000e+03) (66, 1.50000000000000000000e+03) (67, 1.50000000000000000000e+03) (68, 1.50000000000000000000e+03) (69, 1.50000000000000000000e+03) (70, 1.50000000000000000000e+03) (71, 5.16703857421875000000e+02) (72, -1.50000000000000000000e+03) (73, -1.49994287109375000000e+03) (74, -1.50000000000000000000e+03) (75, -1.50000000000000000000e+03) (76, -1.50000000000000000000e+03) (77, -1.50000000000000000000e+03) (78, -1.50000000000000000000e+03) (79, -1.50000000000000000000e+03) (80, -1.50000000000000000000e+03) (81, -1.49821325683593750000e+03) (82, -1.49999670410156250000e+03) (83, 1.49946337890625000000e+03) (84, 1.49999987792968750000e+03) (85, 1.50000000000000000000e+03) (86, 1.50000000000000000000e+03) (87, 1.50000000000000000000e+03) (88, 1.50000000000000000000e+03) (89, 1.50000000000000000000e+03) (90, 1.50000000000000000000e+03) (91, 1.50000000000000000000e+03) (92, 1.50000000000000000000e+03) (93, 1.50000000000000000000e+03) (94, 1.50000000000000000000e+03) (95, 1.50000000000000000000e+03) (96, 1.50000000000000000000e+03) (97, 1.50000000000000000000e+03) (98, 1.50000000000000000000e+03) (99, 1.50000000000000000000e+03) (100, 1.50000000000000000000e+03) (101, 1.49999743652343750000e+03) (102, 4.64342842102050781250e+01) (103, -1.50000000000000000000e+03) (104, -1.50000000000000000000e+03) (105, -1.50000000000000000000e+03) (106, -1.50000000000000000000e+03) (107, -1.50000000000000000000e+03) (108, -1.50000000000000000000e+03) (109, -1.50000000000000000000e+03) (110, -1.50000000000000000000e+03) (111, -1.48719641113281250000e+03) (112, -1.49999609375000000000e+03) (113, -1.49999194335937500000e+03) (114, -1.45660815429687500000e+03) (115, 1.50000000000000000000e+03) (116, 1.50000000000000000000e+03) (117, 1.50000000000000000000e+03) (118, 1.50000000000000000000e+03) (119, 1.50000000000000000000e+03) (120, 1.50000000000000000000e+03) (121, 1.50000000000000000000e+03) (122, 1.50000000000000000000e+03) (123, 1.50000000000000000000e+03) (124, 1.50000000000000000000e+03) (125, 1.50000000000000000000e+03) (126, 1.50000000000000000000e+03) (127, 1.50000000000000000000e+03) (128, 1.50000000000000000000e+03) (129, 1.50000000000000000000e+03) (130, 1.50000000000000000000e+03) (131, 1.49999975585937500000e+03) (132, 1.49998059082031250000e+03) (133, 2.63321876525878906250e+01) (134, -1.44594396972656250000e+03) (135, -1.50000000000000000000e+03) (136, -1.50000000000000000000e+03) (137, -1.50000000000000000000e+03) (138, -1.50000000000000000000e+03) (139, -1.50000000000000000000e+03) (140, -1.50000000000000000000e+03) (141, -1.49771826171875000000e+03) (142, -1.49929113769531250000e+03) (143, -1.49924572753906250000e+03) (144, 1.50000000000000000000e+03) (145, 1.50000000000000000000e+03) (146, 1.50000000000000000000e+03) (147, 1.50000000000000000000e+03) (148, 1.50000000000000000000e+03) (149, 1.50000000000000000000e+03) (150, 1.50000000000000000000e+03) (151, 1.50000000000000000000e+03) (152, 1.50000000000000000000e+03) (153, 1.50000000000000000000e+03) (154, 1.50000000000000000000e+03) (155, 1.50000000000000000000e+03) (156, 1.50000000000000000000e+03) (157, 1.50000000000000000000e+03) (158, 1.50000000000000000000e+03) (159, 1.50000000000000000000e+03) (160, 1.50000000000000000000e+03) (161, 1.50000000000000000000e+03) (162, 1.50000000000000000000e+03) (163, 1.50000000000000000000e+03) (164, 1.49999816894531250000e+03) (165, 1.49999218750000000000e+03) (166, 3.83173084259033203125e+00) (167, 1.60422480106353759766e+00) (168, 2.40865588188171386719e+00) (169, 1.49999987792968750000e+03) (170, 1.49821044921875000000e+03) (171, 1.50000000000000000000e+03) (172, 1.50000000000000000000e+03) (173, 1.50000000000000000000e+03) (174, 1.50000000000000000000e+03) (175, 1.50000000000000000000e+03) (176, 1.50000000000000000000e+03) (177, 1.50000000000000000000e+03) (178, 1.50000000000000000000e+03) (179, 1.50000000000000000000e+03) (180, 1.50000000000000000000e+03) (181, 1.49999987792968750000e+03) (182, 1.49999987792968750000e+03) (183, 1.50000000000000000000e+03) (184, 1.49999951171875000000e+03) (185, 1.49999987792968750000e+03) (186, 1.50000000000000000000e+03) (187, 1.50000000000000000000e+03) (188, 1.50000000000000000000e+03) (189, 1.50000000000000000000e+03) (190, 1.50000000000000000000e+03) (191, 1.50000000000000000000e+03) (192, 1.50000000000000000000e+03) (193, 1.50000000000000000000e+03) (194, 1.50000000000000000000e+03) (195, 1.49999926757812500000e+03) (196, 8.46540069580078125000e+01) (197, 1.85528516769409179688e+00) (198, 2.48537872314453125000e+02) (199, 1.49999987792968750000e+03) (200, 1.50000000000000000000e+03) (201, 1.50000000000000000000e+03) (202, 1.50000000000000000000e+03) (203, 1.50000000000000000000e+03) (204, 1.50000000000000000000e+03) (205, 1.50000000000000000000e+03) (206, 1.50000000000000000000e+03) (207, 1.50000000000000000000e+03) (208, 1.50000000000000000000e+03) (209, 1.50000000000000000000e+03) (210, 1.50000000000000000000e+03) (211, 1.49999987792968750000e+03) (212, 1.49999975585937500000e+03) (213, 1.49999975585937500000e+03) (214, 1.49999890136718750000e+03) (215, 1.49999975585937500000e+03) (216, 1.50000000000000000000e+03) (217, 1.50000000000000000000e+03) (218, 1.50000000000000000000e+03) (219, 1.50000000000000000000e+03) (220, 1.50000000000000000000e+03) (221, 1.50000000000000000000e+03) (222, 1.50000000000000000000e+03) (223, 1.50000000000000000000e+03) (224, 1.50000000000000000000e+03) (225, 2.17937133789062500000e+02) (226, 9.11527395248413085938e-01) (227, 6.65254592895507812500e-01) (228, 7.96906411647796630859e-01) (229, 7.60364198684692382812e+00) (230, 1.50000000000000000000e+03) (231, 1.50000000000000000000e+03) (232, 1.50000000000000000000e+03) (233, 1.50000000000000000000e+03) (234, 1.50000000000000000000e+03) (235, 1.50000000000000000000e+03) (236, 1.50000000000000000000e+03) (237, 1.50000000000000000000e+03) (238, 1.50000000000000000000e+03) (239, 1.50000000000000000000e+03) (240, 1.50000000000000000000e+03) (241, 1.49999975585937500000e+03) (242, 1.49999975585937500000e+03) (243, 1.49999951171875000000e+03) (244, 1.49999975585937500000e+03) (245, 1.49999975585937500000e+03) (246, 1.50000000000000000000e+03) (247, 1.50000000000000000000e+03) (248, 1.50000000000000000000e+03) (249, 1.50000000000000000000e+03) (250, 1.50000000000000000000e+03) (251, 1.50000000000000000000e+03) (252, 1.50000000000000000000e+03) (253, 1.50000000000000000000e+03) (254, 1.50000000000000000000e+03) (255, 5.00984405517578125000e+02) (256, 7.32213318347930908203e-01) (257, -2.96540141105651855469e+00) (258, 4.77840542793273925781e-01) (259, -4.94007999077439308167e-03) (260, -2.54844474792480468750e+01) (261, 1.50000000000000000000e+03) (262, 1.50000000000000000000e+03) (263, 1.50000000000000000000e+03) (264, 1.50000000000000000000e+03) (265, 1.50000000000000000000e+03) (266, 1.50000000000000000000e+03) (267, 1.50000000000000000000e+03) (268, 1.50000000000000000000e+03) (269, 1.50000000000000000000e+03) (270, 1.50000000000000000000e+03) (271, 1.50000000000000000000e+03) (272, 1.50000000000000000000e+03) (273, 1.50000000000000000000e+03) (274, 1.50000000000000000000e+03) (275, 1.50000000000000000000e+03) (276, 1.50000000000000000000e+03) (277, 1.50000000000000000000e+03) (278, 1.50000000000000000000e+03) (279, 1.50000000000000000000e+03) (280, 1.50000000000000000000e+03) (281, 1.50000000000000000000e+03) (282, 1.50000000000000000000e+03) (283, 1.50000000000000000000e+03) (284, 1.50000000000000000000e+03) (285, 1.50000000000000000000e+03) (286, 1.49764602661132812500e+02) (287, 5.00198125839233398438e-01) (288, 3.03824692964553833008e-01) (289, -1.27111005783081054688e+00) (290, -2.90437674522399902344e+00) (291, 1.50000000000000000000e+03) (292, 1.50000000000000000000e+03) (293, 1.50000000000000000000e+03) (294, 1.50000000000000000000e+03) (295, 1.50000000000000000000e+03) (296, 1.50000000000000000000e+03) (297, 1.50000000000000000000e+03) (298, 1.50000000000000000000e+03) (299, 1.50000000000000000000e+03) (300, 1.50000000000000000000e+03) (301, 1.50000000000000000000e+03) (302, 1.50000000000000000000e+03) (303, 1.50000000000000000000e+03) (304, 1.50000000000000000000e+03) (305, 1.50000000000000000000e+03) (306, 1.50000000000000000000e+03) (307, 1.50000000000000000000e+03) (308, 1.50000000000000000000e+03) (309, 1.50000000000000000000e+03) (310, 1.50000000000000000000e+03) (311, 1.50000000000000000000e+03) (312, 1.50000000000000000000e+03) (313, 1.50000000000000000000e+03) (314, 1.50000000000000000000e+03) (315, 1.50000000000000000000e+03) (316, 1.50000000000000000000e+03) (317, 2.02367162704467773438e+00) (318, 6.11319184303283691406e-01) (319, 7.01277434825897216797e-01) (320, 2.30475163459777832031e+00) (321, 1.50000000000000000000e+03) (322, 1.50000000000000000000e+03) (323, 1.50000000000000000000e+03) (324, 1.50000000000000000000e+03) (325, 1.50000000000000000000e+03) (326, 1.50000000000000000000e+03) (327, 1.50000000000000000000e+03) (328, 1.50000000000000000000e+03) (329, 1.50000000000000000000e+03) (330, 1.50000000000000000000e+03) (331, 1.50000000000000000000e+03) (332, 1.50000000000000000000e+03) (333, 1.50000000000000000000e+03) (334, 1.50000000000000000000e+03) (335, 1.50000000000000000000e+03) (336, 1.50000000000000000000e+03) (337, 1.50000000000000000000e+03) (338, 1.50000000000000000000e+03) (339, 1.50000000000000000000e+03) (340, 1.50000000000000000000e+03) (341, 1.50000000000000000000e+03) (342, 1.50000000000000000000e+03) (343, 1.50000000000000000000e+03) (344, 1.50000000000000000000e+03) (345, 1.50000000000000000000e+03) (346, 1.50000000000000000000e+03) (347, 9.16259887695312500000e+02) (348, 4.60438585281372070312e+00) (349, 2.20402669906616210938e+00) (350, 1.42999935150146484375e+00) (351, 2.44235095977783203125e+01) (352, 1.49999987792968750000e+03) (353, 1.49999987792968750000e+03) (354, 1.50000000000000000000e+03) (355, 1.50000000000000000000e+03) (356, 1.50000000000000000000e+03) (357, 1.50000000000000000000e+03) (358, 1.50000000000000000000e+03) (359, 1.50000000000000000000e+03) (360, 1.50000000000000000000e+03) (361, 1.50000000000000000000e+03) (362, 1.50000000000000000000e+03) (363, 1.50000000000000000000e+03) (364, 1.50000000000000000000e+03) (365, 1.50000000000000000000e+03) (366, 1.50000000000000000000e+03) (367, 1.50000000000000000000e+03) (368, 1.50000000000000000000e+03) (369, 1.50000000000000000000e+03) (370, 1.50000000000000000000e+03) (371, 1.50000000000000000000e+03) (372, 1.50000000000000000000e+03) (373, 1.50000000000000000000e+03) (374, 1.50000000000000000000e+03) (375, 1.50000000000000000000e+03) (376, 1.50000000000000000000e+03) (377, 1.50000000000000000000e+03) (378, 1.50000000000000000000e+03) (379, 5.93215370178222656250e+01) (380, 1.90354120731353759766e+00) (381, 4.66914606094360351562e+00) (382, 1.49999987792968750000e+03) (383, 1.49999987792968750000e+03) (384, 1.50000000000000000000e+03) (385, 1.50000000000000000000e+03) (386, 1.50000000000000000000e+03) (387, 1.50000000000000000000e+03) (388, 1.50000000000000000000e+03) (389, 1.50000000000000000000e+03) (390, 1.50000000000000000000e+03) (391, 1.50000000000000000000e+03) (392, 1.50000000000000000000e+03) (393, 1.50000000000000000000e+03) (394, 1.50000000000000000000e+03) (395, 1.50000000000000000000e+03) (396, 1.50000000000000000000e+03) (397, 1.50000000000000000000e+03) (398, 1.50000000000000000000e+03) (399, 1.50000000000000000000e+03) (400, 1.50000000000000000000e+03) (401, 1.50000000000000000000e+03) (402, 1.50000000000000000000e+03) (403, 1.50000000000000000000e+03) (404, 1.50000000000000000000e+03) (405, 1.50000000000000000000e+03) (406, 1.50000000000000000000e+03) (407, 1.50000000000000000000e+03) (408, 1.50000000000000000000e+03) (409, 1.50000000000000000000e+03) (410, 1.12791872024536132812e+00) (411, -1.04800366210937500000e+03) (412, 1.97915649414062500000e+00) (413, 1.49999987792968750000e+03) (414, 1.50000000000000000000e+03) (415, 1.50000000000000000000e+03) (416, 1.50000000000000000000e+03) (417, 1.50000000000000000000e+03) (418, 1.50000000000000000000e+03) (419, 1.50000000000000000000e+03) (420, 1.50000000000000000000e+03) (421, 1.50000000000000000000e+03) (422, 1.50000000000000000000e+03) (423, 1.50000000000000000000e+03) (424, 1.50000000000000000000e+03) (425, 1.50000000000000000000e+03) (426, 1.50000000000000000000e+03) (427, 1.50000000000000000000e+03) (428, 1.50000000000000000000e+03) (429, 1.50000000000000000000e+03) (430, 1.50000000000000000000e+03) (431, 1.50000000000000000000e+03) (432, 1.50000000000000000000e+03) (433, 1.50000000000000000000e+03) (434, 1.50000000000000000000e+03) (435, 1.50000000000000000000e+03) (436, 1.50000000000000000000e+03) (437, 1.50000000000000000000e+03) (438, 1.50000000000000000000e+03) (439, 1.50000000000000000000e+03) (440, 1.74049198627471923828e+00) (441, -1.48743383789062500000e+03) (442, -1.47768802642822265625e+01) (443, 4.02271986007690429688e+00) (444, 1.50000000000000000000e+03) (445, 1.50000000000000000000e+03) (446, 1.50000000000000000000e+03) (447, 1.50000000000000000000e+03) (448, 1.50000000000000000000e+03) (449, 1.50000000000000000000e+03) (450, 1.50000000000000000000e+03) (451, 1.50000000000000000000e+03) (452, 1.50000000000000000000e+03) (453, 1.50000000000000000000e+03) (454, 1.50000000000000000000e+03) (455, 1.50000000000000000000e+03) (456, 1.50000000000000000000e+03) (457, 1.50000000000000000000e+03) (458, 1.50000000000000000000e+03) (459, 1.50000000000000000000e+03) (460, 1.50000000000000000000e+03) (461, 1.50000000000000000000e+03) (462, 1.50000000000000000000e+03) (463, 1.50000000000000000000e+03) (464, 1.50000000000000000000e+03) (465, 1.50000000000000000000e+03) (466, 1.50000000000000000000e+03) (467, 1.50000000000000000000e+03) (468, 1.50000000000000000000e+03) (469, 1.50000000000000000000e+03) (470, 1.00794816017150878906e+00) (471, -1.81013660430908203125e+01) (472, -2.60941410064697265625e+00) (473, -1.04114372253417968750e+02) (474, 1.50000000000000000000e+03) (475, 1.50000000000000000000e+03) (476, 1.50000000000000000000e+03) (477, 1.50000000000000000000e+03) (478, 1.50000000000000000000e+03) (479, 1.50000000000000000000e+03) (480, 1.50000000000000000000e+03) (481, 1.50000000000000000000e+03) (482, 1.50000000000000000000e+03) (483, 1.50000000000000000000e+03) (484, 1.50000000000000000000e+03) (485, 1.50000000000000000000e+03) (486, 1.50000000000000000000e+03) (487, 1.50000000000000000000e+03) (488, 1.50000000000000000000e+03) (489, 1.50000000000000000000e+03) (490, 1.50000000000000000000e+03) (491, 1.50000000000000000000e+03) (492, 1.50000000000000000000e+03) (493, 1.50000000000000000000e+03) (494, 1.50000000000000000000e+03) (495, 1.50000000000000000000e+03) (496, 1.50000000000000000000e+03) (497, 1.50000000000000000000e+03) (498, 1.50000000000000000000e+03) (499, 1.66105194091796875000e+02) (500, 2.18037772178649902344e+00) (501, -1.49951647949218750000e+03) (502, -1.45784155273437500000e+03) (503, -1.45592370605468750000e+03) (504, -1.00220775604248046875e+01) (505, 1.50000000000000000000e+03) (506, 1.50000000000000000000e+03) (507, 1.50000000000000000000e+03) (508, 1.50000000000000000000e+03) (509, 1.50000000000000000000e+03) (510, 1.50000000000000000000e+03) (511, 1.50000000000000000000e+03) (512, 1.50000000000000000000e+03) (513, 1.50000000000000000000e+03) (514, 1.50000000000000000000e+03) (515, 1.50000000000000000000e+03) (516, 1.50000000000000000000e+03) (517, 1.50000000000000000000e+03) (518, 1.50000000000000000000e+03) (519, 1.50000000000000000000e+03) (520, 1.50000000000000000000e+03) (521, 1.50000000000000000000e+03) (522, 1.50000000000000000000e+03) (523, 1.50000000000000000000e+03) (524, 1.50000000000000000000e+03) (525, 1.50000000000000000000e+03) (526, 1.50000000000000000000e+03) (527, 1.50000000000000000000e+03) (528, 1.50000000000000000000e+03) (529, 1.50000000000000000000e+03) (530, 7.92459964752197265625e+00) (531, -2.96397042274475097656e+00) (532, -1.35372390747070312500e+02) (533, -1.45604064941406250000e+03) (534, -6.19924774169921875000e+01) (535, 1.50000000000000000000e+03) (536, 1.50000000000000000000e+03) (537, 1.50000000000000000000e+03) (538, 1.50000000000000000000e+03) (539, 1.50000000000000000000e+03) (540, 1.48732202148437500000e+03) (541, 1.50000000000000000000e+03) (542, 1.50000000000000000000e+03) (543, 1.50000000000000000000e+03) (544, 1.50000000000000000000e+03) (545, 1.50000000000000000000e+03) (546, 1.50000000000000000000e+03) (547, 1.50000000000000000000e+03) (548, 1.50000000000000000000e+03) (549, 1.50000000000000000000e+03) (550, 1.50000000000000000000e+03) (551, 1.50000000000000000000e+03) (552, 1.50000000000000000000e+03) (553, 1.50000000000000000000e+03) (554, 1.50000000000000000000e+03) (555, 1.50000000000000000000e+03) (556, 1.50000000000000000000e+03) (557, 1.50000000000000000000e+03) (558, 1.50000000000000000000e+03) (559, 1.50000000000000000000e+03) (560, 1.10305444335937500000e+03) (561, 4.23603149414062500000e+02) (562, 1.23338437080383300781e+00) (563, -2.07158041000366210938e+00) (564, 2.12856445312500000000e+01) (565, 1.50000000000000000000e+03) (566, 1.50000000000000000000e+03) (567, 1.50000000000000000000e+03) (568, 1.50000000000000000000e+03) (569, 1.50000000000000000000e+03) (570, 6.27595787048339843750e+01) (571, 4.36083641052246093750e+01) (572, 1.41171051025390625000e+02) (573, 1.50000000000000000000e+03) (574, 1.50000000000000000000e+03) (575, 1.50000000000000000000e+03) (576, 1.50000000000000000000e+03) (577, 1.50000000000000000000e+03) (578, 1.50000000000000000000e+03) (579, 1.50000000000000000000e+03) (580, 1.50000000000000000000e+03) (581, 1.50000000000000000000e+03) (582, 1.50000000000000000000e+03) (583, 1.50000000000000000000e+03) (584, 1.50000000000000000000e+03) (585, 1.50000000000000000000e+03) (586, 1.50000000000000000000e+03) (587, 1.50000000000000000000e+03) (588, 1.50000000000000000000e+03) (589, 1.50000000000000000000e+03) (590, 1.50000000000000000000e+03) (591, 1.50000000000000000000e+03) (592, 1.50000000000000000000e+03) (593, 1.50000000000000000000e+03) (594, 1.50000000000000000000e+03) (595, 1.50000000000000000000e+03) (596, 1.50000000000000000000e+03) (597, 1.50000000000000000000e+03) (598, 1.50000000000000000000e+03) (599, 1.50000000000000000000e+03) (600, 1.49745056152343750000e+02) (601, 4.02048377990722656250e+01) (602, 1.51903476715087890625e+01) (603, 6.60370422363281250000e+02) (604, 1.49102929687500000000e+03) (605, 1.48500000000000000000e+03) (606, 1.50000000000000000000e+03) (607, 1.50000000000000000000e+03) (608, 1.50000000000000000000e+03) (609, 1.50000000000000000000e+03) (610, 1.50000000000000000000e+03) (611, 1.50000000000000000000e+03) (612, 1.50000000000000000000e+03) (613, 1.50000000000000000000e+03) (614, 1.50000000000000000000e+03) (615, 1.50000000000000000000e+03) (616, 1.49999975585937500000e+03) (617, 1.49999975585937500000e+03) (618, 1.50000000000000000000e+03) (619, 1.50000000000000000000e+03) (620, 1.50000000000000000000e+03) (621, 1.50000000000000000000e+03) (622, 1.50000000000000000000e+03) (623, 1.50000000000000000000e+03) (624, 1.50000000000000000000e+03) (625, 1.50000000000000000000e+03) (626, 1.50000000000000000000e+03) (627, 1.50000000000000000000e+03) (628, 1.50000000000000000000e+03) (629, 1.50000000000000000000e+03) (630, 3.70194244384765625000e+01) (631, 5.47442970275878906250e+01) (632, 1.51634159088134765625e+01) (633, 1.49999987792968750000e+03) (634, 1.49626208496093750000e+03) (635, 1.50000000000000000000e+03) (636, 1.50000000000000000000e+03) (637, 1.50000000000000000000e+03) (638, 1.50000000000000000000e+03) (639, 1.50000000000000000000e+03) (640, 1.50000000000000000000e+03) (641, 1.50000000000000000000e+03) (642, 1.50000000000000000000e+03) (643, 1.50000000000000000000e+03) (644, 1.49999987792968750000e+03) (645, 1.49999975585937500000e+03) (646, 1.49999975585937500000e+03) (647, 1.49999975585937500000e+03) (648, 1.49999987792968750000e+03) (649, 1.50000000000000000000e+03) (650, 1.50000000000000000000e+03) (651, 1.50000000000000000000e+03) (652, 1.50000000000000000000e+03) (653, 1.50000000000000000000e+03) (654, 1.50000000000000000000e+03) (655, 1.50000000000000000000e+03) (656, 1.50000000000000000000e+03) (657, 1.50000000000000000000e+03) (658, 1.50000000000000000000e+03) (659, 1.50000000000000000000e+03) (660, 6.98199691772460937500e+01) (661, 4.81394683837890625000e+02) (662, 6.39457702636718750000e+01) (663, 1.50000000000000000000e+03) (664, 1.50000000000000000000e+03) (665, 1.50000000000000000000e+03) (666, 1.50000000000000000000e+03) (667, 1.50000000000000000000e+03) (668, 1.50000000000000000000e+03) (669, 1.50000000000000000000e+03) (670, 1.50000000000000000000e+03) (671, 1.50000000000000000000e+03) (672, 1.50000000000000000000e+03) (673, 1.50000000000000000000e+03) (674, 1.50000000000000000000e+03) (675, 1.49999987792968750000e+03) (676, 1.49999987792968750000e+03) (677, 1.49999987792968750000e+03) (678, 1.50000000000000000000e+03) (679, 1.50000000000000000000e+03) (680, 1.50000000000000000000e+03) (681, 1.50000000000000000000e+03) (682, 1.50000000000000000000e+03) (683, 1.50000000000000000000e+03) (684, 1.50000000000000000000e+03) (685, 1.50000000000000000000e+03) (686, 1.50000000000000000000e+03) (687, 1.50000000000000000000e+03) (688, 1.50000000000000000000e+03) (689, 1.50000000000000000000e+03) (690, 1.50000000000000000000e+03) (691, 1.50000000000000000000e+03) (692, 1.50000000000000000000e+03) (693, 1.50000000000000000000e+03) (694, 1.50000000000000000000e+03) (695, 1.50000000000000000000e+03) (696, 1.50000000000000000000e+03) (697, 1.50000000000000000000e+03) (698, 1.50000000000000000000e+03) (699, 1.50000000000000000000e+03) (700, 1.50000000000000000000e+03) (701, 1.50000000000000000000e+03) (702, 1.50000000000000000000e+03) (703, 1.50000000000000000000e+03) (704, 1.50000000000000000000e+03) (705, 1.49999987792968750000e+03) (706, 1.49999987792968750000e+03) (707, 1.49999987792968750000e+03) (708, 1.50000000000000000000e+03) (709, 1.50000000000000000000e+03) (710, 1.50000000000000000000e+03) (711, 1.50000000000000000000e+03) (712, 1.50000000000000000000e+03) (713, 1.50000000000000000000e+03) (714, 1.50000000000000000000e+03) (715, 1.50000000000000000000e+03) (716, 1.50000000000000000000e+03) (717, 1.50000000000000000000e+03) (718, 1.50000000000000000000e+03) (719, 1.50000000000000000000e+03) (720, 1.50000000000000000000e+03) (721, 1.50000000000000000000e+03) (722, 1.50000000000000000000e+03) (723, 1.50000000000000000000e+03) (724, 1.50000000000000000000e+03) (725, 1.50000000000000000000e+03) (726, 1.50000000000000000000e+03) (727, 1.50000000000000000000e+03) (728, 1.50000000000000000000e+03) (729, 1.50000000000000000000e+03) (730, 1.50000000000000000000e+03) (731, 1.50000000000000000000e+03) (732, 1.50000000000000000000e+03) (733, 1.50000000000000000000e+03) (734, 1.50000000000000000000e+03) (735, 1.50000000000000000000e+03) (736, 1.49999987792968750000e+03) (737, 1.50000000000000000000e+03) (738, 1.50000000000000000000e+03) (739, 1.50000000000000000000e+03) (740, 1.50000000000000000000e+03) (741, 1.50000000000000000000e+03) (742, 1.50000000000000000000e+03) (743, 1.50000000000000000000e+03) (744, 1.50000000000000000000e+03) (745, 1.50000000000000000000e+03) (746, 1.50000000000000000000e+03) (747, 1.50000000000000000000e+03) (748, 1.50000000000000000000e+03) (749, 1.50000000000000000000e+03) (750, 1.50000000000000000000e+03) (751, 1.50000000000000000000e+03) (752, 1.50000000000000000000e+03) (753, 1.50000000000000000000e+03) (754, 1.50000000000000000000e+03) (755, 1.50000000000000000000e+03) (756, 1.50000000000000000000e+03) (757, 1.50000000000000000000e+03) (758, 1.50000000000000000000e+03) (759, 1.50000000000000000000e+03) (760, 1.50000000000000000000e+03) (761, 1.50000000000000000000e+03) (762, 1.50000000000000000000e+03) (763, 1.50000000000000000000e+03) (764, 1.49999914550781250000e+03) (765, 1.49999584960937500000e+03) (766, 1.49999548339843750000e+03) (767, 1.49944592285156250000e+03) (768, 1.49999975585937500000e+03) (769, 1.50000000000000000000e+03) (770, 1.49989086914062500000e+03) (771, 1.50000000000000000000e+03) (772, 1.50000000000000000000e+03) (773, 1.50000000000000000000e+03) (774, 1.50000000000000000000e+03) (775, 1.50000000000000000000e+03) (776, 1.50000000000000000000e+03) (777, 1.50000000000000000000e+03) (778, 1.50000000000000000000e+03) (779, 1.50000000000000000000e+03) (780, 1.50000000000000000000e+03) (781, 1.50000000000000000000e+03) (782, 1.50000000000000000000e+03) (783, 1.50000000000000000000e+03) (784, 1.50000000000000000000e+03) (785, 1.50000000000000000000e+03) (786, 1.50000000000000000000e+03) (787, 1.50000000000000000000e+03) (788, 1.50000000000000000000e+03) (789, 1.49999877929687500000e+03) (790, 1.48698779296875000000e+03) (791, -1.39992028808593750000e+03) (792, -1.46943920898437500000e+03) (793, -1.50000000000000000000e+03) (794, -1.50000000000000000000e+03) (795, -1.50000000000000000000e+03) (796, -1.50000000000000000000e+03) (797, -1.50000000000000000000e+03) (798, -1.50000000000000000000e+03) (799, 1.48113452148437500000e+03) (800, 1.49906542968750000000e+03) (801, 1.50000000000000000000e+03) (802, 1.50000000000000000000e+03) (803, 1.50000000000000000000e+03) (804, 1.50000000000000000000e+03) (805, 1.50000000000000000000e+03) (806, 1.50000000000000000000e+03) (807, 1.50000000000000000000e+03) (808, 1.50000000000000000000e+03) (809, 1.50000000000000000000e+03) (810, 1.50000000000000000000e+03) (811, 1.50000000000000000000e+03) (812, 1.50000000000000000000e+03) (813, 1.50000000000000000000e+03) (814, 1.50000000000000000000e+03) (815, 1.50000000000000000000e+03) (816, 1.50000000000000000000e+03) (817, 1.50000000000000000000e+03) (818, 1.50000000000000000000e+03) (819, 3.70617340087890625000e+02) (820, -1.47682104492187500000e+03) (821, -1.50000000000000000000e+03) (822, -1.50000000000000000000e+03) (823, -1.50000000000000000000e+03) (824, -1.50000000000000000000e+03) (825, -1.50000000000000000000e+03) (826, -1.50000000000000000000e+03) (827, -1.50000000000000000000e+03) (828, -1.50000000000000000000e+03) (829, -1.50000000000000000000e+03) (830, -1.50000000000000000000e+03) (831, -1.49997033691406250000e+03) (832, 1.50000000000000000000e+03) (833, 1.50000000000000000000e+03) (834, 1.50000000000000000000e+03) (835, 1.50000000000000000000e+03) (836, 1.50000000000000000000e+03) (837, 1.50000000000000000000e+03) (838, 1.50000000000000000000e+03) (839, 1.50000000000000000000e+03) (840, 1.50000000000000000000e+03) (841, 1.50000000000000000000e+03) (842, 1.50000000000000000000e+03) (843, 1.50000000000000000000e+03) (844, 1.50000000000000000000e+03) (845, 1.50000000000000000000e+03) (846, 1.50000000000000000000e+03) (847, 1.50000000000000000000e+03) (848, 1.50000000000000000000e+03) (849, 1.50000000000000000000e+03) (850, -1.48999218750000000000e+03) (851, -1.46784484863281250000e+03) (852, -1.45618017578125000000e+03) (853, -1.50000000000000000000e+03) (854, -1.50000000000000000000e+03) (855, -1.50000000000000000000e+03) (856, -1.50000000000000000000e+03) (857, -1.50000000000000000000e+03) (858, -1.50000000000000000000e+03) (859, -1.49892797851562500000e+03) (860, -1.42050952148437500000e+03) (861, -1.49913110351562500000e+03) (862, 1.50000000000000000000e+03) (863, 1.50000000000000000000e+03) (864, 1.50000000000000000000e+03) (865, 1.50000000000000000000e+03) (866, 1.50000000000000000000e+03) (867, 1.50000000000000000000e+03) (868, 1.50000000000000000000e+03) (869, 1.50000000000000000000e+03) (870, 1.50000000000000000000e+03) (871, 1.50000000000000000000e+03) (872, 1.50000000000000000000e+03) (873, 1.50000000000000000000e+03) (874, 1.50000000000000000000e+03) (875, 1.50000000000000000000e+03) (876, 1.50000000000000000000e+03) (877, 1.50000000000000000000e+03) (878, 1.50000000000000000000e+03) (879, 1.50000000000000000000e+03) (880, 1.50000000000000000000e+03) (881, -1.49858862304687500000e+03) (882, -1.48761218261718750000e+03) (883, -1.49913195800781250000e+03) (884, -1.43207434082031250000e+03) (885, -1.46034741210937500000e+03) (886, -1.50000000000000000000e+03) (887, -1.50000000000000000000e+03) (888, -1.46664770507812500000e+03) (889, -1.49999401855468750000e+03) (890, 6.69208984375000000000e+02) (891, 1.50000000000000000000e+03) (892, 1.50000000000000000000e+03) (893, 1.50000000000000000000e+03) (894, 1.50000000000000000000e+03) (895, 1.50000000000000000000e+03) (896, 1.50000000000000000000e+03) (897, 1.50000000000000000000e+03) (898, 1.50000000000000000000e+03) (899, 1.50000000000000000000e+03) (900, 1.50000000000000000000e+03) (0, -2.30138450860977172852e-02) (1, 2.16682013124227523804e-02) (2, -5.81509508192539215088e-02) (3, 2.38440744578838348389e-02) (4, 7.73551017045974731445e-02) (5, 9.20866355299949645996e-02) (6, -3.18519584834575653076e-02) (7, -8.64807814359664916992e-02) (8, -4.75613698363304138184e-02) (9, 7.37311244010925292969e-02) (10, -2.18349490314722061157e-02) (11, -9.49365273118019104004e-02) (12, 3.53842228651046752930e-03) (13, -8.26453268527984619141e-02) (14, -9.36703309416770935059e-02) (15, -2.88314428180456161499e-02) (16, -8.79072993993759155273e-02) (17, -1.23323984444141387939e-01) (18, -7.98947587609291076660e-02) (19, 1.17779038846492767334e-02) (20, -1.28730714321136474609e-01) (21, -1.36534720659255981445e-02) (22, -7.09437802433967590332e-02) (23, 5.29171377420425415039e-02) (24, 1.00752068683505058289e-02) (25, -1.76975305657833814621e-03) (26, -3.28433769755065441132e-03) (27, -1.16905316710472106934e-01) (28, -2.90892887860536575317e-02) (29, -1.45616143941879272461e-01) (30, -1.60800860612653195858e-04) (31, 1.47647470235824584961e-01) (32, 9.11061018705368041992e-02) (33, 9.07752960920333862305e-02) (34, 8.45170468091964721680e-02) (35, 5.60847036540508270264e-02) (36, 3.89235392212867736816e-02) (37, 7.45072960853576660156e-02) (38, 5.77508565038442611694e-03) (39, 5.96517100930213928223e-02) (40, 3.26384492218494415283e-02) (41, 7.91979730129241943359e-02) (42, 7.61170238256454467773e-02) (43, -4.49877455830574035645e-02) (44, -8.41885060071945190430e-02) (45, -1.15137971937656402588e-01) (46, 2.86490190774202346802e-02) (47, -6.50816038250923156738e-02) (48, -8.05665999650955200195e-02) (49, -1.10840767621994018555e-01) (50, -1.17150500416755676270e-01) (51, -7.45862573385238647461e-02) (52, 1.90979987382888793945e-02) (53, -4.65035736560821533203e-02) (54, -7.21048116683959960938e-02) (55, -9.74465534090995788574e-03) (56, -9.42655503749847412109e-02) (57, 4.89069484174251556396e-02) (58, -7.11533240973949432373e-03) (59, -1.96707621216773986816e-03) (60, 1.05748206377029418945e-01) (61, 1.57646164298057556152e-01) (62, 1.42260834574699401855e-01) (63, 1.55007123947143554688e-01) (64, 3.20155978202819824219e-01) (65, 1.77156493067741394043e-01) (66, 3.01395952701568603516e-01) (67, 2.23005518317222595215e-01) (68, 1.06101050972938537598e-01) (69, -1.22402422130107879639e-02) (70, 1.21438257396221160889e-01) (71, 6.67702481150627136230e-02) (72, -6.11988864839076995850e-02) (73, 3.03783416748046875000e-02) (74, -7.96603485941886901855e-02) (75, -1.66855260729789733887e-01) (76, -1.32650911808013916016e-01) (77, -1.61523923277854919434e-01) (78, -1.42127379775047302246e-01) (79, -1.07467591762542724609e-01) (80, -1.53346881270408630371e-01) (81, -9.20799300074577331543e-02) (82, -1.99758395552635192871e-01) (83, -1.57308638095855712891e-01) (84, 1.37594044208526611328e-01) (85, -4.60459031164646148682e-02) (86, 6.11049495637416839600e-02) (87, 1.08658894896507263184e-01) (88, -9.77253988385200500488e-02) (89, -5.30687272548675537109e-02) (90, 6.60043358802795410156e-02) (91, 1.40594199299812316895e-01) (92, 7.04793259501457214355e-02) (93, 1.24136134982109069824e-01) (94, 2.96273708343505859375e-01) (95, 3.11212420463562011719e-01) (96, 3.64590018987655639648e-01) (97, 2.82608032226562500000e-01) (98, 1.51884555816650390625e-01) (99, -2.73470073938369750977e-01) (100, -2.69314438104629516602e-01) (101, -2.58516997098922729492e-01) (102, -7.23491907119750976562e-02) (103, -6.19847029447555541992e-02) (104, 2.00455170124769210815e-02) (105, -1.39796450734138488770e-01) (106, -3.73297110199928283691e-02) (107, -4.21883165836334228516e-02) (108, -3.29042859375476837158e-02) (109, 1.19901321828365325928e-01) (110, -8.12339484691619873047e-02) (111, -4.23977263271808624268e-02) (112, -1.22524842619895935059e-01) (113, -6.26565143465995788574e-02) (114, 2.93515827506780624390e-02) (115, -2.54364591091871261597e-02) (116, 1.00653236731886863708e-02) (117, 9.02090668678283691406e-02) (118, -3.31516228616237640381e-02) (119, -3.00803389400243759155e-02) (120, -2.07522101700305938721e-02) (121, -4.51174154877662658691e-02) (122, 5.52645064890384674072e-02) (123, 1.42403036355972290039e-01) (124, 1.90233051776885986328e-01) (125, 2.30549633502960205078e-01) (126, 1.86926499009132385254e-01) (127, 8.33122208714485168457e-02) (128, 5.41779808700084686279e-02) (129, -1.66158884763717651367e-01) (130, -2.15288195759057998657e-02) (131, -1.57217755913734436035e-01) (132, -9.60805118083953857422e-02) (133, -1.21261522173881530762e-01) (134, -6.54831454157829284668e-02) (135, -1.00387863814830780029e-01) (136, -1.17612227797508239746e-01) (137, -1.49093165993690490723e-01) (138, -1.38201951980590820312e-01) (139, -5.64043261110782623291e-02) (140, -1.65307581424713134766e-01) (141, 6.15030340850353240967e-02) (142, -1.51005303487181663513e-02) (143, -1.48956961929798126221e-02) (144, -7.07903644070029258728e-03) (145, 2.33734279870986938477e-01) (146, 2.78064459562301635742e-01) (147, 7.78266116976737976074e-02) (148, 2.25710254162549972534e-02) (149, -5.02658300101757049561e-02) (150, 1.07861973345279693604e-01) (151, -6.35781809687614440918e-02) (152, 3.80462706089019775391e-02) (153, 5.76110966503620147705e-02) (154, 1.35078385472297668457e-01) (155, 2.75145411491394042969e-01) (156, -1.21007137000560760498e-01) (157, -1.03357404470443725586e-01) (158, -6.15784823894500732422e-02) (159, -1.55433767940849065781e-03) (160, -1.55482605099678039551e-01) (161, -1.62928596138954162598e-01) (162, -1.12919636070728302002e-01) (163, -2.42731999605894088745e-02) (164, -2.09374353289604187012e-01) (165, -4.79232855141162872314e-02) (166, -1.70677170157432556152e-01) (167, -3.42278964817523956299e-02) (168, -3.87600362300872802734e-02) (169, -1.42263799905776977539e-01) (170, -1.76654681563377380371e-01) (171, -3.58236208558082580566e-02) (172, -4.29969932883977890015e-03) (173, 6.41161948442459106445e-02) (174, 1.73288419842720031738e-01) (175, 2.68190681934356689453e-01) (176, 8.43341946601867675781e-02) (177, -1.43577624112367630005e-03) (178, -4.07158732414245605469e-02) (179, -5.11536076664924621582e-02) (180, 2.69723590463399887085e-02) (181, -3.59148606657981872559e-02) (182, -1.07607636600732803345e-02) (183, -4.29276973009109497070e-02) (184, 7.41057321429252624512e-02) (185, -1.19783870875835418701e-01) (186, 2.07402892410755157471e-02) (187, 6.27565607428550720215e-02) (188, -1.05875581502914428711e-01) (189, -7.38033354282379150391e-02) (190, -2.35568489879369735718e-02) (191, -8.26411619782447814941e-02) (192, 4.02152836322784423828e-02) (193, 1.52292519807815551758e-01) (194, -7.33072636649012565613e-03) (195, 1.00662693381309509277e-01) (196, 8.36701393127441406250e-02) (197, -1.03950519114732742310e-02) (198, 1.81171651929616928101e-02) (199, 5.38612864911556243896e-02) (200, -3.73362377285957336426e-02) (201, -2.32323482632637023926e-02) (202, -9.70561429858207702637e-02) (203, 3.01111247390508651733e-02) (204, 3.18071134388446807861e-02) (205, 7.75939449667930603027e-02) (206, 6.62641972303390502930e-02) (207, -1.27099808305501937866e-02) (208, 7.67965093255043029785e-02) (209, 2.80909761786460876465e-02) (210, -8.24564509093761444092e-03) (211, -2.95578595250844955444e-02) (212, 7.98498988151550292969e-02) (213, 8.71005803346633911133e-02) (214, 2.44909618049860000610e-02) (215, -6.73668459057807922363e-02) (216, -3.97861376404762268066e-02) (217, -1.24283758923411369324e-02) (218, -4.64798957109451293945e-02) (219, 7.13499560952186584473e-02) (220, -1.55205622315406799316e-01) (221, -1.68577414005994796753e-02) (222, 3.12766209244728088379e-02) (223, -2.70245634019374847412e-02) (224, 1.13855376839637756348e-01) (225, 2.30933595448732376099e-02) (226, 7.11026936769485473633e-02) (227, 1.25429034233093261719e-01) (228, 1.37893453240394592285e-01) (229, 1.78424641489982604980e-01) (230, 1.73458158969879150391e-02) (231, 1.35561764240264892578e-01) (232, 1.34377166628837585449e-01) (233, 6.64973333477973937988e-02) (234, 7.52727016806602478027e-02) (235, 6.98125138878822326660e-02) (236, 2.04349189996719360352e-01) (237, 1.72325134277343750000e-01) (238, 1.47503167390823364258e-01) (239, 1.31302565336227416992e-01) (240, -7.74611830711364746094e-02) (241, 5.19781857728958129883e-02) (242, 5.65636456012725830078e-02) (243, -6.38509839773178100586e-02) (244, -4.57196906208992004395e-02) (245, -9.01346430182456970215e-02) (246, -4.25363108515739440918e-02) (247, 3.51329185068607330322e-02) (248, 9.87557768821716308594e-02) (249, -8.68934839963912963867e-02) (250, -1.93196889013051986694e-02) (251, 1.84363782405853271484e-01) (252, -4.42131934687495231628e-03) (253, -2.52901669591665267944e-02) (254, 1.25453099608421325684e-01) (255, -5.05831837654113769531e-02) (256, 4.20697703957557678223e-02) (257, 1.20842248201370239258e-01) (258, 1.46204501390457153320e-01) (259, 5.73937743902206420898e-02) (260, 1.32082670927047729492e-01) (261, 1.61545902490615844727e-01) (262, 1.68906211853027343750e-01) (263, 5.24854585528373718262e-02) (264, 2.25363135337829589844e-01) (265, 2.21187606453895568848e-01) (266, 1.09187550842761993408e-01) (267, 2.31472879648208618164e-01) (268, 1.81329578161239624023e-01) (269, 1.54336303472518920898e-01) (270, -9.27312225103378295898e-02) (271, 3.15936580300331115723e-02) (272, -5.17015941441059112549e-02) (273, -1.20243482291698455811e-01) (274, -7.92170092463493347168e-02) (275, -2.45880961418151855469e-01) (276, -1.62019103765487670898e-01) (277, 5.23240379989147186279e-02) (278, 9.77612584829330444336e-02) (279, -1.50769930332899093628e-02) (280, 2.28176321834325790405e-02) (281, 1.14008732140064239502e-01) (282, 5.55139817297458648682e-02) (283, 1.46868139505386352539e-01) (284, 4.20653335750102996826e-02) (285, 9.01997182518243789673e-03) (286, 1.07792124152183532715e-01) (287, 1.88099503517150878906e-01) (288, 1.90988212823867797852e-01) (289, 1.24762095510959625244e-01) (290, 5.40474168956279754639e-02) (291, 1.05274043977260589600e-01) (292, 5.93461096286773681641e-02) (293, 1.98152884840965270996e-01) (294, 1.45536333322525024414e-01) (295, 9.03368741273880004883e-02) (296, 2.60046392679214477539e-01) (297, 2.43742510676383972168e-01) (298, 1.95573404431343078613e-01) (299, 6.67105242609977722168e-02) (300, -7.69471004605293273926e-02) (301, 4.45558503270149230957e-02) (302, -1.39834389090538024902e-01) (303, 3.03422696888446807861e-02) (304, -2.46405750513076782227e-01) (305, -4.99845556914806365967e-02) (306, -1.97925090789794921875e-01) (307, 1.59561429172754287720e-02) (308, 8.36049839854240417480e-02) (309, 1.18158116936683654785e-01) (310, 5.16550503671169281006e-02) (311, 8.29950943589210510254e-02) (312, 9.51281562447547912598e-02) (313, -5.45338466763496398926e-02) (314, -6.97639808058738708496e-02) (315, 1.26190692186355590820e-01) (316, -7.81396124511957168579e-03) (317, 1.62660270929336547852e-01) (318, 1.91329568624496459961e-01) (319, 5.76591044664382934570e-02) (320, 8.17802846431732177734e-02) (321, 2.11611434817314147949e-01) (322, 1.32034555077552795410e-01) (323, 1.11634060740470886230e-01) (324, 2.02237442135810852051e-01) (325, 1.19215413928031921387e-01) (326, 2.06848219037055969238e-01) (327, 1.78976386785507202148e-01) (328, 1.99465006589889526367e-01) (329, 8.60193222761154174805e-02) (330, 5.20010013133287429810e-03) (331, -1.05363823473453521729e-01) (332, -7.21448361873626708984e-02) (333, 3.46528962254524230957e-02) (334, -2.45734840631484985352e-01) (335, -1.46265506744384765625e-01) (336, -4.76368032395839691162e-02) (337, 3.25028114020824432373e-02) (338, 1.22494257986545562744e-01) (339, 3.27422395348548889160e-02) (340, -1.00795499980449676514e-01) (341, 9.06571149826049804688e-02) (342, 7.69478604197502136230e-02) (343, 1.20931295678019523621e-02) (344, 4.73921038210391998291e-02) (345, 6.67014271020889282227e-02) (346, 1.33615816012024879456e-02) (347, 1.57985970377922058105e-01) (348, 8.49659368395805358887e-02) (349, 2.93455105274915695190e-02) (350, 2.37821824848651885986e-02) (351, 1.53820246458053588867e-01) (352, 4.29025068879127502441e-02) (353, 1.35247334837913513184e-01) (354, 7.29877650737762451172e-02) (355, 2.65329092741012573242e-01) (356, 2.10155293345451354980e-01) (357, 2.16593876481056213379e-01) (358, 9.15315151214599609375e-02) (359, 1.00062757730484008789e-01) (360, -1.03691279888153076172e-01) (361, -8.36270451545715332031e-02) (362, 2.74405535310506820679e-02) (363, -1.66699104011058807373e-02) (364, -1.59888029098510742188e-01) (365, 3.17257270216941833496e-02) (366, 1.63973078131675720215e-01) (367, 1.13938577473163604736e-01) (368, -7.46419802308082580566e-02) (369, 6.28258287906646728516e-02) (370, 8.08411911129951477051e-02) (371, -3.87887954711914062500e-02) (372, -4.56782169640064239502e-02) (373, 9.96323302388191223145e-02) (374, 1.60321756266057491302e-03) (375, -1.36605426669120788574e-02) (376, 1.11724510788917541504e-01) (377, 1.30040332674980163574e-01) (378, 1.56620562076568603516e-01) (379, 2.62764319777488708496e-02) (380, 1.90673276782035827637e-01) (381, 1.92509427666664123535e-01) (382, 1.98818013072013854980e-01) (383, 3.82791869342327117920e-02) (384, 1.45284712314605712891e-01) (385, 1.14643953740596771240e-01) (386, 2.69211649894714355469e-01) (387, 1.06027044355869293213e-01) (388, 1.79061785340309143066e-01) (389, 7.86787569522857666016e-02) (390, 1.51232080534100532532e-02) (391, -1.24054566025733947754e-01) (392, -4.58147982135415077209e-03) (393, -3.21250930428504943848e-02) (394, -6.97689279913902282715e-02) (395, -4.82697971165180206299e-02) (396, -1.30600273609161376953e-01) (397, -1.39963366091251373291e-02) (398, -4.05816501006484031677e-03) (399, -1.06869183480739593506e-01) (400, 2.79978960752487182617e-02) (401, 8.13296735286712646484e-02) (402, 8.75510461628437042236e-03) (403, 6.43800199031829833984e-02) (404, 8.49768295884132385254e-02) (405, 1.36539697647094726562e-01) (406, 1.11549645662307739258e-01) (407, 8.98531824350357055664e-02) (408, 1.12184658646583557129e-01) (409, 1.15900784730911254883e-01) (410, 1.49315878748893737793e-01) (411, 8.97055789828300476074e-02) (412, 1.23071961104869842529e-01) (413, 1.58443629741668701172e-01) (414, 1.46560713648796081543e-01) (415, 6.54271021485328674316e-02) (416, 1.95199668407440185547e-01) (417, 1.48512557148933410645e-01) (418, 9.85425412654876708984e-02) (419, 1.53846517205238342285e-01) (420, -1.21843114495277404785e-01) (421, -8.97803083062171936035e-02) (422, 3.69689986109733581543e-02) (423, 5.69339189678430557251e-03) (424, -6.97561651468276977539e-02) (425, -1.60838648676872253418e-01) (426, -4.13395650684833526611e-02) (427, -1.27474442124366760254e-01) (428, 3.74067611992359161377e-02) (429, -1.48854218423366546631e-02) (430, 2.85081770271062850952e-02) (431, -2.91207693517208099365e-02) (432, -5.74380047619342803955e-02) (433, 1.40246376395225524902e-01) (434, 1.47532731294631958008e-01) (435, 1.60283952951431274414e-01) (436, 1.48286715149879455566e-01) (437, 1.24965921044349670410e-01) (438, 9.26619246602058410645e-02) (439, 7.28812515735626220703e-02) (440, 4.01628389954566955566e-02) (441, 4.17436175048351287842e-02) (442, 1.50845502503216266632e-03) (443, -6.90095825120806694031e-03) (444, 2.33017727732658386230e-02) (445, 1.70649871230125427246e-01) (446, -8.48170816898345947266e-02) (447, -1.26299560070037841797e-01) (448, -4.56118211150169372559e-02) (449, -1.00977839902043342590e-02) (450, 4.28911857306957244873e-02) (451, -9.43979807198047637939e-03) (452, -1.32627874612808227539e-01) (453, 1.27956755459308624268e-02) (454, -2.13922277092933654785e-01) (455, -1.00630253553390502930e-01) (456, -1.04280024766921997070e-01) (457, 1.90449133515357971191e-02) (458, 2.95271482318639755249e-02) (459, 4.15255641564726829529e-03) (460, 1.31842657923698425293e-01) (461, 2.20090318471193313599e-02) (462, 3.86944077908992767334e-02) (463, 1.50889798998832702637e-01) (464, 4.02449257671833038330e-02) (465, -9.95931625366210937500e-02) (466, -5.46504685189574956894e-04) (467, -1.56039223074913024902e-01) (468, -1.83231249451637268066e-01) (469, -8.75660032033920288086e-02) (470, -3.30335088074207305908e-02) (471, -6.82089403271675109863e-02) (472, 3.74048575758934020996e-02) (473, 1.85271110385656356812e-02) (474, -4.87350113689899444580e-02) (475, -1.30626022815704345703e-01) (476, -6.89936196431517601013e-03) (477, -4.53450679779052734375e-02) (478, -1.42606467008590698242e-01) (479, -1.24575242400169372559e-01) (480, -2.81420834362506866455e-02) (481, -1.01785928010940551758e-01) (482, -1.36466220021247863770e-01) (483, -3.02292946726083755493e-02) (484, -1.27271503210067749023e-01) (485, -1.93923652172088623047e-01) (486, -6.79479613900184631348e-02) (487, -7.17880055308341979980e-02) (488, -7.90862366557121276855e-02) (489, 4.69973161816596984863e-02) (490, 6.70984908938407897949e-02) (491, 3.61267738044261932373e-02) (492, 1.38479784131050109863e-01) (493, 1.83458745479583740234e-01) (494, 6.22738189995288848877e-02) (495, -1.00910834968090057373e-01) (496, -9.07532349228858947754e-02) (497, -1.23259671032428741455e-01) (498, -6.50437176227569580078e-02) (499, -2.51729130744934082031e-01) (500, -2.00943768024444580078e-01) (501, -3.10574650764465332031e-01) (502, -2.04431429505348205566e-01) (503, -1.90310120582580566406e-01) (504, -2.80624151229858398438e-01) (505, -3.60284924507141113281e-01) (506, -2.49100819230079650879e-01) (507, -2.76734739542007446289e-01) (508, -1.78984850645065307617e-01) (509, -1.70883968472480773926e-01) (510, -1.10581271350383758545e-01) (511, -1.79983414709568023682e-02) (512, -8.19141268730163574219e-02) (513, -1.19383946061134338379e-01) (514, -2.62026071548461914062e-01) (515, -2.54312396049499511719e-01) (516, -6.13515870645642280579e-03) (517, 1.93810276687145233154e-02) (518, -4.26543178036808967590e-03) (519, 7.22838789224624633789e-02) (520, 2.10002228617668151855e-01) (521, 2.28297621011734008789e-01) (522, 8.15783962607383728027e-02) (523, 2.07079216837882995605e-01) (524, 2.41173133254051208496e-01) (525, 1.43923476338386535645e-01) (526, 9.63733270764350891113e-02) (527, -7.04073831439018249512e-02) (528, 2.11165621876716613770e-02) (529, -8.15116614103317260742e-02) (530, -6.05520568788051605225e-02) (531, -5.91088570654392242432e-02) (532, -6.95162639021873474121e-02) (533, -5.99854700267314910889e-02) (534, -4.84798431396484375000e-01) (535, -3.19751381874084472656e-01) (536, -2.86174893379211425781e-01) (537, -4.20747071504592895508e-01) (538, -1.35196551680564880371e-01) (539, -4.95086349546909332275e-02) (540, -1.04792661964893341064e-01) (541, -5.38031570613384246826e-02) (542, -7.77904614806175231934e-02) (543, -5.53353764116764068604e-02) (544, -1.85420468449592590332e-01) (545, -1.49435445666313171387e-01) (546, 3.59753705561161041260e-02) (547, -5.24241849780082702637e-02) (548, -5.09804263710975646973e-02) (549, 3.67253869771957397461e-02) (550, 2.82011002302169799805e-01) (551, 8.87437537312507629395e-02) (552, 1.66401952505111694336e-01) (553, 1.55274599790573120117e-01) (554, 2.73057639598846435547e-01) (555, 9.44758430123329162598e-02) (556, 1.76713138818740844727e-01) (557, 1.79258540272712707520e-01) (558, 7.16216340661048889160e-02) (559, 5.88216297328472137451e-02) (560, -1.33138060569763183594e-01) (561, 1.75646357238292694092e-02) (562, -4.09310609102249145508e-02) (563, -1.21016792953014373779e-01) (564, -2.69903510808944702148e-01) (565, -2.74365693330764770508e-01) (566, -4.49560493230819702148e-01) (567, -3.21024239063262939453e-01) (568, -2.06046164035797119141e-01) (569, -1.49859204888343811035e-01) (570, -3.16726714372634887695e-02) (571, -9.76315587759017944336e-02) (572, 8.39612632989883422852e-03) (573, 1.57769806683063507080e-02) (574, -1.20627246797084808350e-01) (575, -2.05517023801803588867e-01) (576, -3.85702438652515411377e-02) (577, 1.12757943570613861084e-02) (578, 3.58352027833461761475e-02) (579, 7.81947746872901916504e-02) (580, 1.79807588458061218262e-01) (581, 1.24491959810256958008e-01) (582, 1.44833356142044067383e-01) (583, 2.10738077759742736816e-01) (584, 1.71006351709365844727e-01) (585, 1.09111197292804718018e-01) (586, 1.83769404888153076172e-01) (587, 2.35391348600387573242e-01) (588, 1.84286415576934814453e-01) (589, 1.67991474270820617676e-01) (590, 5.62794469296932220459e-02) (591, 1.74300104379653930664e-01) (592, -1.19581028819084167480e-01) (593, -1.96074143052101135254e-01) (594, -1.40931501984596252441e-01) (595, -3.01944285631179809570e-01) (596, -2.58652359247207641602e-01) (597, -3.69597524404525756836e-01) (598, -1.01848997175693511963e-01) (599, -2.10739329457283020020e-01) (600, 3.38520482182502746582e-02) (601, -1.19076371192932128906e-01) (602, -9.15914773941040039062e-02) (603, -4.26805093884468078613e-02) (604, -7.37462341785430908203e-02) (605, -8.92678424715995788574e-02) (606, 5.60528151690959930420e-02) (607, 4.50201183557510375977e-02) (608, 1.48433804512023925781e-01) (609, 2.10140481591224670410e-01) (610, 2.34646841883659362793e-01) (611, 1.84689730405807495117e-01) (612, 9.76218208670616149902e-02) (613, 1.93376764655113220215e-01) (614, 2.42614403367042541504e-01) (615, 1.43717899918556213379e-01) (616, 1.60216778516769409180e-01) (617, 1.00730694830417633057e-01) (618, 1.00562915205955505371e-01) (619, 1.01102262735366821289e-01) (620, 3.08748017996549606323e-02) (621, 1.36757463216781616211e-01) (622, -1.18870370090007781982e-01) (623, -1.07279932126402854919e-02) (624, -4.50464487075805664062e-02) (625, -1.57610610127449035645e-01) (626, -2.24702209234237670898e-01) (627, -2.16674789786338806152e-01) (628, -1.04543745517730712891e-01) (629, -1.53215244412422180176e-01) (630, 1.97058096528053283691e-02) (631, -1.04867018759250640869e-01) (632, -1.04678094387054443359e-01) (633, 3.41775268316268920898e-02) (634, -1.44159942865371704102e-01) (635, 3.97064499557018280029e-02) (636, 1.67255580425262451172e-01) (637, 1.13437876105308532715e-01) (638, 2.53315359354019165039e-01) (639, 1.21877908706665039062e-01) (640, 1.35341793298721313477e-01) (641, 1.26913547515869140625e-01) (642, 2.20925390720367431641e-01) (643, 8.91703963279724121094e-02) (644, 1.95214942097663879395e-01) (645, 1.40082672238349914551e-01) (646, 1.40379101037979125977e-01) (647, 7.84198716282844543457e-02) (648, -7.83656316343694925308e-04) (649, 1.26005872152745723724e-03) (650, 1.29217132925987243652e-01) (651, 1.96984633803367614746e-02) (652, -9.11395251750946044922e-02) (653, -8.05536806583404541016e-02) (654, -9.60478931665420532227e-02) (655, -2.01156198978424072266e-01) (656, -3.04174333810806274414e-01) (657, -2.22084999084472656250e-01) (658, -1.03301756083965301514e-01) (659, -8.97378250956535339355e-02) (660, 1.88183821737766265869e-02) (661, 7.81374424695968627930e-02) (662, -2.41526160389184951782e-02) (663, 2.75834202766418457031e-02) (664, -4.06491458415985107422e-02) (665, -1.58901363611221313477e-01) (666, 8.58125910162925720215e-02) (667, 1.54732435941696166992e-01) (668, 4.39937487244606018066e-02) (669, 2.07811936736106872559e-01) (670, 2.63184607028961181641e-01) (671, 1.23180322349071502686e-01) (672, 1.96564897894859313965e-01) (673, 1.57255828380584716797e-01) (674, 1.24662250280380249023e-01) (675, 1.17334529757499694824e-01) (676, 4.29114326834678649902e-02) (677, 3.12402956187725067139e-02) (678, -8.88538546860218048096e-03) (679, 3.87977883219718933105e-02) (680, 1.43472198396921157837e-02) (681, 1.59067466855049133301e-01) (682, -1.26360878348350524902e-01) (683, -1.19465589523315429688e-01) (684, -9.25145372748374938965e-02) (685, 3.49214933812618255615e-02) (686, -1.85827702283859252930e-01) (687, -2.78389930725097656250e-01) (688, -9.41900834441184997559e-02) (689, 1.93940829485654830933e-02) (690, 2.92249526828527450562e-02) (691, -1.07276357710361480713e-01) (692, 7.03752562403678894043e-02) (693, -9.17574986815452575684e-02) (694, -7.70476907491683959961e-02) (695, -9.56770125776529312134e-03) (696, -7.20728747546672821045e-03) (697, 8.79918113350868225098e-02) (698, 4.72041852772235870361e-02) (699, 3.44655774533748626709e-02) (700, 2.44047611951828002930e-01) (701, 2.32988029718399047852e-01) (702, 1.73557639122009277344e-01) (703, 1.80305540561676025391e-01) (704, 1.35324433445930480957e-01) (705, 4.87854406237602233887e-02) (706, 5.53645901381969451904e-02) (707, 1.48873478174209594727e-01) (708, 7.87061676383018493652e-02) (709, 4.89969924092292785645e-02) (710, 1.51574779301881790161e-02) (711, -8.29079523682594299316e-02) (712, -1.67868897318840026855e-01) (713, -9.15075242519378662109e-02) (714, 5.05647854879498481750e-04) (715, -2.92795181274414062500e-01) (716, -2.34199240803718566895e-01) (717, -2.10273981094360351562e-01) (718, 3.02202906459569931030e-02) (719, -8.06695315986871719360e-03) (720, 2.07802113145589828491e-02) (721, 2.16829609125852584839e-02) (722, 4.53398264944553375244e-02) (723, -1.45750222727656364441e-02) (724, -1.30662694573402404785e-02) (725, -3.84990498423576354980e-02) (726, -8.89535993337631225586e-02) (727, 1.91406860947608947754e-01) (728, 2.32065394520759582520e-01) (729, 9.77865885943174362183e-03) (730, -2.60453429073095321655e-02) (731, 2.40511983633041381836e-01) (732, 1.00959591567516326904e-01) (733, 3.28676030039787292480e-02) (734, 1.67420223355293273926e-01) (735, 1.89447596669197082520e-01) (736, 5.71637526154518127441e-02) (737, -1.57059612683951854706e-03) (738, 1.30340203642845153809e-01) (739, 1.36825501918792724609e-01) (740, -1.22629202902317047119e-01) (741, -1.24496109783649444580e-01) (742, -1.44297748804092407227e-01) (743, -1.19036890566349029541e-01) (744, -7.64054954051971435547e-02) (745, -3.22885632514953613281e-01) (746, -2.69990295171737670898e-01) (747, 6.92036971449851989746e-02) (748, -9.98728200793266296387e-02) (749, -1.20998166501522064209e-01) (750, 4.74624261260032653809e-02) (751, 6.79130256175994873047e-02) (752, 5.11619560420513153076e-02) (753, 1.34685421362519264221e-02) (754, -1.05500757694244384766e-01) (755, 2.29092333465814590454e-02) (756, 2.02776387333869934082e-01) (757, 3.87203037738800048828e-01) (758, 7.41795226931571960449e-02) (759, -4.24918681383132934570e-02) (760, -9.57882553339004516602e-02) (761, 7.69002810120582580566e-02) (762, -8.06479305028915405273e-02) (763, 9.60037931799888610840e-02) (764, 2.22889170050621032715e-01) (765, 1.96399822831153869629e-01) (766, 5.47862201929092407227e-02) (767, 4.66801747679710388184e-02) (768, -2.54212860018014907837e-02) (769, -3.64496186375617980957e-02) (770, -2.19976127147674560547e-01) (771, -3.46555441617965698242e-01) (772, -7.13612586259841918945e-02) (773, -8.83788391947746276855e-02) (774, -2.03912258148193359375e-01) (775, -3.53643923997879028320e-01) (776, -2.14646890759468078613e-01) (777, -1.14992834627628326416e-01) (778, -1.07444763183593750000e-01) (779, -9.24721881747245788574e-02) (780, -6.74122571945190429688e-02) (781, 6.86211735010147094727e-02) (782, 7.73315951228141784668e-02) (783, 1.02517023682594299316e-01) (784, -3.10574262402951717377e-03) (785, -1.68618902564048767090e-01) (786, 2.44287654757499694824e-01) (787, -1.71437472105026245117e-01) (788, 8.96045193076133728027e-02) (789, -5.78436143696308135986e-02) (790, -6.66672736406326293945e-03) (791, 6.24576210975646972656e-02) (792, -1.06349788606166839600e-01) (793, 2.23728753626346588135e-02) (794, -8.60682502388954162598e-02) (795, -1.36078596115112304688e-01) (796, -1.14334635436534881592e-01) (797, -1.67785644531250000000e-01) (798, -2.10884109139442443848e-01) (799, -2.03919827938079833984e-01) (800, -2.40543067455291748047e-01) (801, -2.68484205007553100586e-01) (802, -1.09583415091037750244e-01) (803, 6.65083006024360656738e-02) (804, 5.84563910961151123047e-02) (805, 4.75382991135120391846e-02) (806, -3.61745208501815795898e-02) (807, -6.94507360458374023438e-02) (808, -1.34161692112684249878e-02) (809, 7.99817368388175964355e-02) (810, -3.39474827051162719727e-02) (811, 2.38111265935003757477e-03) (812, 4.68044877052307128906e-02) (813, -4.90249767899513244629e-02) (814, 6.08047563582658767700e-03) (815, -7.10407868027687072754e-02) (816, -9.14849117398262023926e-02) (817, -2.41424724459648132324e-01) (818, -1.99166595935821533203e-01) (819, -2.01697647571563720703e-01) (820, -2.90262937545776367188e-01) (821, -5.78137151896953582764e-02) (822, -9.59568750113248825073e-03) (823, -5.50595149397850036621e-02) (824, -1.71972900629043579102e-01) (825, -6.30979016423225402832e-02) (826, -1.64292514324188232422e-01) (827, -1.42997995018959045410e-01) (828, -2.45607912540435791016e-01) (829, -1.73299521207809448242e-01) (830, 1.78902829065918922424e-03) (831, -1.29571229219436645508e-01) (832, 5.90591244399547576904e-02) (833, 1.47792160511016845703e-01) (834, -3.95642042160034179688e-01) (835, 4.51989995781332254410e-04) (836, -1.15793332457542419434e-01) (837, -5.25702908635139465332e-02) (838, -4.02002185583114624023e-02) (839, -7.58233815431594848633e-02) (840, 4.83650229871273040771e-02) (841, 1.35427221655845642090e-01) (842, 1.51643663644790649414e-01) (843, 1.36465117335319519043e-01) (844, 1.85018017888069152832e-01) (845, -9.65157151222229003906e-02) (846, 1.89218800514936447144e-02) (847, -3.00401765853166580200e-02) (848, -1.85473009943962097168e-01) (849, -2.59384363889694213867e-01) (850, -1.56872048974037170410e-01) (851, -2.40094467997550964355e-01) (852, -1.56489044427871704102e-01) (853, -2.24031254649162292480e-01) (854, -1.70354217290878295898e-01) (855, -2.98383623361587524414e-01) (856, 3.07345688343048095703e-02) (857, -1.89125072211027145386e-02) (858, -1.48851349949836730957e-01) (859, -1.78765535354614257812e-01) (860, -1.14193379878997802734e-01) (861, -1.25043272972106933594e-01) (862, -7.59836509823799133301e-02) (863, 4.14418950676918029785e-02) (864, 7.34052574262022972107e-03) (865, -3.32037881016731262207e-02) (866, -1.74488350749015808105e-01) (867, -2.38730479031801223755e-03) (868, -3.03119029849767684937e-02) (869, 5.93813396990299224854e-02) (870, -1.74429807811975479126e-02) (871, 3.69911156594753265381e-02) (872, 7.72641152143478393555e-02) (873, 4.48164865374565124512e-02) (874, 1.45732924342155456543e-01) (875, 2.20383644104003906250e-01) (876, -8.09772834181785583496e-02) (877, -8.25483202934265136719e-02) (878, -5.70470467209815979004e-02) (879, -7.10095539689064025879e-02) (880, -1.31326876580715179443e-02) (881, 7.66679644584655761719e-02) (882, -1.87618553638458251953e-01) (883, -9.00378674268722534180e-02) (884, -6.57161995768547058105e-02) (885, 1.02564476430416107178e-01) (886, 2.52107623964548110962e-02) (887, -1.11415617167949676514e-01) (888, 4.86029684543609619141e-02) (889, 6.08214400708675384521e-02) (890, 5.03761470317840576172e-02) (891, 2.10009127855300903320e-01) (892, 2.12047398090362548828e-01) (893, -1.36780049651861190796e-02) (894, 3.10444124042987823486e-02) (895, 1.61373727023601531982e-02) (896, 8.68320167064666748047e-02) (897, -3.88771742582321166992e-02) (898, 8.33983719348907470703e-02) (899, -8.90957713127136230469e-02) (900, -9.64670702815055847168e-02) (0, 6.35262336730957031250e+01) (1, 1.49999987792968750000e+03) (2, 1.49999987792968750000e+03) (3, 1.49999987792968750000e+03) (4, 1.49999987792968750000e+03) (5, 1.49999987792968750000e+03) (6, 1.49999987792968750000e+03) (7, 1.49999987792968750000e+03) (8, 1.49999987792968750000e+03) (9, 1.49999194335937500000e+03) (10, 1.49999987792968750000e+03) (11, 4.66498489379882812500e+01) (12, 2.96689853668212890625e+01) (13, -1.47440161132812500000e+03) 