FANN_FLO_2.1
num_layers=3
learning_rate=0.700000
connection_rate=1.000000
network_type=0
learning_momentum=0.000000
training_algorithm=2
train_error_function=1
train_stop_function=0
cascade_output_change_fraction=0.010000
quickprop_decay=-0.000100
quickprop_mu=1.750000
rprop_increase_factor=1.200000
rprop_decrease_factor=0.500000
rprop_delta_min=0.000000
rprop_delta_max=50.000000
rprop_delta_zero=0.100000
cascade_output_stagnation_epochs=12
cascade_candidate_change_fraction=0.010000
cascade_candidate_stagnation_epochs=12
cascade_max_out_epochs=150
cascade_max_cand_epochs=150
cascade_num_candidate_groups=2
bit_fail_limit=3.49999994039535522461e-01
cascade_candidate_limit=1.00000000000000000000e+03
cascade_weight_multiplier=4.00000005960464477539e-01
cascade_activation_functions_count=10
cascade_activation_functions=3 5 7 8 10 11 14 15 16 17 
cascade_activation_steepnesses_count=4
cascade_activation_steepnesses=2.50000000000000000000e-01 5.00000000000000000000e-01 7.50000000000000000000e-01 1.00000000000000000000e+00 
layer_sizes=901 101 37 
scale_included=0
neurons (num_inputs, activation_function, activation_steepness)=(0, 0, 0.00000000000000000000e+00) (0, 0, 0.00000000000000000000e+00) (0, 0, 0.00000000000000000000e+00) (0, 0, 0.00000000000000000000e+00) (0, 0, 0.00000000000000000000e+00) (0, 0, 0.00000000000000000000e+00) (0, 0, 0.00000000000000000000e+00) (0, 0, 0.00000000000000000000e+00) (0, 0, 0.00000000000000000000e+00) (0, 0, 0.00000000000000000000e+00) (0, 0, 0.00000000000000000000e+00) (0, 0, 0.00000000000000000000e+00) (0, 0, 0.00000000000000000000e+00) (0, 0, 0.00000000000000000000e+00) (0, 0, 0.00000000000000000000e+00) (0, 0, 0.00000000000000000000e+00) (0, 0, 0.00000000000000000000e+00) (0, 0, 0.00000000000000000000e+00) (0, 0, 0.00000000000000000000e+00) (0, 0, 0.00000000000000000000e+00) (0, 0, 0.00000000000000000000e+00) (0, 0, 0.00000000000000000000e+00) (0, 0, 0.00000000000000000000e+00) (0, 0, 0.00000000000000000000e+00) (0, 0, 0.00000000000000000000e+00) (0, 0, 0.00000000000000000000e+00) (0, 0, 0.00000000000000000000e+00) (0, 0, 0.00000000000000000000e+00) (0, 0, 0.00000000000000000000e+00) (0, 0, 0.00000000000000000000e+00) (0, 0, 0.00000000000000000000e+00) (0, 0, 0.00000000000000000000e+00) (0, 0, 0.00000000000000000000e+00) (0, 0, 0.00000000000000000000e+00) (0, 0, 0.00000000000000000000e+00) (0, 0, 0.00000000000000000000e+00) (0, 0, 0.00000000000000000000e+00) (0, 0, 0.00000000000000000000e+00) (0, 0, 0.00000000000000000000e+00) (0, 0, 0.00000000000000000000e+00) (0, 0, 0.00000000000000000000e+00) (0, 0, 0.00000000000000000000e+00) (0, 0, 0.00000000000000000000e+00) (0, 0, 0.00000000000000000000e+00) (0, 0, 0.00000000000000000000e+00) (0, 0, 0.00000000000000000000e+00) (0, 0, 0.00000000000000000000e+00) (0, 0, 0.00000000000000000000e+00) (0, 0, 0.00000000000000000000e+00) (0, 0, 0.00000000000000000000e+00) (0, 0, 0.00000000000000000000e+00) (0, 0, 0.00000000000000000000e+00) (0, 0, 0.00000000000000000000e+00) (0, 0, 0.00000000000000000000e+00) (0, 0, 0.00000000000000000000e+00) (0, 0, 0.00000000000000000000e+00) (0, 0, 0.00000000000000000000e+00) (0, 0, 0.00000000000000000000e+00) (0, 0, 0.00000000000000000000e+00) (0, 0, 0.00000000000000000000e+00) (0, 0, 0.00000000000000000000e+00) (0, 0, 0.00000000000000000000e+00) (0, 0, 0.00000000000000000000e+00) (0, 0, 0.00000000000000000000e+00) (0, 0, 0.00000000000000000000e+00) (0, 0, 0.00000000000000000000e+00) (0, 0, 0.00000000000000000000e+00) (0, 0, 0.00000000000000000000e+00) (0, 0, 0.00000000000000000000e+00) (0, 0, 0.00000000000000000000e+00) (0, 0, 0.00000000000000000000e+00) (0, 0, 0.00000000000000000000e+00) (0, 0, 0.00000000000000000000e+00) (0, 0, 0.00000000000000000000e+00) (0, 0, 0.00000000000000000000e+00) (0, 0, 0.00000000000000000000e+00) (0, 0, 0.00000000000000000000e+00) (0, 0, 0.00000000000000000000e+00) (0, 0, 0.00000000000000000000e+00) (0, 0, 0.00000000000000000000e+00) (0, 0, 0.00000000000000000000e+00) (0, 0, 0.00000000000000000000e+00) (0, 0, 0.00000000000000000000e+00) (0, 0, 0.00000000000000000000e+00) (0, 0, 0.00000000000000000000e+00) (0, 0, 0.00000000000000000000e+00) (0, 0, 0.00000000000000000000e+00) (0, 0, 0.00000000000000000000e+00) (0, 0, 0.00000000000000000000e+00) (0, 0, 0.00000000000000000000e+00) (0, 0, 0.00000000000000000000e+00) (0, 0, 0.00000000000000000000e+00) (0, 0, 0.00000000000000000000e+00) (0, 0, 0.00000000000000000000e+00) (0, 0, 0.00000000000000000000e+00) (0, 0, 0.00000000000000000000e+00) (0, 0, 0.00000000000000000000e+00) (0, 0, 0.00000000000000000000e+00) (0, 0, 0.00000000000000000000e+00) (0, 0, 0.00000000000000000000e+00) (0, 0, 0.00000000000000000000e+00) (0, 0, 0.00000000000000000000e+00) (0, 0, 0.00000000000000000000e+00) (0, 0, 0.00000000000000000000e+00) (0, 0, 0.00000000000000000000e+00) (0, 0, 0.00000000000000000000e+00) (0, 0, 0.00000000000000000000e+00) (0, 0, 0.00000000000000000000e+00) (0, 0, 0.00000000000000000000e+00) (0, 0, 0.00000000000000000000e+00) (0, 0, 0.00000000000000000000e+00) (0, 0, 0.00000000000000000000e+00) (0, 0, 0.00000000000000000000e+00) (0, 0, 0.00000000000000000000e+00) (0, 0, 0.00000000000000000000e+00) (0, 0, 0.00000000000000000000e+00) (0, 0, 0.00000000000000000000e+00) (0, 0, 0.00000000000000000000e+00) (0, 0, 0.00000000000000000000e+00) (0, 0, 0.00000000000000000000e+00) (0, 0, 0.00000000000000000000e+00) (0, 0, 0.00000000000000000000e+00) (0, 0, 0.00000000000000000000e+00) (0, 0, 0.00000000000000000000e+00) (0, 0, 0.00000000000000000000e+00) (0, 0, 0.00000000000000000000e+00) (0, 0, 0.00000000000000000000e+00) (0, 0, 0.00000000000000000000e+00) (0, 0, 0.00000000000000000000e+00) (0, 0, 0.00000000000000000000e+00) (0, 0, 0.00000000000000000000e+00) (0, 0, 0.00000000000000000000e+00) (0, 0, 0.00000000000000000000e+00) (0, 0, 0.00000000000000000000e+00) (0, 0, 0.00000000000000000000e+00) (0, 0, 0.00000000000000000000e+00) (0, 0, 0.00000000000000000000e+00) (0, 0, 0.00000000000000000000e+00) (0, 0, 0.00000000000000000000e+00) (0, 0, 0.00000000000000000000e+00) (0, 0, 0.00000000000000000000e+00) (0, 0, 0.00000000000000000000e+00) (0, 0, 0.00000000000000000000e+00) (0, 0, 0.00000000000000000000e+00) (0, 0, 0.00000000000000000000e+00) (0, 0, 0.00000000000000000000e+00) (0, 0, 0.00000000000000000000e+00) (0, 0, 0.00000000000000000000e+00) (0, 0, 0.00000000000000000000e+00) (0, 0, 0.00000000000000000000e+00) (0, 0, 0.00000000000000000000e+00) (0, 0, 0.00000000000000000000e+00) (0, 0, 0.00000000000000000000e+00) (0, 0, 0.00000000000000000000e+00) (0, 0, 0.00000000000000000000e+00) (0, 0, 0.00000000000000000000e+00) (0, 0, 0.00000000000000000000e+00) (0, 0, 0.00000000000000000000e+00) (0, 0, 0.00000000000000000000e+00) (0, 0, 0.00000000000000000000e+00) (0, 0, 0.00000000000000000000e+00) (0, 0, 0.00000000000000000000e+00) (0, 0, 0.00000000000000000000e+00) (0, 0, 0.00000000000000000000e+00) (0, 0, 0.00000000000000000000e+00) (0, 0, 0.00000000000000000000e+00) (0, 0, 0.00000000000000000000e+00) (0, 0, 0.00000000000000000000e+00) (0, 0, 0.00000000000000000000e+00) (0, 0, 0.00000000000000000000e+00) (0, 0, 0.00000000000000000000e+00) (0, 0, 0.00000000000000000000e+00) (0, 0, 0.00000000000000000000e+00) (0, 0, 0.00000000000000000000e+00) (0, 0, 0.00000000000000000000e+00) (0, 0, 0.00000000000000000000e+00) (0, 0, 0.00000000000000000000e+00) (0, 0, 0.00000000000000000000e+00) (0, 0, 0.00000000000000000000e+00) (0, 0, 0.00000000000000000000e+00) (0, 0, 0.00000000000000000000e+00) (0, 0, 0.00000000000000000000e+00) (0, 0, 0.00000000000000000000e+00) (0, 0, 0.00000000000000000000e+00) (0, 0, 0.00000000000000000000e+00) (0, 0, 0.00000000000000000000e+00) (0, 0, 0.00000000000000000000e+00) (0, 0, 0.00000000000000000000e+00) (0, 0, 0.00000000000000000000e+00) (0, 0, 0.00000000000000000000e+00) (0, 0, 0.00000000000000000000e+00) (0, 0, 0.00000000000000000000e+00) (0, 0, 0.00000000000000000000e+00) (0, 0, 0.00000000000000000000e+00) (0, 0, 0.00000000000000000000e+00) (0, 0, 0.00000000000000000000e+00) (0, 0, 0.00000000000000000000e+00) (0, 0, 0.00000000000000000000e+00) (0, 0, 0.00000000000000000000e+00) (0, 0, 0.00000000000000000000e+00) (0, 0, 0.00000000000000000000e+00) (0, 0, 0.00000000000000000000e+00) (0, 0, 0.00000000000000000000e+00) (0, 0, 0.00000000000000000000e+00) (0, 0, 0.00000000000000000000e+00) (0, 0, 0.00000000000000000000e+00) (0, 0, 0.00000000000000000000e+00) (0, 0, 0.00000000000000000000e+00) (0, 0, 0.00000000000000000000e+00) (0, 0, 0.00000000000000000000e+00) (0, 0, 0.00000000000000000000e+00) (0, 0, 0.00000000000000000000e+00) (0, 0, 0.00000000000000000000e+00) (0, 0, 0.00000000000000000000e+00) (0, 0, 0.00000000000000000000e+00) (0, 0, 0.00000000000000000000e+00) (0, 0, 0.00000000000000000000e+00) (0, 0, 0.00000000000000000000e+00) (0, 0, 0.00000000000000000000e+00) (0, 0, 0.00000000000000000000e+00) (0, 0, 0.00000000000000000000e+00) (0, 0, 0.00000000000000000000e+00) (0, 0, 0.00000000000000000000e+00) (0, 0, 0.00000000000000000000e+00) (0, 0, 0.00000000000000000000e+00) (0, 0, 0.00000000000000000000e+00) (0, 0, 0.00000000000000000000e+00) (0, 0, 0.00000000000000000000e+00) (0, 0, 0.00000000000000000000e+00) (0, 0, 0.00000000000000000000e+00) (0, 0, 0.00000000000000000000e+00) (0, 0, 0.00000000000000000000e+00) (0, 0, 0.00000000000000000000e+00) (0, 0, 0.00000000000000000000e+00) (0, 0, 0.00000000000000000000e+00) (0, 0, 0.00000000000000000000e+00) (0, 0, 0.00000000000000000000e+00) (0, 0, 0.00000000000000000000e+00) (0, 0, 0.00000000000000000000e+00) (0, 0, 0.00000000000000000000e+00) (0, 0, 0.00000000000000000000e+00) (0, 0, 0.00000000000000000000e+00) (0, 0, 0.00000000000000000000e+00) (0, 0, 0.00000000000000000000e+00) (0, 0, 0.00000000000000000000e+00) (0, 0, 0.00000000000000000000e+00) (0, 0, 0.00000000000000000000e+00) (0, 0, 0.00000000000000000000e+00) (0, 0, 0.00000000000000000000e+00) (0, 0, 0.00000000000000000000e+00) (0, 0, 0.00000000000000000000e+00) (0, 0, 0.00000000000000000000e+00) (0, 0, 0.00000000000000000000e+00) (0, 0, 0.00000000000000000000e+00) (0, 0, 0.00000000000000000000e+00) (0, 0, 0.00000000000000000000e+00) (0, 0, 0.00000000000000000000e+00) (0, 0, 0.00000000000000000000e+00) (0, 0, 0.00000000000000000000e+00) (0, 0, 0.00000000000000000000e+00) (0, 0, 0.00000000000000000000e+00) (0, 0, 0.00000000000000000000e+00) (0, 0, 0.00000000000000000000e+00) (0, 0, 0.00000000000000000000e+00) (0, 0, 0.00000000000000000000e+00) (0, 0, 0.00000000000000000000e+00) (0, 0, 0.00000000000000000000e+00) (0, 0, 0.00000000000000000000e+00) (0, 0, 0.00000000000000000000e+00) (0, 0, 0.00000000000000000000e+00) (0, 0, 0.00000000000000000000e+00) (0, 0, 0.00000000000000000000e+00) (0, 0, 0.00000000000000000000e+00) (0, 0, 0.00000000000000000000e+00) (0, 0, 0.00000000000000000000e+00) (0, 0, 0.00000000000000000000e+00) (0, 0, 0.00000000000000000000e+00) (0, 0, 0.00000000000000000000e+00) (0, 0, 0.00000000000000000000e+00) (0, 0, 0.00000000000000000000e+00) (0, 0, 0.00000000000000000000e+00) (0, 0, 0.00000000000000000000e+00) (0, 0, 0.00000000000000000000e+00) (0, 0, 0.00000000000000000000e+00) (0, 0, 0.00000000000000000000e+00) (0, 0, 0.00000000000000000000e+00) (0, 0, 0.00000000000000000000e+00) (0, 0, 0.00000000000000000000e+00) (0, 0, 0.00000000000000000000e+00) (0, 0, 0.00000000000000000000e+00) (0, 0, 0.00000000000000000000e+00) (0, 0, 0.00000000000000000000e+00) (0, 0, 0.00000000000000000000e+00) (0, 0, 0.00000000000000000000e+00) (0, 0, 0.00000000000000000000e+00) (0, 0, 0.00000000000000000000e+00) (0, 0, 0.00000000000000000000e+00) (0, 0, 0.00000000000000000000e+00) (0, 0, 0.00000000000000000000e+00) (0, 0, 0.00000000000000000000e+00) (0, 0, 0.00000000000000000000e+00) (0, 0, 0.00000000000000000000e+00) (0, 0, 0.00000000000000000000e+00) (0, 0, 0.00000000000000000000e+00) (0, 0, 0.00000000000000000000e+00) (0, 0, 0.00000000000000000000e+00) (0, 0, 0.00000000000000000000e+00) (0, 0, 0.00000000000000000000e+00) (0, 0, 0.00000000000000000000e+00) (0, 0, 0.00000000000000000000e+00) (0, 0, 0.00000000000000000000e+00) (0, 0, 0.00000000000000000000e+00) (0, 0, 0.00000000000000000000e+00) (0, 0, 0.00000000000000000000e+00) (0, 0, 0.00000000000000000000e+00) (0, 0, 0.00000000000000000000e+00) (0, 0, 0.00000000000000000000e+00) (0, 0, 0.00000000000000000000e+00) (0, 0, 0.00000000000000000000e+00) (0, 0, 0.00000000000000000000e+00) (0, 0, 0.00000000000000000000e+00) (0, 0, 0.00000000000000000000e+00) (0, 0, 0.00000000000000000000e+00) (0, 0, 0.00000000000000000000e+00) (0, 0, 0.00000000000000000000e+00) (0, 0, 0.00000000000000000000e+00) (0, 0, 0.00000000000000000000e+00) (0, 0, 0.00000000000000000000e+00) (0, 0, 0.00000000000000000000e+00) (0, 0, 0.00000000000000000000e+00) (0, 0, 0.00000000000000000000e+00) (0, 0, 0.00000000000000000000e+00) (0, 0, 0.00000000000000000000e+00) (0, 0, 0.00000000000000000000e+00) (0, 0, 0.00000000000000000000e+00) (0, 0, 0.00000000000000000000e+00) (0, 0, 0.00000000000000000000e+00) (0, 0, 0.00000000000000000000e+00) (0, 0, 0.00000000000000000000e+00) (0, 0, 0.00000000000000000000e+00) (0, 0, 0.00000000000000000000e+00) (0, 0, 0.00000000000000000000e+00) (0, 0, 0.00000000000000000000e+00) (0, 0, 0.00000000000000000000e+00) (0, 0, 0.00000000000000000000e+00) (0, 0, 0.00000000000000000000e+00) (0, 0, 0.00000000000000000000e+00) (0, 0, 0.00000000000000000000e+00) (0, 0, 0.00000000000000000000e+00) (0, 0, 0.00000000000000000000e+00) (0, 0, 0.00000000000000000000e+00) (0, 0, 0.00000000000000000000e+00) (0, 0, 0.00000000000000000000e+00) (0, 0, 0.00000000000000000000e+00) (0, 0, 0.00000000000000000000e+00) (0, 0, 0.00000000000000000000e+00) (0, 0, 0.00000000000000000000e+00) (0, 0, 0.00000000000000000000e+00) (0, 0, 0.00000000000000000000e+00) (0, 0, 0.00000000000000000000e+00) (0, 0, 0.00000000000000000000e+00) (0, 0, 0.00000000000000000000e+00) (0, 0, 0.00000000000000000000e+00) (0, 0, 0.00000000000000000000e+00) (0, 0, 0.00000000000000000000e+00) (0, 0, 0.00000000000000000000e+00) (0, 0, 0.00000000000000000000e+00) (0, 0, 0.00000000000000000000e+00) (0, 0, 0.00000000000000000000e+00) (0, 0, 0.00000000000000000000e+00) (0, 0, 0.00000000000000000000e+00) (0, 0, 0.00000000000000000000e+00) (0, 0, 0.00000000000000000000e+00) (0, 0, 0.00000000000000000000e+00) (0, 0, 0.00000000000000000000e+00) (0, 0, 0.00000000000000000000e+00) (0, 0, 0.00000000000000000000e+00) (0, 0, 0.00000000000000000000e+00) (0, 0, 0.00000000000000000000e+00) (0, 0, 0.00000000000000000000e+00) (0, 0, 0.00000000000000000000e+00) (0, 0, 0.00000000000000000000e+00) (0, 0, 0.00000000000000000000e+00) (0, 0, 0.00000000000000000000e+00) (0, 0, 0.00000000000000000000e+00) (0, 0, 0.00000000000000000000e+00) (0, 0, 0.00000000000000000000e+00) (0, 0, 0.00000000000000000000e+00) (0, 0, 0.00000000000000000000e+00) (0, 0, 0.00000000000000000000e+00) (0, 0, 0.00000000000000000000e+00) (0, 0, 0.00000000000000000000e+00) (0, 0, 0.00000000000000000000e+00) (0, 0, 0.00000000000000000000e+00) (0, 0, 0.00000000000000000000e+00) (0, 0, 0.00000000000000000000e+00) (0, 0, 0.00000000000000000000e+00) (0, 0, 0.00000000000000000000e+00) (0, 0, 0.00000000000000000000e+00) (0, 0, 0.00000000000000000000e+00) (0, 0, 0.00000000000000000000e+00) (0, 0, 0.00000000000000000000e+00) (0, 0, 0.00000000000000000000e+00) (0, 0, 0.00000000000000000000e+00) (0, 0, 0.00000000000000000000e+00) (0, 0, 0.00000000000000000000e+00) (0, 0, 0.00000000000000000000e+00) (0, 0, 0.00000000000000000000e+00) (0, 0, 0.00000000000000000000e+00) (0, 0, 0.00000000000000000000e+00) (0, 0, 0.00000000000000000000e+00) (0, 0, 0.00000000000000000000e+00) (0, 0, 0.00000000000000000000e+00) (0, 0, 0.00000000000000000000e+00) (0, 0, 0.00000000000000000000e+00) (0, 0, 0.00000000000000000000e+00) (0, 0, 0.00000000000000000000e+00) (0, 0, 0.00000000000000000000e+00) (0, 0, 0.00000000000000000000e+00) (0, 0, 0.00000000000000000000e+00) (0, 0, 0.00000000000000000000e+00) (0, 0, 0.00000000000000000000e+00) (0, 0, 0.00000000000000000000e+00) (0, 0, 0.00000000000000000000e+00) (0, 0, 0.00000000000000000000e+00) (0, 0, 0.00000000000000000000e+00) (0, 0, 0.00000000000000000000e+00) (0, 0, 0.00000000000000000000e+00) (0, 0, 0.00000000000000000000e+00) (0, 0, 0.00000000000000000000e+00) (0, 0, 0.00000000000000000000e+00) (0, 0, 0.00000000000000000000e+00) (0, 0, 0.00000000000000000000e+00) (0, 0, 0.00000000000000000000e+00) (0, 0, 0.00000000000000000000e+00) (0, 0, 0.00000000000000000000e+00) (0, 0, 0.00000000000000000000e+00) (0, 0, 0.00000000000000000000e+00) (0, 0, 0.00000000000000000000e+00) (0, 0, 0.00000000000000000000e+00) (0, 0, 0.00000000000000000000e+00) (0, 0, 0.00000000000000000000e+00) (0, 0, 0.00000000000000000000e+00) (0, 0, 0.00000000000000000000e+00) (0, 0, 0.00000000000000000000e+00) (0, 0, 0.00000000000000000000e+00) (0, 0, 0.00000000000000000000e+00) (0, 0, 0.00000000000000000000e+00) (0, 0, 0.00000000000000000000e+00) (0, 0, 0.00000000000000000000e+00) (0, 0, 0.00000000000000000000e+00) (0, 0, 0.00000000000000000000e+00) (0, 0, 0.00000000000000000000e+00) (0, 0, 0.00000000000000000000e+00) (0, 0, 0.00000000000000000000e+00) (0, 0, 0.00000000000000000000e+00) (0, 0, 0.00000000000000000000e+00) (0, 0, 0.00000000000000000000e+00) (0, 0, 0.00000000000000000000e+00) (0, 0, 0.00000000000000000000e+00) (0, 0, 0.00000000000000000000e+00) (0, 0, 0.00000000000000000000e+00) (0, 0, 0.00000000000000000000e+00) (0, 0, 0.00000000000000000000e+00) (0, 0, 0.00000000000000000000e+00) (0, 0, 0.00000000000000000000e+00) (0, 0, 0.00000000000000000000e+00) (0, 0, 0.00000000000000000000e+00) (0, 0, 0.00000000000000000000e+00) (0, 0, 0.00000000000000000000e+00) (0, 0, 0.00000000000000000000e+00) (0, 0, 0.00000000000000000000e+00) (0, 0, 0.00000000000000000000e+00) (0, 0, 0.00000000000000000000e+00) (0, 0, 0.00000000000000000000e+00) (0, 0, 0.00000000000000000000e+00) (0, 0, 0.00000000000000000000e+00) (0, 0, 0.00000000000000000000e+00) (0, 0, 0.00000000000000000000e+00) (0, 0, 0.00000000000000000000e+00) (0, 0, 0.00000000000000000000e+00) (0, 0, 0.00000000000000000000e+00) (0, 0, 0.00000000000000000000e+00) (0, 0, 0.00000000000000000000e+00) (0, 0, 0.00000000000000000000e+00) (0, 0, 0.00000000000000000000e+00) (0, 0, 0.00000000000000000000e+00) (0, 0, 0.00000000000000000000e+00) (0, 0, 0.00000000000000000000e+00) (0, 0, 0.00000000000000000000e+00) (0, 0, 0.00000000000000000000e+00) (0, 0, 0.00000000000000000000e+00) (0, 0, 0.00000000000000000000e+00) (0, 0, 0.00000000000000000000e+00) (0, 0, 0.00000000000000000000e+00) (0, 0, 0.00000000000000000000e+00) (0, 0, 0.00000000000000000000e+00) (0, 0, 0.00000000000000000000e+00) (0, 0, 0.00000000000000000000e+00) (0, 0, 0.00000000000000000000e+00) (0, 0, 0.00000000000000000000e+00) (0, 0, 0.00000000000000000000e+00) (0, 0, 0.00000000000000000000e+00) (0, 0, 0.00000000000000000000e+00) (0, 0, 0.00000000000000000000e+00) (0, 0, 0.00000000000000000000e+00) (0, 0, 0.00000000000000000000e+00) (0, 0, 0.00000000000000000000e+00) (0, 0, 0.00000000000000000000e+00) (0, 0, 0.00000000000000000000e+00) (0, 0, 0.00000000000000000000e+00) (0, 0, 0.00000000000000000000e+00) (0, 0, 0.00000000000000000000e+00) (0, 0, 0.00000000000000000000e+00) (0, 0, 0.00000000000000000000e+00) (0, 0, 0.00000000000000000000e+00) (0, 0, 0.00000000000000000000e+00) (0, 0, 0.00000000000000000000e+00) (0, 0, 0.00000000000000000000e+00) (0, 0, 0.00000000000000000000e+00) (0, 0, 0.00000000000000000000e+00) (0, 0, 0.00000000000000000000e+00) (0, 0, 0.00000000000000000000e+00) (0, 0, 0.00000000000000000000e+00) (0, 0, 0.00000000000000000000e+00) (0, 0, 0.00000000000000000000e+00) (0, 0, 0.00000000000000000000e+00) (0, 0, 0.00000000000000000000e+00) (0, 0, 0.00000000000000000000e+00) (0, 0, 0.00000000000000000000e+00) (0, 0, 0.00000000000000000000e+00) (0, 0, 0.00000000000000000000e+00) (0, 0, 0.00000000000000000000e+00) (0, 0, 0.00000000000000000000e+00) (0, 0, 0.00000000000000000000e+00) (0, 0, 0.00000000000000000000e+00) (0, 0, 0.00000000000000000000e+00) (0, 0, 0.00000000000000000000e+00) (0, 0, 0.00000000000000000000e+00) (0, 0, 0.00000000000000000000e+00) (0, 0, 0.00000000000000000000e+00) (0, 0, 0.00000000000000000000e+00) (0, 0, 0.00000000000000000000e+00) (0, 0, 0.00000000000000000000e+00) (0, 0, 0.00000000000000000000e+00) (0, 0, 0.00000000000000000000e+00) (0, 0, 0.00000000000000000000e+00) (0, 0, 0.00000000000000000000e+00) (0, 0, 0.00000000000000000000e+00) (0, 0, 0.00000000000000000000e+00) (0, 0, 0.00000000000000000000e+00) (0, 0, 0.00000000000000000000e+00) (0, 0, 0.00000000000000000000e+00) (0, 0, 0.00000000000000000000e+00) (0, 0, 0.00000000000000000000e+00) (0, 0, 0.00000000000000000000e+00) (0, 0, 0.00000000000000000000e+00) (0, 0, 0.00000000000000000000e+00) (0, 0, 0.00000000000000000000e+00) (0, 0, 0.00000000000000000000e+00) (0, 0, 0.00000000000000000000e+00) (0, 0, 0.00000000000000000000e+00) (0, 0, 0.00000000000000000000e+00) (0, 0, 0.00000000000000000000e+00) (0, 0, 0.00000000000000000000e+00) (0, 0, 0.00000000000000000000e+00) (0, 0, 0.00000000000000000000e+00) (0, 0, 0.00000000000000000000e+00) (0, 0, 0.00000000000000000000e+00) (0, 0, 0.00000000000000000000e+00) (0, 0, 0.00000000000000000000e+00) (0, 0, 0.00000000000000000000e+00) (0, 0, 0.00000000000000000000e+00) (0, 0, 0.00000000000000000000e+00) (0, 0, 0.00000000000000000000e+00) (0, 0, 0.00000000000000000000e+00) (0, 0, 0.00000000000000000000e+00) (0, 0, 0.00000000000000000000e+00) (0, 0, 0.00000000000000000000e+00) (0, 0, 0.00000000000000000000e+00) (0, 0, 0.00000000000000000000e+00) (0, 0, 0.00000000000000000000e+00) (0, 0, 0.00000000000000000000e+00) (0, 0, 0.00000000000000000000e+00) (0, 0, 0.00000000000000000000e+00) (0, 0, 0.00000000000000000000e+00) (0, 0, 0.00000000000000000000e+00) (0, 0, 0.00000000000000000000e+00) (0, 0, 0.00000000000000000000e+00) (0, 0, 0.00000000000000000000e+00) (0, 0, 0.00000000000000000000e+00) (0, 0, 0.00000000000000000000e+00) (0, 0, 0.00000000000000000000e+00) (0, 0, 0.00000000000000000000e+00) (0, 0, 0.00000000000000000000e+00) (0, 0, 0.00000000000000000000e+00) (0, 0, 0.00000000000000000000e+00) (0, 0, 0.00000000000000000000e+00) (0, 0, 0.00000000000000000000e+00) (0, 0, 0.00000000000000000000e+00) (0, 0, 0.00000000000000000000e+00) (0, 0, 0.00000000000000000000e+00) (0, 0, 0.00000000000000000000e+00) (0, 0, 0.00000000000000000000e+00) (0, 0, 0.00000000000000000000e+00) (0, 0, 0.00000000000000000000e+00) (0, 0, 0.00000000000000000000e+00) (0, 0, 0.00000000000000000000e+00) (0, 0, 0.00000000000000000000e+00) (0, 0, 0.00000000000000000000e+00) (0, 0, 0.00000000000000000000e+00) (0, 0, 0.00000000000000000000e+00) (0, 0, 0.00000000000000000000e+00) (0, 0, 0.00000000000000000000e+00) (0, 0, 0.00000000000000000000e+00) (0, 0, 0.00000000000000000000e+00) (0, 0, 0.00000000000000000000e+00) (0, 0, 0.00000000000000000000e+00) (0, 0, 0.00000000000000000000e+00) (0, 0, 0.00000000000000000000e+00) (0, 0, 0.00000000000000000000e+00) (0, 0, 0.00000000000000000000e+00) (0, 0, 0.00000000000000000000e+00) (0, 0, 0.00000000000000000000e+00) (0, 0, 0.00000000000000000000e+00) (0, 0, 0.00000000000000000000e+00) (0, 0, 0.00000000000000000000e+00) (0, 0, 0.00000000000000000000e+00) (0, 0, 0.00000000000000000000e+00) (0, 0, 0.00000000000000000000e+00) (0, 0, 0.00000000000000000000e+00) (0, 0, 0.00000000000000000000e+00) (0, 0, 0.00000000000000000000e+00) (0, 0, 0.00000000000000000000e+00) (0, 0, 0.00000000000000000000e+00) (0, 0, 0.00000000000000000000e+00) (0, 0, 0.00000000000000000000e+00) (0, 0, 0.00000000000000000000e+00) (0, 0, 0.00000000000000000000e+00) (0, 0, 0.00000000000000000000e+00) (0, 0, 0.00000000000000000000e+00) (0, 0, 0.00000000000000000000e+00) (0, 0, 0.00000000000000000000e+00) (0, 0, 0.00000000000000000000e+00) (0, 0, 0.00000000000000000000e+00) (0, 0, 0.00000000000000000000e+00) (0, 0, 0.00000000000000000000e+00) (0, 0, 0.00000000000000000000e+00) (0, 0, 0.00000000000000000000e+00) (0, 0, 0.00000000000000000000e+00) (0, 0, 0.00000000000000000000e+00) (0, 0, 0.00000000000000000000e+00) (0, 0, 0.00000000000000000000e+00) (0, 0, 0.00000000000000000000e+00) (0, 0, 0.00000000000000000000e+00) (0, 0, 0.00000000000000000000e+00) (0, 0, 0.00000000000000000000e+00) (0, 0, 0.00000000000000000000e+00) (0, 0, 0.00000000000000000000e+00) (0, 0, 0.00000000000000000000e+00) (0, 0, 0.00000000000000000000e+00) (0, 0, 0.00000000000000000000e+00) (0, 0, 0.00000000000000000000e+00) (0, 0, 0.00000000000000000000e+00) (0, 0, 0.00000000000000000000e+00) (0, 0, 0.00000000000000000000e+00) (0, 0, 0.00000000000000000000e+00) (0, 0, 0.00000000000000000000e+00) (0, 0, 0.00000000000000000000e+00) (0, 0, 0.00000000000000000000e+00) (0, 0, 0.00000000000000000000e+00) (0, 0, 0.00000000000000000000e+00) (0, 0, 0.00000000000000000000e+00) (0, 0, 0.00000000000000000000e+00) (0, 0, 0.00000000000000000000e+00) (0, 0, 0.00000000000000000000e+00) (0, 0, 0.00000000000000000000e+00) (0, 0, 0.00000000000000000000e+00) (0, 0, 0.00000000000000000000e+00) (0, 0, 0.00000000000000000000e+00) (0, 0, 0.00000000000000000000e+00) (0, 0, 0.00000000000000000000e+00) (0, 0, 0.00000000000000000000e+00) (0, 0, 0.00000000000000000000e+00) (0, 0, 0.00000000000000000000e+00) (0, 0, 0.00000000000000000000e+00) (0, 0, 0.00000000000000000000e+00) (0, 0, 0.00000000000000000000e+00) (0, 0, 0.00000000000000000000e+00) (0, 0, 0.00000000000000000000e+00) (0, 0, 0.00000000000000000000e+00) (0, 0, 0.00000000000000000000e+00) (0, 0, 0.00000000000000000000e+00) (0, 0, 0.00000000000000000000e+00) (0, 0, 0.00000000000000000000e+00) (0, 0, 0.00000000000000000000e+00) (0, 0, 0.00000000000000000000e+00) (0, 0, 0.00000000000000000000e+00) (0, 0, 0.00000000000000000000e+00) (0, 0, 0.00000000000000000000e+00) (0, 0, 0.00000000000000000000e+00) (0, 0, 0.00000000000000000000e+00) (0, 0, 0.00000000000000000000e+00) (0, 0, 0.00000000000000000000e+00) (0, 0, 0.00000000000000000000e+00) (0, 0, 0.00000000000000000000e+00) (0, 0, 0.00000000000000000000e+00) (0, 0, 0.00000000000000000000e+00) (0, 0, 0.00000000000000000000e+00) (0, 0, 0.00000000000000000000e+00) (0, 0, 0.00000000000000000000e+00) (0, 0, 0.00000000000000000000e+00) (0, 0, 0.00000000000000000000e+00) (0, 0, 0.00000000000000000000e+00) (0, 0, 0.00000000000000000000e+00) (0, 0, 0.00000000000000000000e+00) (0, 0, 0.00000000000000000000e+00) (0, 0, 0.00000000000000000000e+00) (0, 0, 0.00000000000000000000e+00) (0, 0, 0.00000000000000000000e+00) (0, 0, 0.00000000000000000000e+00) (0, 0, 0.00000000000000000000e+00) (0, 0, 0.00000000000000000000e+00) (0, 0, 0.00000000000000000000e+00) (0, 0, 0.00000000000000000000e+00) (0, 0, 0.00000000000000000000e+00) (0, 0, 0.00000000000000000000e+00) (0, 0, 0.00000000000000000000e+00) (0, 0, 0.00000000000000000000e+00) (0, 0, 0.00000000000000000000e+00) (0, 0, 0.00000000000000000000e+00) (0, 0, 0.00000000000000000000e+00) (0, 0, 0.00000000000000000000e+00) (0, 0, 0.00000000000000000000e+00) (0, 0, 0.00000000000000000000e+00) (0, 0, 0.00000000000000000000e+00) (0, 0, 0.00000000000000000000e+00) (0, 0, 0.00000000000000000000e+00) (0, 0, 0.00000000000000000000e+00) (0, 0, 0.00000000000000000000e+00) (0, 0, 0.00000000000000000000e+00) (0, 0, 0.00000000000000000000e+00) (0, 0, 0.00000000000000000000e+00) (0, 0, 0.00000000000000000000e+00) (0, 0, 0.00000000000000000000e+00) (0, 0, 0.00000000000000000000e+00) (0, 0, 0.00000000000000000000e+00) (0, 0, 0.00000000000000000000e+00) (0, 0, 0.00000000000000000000e+00) (0, 0, 0.00000000000000000000e+00) (0, 0, 0.00000000000000000000e+00) (0, 0, 0.00000000000000000000e+00) (0, 0, 0.00000000000000000000e+00) (0, 0, 0.00000000000000000000e+00) (0, 0, 0.00000000000000000000e+00) (0, 0, 0.00000000000000000000e+00) (0, 0, 0.00000000000000000000e+00) (0, 0, 0.00000000000000000000e+00) (0, 0, 0.00000000000000000000e+00) (0, 0, 0.00000000000000000000e+00) (0, 0, 0.00000000000000000000e+00) (0, 0, 0.00000000000000000000e+00) (0, 0, 0.00000000000000000000e+00) (0, 0, 0.00000000000000000000e+00) (0, 0, 0.00000000000000000000e+00) (0, 0, 0.00000000000000000000e+00) (0, 0, 0.00000000000000000000e+00) (0, 0, 0.00000000000000000000e+00) (0, 0, 0.00000000000000000000e+00) (0, 0, 0.00000000000000000000e+00) (0, 0, 0.00000000000000000000e+00) (0, 0, 0.00000000000000000000e+00) (0, 0, 0.00000000000000000000e+00) (0, 0, 0.00000000000000000000e+00) (0, 0, 0.00000000000000000000e+00) (0, 0, 0.00000000000000000000e+00) (0, 0, 0.00000000000000000000e+00) (0, 0, 0.00000000000000000000e+00) (0, 0, 0.00000000000000000000e+00) (0, 0, 0.00000000000000000000e+00) (0, 0, 0.00000000000000000000e+00) (0, 0, 0.00000000000000000000e+00) (0, 0, 0.00000000000000000000e+00) (0, 0, 0.00000000000000000000e+00) (0, 0, 0.00000000000000000000e+00) (0, 0, 0.00000000000000000000e+00) (0, 0, 0.00000000000000000000e+00) (0, 0, 0.00000000000000000000e+00) (0, 0, 0.00000000000000000000e+00) (0, 0, 0.00000000000000000000e+00) (0, 0, 0.00000000000000000000e+00) (0, 0, 0.00000000000000000000e+00) (0, 0, 0.00000000000000000000e+00) (0, 0, 0.00000000000000000000e+00) (0, 0, 0.00000000000000000000e+00) (0, 0, 0.00000000000000000000e+00) (0, 0, 0.00000000000000000000e+00) (0, 0, 0.00000000000000000000e+00) (0, 0, 0.00000000000000000000e+00) (0, 0, 0.00000000000000000000e+00) (0, 0, 0.00000000000000000000e+00) (0, 0, 0.00000000000000000000e+00) (0, 0, 0.00000000000000000000e+00) (0, 0, 0.00000000000000000000e+00) (0, 0, 0.00000000000000000000e+00) (0, 0, 0.00000000000000000000e+00) (0, 0, 0.00000000000000000000e+00) (0, 0, 0.00000000000000000000e+00) (0, 0, 0.00000000000000000000e+00) (0, 0, 0.00000000000000000000e+00) (0, 0, 0.00000000000000000000e+00) (0, 0, 0.00000000000000000000e+00) (0, 0, 0.00000000000000000000e+00) (0, 0, 0.00000000000000000000e+00) (0, 0, 0.00000000000000000000e+00) (0, 0, 0.00000000000000000000e+00) (0, 0, 0.00000000000000000000e+00) (0, 0, 0.00000000000000000000e+00) (0, 0, 0.00000000000000000000e+00) (0, 0, 0.00000000000000000000e+00) (0, 0, 0.00000000000000000000e+00) (0, 0, 0.00000000000000000000e+00) (0, 0, 0.00000000000000000000e+00) (0, 0, 0.00000000000000000000e+00) (0, 0, 0.00000000000000000000e+00) (0, 0, 0.00000000000000000000e+00) (0, 0, 0.00000000000000000000e+00) (0, 0, 0.00000000000000000000e+00) (0, 0, 0.00000000000000000000e+00) (0, 0, 0.00000000000000000000e+00) (0, 0, 0.00000000000000000000e+00) (0, 0, 0.00000000000000000000e+00) (0, 0, 0.00000000000000000000e+00) (0, 0, 0.00000000000000000000e+00) (0, 0, 0.00000000000000000000e+00) (0, 0, 0.00000000000000000000e+00) (0, 0, 0.00000000000000000000e+00) (0, 0, 0.00000000000000000000e+00) (0, 0, 0.00000000000000000000e+00) (0, 0, 0.00000000000000000000e+00) (0, 0, 0.00000000000000000000e+00) (0, 0, 0.00000000000000000000e+00) (0, 0, 0.00000000000000000000e+00) (0, 0, 0.00000000000000000000e+00) (0, 0, 0.00000000000000000000e+00) (0, 0, 0.00000000000000000000e+00) (0, 0, 0.00000000000000000000e+00) (0, 0, 0.00000000000000000000e+00) (0, 0, 0.00000000000000000000e+00) (0, 0, 0.00000000000000000000e+00) (0, 0, 0.00000000000000000000e+00) (0, 0, 0.00000000000000000000e+00) (0, 0, 0.00000000000000000000e+00) (0, 0, 0.00000000000000000000e+00) (0, 0, 0.00000000000000000000e+00) (0, 0, 0.00000000000000000000e+00) (0, 0, 0.00000000000000000000e+00) (0, 0, 0.00000000000000000000e+00) (0, 0, 0.00000000000000000000e+00) (0, 0, 0.00000000000000000000e+00) (0, 0, 0.00000000000000000000e+00) (0, 0, 0.00000000000000000000e+00) (0, 0, 0.00000000000000000000e+00) (0, 0, 0.00000000000000000000e+00) (0, 0, 0.00000000000000000000e+00) (0, 0, 0.00000000000000000000e+00) (0, 0, 0.00000000000000000000e+00) (0, 0, 0.00000000000000000000e+00) (0, 0, 0.00000000000000000000e+00) (0, 0, 0.00000000000000000000e+00) (0, 0, 0.00000000000000000000e+00) (0, 0, 0.00000000000000000000e+00) (0, 0, 0.00000000000000000000e+00) (0, 0, 0.00000000000000000000e+00) (0, 0, 0.00000000000000000000e+00) (0, 0, 0.00000000000000000000e+00) (0, 0, 0.00000000000000000000e+00) (0, 0, 0.00000000000000000000e+00) (0, 0, 0.00000000000000000000e+00) (0, 0, 0.00000000000000000000e+00) (0, 0, 0.00000000000000000000e+00) (0, 0, 0.00000000000000000000e+00) (0, 0, 0.00000000000000000000e+00) (0, 0, 0.00000000000000000000e+00) (0, 0, 0.00000000000000000000e+00) (0, 0, 0.00000000000000000000e+00) (0, 0, 0.00000000000000000000e+00) (0, 0, 0.00000000000000000000e+00) (0, 0, 0.00000000000000000000e+00) (0, 0, 0.00000000000000000000e+00) (0, 0, 0.00000000000000000000e+00) (0, 0, 0.00000000000000000000e+00) (0, 0, 0.00000000000000000000e+00) (0, 0, 0.00000000000000000000e+00) (0, 0, 0.00000000000000000000e+00) (0, 0, 0.00000000000000000000e+00) (0, 0, 0.00000000000000000000e+00) (0, 0, 0.00000000000000000000e+00) (0, 0, 0.00000000000000000000e+00) (0, 0, 0.00000000000000000000e+00) (0, 0, 0.00000000000000000000e+00) (901, 10, 5.00000000000000000000e-01) (901, 10, 5.00000000000000000000e-01) (901, 10, 5.00000000000000000000e-01) (901, 10, 5.00000000000000000000e-01) (901, 10, 5.00000000000000000000e-01) (901, 10, 5.00000000000000000000e-01) (901, 10, 5.00000000000000000000e-01) (901, 10, 5.00000000000000000000e-01) (901, 10, 5.00000000000000000000e-01) (901, 10, 5.00000000000000000000e-01) (901, 10, 5.00000000000000000000e-01) (901, 10, 5.00000000000000000000e-01) (901, 10, 5.00000000000000000000e-01) (901, 10, 5.00000000000000000000e-01) (901, 10, 5.00000000000000000000e-01) (901, 10, 5.00000000000000000000e-01) (901, 10, 5.00000000000000000000e-01) (901, 10, 5.00000000000000000000e-01) (901, 10, 5.00000000000000000000e-01) (901, 10, 5.00000000000000000000e-01) (901, 10, 5.00000000000000000000e-01) (901, 10, 5.00000000000000000000e-01) (901, 10, 5.00000000000000000000e-01) (901, 10, 5.00000000000000000000e-01) (901, 10, 5.00000000000000000000e-01) (901, 10, 5.00000000000000000000e-01) (901, 10, 5.00000000000000000000e-01) (901, 10, 5.00000000000000000000e-01) (901, 10, 5.00000000000000000000e-01) (901, 10, 5.00000000000000000000e-01) (901, 10, 5.00000000000000000000e-01) (901, 10, 5.00000000000000000000e-01) (901, 10, 5.00000000000000000000e-01) (901, 10, 5.00000000000000000000e-01) (901, 10, 5.00000000000000000000e-01) (901, 10, 5.00000000000000000000e-01) (901, 10, 5.00000000000000000000e-01) (901, 10, 5.00000000000000000000e-01) (901, 10, 5.00000000000000000000e-01) (901, 10, 5.00000000000000000000e-01) (901, 10, 5.00000000000000000000e-01) (901, 10, 5.00000000000000000000e-01) (901, 10, 5.00000000000000000000e-01) (901, 10, 5.00000000000000000000e-01) (901, 10, 5.00000000000000000000e-01) (901, 10, 5.00000000000000000000e-01) (901, 10, 5.00000000000000000000e-01) (901, 10, 5.00000000000000000000e-01) (901, 10, 5.00000000000000000000e-01) (901, 10, 5.00000000000000000000e-01) (901, 10, 5.00000000000000000000e-01) (901, 10, 5.00000000000000000000e-01) (901, 10, 5.00000000000000000000e-01) (901, 10, 5.00000000000000000000e-01) (901, 10, 5.00000000000000000000e-01) (901, 10, 5.00000000000000000000e-01) (901, 10, 5.00000000000000000000e-01) (901, 10, 5.00000000000000000000e-01) (901, 10, 5.00000000000000000000e-01) (901, 10, 5.00000000000000000000e-01) (901, 10, 5.00000000000000000000e-01) (901, 10, 5.00000000000000000000e-01) (901, 10, 5.00000000000000000000e-01) (901, 10, 5.00000000000000000000e-01) (901, 10, 5.00000000000000000000e-01) (901, 10, 5.00000000000000000000e-01) (901, 10, 5.00000000000000000000e-01) (901, 10, 5.00000000000000000000e-01) (901, 10, 5.00000000000000000000e-01) (901, 10, 5.00000000000000000000e-01) (901, 10, 5.00000000000000000000e-01) (901, 10, 5.00000000000000000000e-01) (901, 10, 5.00000000000000000000e-01) (901, 10, 5.00000000000000000000e-01) (901, 10, 5.00000000000000000000e-01) (901, 10, 5.00000000000000000000e-01) (901, 10, 5.00000000000000000000e-01) (901, 10, 5.00000000000000000000e-01) (901, 10, 5.00000000000000000000e-01) (901, 10, 5.00000000000000000000e-01) (901, 10, 5.00000000000000000000e-01) (901, 10, 5.00000000000000000000e-01) (901, 10, 5.00000000000000000000e-01) (901, 10, 5.00000000000000000000e-01) (901, 10, 5.00000000000000000000e-01) (901, 10, 5.00000000000000000000e-01) (901, 10, 5.00000000000000000000e-01) (901, 10, 5.00000000000000000000e-01) (901, 10, 5.00000000000000000000e-01) (901, 10, 5.00000000000000000000e-01) (901, 10, 5.00000000000000000000e-01) (901, 10, 5.00000000000000000000e-01) (901, 10, 5.00000000000000000000e-01) (901, 10, 5.00000000000000000000e-01) (901, 10, 5.00000000000000000000e-01) (901, 10, 5.00000000000000000000e-01) (901, 10, 5.00000000000000000000e-01) (901, 10, 5.00000000000000000000e-01) (901, 10, 5.00000000000000000000e-01) (901, 10, 5.00000000000000000000e-01) (0, 10, 0.00000000000000000000e+00) (101, 10, 5.00000000000000000000e-01) (101, 10, 5.00000000000000000000e-01) (101, 10, 5.00000000000000000000e-01) (101, 10, 5.00000000000000000000e-01) (101, 10, 5.00000000000000000000e-01) (101, 10, 5.00000000000000000000e-01) (101, 10, 5.00000000000000000000e-01) (101, 10, 5.00000000000000000000e-01) (101, 10, 5.00000000000000000000e-01) (101, 10, 5.00000000000000000000e-01) (101, 10, 5.00000000000000000000e-01) (101, 10, 5.00000000000000000000e-01) (101, 10, 5.00000000000000000000e-01) (101, 10, 5.00000000000000000000e-01) (101, 10, 5.00000000000000000000e-01) (101, 10, 5.00000000000000000000e-01) (101, 10, 5.00000000000000000000e-01) (101, 10, 5.00000000000000000000e-01) (101, 10, 5.00000000000000000000e-01) (101, 10, 5.00000000000000000000e-01) (101, 10, 5.00000000000000000000e-01) (101, 10, 5.00000000000000000000e-01) (101, 10, 5.00000000000000000000e-01) (101, 10, 5.00000000000000000000e-01) (101, 10, 5.00000000000000000000e-01) (101, 10, 5.00000000000000000000e-01) (101, 10, 5.00000000000000000000e-01) (101, 10, 5.00000000000000000000e-01) (101, 10, 5.00000000000000000000e-01) (101, 10, 5.00000000000000000000e-01) (101, 10, 5.00000000000000000000e-01) (101, 10, 5.00000000000000000000e-01) (101, 10, 5.00000000000000000000e-01) (101, 10, 5.00000000000000000000e-01) (101, 10, 5.00000000000000000000e-01) (101, 10, 5.00000000000000000000e-01) (0, 10, 0.00000000000000000000e+00) 
connections (connected_to_neuron, weight)=(0, 1.50000000000000000000e+03) (1, 1.50000000000000000000e+03) (2, 1.50000000000000000000e+03) (3, 1.50000000000000000000e+03) (4, 1.50000000000000000000e+03) (5, 1.50000000000000000000e+03) (6, 1.50000000000000000000e+03) (7, 1.50000000000000000000e+03) (8, 1.50000000000000000000e+03) (9, 1.50000000000000000000e+03) (10, 1.50000000000000000000e+03) (11, 1.50000000000000000000e+03) (12, 1.49989562988281250000e+03) (13, 1.49999987792968750000e+03) (14, 1.49999963378906250000e+03) (15, 1.49999768066406250000e+03) (16, 1.21780614852905273438e+01) (17, 3.68681597709655761719e+00) (18, 4.04542970657348632812e+00) (19, 6.85853719711303710938e+00) (20, 2.01922397613525390625e+01) (21, 1.49999987792968750000e+03) (22, 1.50000000000000000000e+03) (23, 1.50000000000000000000e+03) (24, 1.50000000000000000000e+03) (25, 1.50000000000000000000e+03) (26, 1.50000000000000000000e+03) (27, 1.50000000000000000000e+03) (28, 1.50000000000000000000e+03) (29, 1.50000000000000000000e+03) (30, 1.50000000000000000000e+03) (31, 1.50000000000000000000e+03) (32, 1.50000000000000000000e+03) (33, 1.50000000000000000000e+03) (34, 1.50000000000000000000e+03) (35, 1.50000000000000000000e+03) (36, 1.50000000000000000000e+03) (37, 1.50000000000000000000e+03) (38, 1.50000000000000000000e+03) (39, 1.50000000000000000000e+03) (40, 1.50000000000000000000e+03) (41, 1.50000000000000000000e+03) (42, 6.63134231567382812500e+01) (43, 3.76444292068481445312e+00) (44, -4.31338405609130859375e+00) (45, -1.49612927246093750000e+03) (46, -1.49612927246093750000e+03) (47, -1.50000000000000000000e+03) (48, -1.49612927246093750000e+03) (49, -1.49612927246093750000e+03) (50, -8.98864501953125000000e+02) (51, 4.33951997756958007812e+00) (52, 1.49989562988281250000e+03) (53, 1.50000000000000000000e+03) (54, 1.50000000000000000000e+03) (55, 1.50000000000000000000e+03) (56, 1.50000000000000000000e+03) (57, 1.50000000000000000000e+03) (58, 1.50000000000000000000e+03) (59, 1.50000000000000000000e+03) (60, 1.50000000000000000000e+03) (61, 1.50000000000000000000e+03) (62, 1.50000000000000000000e+03) (63, 1.50000000000000000000e+03) (64, 1.50000000000000000000e+03) (65, 1.50000000000000000000e+03) (66, 1.50000000000000000000e+03) (67, 1.50000000000000000000e+03) (68, 1.50000000000000000000e+03) (69, 1.50000000000000000000e+03) (70, 1.50000000000000000000e+03) (71, 5.16195739746093750000e+02) (72, 8.46911334991455078125e+00) (73, -1.85419494628906250000e+02) (74, -1.50000000000000000000e+03) (75, -1.50000000000000000000e+03) (76, -1.50000000000000000000e+03) (77, -1.50000000000000000000e+03) (78, -1.50000000000000000000e+03) (79, -1.50000000000000000000e+03) (80, -1.50000000000000000000e+03) (81, -1.49832788085937500000e+03) (82, 1.49854199218750000000e+03) (83, 1.50000000000000000000e+03) (84, 1.50000000000000000000e+03) (85, 1.50000000000000000000e+03) (86, 1.50000000000000000000e+03) (87, 1.50000000000000000000e+03) (88, 1.50000000000000000000e+03) (89, 1.50000000000000000000e+03) (90, 1.50000000000000000000e+03) (91, 1.50000000000000000000e+03) (92, 1.50000000000000000000e+03) (93, 1.50000000000000000000e+03) (94, 1.50000000000000000000e+03) (95, 1.50000000000000000000e+03) (96, 1.50000000000000000000e+03) (97, 1.50000000000000000000e+03) (98, 1.50000000000000000000e+03) (99, 1.50000000000000000000e+03) (100, 1.50000000000000000000e+03) (101, 6.05302062988281250000e+02) (102, 4.65178833007812500000e+01) (103, 4.07986545562744140625e+00) (104, -1.50000000000000000000e+03) (105, -1.50000000000000000000e+03) (106, -1.50000000000000000000e+03) (107, -1.50000000000000000000e+03) (108, -1.50000000000000000000e+03) (109, -1.50000000000000000000e+03) (110, -1.50000000000000000000e+03) (111, -1.49552001953125000000e+03) (112, 4.54029989242553710938e+00) (113, 1.49926440429687500000e+03) (114, 1.50000000000000000000e+03) (115, 1.50000000000000000000e+03) (116, 1.50000000000000000000e+03) (117, 1.50000000000000000000e+03) (118, 1.50000000000000000000e+03) (119, 1.50000000000000000000e+03) (120, 1.50000000000000000000e+03) (121, 1.50000000000000000000e+03) (122, 1.50000000000000000000e+03) (123, 1.50000000000000000000e+03) (124, 1.50000000000000000000e+03) (125, 1.50000000000000000000e+03) (126, 1.50000000000000000000e+03) (127, 1.50000000000000000000e+03) (128, 1.50000000000000000000e+03) (129, 1.50000000000000000000e+03) (130, 1.50000000000000000000e+03) (131, 1.50000000000000000000e+03) (132, 1.50000000000000000000e+03) (133, 2.72083625793457031250e+01) (134, 1.35979623794555664062e+01) (135, 1.18035488128662109375e+01) (136, 9.39459133148193359375e+00) (137, -2.98385524749755859375e+01) (138, -4.23260559082031250000e+02) (139, -1.25781595706939697266e-01) (140, -5.08703529834747314453e-01) (141, -8.65480899810791015625e+00) (142, 5.65350055694580078125e-01) (143, 1.49970080566406250000e+03) (144, 1.50000000000000000000e+03) (145, 1.50000000000000000000e+03) (146, 1.50000000000000000000e+03) (147, 1.50000000000000000000e+03) (148, 1.50000000000000000000e+03) (149, 1.50000000000000000000e+03) (150, 1.50000000000000000000e+03) (151, 1.50000000000000000000e+03) (152, 1.50000000000000000000e+03) (153, 1.50000000000000000000e+03) (154, 1.50000000000000000000e+03) (155, 1.50000000000000000000e+03) (156, 1.50000000000000000000e+03) (157, 1.50000000000000000000e+03) (158, 1.50000000000000000000e+03) (159, 1.50000000000000000000e+03) (160, 1.50000000000000000000e+03) (161, 1.50000000000000000000e+03) (162, 1.50000000000000000000e+03) (163, 1.50000000000000000000e+03) (164, 1.50000000000000000000e+03) (165, 1.49974963378906250000e+03) (166, 3.80314660072326660156e+00) (167, 1.65674591064453125000e+00) (168, 2.14048910140991210938e+00) (169, 1.50000000000000000000e+03) (170, 1.50000000000000000000e+03) (171, 1.50000000000000000000e+03) (172, 1.50000000000000000000e+03) (173, 1.50000000000000000000e+03) (174, 1.50000000000000000000e+03) (175, 1.50000000000000000000e+03) (176, 1.50000000000000000000e+03) (177, 1.50000000000000000000e+03) (178, 1.50000000000000000000e+03) (179, 1.50000000000000000000e+03) (180, 1.50000000000000000000e+03) (181, 1.50000000000000000000e+03) (182, 1.50000000000000000000e+03) (183, 1.50000000000000000000e+03) (184, 1.50000000000000000000e+03) (185, 1.50000000000000000000e+03) (186, 1.50000000000000000000e+03) (187, 1.50000000000000000000e+03) (188, 1.50000000000000000000e+03) (189, 1.50000000000000000000e+03) (190, 1.50000000000000000000e+03) (191, 1.50000000000000000000e+03) (192, 1.50000000000000000000e+03) (193, 1.50000000000000000000e+03) (194, 1.50000000000000000000e+03) (195, 1.50000000000000000000e+03) (196, 8.44883728027343750000e+01) (197, 1.76020002365112304688e+00) (198, 2.47690353393554687500e+02) (199, 1.50000000000000000000e+03) (200, 1.50000000000000000000e+03) (201, 1.50000000000000000000e+03) (202, 1.50000000000000000000e+03) (203, 1.50000000000000000000e+03) (204, 1.50000000000000000000e+03) (205, 1.50000000000000000000e+03) (206, 1.50000000000000000000e+03) (207, 1.50000000000000000000e+03) (208, 1.50000000000000000000e+03) (209, 1.50000000000000000000e+03) (210, 1.50000000000000000000e+03) (211, 1.50000000000000000000e+03) (212, 1.49999987792968750000e+03) (213, 1.50000000000000000000e+03) (214, 1.49999987792968750000e+03) (215, 1.50000000000000000000e+03) (216, 1.50000000000000000000e+03) (217, 1.50000000000000000000e+03) (218, 1.50000000000000000000e+03) (219, 1.50000000000000000000e+03) (220, 1.50000000000000000000e+03) (221, 1.50000000000000000000e+03) (222, 1.50000000000000000000e+03) (223, 1.50000000000000000000e+03) (224, 1.50000000000000000000e+03) (225, 1.58293502807617187500e+02) (226, 8.76521706581115722656e-01) (227, 7.95450627803802490234e-01) (228, 7.28044331073760986328e-01) (229, 7.19690084457397460938e+00) (230, 1.50000000000000000000e+03) (231, 1.50000000000000000000e+03) (232, 1.50000000000000000000e+03) (233, 1.50000000000000000000e+03) (234, 1.50000000000000000000e+03) (235, 1.50000000000000000000e+03) (236, 1.50000000000000000000e+03) (237, 1.50000000000000000000e+03) (238, 1.50000000000000000000e+03) (239, 1.50000000000000000000e+03) (240, 1.49992724609375000000e+03) (241, 1.49989562988281250000e+03) (242, 1.49999987792968750000e+03) (243, 1.50000000000000000000e+03) (244, 1.50000000000000000000e+03) (245, 1.50000000000000000000e+03) (246, 1.50000000000000000000e+03) (247, 1.50000000000000000000e+03) (248, 1.50000000000000000000e+03) (249, 1.50000000000000000000e+03) (250, 1.50000000000000000000e+03) (251, 1.50000000000000000000e+03) (252, 1.50000000000000000000e+03) (253, 1.50000000000000000000e+03) (254, 1.50000000000000000000e+03) (255, 8.52744827270507812500e+01) (256, 8.29319715499877929688e-01) (257, 1.03451001644134521484e+00) (258, 7.38168895244598388672e-01) (259, 6.96285545825958251953e-01) (260, 8.69709551334381103516e-01) (261, 1.50000000000000000000e+03) (262, 1.50000000000000000000e+03) (263, 1.50000000000000000000e+03) (264, 1.50000000000000000000e+03) (265, 1.50000000000000000000e+03) (266, 1.50000000000000000000e+03) (267, 1.50000000000000000000e+03) (268, 1.50000000000000000000e+03) (269, 1.50000000000000000000e+03) (270, 1.50000000000000000000e+03) (271, 1.50000000000000000000e+03) (272, 1.50000000000000000000e+03) (273, 1.50000000000000000000e+03) (274, 1.50000000000000000000e+03) (275, 1.50000000000000000000e+03) (276, 1.50000000000000000000e+03) (277, 1.50000000000000000000e+03) (278, 1.50000000000000000000e+03) (279, 1.50000000000000000000e+03) (280, 1.50000000000000000000e+03) (281, 1.50000000000000000000e+03) (282, 1.50000000000000000000e+03) (283, 1.50000000000000000000e+03) (284, 1.50000000000000000000e+03) (285, 1.49992724609375000000e+03) (286, 2.08954524993896484375e+00) (287, 6.36638879776000976562e-01) (288, 5.27895092964172363281e-01) (289, 5.22980809211730957031e-01) (290, 2.64516663551330566406e+00) (291, 1.50000000000000000000e+03) (292, 1.50000000000000000000e+03) (293, 1.50000000000000000000e+03) (294, 1.50000000000000000000e+03) (295, 1.50000000000000000000e+03) (296, 1.50000000000000000000e+03) (297, 1.50000000000000000000e+03) (298, 1.50000000000000000000e+03) (299, 1.50000000000000000000e+03) (300, 1.50000000000000000000e+03) (301, 1.50000000000000000000e+03) (302, 1.50000000000000000000e+03) (303, 1.50000000000000000000e+03) (304, 1.50000000000000000000e+03) (305, 1.50000000000000000000e+03) (306, 1.50000000000000000000e+03) (307, 1.50000000000000000000e+03) (308, 1.50000000000000000000e+03) (309, 1.50000000000000000000e+03) (310, 1.50000000000000000000e+03) (311, 1.50000000000000000000e+03) (312, 1.50000000000000000000e+03) (313, 1.50000000000000000000e+03) (314, 1.50000000000000000000e+03) (315, 1.50000000000000000000e+03) (316, 9.38178558349609375000e+01) (317, 6.96126997470855712891e-01) (318, 6.31345808506011962891e-01) (319, 6.75500512123107910156e-01) (320, 2.22802400588989257812e+00) (321, 1.50000000000000000000e+03) (322, 1.50000000000000000000e+03) (323, 1.50000000000000000000e+03) (324, 1.50000000000000000000e+03) (325, 1.50000000000000000000e+03) (326, 1.50000000000000000000e+03) (327, 1.50000000000000000000e+03) (328, 1.50000000000000000000e+03) (329, 1.50000000000000000000e+03) (330, 1.50000000000000000000e+03) (331, 1.50000000000000000000e+03) (332, 1.50000000000000000000e+03) (333, 1.50000000000000000000e+03) (334, 1.50000000000000000000e+03) (335, 1.50000000000000000000e+03) (336, 1.50000000000000000000e+03) (337, 1.50000000000000000000e+03) (338, 1.50000000000000000000e+03) (339, 1.50000000000000000000e+03) (340, 1.50000000000000000000e+03) (341, 1.50000000000000000000e+03) (342, 1.50000000000000000000e+03) (343, 1.50000000000000000000e+03) (344, 1.50000000000000000000e+03) (345, 1.50000000000000000000e+03) (346, 1.50000000000000000000e+03) (347, 2.71764993667602539062e+00) (348, 6.86552643775939941406e-01) (349, 7.89364337921142578125e-01) (350, 1.01545464992523193359e+00) (351, 2.30005092620849609375e+01) (352, 1.50000000000000000000e+03) (353, 1.50000000000000000000e+03) (354, 1.50000000000000000000e+03) (355, 1.50000000000000000000e+03) (356, 1.50000000000000000000e+03) (357, 1.50000000000000000000e+03) (358, 1.50000000000000000000e+03) (359, 1.50000000000000000000e+03) (360, 1.50000000000000000000e+03) (361, 1.50000000000000000000e+03) (362, 1.50000000000000000000e+03) (363, 1.50000000000000000000e+03) (364, 1.50000000000000000000e+03) (365, 1.50000000000000000000e+03) (366, 1.50000000000000000000e+03) (367, 1.50000000000000000000e+03) (368, 1.50000000000000000000e+03) (369, 1.50000000000000000000e+03) (370, 1.50000000000000000000e+03) (371, 1.50000000000000000000e+03) (372, 1.50000000000000000000e+03) (373, 1.50000000000000000000e+03) (374, 1.50000000000000000000e+03) (375, 1.50000000000000000000e+03) (376, 1.50000000000000000000e+03) (377, 1.50000000000000000000e+03) (378, 8.55681037902832031250e+00) (379, 8.31942200660705566406e-01) (380, 7.01737582683563232422e-01) (381, 4.29573822021484375000e+00) (382, 1.39373181152343750000e+03) (383, 1.50000000000000000000e+03) (384, 1.50000000000000000000e+03) (385, 1.50000000000000000000e+03) (386, 1.50000000000000000000e+03) (387, 1.50000000000000000000e+03) (388, 1.50000000000000000000e+03) (389, 1.50000000000000000000e+03) (390, 1.50000000000000000000e+03) (391, 1.50000000000000000000e+03) (392, 1.50000000000000000000e+03) (393, 1.50000000000000000000e+03) (394, 1.50000000000000000000e+03) (395, 1.50000000000000000000e+03) (396, 1.50000000000000000000e+03) (397, 1.50000000000000000000e+03) (398, 1.50000000000000000000e+03) (399, 1.50000000000000000000e+03) (400, 1.50000000000000000000e+03) (401, 1.50000000000000000000e+03) (402, 1.50000000000000000000e+03) (403, 1.50000000000000000000e+03) (404, 1.50000000000000000000e+03) (405, 1.50000000000000000000e+03) (406, 1.50000000000000000000e+03) (407, 1.50000000000000000000e+03) (408, 1.50000000000000000000e+03) (409, 1.77374565601348876953e+00) (410, 4.21637415885925292969e-01) (411, -1.04829321289062500000e+03) (412, 8.87934684753417968750e-01) (413, 7.50986251831054687500e+01) (414, 1.50000000000000000000e+03) (415, 1.50000000000000000000e+03) (416, 1.50000000000000000000e+03) (417, 1.50000000000000000000e+03) (418, 1.50000000000000000000e+03) (419, 1.50000000000000000000e+03) (420, 1.50000000000000000000e+03) (421, 1.50000000000000000000e+03) (422, 1.50000000000000000000e+03) (423, 1.50000000000000000000e+03) (424, 1.50000000000000000000e+03) (425, 1.50000000000000000000e+03) (426, 1.50000000000000000000e+03) (427, 1.50000000000000000000e+03) (428, 1.50000000000000000000e+03) (429, 1.50000000000000000000e+03) (430, 1.50000000000000000000e+03) (431, 1.50000000000000000000e+03) (432, 1.50000000000000000000e+03) (433, 1.50000000000000000000e+03) (434, 1.50000000000000000000e+03) (435, 1.50000000000000000000e+03) (436, 1.50000000000000000000e+03) (437, 1.50000000000000000000e+03) (438, 1.50000000000000000000e+03) (439, 6.86807823181152343750e+00) (440, 1.27682733535766601562e+00) (441, -1.48774890136718750000e+03) (442, -1.53197565078735351562e+01) (443, -7.47162520885467529297e-01) (444, 1.35728530883789062500e+02) (445, 1.50000000000000000000e+03) (446, 1.50000000000000000000e+03) (447, 1.50000000000000000000e+03) (448, 1.50000000000000000000e+03) (449, 1.50000000000000000000e+03) (450, 1.50000000000000000000e+03) (451, 1.50000000000000000000e+03) (452, 1.50000000000000000000e+03) (453, 1.50000000000000000000e+03) (454, 1.50000000000000000000e+03) (455, 1.50000000000000000000e+03) (456, 1.50000000000000000000e+03) (457, 1.50000000000000000000e+03) (458, 1.50000000000000000000e+03) (459, 1.50000000000000000000e+03) (460, 1.50000000000000000000e+03) (461, 1.50000000000000000000e+03) (462, 1.50000000000000000000e+03) (463, 1.50000000000000000000e+03) (464, 1.50000000000000000000e+03) (465, 1.50000000000000000000e+03) (466, 1.50000000000000000000e+03) (467, 1.50000000000000000000e+03) (468, 1.50000000000000000000e+03) (469, 8.47940139770507812500e+01) (470, 2.68023997545242309570e-01) (471, -1.88643627166748046875e+01) (472, -2.42922520637512207031e+00) (473, -1.04478340148925781250e+02) (474, 5.51394402980804443359e-01) (475, 2.18372845649719238281e+00) (476, 1.50000000000000000000e+03) (477, 1.50000000000000000000e+03) (478, 1.50000000000000000000e+03) (479, 1.50000000000000000000e+03) (480, 1.50000000000000000000e+03) (481, 1.50000000000000000000e+03) (482, 1.50000000000000000000e+03) (483, 1.50000000000000000000e+03) (484, 1.50000000000000000000e+03) (485, 1.50000000000000000000e+03) (486, 1.50000000000000000000e+03) (487, 1.50000000000000000000e+03) (488, 1.50000000000000000000e+03) (489, 1.50000000000000000000e+03) (490, 1.50000000000000000000e+03) (491, 1.50000000000000000000e+03) (492, 1.50000000000000000000e+03) (493, 1.50000000000000000000e+03) (494, 1.50000000000000000000e+03) (495, 1.50000000000000000000e+03) (496, 1.50000000000000000000e+03) (497, 1.50000000000000000000e+03) (498, 1.50000000000000000000e+03) (499, 1.64139419555664062500e+02) (500, 1.97211861610412597656e+00) (501, -1.47865771484375000000e+03) (502, -1.49637927246093750000e+03) (503, -1.49832788085937500000e+03) (504, -1.08781242370605468750e+01) (505, 6.87760829925537109375e-01) (506, 8.73211503028869628906e-01) (507, 7.79655075073242187500e+00) (508, 1.50000000000000000000e+03) (509, 1.50000000000000000000e+03) (510, 1.50000000000000000000e+03) (511, 1.50000000000000000000e+03) (512, 1.50000000000000000000e+03) (513, 1.50000000000000000000e+03) (514, 1.50000000000000000000e+03) (515, 1.50000000000000000000e+03) (516, 1.50000000000000000000e+03) (517, 1.50000000000000000000e+03) (518, 1.50000000000000000000e+03) (519, 1.50000000000000000000e+03) (520, 1.50000000000000000000e+03) (521, 1.50000000000000000000e+03) (522, 1.50000000000000000000e+03) (523, 1.50000000000000000000e+03) (524, 1.50000000000000000000e+03) (525, 1.50000000000000000000e+03) (526, 1.50000000000000000000e+03) (527, 1.50000000000000000000e+03) (528, 1.50000000000000000000e+03) (529, 1.49999609375000000000e+03) (530, 7.80460023880004882812e+00) (531, -1.82534110546112060547e+00) (532, -1.52408666610717773438e+01) (533, -1.49521691894531250000e+03) (534, -6.21927108764648437500e+01) (535, 3.15980672836303710938e-01) (536, 6.94515824317932128906e-01) (537, 9.41797733306884765625e-01) (538, 2.57239475250244140625e+01) (539, 1.50000000000000000000e+03) (540, 1.44941970825195312500e+02) (541, 3.46361297607421875000e+02) (542, 5.56715087890625000000e+02) (543, 1.49443334960937500000e+03) (544, 1.50000000000000000000e+03) (545, 1.50000000000000000000e+03) (546, 1.50000000000000000000e+03) (547, 1.50000000000000000000e+03) (548, 1.50000000000000000000e+03) (549, 1.50000000000000000000e+03) (550, 1.50000000000000000000e+03) (551, 1.50000000000000000000e+03) (552, 1.50000000000000000000e+03) (553, 1.50000000000000000000e+03) (554, 1.50000000000000000000e+03) (555, 1.50000000000000000000e+03) (556, 1.50000000000000000000e+03) (557, 1.50000000000000000000e+03) (558, 1.50000000000000000000e+03) (559, 1.50000000000000000000e+03) (560, 2.78591674804687500000e+02) (561, 9.78357887268066406250e+00) (562, 7.95831143856048583984e-01) (563, -2.32038474082946777344e+00) (564, 6.41142487525939941406e-01) (565, 6.72475516796112060547e-01) (566, 1.12107276916503906250e+00) (567, 2.95738792419433593750e+00) (568, 1.50000000000000000000e+03) (569, 1.50000000000000000000e+03) (570, 6.04998397827148437500e+01) (571, 3.30718612670898437500e+01) (572, 5.42097740173339843750e+01) (573, 6.93020446777343750000e+02) (574, 1.01286334228515625000e+03) (575, 1.50000000000000000000e+03) (576, 1.50000000000000000000e+03) (577, 1.50000000000000000000e+03) (578, 1.50000000000000000000e+03) (579, 1.50000000000000000000e+03) (580, 1.50000000000000000000e+03) (581, 1.50000000000000000000e+03) (582, 1.50000000000000000000e+03) (583, 1.50000000000000000000e+03) (584, 1.50000000000000000000e+03) (585, 1.50000000000000000000e+03) (586, 1.50000000000000000000e+03) (587, 1.50000000000000000000e+03) (588, 1.50000000000000000000e+03) (589, 1.50000000000000000000e+03) (590, 1.50000000000000000000e+03) (591, 5.69827270507812500000e+02) (592, 1.50000000000000000000e+03) (593, 1.75773200988769531250e+01) (594, 1.50000000000000000000e+03) (595, 1.50000000000000000000e+03) (596, 1.50000000000000000000e+03) (597, 1.50000000000000000000e+03) (598, 1.50000000000000000000e+03) (599, 1.50000000000000000000e+03) (600, 5.33166656494140625000e+01) (601, 2.75081005096435546875e+01) (602, 1.47817678451538085938e+01) (603, 5.55368835449218750000e+02) (604, 1.21119458007812500000e+03) (605, 1.50000000000000000000e+03) (606, 1.50000000000000000000e+03) (607, 1.50000000000000000000e+03) (608, 1.50000000000000000000e+03) (609, 1.50000000000000000000e+03) (610, 1.50000000000000000000e+03) (611, 1.50000000000000000000e+03) (612, 1.50000000000000000000e+03) (613, 1.50000000000000000000e+03) (614, 1.50000000000000000000e+03) (615, 1.50000000000000000000e+03) (616, 1.50000000000000000000e+03) (617, 1.50000000000000000000e+03) (618, 1.50000000000000000000e+03) (619, 1.50000000000000000000e+03) (620, 1.50000000000000000000e+03) (621, 1.50000000000000000000e+03) (622, 1.50000000000000000000e+03) (623, 1.50000000000000000000e+03) (624, 1.50000000000000000000e+03) (625, 1.50000000000000000000e+03) (626, 1.50000000000000000000e+03) (627, 1.50000000000000000000e+03) (628, 1.50000000000000000000e+03) (629, 1.50000000000000000000e+03) (630, 1.82975254058837890625e+01) (631, 6.76982879638671875000e+00) (632, 1.48864965438842773438e+01) (633, 5.76486083984375000000e+02) (634, 1.25130541992187500000e+03) (635, 1.50000000000000000000e+03) (636, 1.50000000000000000000e+03) (637, 1.50000000000000000000e+03) (638, 1.50000000000000000000e+03) (639, 1.50000000000000000000e+03) (640, 1.50000000000000000000e+03) (641, 1.50000000000000000000e+03) (642, 1.50000000000000000000e+03) (643, 1.50000000000000000000e+03) (644, 1.50000000000000000000e+03) (645, 1.50000000000000000000e+03) (646, 1.50000000000000000000e+03) (647, 1.50000000000000000000e+03) (648, 1.50000000000000000000e+03) (649, 1.50000000000000000000e+03) (650, 1.50000000000000000000e+03) (651, 1.50000000000000000000e+03) (652, 1.50000000000000000000e+03) (653, 1.50000000000000000000e+03) (654, 1.50000000000000000000e+03) (655, 1.50000000000000000000e+03) (656, 1.50000000000000000000e+03) (657, 1.50000000000000000000e+03) (658, 1.50000000000000000000e+03) (659, 1.50000000000000000000e+03) (660, 2.54397869110107421875e+01) (661, 1.12425203323364257812e+01) (662, 2.18994789123535156250e+01) (663, 5.27560852050781250000e+02) (664, 1.21808337402343750000e+03) (665, 1.50000000000000000000e+03) (666, 1.50000000000000000000e+03) (667, 1.50000000000000000000e+03) (668, 1.50000000000000000000e+03) (669, 1.50000000000000000000e+03) (670, 1.50000000000000000000e+03) (671, 1.50000000000000000000e+03) (672, 1.50000000000000000000e+03) (673, 1.50000000000000000000e+03) (674, 1.50000000000000000000e+03) (675, 1.50000000000000000000e+03) (676, 1.50000000000000000000e+03) (677, 1.50000000000000000000e+03) (678, 1.50000000000000000000e+03) (679, 1.50000000000000000000e+03) (680, 1.50000000000000000000e+03) (681, 1.50000000000000000000e+03) (682, 1.50000000000000000000e+03) (683, 1.50000000000000000000e+03) (684, 1.50000000000000000000e+03) (685, 1.50000000000000000000e+03) (686, 1.50000000000000000000e+03) (687, 1.50000000000000000000e+03) (688, 1.50000000000000000000e+03) (689, 1.50000000000000000000e+03) (690, 2.93561000823974609375e+01) (691, 6.93985748291015625000e+00) (692, 5.48836040496826171875e+00) (693, 3.22695404052734375000e+02) (694, 1.49998901367187500000e+03) (695, 1.50000000000000000000e+03) (696, 1.50000000000000000000e+03) (697, 1.50000000000000000000e+03) (698, 1.50000000000000000000e+03) (699, 1.50000000000000000000e+03) (700, 1.50000000000000000000e+03) (701, 1.50000000000000000000e+03) (702, 1.50000000000000000000e+03) (703, 1.50000000000000000000e+03) (704, 1.50000000000000000000e+03) (705, 1.50000000000000000000e+03) (706, 1.50000000000000000000e+03) (707, 1.50000000000000000000e+03) (708, 1.50000000000000000000e+03) (709, 1.50000000000000000000e+03) (710, 1.50000000000000000000e+03) (711, 1.50000000000000000000e+03) (712, 1.50000000000000000000e+03) (713, 1.50000000000000000000e+03) (714, 1.50000000000000000000e+03) (715, 1.50000000000000000000e+03) (716, 1.50000000000000000000e+03) (717, 1.50000000000000000000e+03) (718, 1.50000000000000000000e+03) (719, 1.50000000000000000000e+03) (720, 1.66219421386718750000e+02) (721, 9.95623874664306640625e+00) (722, 1.95584278106689453125e+01) (723, 1.50000000000000000000e+03) (724, 1.50000000000000000000e+03) (725, 1.50000000000000000000e+03) (726, 1.50000000000000000000e+03) (727, 1.50000000000000000000e+03) (728, 1.50000000000000000000e+03) (729, 1.50000000000000000000e+03) (730, 1.50000000000000000000e+03) (731, 1.50000000000000000000e+03) (732, 1.50000000000000000000e+03) (733, 1.50000000000000000000e+03) (734, 1.50000000000000000000e+03) (735, 1.50000000000000000000e+03) (736, 1.50000000000000000000e+03) (737, 1.50000000000000000000e+03) (738, 1.50000000000000000000e+03) (739, 1.50000000000000000000e+03) (740, 1.50000000000000000000e+03) (741, 1.50000000000000000000e+03) (742, 1.50000000000000000000e+03) (743, 1.50000000000000000000e+03) (744, 1.50000000000000000000e+03) (745, 1.50000000000000000000e+03) (746, 1.50000000000000000000e+03) (747, 1.50000000000000000000e+03) (748, 1.50000000000000000000e+03) (749, 1.50000000000000000000e+03) (750, 1.50000000000000000000e+03) (751, 1.50000000000000000000e+03) (752, 1.50000000000000000000e+03) (753, 1.50000000000000000000e+03) (754, 1.50000000000000000000e+03) (755, 1.50000000000000000000e+03) (756, 1.50000000000000000000e+03) (757, 1.50000000000000000000e+03) (758, 1.50000000000000000000e+03) (759, 1.50000000000000000000e+03) (760, 1.50000000000000000000e+03) (761, 1.50000000000000000000e+03) (762, 1.50000000000000000000e+03) (763, 1.50000000000000000000e+03) (764, 1.50000000000000000000e+03) (765, 1.50000000000000000000e+03) (766, 1.50000000000000000000e+03) (767, 1.50000000000000000000e+03) (768, 1.50000000000000000000e+03) (769, 1.50000000000000000000e+03) (770, 1.50000000000000000000e+03) (771, 1.50000000000000000000e+03) (772, 1.50000000000000000000e+03) (773, 1.50000000000000000000e+03) (774, 1.50000000000000000000e+03) (775, 1.50000000000000000000e+03) (776, 1.50000000000000000000e+03) (777, 1.50000000000000000000e+03) (778, 1.50000000000000000000e+03) (779, 1.50000000000000000000e+03) (780, 1.50000000000000000000e+03) (781, 1.50000000000000000000e+03) (782, 1.50000000000000000000e+03) (783, 1.50000000000000000000e+03) (784, 1.50000000000000000000e+03) (785, 1.50000000000000000000e+03) (786, 1.50000000000000000000e+03) (787, 1.50000000000000000000e+03) (788, 1.50000000000000000000e+03) (789, 1.50000000000000000000e+03) (790, 1.50000000000000000000e+03) (791, 1.48703991699218750000e+03) (792, 2.84809684753417968750e+00) (793, 7.40185618400573730469e-01) (794, 6.60515069961547851562e-01) (795, 3.14137959480285644531e+00) (796, 5.92299987792968750000e+02) (797, 1.50000000000000000000e+03) (798, 1.50000000000000000000e+03) (799, 1.50000000000000000000e+03) (800, 1.50000000000000000000e+03) (801, 1.50000000000000000000e+03) (802, 1.50000000000000000000e+03) (803, 1.50000000000000000000e+03) (804, 1.50000000000000000000e+03) (805, 1.50000000000000000000e+03) (806, 1.50000000000000000000e+03) (807, 1.50000000000000000000e+03) (808, 1.50000000000000000000e+03) (809, 1.50000000000000000000e+03) (810, 1.50000000000000000000e+03) (811, 1.50000000000000000000e+03) (812, 1.50000000000000000000e+03) (813, 1.50000000000000000000e+03) (814, 1.50000000000000000000e+03) (815, 1.50000000000000000000e+03) (816, 1.50000000000000000000e+03) (817, 1.50000000000000000000e+03) (818, 1.50000000000000000000e+03) (819, 2.79193237304687500000e+02) (820, -1.49919506835937500000e+03) (821, -1.49612927246093750000e+03) (822, -1.50000000000000000000e+03) (823, -1.50000000000000000000e+03) (824, -1.50000000000000000000e+03) (825, -1.50000000000000000000e+03) (826, -1.50000000000000000000e+03) (827, -1.50000000000000000000e+03) (828, -1.50000000000000000000e+03) (829, -1.49665576171875000000e+03) (830, -1.49336755371093750000e+03) (831, -1.49866369628906250000e+03) (832, 1.50000000000000000000e+03) (833, 1.50000000000000000000e+03) (834, 1.50000000000000000000e+03) (835, 1.50000000000000000000e+03) (836, 1.50000000000000000000e+03) (837, 1.50000000000000000000e+03) (838, 1.50000000000000000000e+03) (839, 1.50000000000000000000e+03) (840, 1.50000000000000000000e+03) (841, 1.50000000000000000000e+03) (842, 1.50000000000000000000e+03) (843, 1.50000000000000000000e+03) (844, 1.50000000000000000000e+03) (845, 1.50000000000000000000e+03) (846, 1.50000000000000000000e+03) (847, 1.50000000000000000000e+03) (848, 1.50000000000000000000e+03) (849, 1.03605053710937500000e+03) (850, -1.49665576171875000000e+03) (851, -1.50000000000000000000e+03) (852, -1.50000000000000000000e+03) (853, -1.50000000000000000000e+03) (854, -1.50000000000000000000e+03) (855, -1.50000000000000000000e+03) (856, -1.50000000000000000000e+03) (857, -1.50000000000000000000e+03) (858, -1.50000000000000000000e+03) (859, -1.50000000000000000000e+03) (860, -1.50000000000000000000e+03) (861, -1.49904211425781250000e+03) (862, 1.50000000000000000000e+03) (863, 1.50000000000000000000e+03) (864, 1.50000000000000000000e+03) (865, 1.50000000000000000000e+03) (866, 1.50000000000000000000e+03) (867, 1.50000000000000000000e+03) (868, 1.50000000000000000000e+03) (869, 1.50000000000000000000e+03) (870, 1.50000000000000000000e+03) (871, 1.50000000000000000000e+03) (872, 1.50000000000000000000e+03) (873, 1.50000000000000000000e+03) (874, 1.50000000000000000000e+03) (875, 1.50000000000000000000e+03) (876, 1.50000000000000000000e+03) (877, 1.50000000000000000000e+03) (878, 1.50000000000000000000e+03) (879, 1.50000000000000000000e+03) (880, 1.92106425762176513672e+00) (881, -1.49919506835937500000e+03) (882, -1.50000000000000000000e+03) (883, -1.50000000000000000000e+03) (884, -1.50000000000000000000e+03) (885, -1.50000000000000000000e+03) (886, -1.50000000000000000000e+03) (887, -1.50000000000000000000e+03) (888, -1.50000000000000000000e+03) (889, -1.50000000000000000000e+03) (890, 6.69218566894531250000e+02) (891, 1.49999780273437500000e+03) (892, 1.50000000000000000000e+03) (893, 1.50000000000000000000e+03) (894, 1.50000000000000000000e+03) (895, 1.50000000000000000000e+03) (896, 1.50000000000000000000e+03) (897, 1.50000000000000000000e+03) (898, 1.50000000000000000000e+03) (899, 1.50000000000000000000e+03) (900, 1.50000000000000000000e+03) (0, -2.64076497405767440796e-02) (1, 9.49521269649267196655e-03) (2, -7.82708749175071716309e-02) (3, -3.37932235561311244965e-03) (4, 6.09693229198455810547e-02) (5, 7.81607702374458312988e-02) (6, -4.40559498965740203857e-02) (7, -8.88652130961418151855e-02) (8, -4.77005168795585632324e-02) (9, 7.92161822319030761719e-02) (10, -1.50143727660179138184e-02) (11, -8.05572345852851867676e-02) (12, 1.93145722150802612305e-02) (13, -6.76687359809875488281e-02) (14, -7.92217329144477844238e-02) (15, -1.66471730917692184448e-02) (16, -7.64189064502716064453e-02) (17, -1.13215580582618713379e-01) (18, -7.32111111283302307129e-02) (19, 1.12281180918216705322e-02) (20, -1.39697298407554626465e-01) (21, -2.77513656765222549438e-02) (22, -9.03464630246162414551e-02) (23, 3.84044349193572998047e-02) (24, 5.87504543364048004150e-03) (25, -1.90418050624430179596e-03) (26, -6.71392586082220077515e-03) (27, -1.16572968661785125732e-01) (28, -2.45798975229263305664e-02) (29, -1.39134496450424194336e-01) (30, -7.48318713158369064331e-03) (31, 1.20682269334793090820e-01) (32, 5.01891523599624633789e-02) (33, 4.34921942651271820068e-02) (34, 3.65452170372009277344e-02) (35, 2.42509115487337112427e-02) (36, 1.98360551148653030396e-02) (37, 6.44286051392555236816e-02) (38, 1.70707108918577432632e-03) (39, 6.39119893312454223633e-02) (40, 4.18305769562721252441e-02) (41, 8.67939516901969909668e-02) (42, 8.76414254307746887207e-02) (43, -3.23938429355621337891e-02) (44, -6.90727233886718750000e-02) (45, -1.00506953895092010498e-01) (46, 4.31797765195369720459e-02) (47, -5.16272857785224914551e-02) (48, -6.96568936109542846680e-02) (49, -1.15480154752731323242e-01) (50, -1.25279456377029418945e-01) (51, -9.31128785014152526855e-02) (52, 4.34894021600484848022e-03) (53, -6.17741197347640991211e-02) (54, -9.18695777654647827148e-02) (55, -3.11116911470890045166e-02) (56, -1.08434379100799560547e-01) (57, 4.15461473166942596436e-02) (58, -1.01993232965469360352e-02) (59, 1.28131359815597534180e-04) (60, 9.32431519031524658203e-02) (61, 1.28271833062171936035e-01) (62, 9.63636189699172973633e-02) (63, 9.90923047065734863281e-02) (64, 2.56500422954559326172e-01) (65, 1.32638007402420043945e-01) (66, 2.71091520786285400391e-01) (67, 2.12113916873931884766e-01) (68, 1.02537028491497039795e-01) (69, -6.05229940265417098999e-03) (70, 1.33806124329566955566e-01) (71, 7.69431889057159423828e-02) (72, -5.10771609842777252197e-02) (73, 4.04977984726428985596e-02) (74, -7.05892294645309448242e-02) (75, -1.63384586572647094727e-01) (76, -1.30246147513389587402e-01) (77, -1.62121638655662536621e-01) (78, -1.48662745952606201172e-01) (79, -1.22215405106544494629e-01) (80, -1.68959960341453552246e-01) (81, -1.16000913083553314209e-01) (82, -2.15619578957557678223e-01) (83, -1.69231623411178588867e-01) (84, 1.10795870423316955566e-01) (85, -8.02304521203041076660e-02) (86, 3.43781970441341400146e-02) (87, 8.53362977504730224609e-02) (88, -1.11949741840362548828e-01) (89, -6.09167218208312988281e-02) (90, 5.39471134543418884277e-02) (91, 1.14006914198398590088e-01) (92, 3.08236945420503616333e-02) (93, 7.21078589558601379395e-02) (94, 2.41797879338264465332e-01) (95, 2.70763784646987915039e-01) (96, 3.27009946107864379883e-01) (97, 2.59979128837585449219e-01) (98, 1.50072380900382995605e-01) (99, -2.57257491350173950195e-01) (100, -2.59110718965530395508e-01) (101, -2.48676642775535583496e-01) (102, -6.35013580322265625000e-02) (103, -5.47351054847240447998e-02) (104, 2.26431339979171752930e-02) (105, -1.45775899291038513184e-01) (106, -5.02604991197586059570e-02) (107, -5.27646914124488830566e-02) (108, -4.99518960714340209961e-02) (109, 9.89181622862815856934e-02) (110, -1.00077711045742034912e-01) (111, -6.78016915917396545410e-02) (112, -1.34857460856437683105e-01) (113, -6.23155944049358367920e-02) (114, 1.95315964519977569580e-02) (115, -2.91025917977094650269e-02) (116, 8.20127222687005996704e-03) (117, 8.26605707406997680664e-02) (118, -4.01337742805480957031e-02) (119, -3.55469584465026855469e-02) (120, -4.10361960530281066895e-02) (121, -8.12008008360862731934e-02) (122, 1.10199116170406341553e-02) (123, 9.26895439624786376953e-02) (124, 1.39708131551742553711e-01) (125, 1.94379240274429321289e-01) (126, 1.56833916902542114258e-01) (127, 7.12480992078781127930e-02) (128, 5.04096820950508117676e-02) (129, -1.44520774483680725098e-01) (130, -4.26343688741326332092e-03) (131, -1.41495361924171447754e-01) (132, -8.05725380778312683105e-02) (133, -1.02411933243274688721e-01) (134, -4.44333516061305999756e-02) (135, -8.93863439559936523438e-02) (136, -1.13427668809890747070e-01) (137, -1.42268210649490356445e-01) (138, -1.35788515210151672363e-01) (139, -5.79032264649868011475e-02) (140, -1.65086939930915832520e-01) (141, 6.42989501357078552246e-02) (142, -6.02723215706646442413e-04) (143, -1.99697259813547134399e-03) (144, -9.94425499811768531799e-04) (145, 2.39857748150825500488e-01) (146, 2.85648286342620849609e-01) (147, 7.83029943704605102539e-02) (148, 1.58076453953981399536e-02) (149, -5.57954199612140655518e-02) (150, 9.13633629679679870605e-02) (151, -9.83285605907440185547e-02) (152, -1.57929665874689817429e-03) (153, 1.79769247770309448242e-02) (154, 9.34075191617012023926e-02) (155, 2.45566681027412414551e-01) (156, -1.39031127095222473145e-01) (157, -1.14217370748519897461e-01) (158, -5.81876486539840698242e-02) (159, 2.61762663722038269043e-02) (160, -1.31476372480392456055e-01) (161, -1.40304759144783020020e-01) (162, -8.62858220934867858887e-02) (163, 3.15608992241322994232e-03) (164, -1.83501258492469787598e-01) (165, -3.36186587810516357422e-02) (166, -1.62581965327262878418e-01) (167, -2.17808317393064498901e-02) (168, -3.02884448319673538208e-02) (169, -1.32166326045989990234e-01) (170, -1.65245696902275085449e-01) (171, -2.31289602816104888916e-02) (172, 1.73069369047880172729e-02) (173, 8.61896798014640808105e-02) (174, 1.88673406839370727539e-01) (175, 2.78873831033706665039e-01) (176, 9.16163101792335510254e-02) (177, -9.07734408974647521973e-03) (178, -5.45038878917694091797e-02) (179, -6.38160556554794311523e-02) (180, 2.00817603617906570435e-02) (181, -5.47596067190170288086e-02) (182, -3.24257500469684600830e-02) (183, -5.62212467193603515625e-02) (184, 5.02169765532016754150e-02) (185, -1.31495267152786254883e-01) (186, 1.44007811322808265686e-02) (187, 6.51204958558082580566e-02) (188, -1.04809470474720001221e-01) (189, -5.49989081919193267822e-02) (190, -2.32468312606215476990e-03) (191, -5.49877323210239410400e-02) (192, 7.03139975666999816895e-02) (193, 1.79445296525955200195e-01) (194, 1.64439734071493148804e-02) (195, 1.10264517366886138916e-01) (196, 8.63368138670921325684e-02) (197, -7.87087343633174896240e-03) (198, 1.87731944024562835693e-02) (199, 3.84074561297893524170e-02) (200, -4.50897961854934692383e-02) (201, -2.44591105729341506958e-02) (202, -9.56539511680603027344e-02) (203, 4.61406372487545013428e-02) (204, 4.13779467344284057617e-02) (205, 9.10704508423805236816e-02) (206, 6.82147219777107238770e-02) (207, -1.98166668415069580078e-02) (208, 6.55682608485221862793e-02) (209, 2.20452193170785903931e-02) (210, -5.01524657011032104492e-03) (211, -2.94572748243808746338e-02) (212, 7.67334848642349243164e-02) (213, 9.03948172926902770996e-02) (214, 1.85198690742254257202e-02) (215, -5.33789806067943572998e-02) (216, -1.50094991549849510193e-02) (217, 1.16606149822473526001e-02) (218, -3.51611338555812835693e-02) (219, 8.81564766168594360352e-02) (220, -1.37731984257698059082e-01) (221, 1.01679014042019844055e-02) (222, 6.20921030640602111816e-02) (223, 3.22667736327275633812e-04) (224, 1.36860370635986328125e-01) (225, 3.49918454885482788086e-02) (226, 7.11707621812820434570e-02) (227, 1.23661153018474578857e-01) (228, 1.24381937086582183838e-01) (229, 1.64544373750686645508e-01) (230, 1.52281224727630615234e-02) (231, 1.33334025740623474121e-01) (232, 1.36270955204963684082e-01) (233, 8.05005654692649841309e-02) (234, 8.93511548638343811035e-02) (235, 7.74161070585250854492e-02) (236, 2.02088311314582824707e-01) (237, 1.68244108557701110840e-01) (238, 1.44571721553802490234e-01) (239, 1.30627214908599853516e-01) (240, -6.31982907652854919434e-02) (241, 6.01434595882892608643e-02) (242, 6.31096437573432922363e-02) (243, -5.83380609750747680664e-02) (244, -5.66084310412406921387e-02) (245, -9.03701707720756530762e-02) (246, -4.31146435439586639404e-02) (247, 1.69152468442916870117e-02) (248, 7.55839794874191284180e-02) (249, -9.88358780741691589355e-02) (250, -2.31588762253522872925e-02) (251, 1.91242650151252746582e-01) (252, 5.65973995253443717957e-03) (253, -7.50430021435022354126e-03) (254, 1.39416486024856567383e-01) (255, -4.66772690415382385254e-02) (256, 3.99108529090881347656e-02) (257, 1.14802397787570953369e-01) (258, 1.24207653105258941650e-01) (259, 3.29354181885719299316e-02) (260, 1.18966527283191680908e-01) (261, 1.59542918205261230469e-01) (262, 1.65370777249336242676e-01) (263, 6.31548091769218444824e-02) (264, 2.34828829765319824219e-01) (265, 2.29303076863288879395e-01) (266, 1.12146504223346710205e-01) (267, 2.30020970106124877930e-01) (268, 1.82420626282691955566e-01) (269, 1.56204864382743835449e-01) (270, -7.86159336566925048828e-02) (271, 3.98641005158424377441e-02) (272, -4.68703471124172210693e-02) (273, -1.16495691239833831787e-01) (274, -9.38744843006134033203e-02) (275, -2.58300036191940307617e-01) (276, -1.80212572216987609863e-01) (277, 7.75011163204908370972e-03) (278, 4.38937693834304809570e-02) (279, -5.50310201942920684814e-02) (280, -1.36926369741559028625e-02) (281, 8.92409086227416992188e-02) (282, 4.40564416348934173584e-02) (283, 1.41776829957962036133e-01) (284, 4.05125580728054046631e-02) (285, -4.38779359683394432068e-03) (286, 1.00592039525508880615e-01) (287, 1.83100238442420959473e-01) (288, 1.73342764377593994141e-01) (289, 9.82364341616630554199e-02) (290, 3.16608361899852752686e-02) (291, 9.95221063494682312012e-02) (292, 5.60409277677536010742e-02) (293, 1.92737504839897155762e-01) (294, 1.45396798849105834961e-01) (295, 8.39292630553245544434e-02) (296, 2.53298342227935791016e-01) (297, 2.45553150773048400879e-01) (298, 2.03440904617309570312e-01) (299, 7.63413533568382263184e-02) (300, -5.97684159874916076660e-02) (301, 5.97647055983543395996e-02) (302, -1.31152018904685974121e-01) (303, 3.33014167845249176025e-02) (304, -2.57041364908218383789e-01) (305, -5.99015057086944580078e-02) (306, -2.13872119784355163574e-01) (307, -2.70770192146301269531e-02) (308, 2.76606082916259765625e-02) (309, 6.59504607319831848145e-02) (310, 1.24115659855306148529e-03) (311, 4.42879199981689453125e-02) (312, 6.95192888379096984863e-02) (313, -6.67836517095565795898e-02) (314, -7.17393234372138977051e-02) (315, 1.11875765025615692139e-01) (316, -1.66961122304201126099e-02) (317, 1.56071886420249938965e-01) (318, 1.76793739199638366699e-01) (319, 3.73115465044975280762e-02) (320, 6.20807819068431854248e-02) (321, 2.05629289150238037109e-01) (322, 1.24920397996902465820e-01) (323, 1.11202694475650787354e-01) (324, 2.03441873192787170410e-01) (325, 1.12832859158515930176e-01) (326, 2.03274190425872802734e-01) (327, 1.91494494676589965820e-01) (328, 2.08650365471839904785e-01) (329, 9.81635078787803649902e-02) (330, 2.39080023020505905151e-02) (331, -8.86829942464828491211e-02) (332, -6.17155730724334716797e-02) (333, 3.97913753986358642578e-02) (334, -2.50747710466384887695e-01) (335, -1.43242597579956054688e-01) (336, -5.52363879978656768799e-02) (337, 8.17769952118396759033e-03) (338, 8.29142332077026367188e-02) (339, -1.86097733676433563232e-02) (340, -1.46631598472595214844e-01) (341, 5.59312514960765838623e-02) (342, 5.83961606025695800781e-02) (343, 3.40717891231179237366e-03) (344, 4.90442551672458648682e-02) (345, 6.44866079092025756836e-02) (346, 1.50707215070724487305e-02) (347, 1.60134047269821166992e-01) (348, 8.16986784338951110840e-02) (349, 2.08279956132173538208e-02) (350, 8.73404555022716522217e-03) (351, 1.50710046291351318359e-01) (352, 4.04061451554298400879e-02) (353, 1.40414297580718994141e-01) (354, 7.80885368585586547852e-02) (355, 2.66919702291488647461e-01) (356, 2.19246342778205871582e-01) (357, 2.32105165719985961914e-01) (358, 1.11585415899753570557e-01) (359, 1.21244736015796661377e-01) (360, -8.30525979399681091309e-02) (361, -6.41643330454826354980e-02) (362, 4.08117026090621948242e-02) (363, -3.54796904139220714569e-03) (364, -1.58621460199356079102e-01) (365, 3.87028791010379791260e-02) (366, 1.74646466970443725586e-01) (367, 1.08472712337970733643e-01) (368, -8.41167494654655456543e-02) (369, 4.24048677086830139160e-02) (370, 6.52649328112602233887e-02) (371, -5.10935261845588684082e-02) (372, -4.81837056577205657959e-02) (373, 1.00761286914348602295e-01) (374, 9.89234074950218200684e-03) (375, -1.72226522117853164673e-02) (376, 1.13796673715114593506e-01) (377, 1.36380180716514587402e-01) (378, 1.70519754290580749512e-01) (379, 3.38308475911617279053e-02) (380, 1.90755292773246765137e-01) (381, 1.97835564613342285156e-01) (382, 1.99683457612991333008e-01) (383, 3.17972861230373382568e-02) (384, 1.50154173374176025391e-01) (385, 1.14430598914623260498e-01) (386, 2.76753008365631103516e-01) (387, 1.23568803071975708008e-01) (388, 1.98442131280899047852e-01) (389, 9.78062376379966735840e-02) (390, 3.64524871110916137695e-02) (391, -1.04548625648021697998e-01) (392, 1.58811733126640319824e-02) (393, -9.98573843389749526978e-03) (394, -5.72349354624748229980e-02) (395, -2.98407878726720809937e-02) (396, -1.02930456399917602539e-01) (397, 1.19770187884569168091e-02) (398, 2.23827529698610305786e-02) (399, -8.00091400742530822754e-02) (400, 5.68896457552909851074e-02) (401, 1.07976756989955902100e-01) (402, 2.83351577818393707275e-02) (403, 8.29930454492568969727e-02) (404, 1.07893407344818115234e-01) (405, 1.40539824962615966797e-01) (406, 1.20984330773353576660e-01) (407, 1.04979008436203002930e-01) (408, 1.30859225988388061523e-01) (409, 1.31161168217658996582e-01) (410, 1.58267214894294738770e-01) (411, 1.11197352409362792969e-01) (412, 1.35952562093734741211e-01) (413, 1.74579977989196777344e-01) (414, 1.62646576762199401855e-01) (415, 7.72271752357482910156e-02) (416, 2.10408419370651245117e-01) (417, 1.65507078170776367188e-01) (418, 1.18141502141952514648e-01) (419, 1.72394275665283203125e-01) (420, -9.53099653124809265137e-02) (421, -6.47733584046363830566e-02) (422, 6.13627135753631591797e-02) (423, 3.11663504689931869507e-02) (424, -4.72579561173915863037e-02) (425, -1.27090200781822204590e-01) (426, 2.19450506847351789474e-04) (427, -7.86137506365776062012e-02) (428, 8.26424062252044677734e-02) (429, 2.98058204352855682373e-02) (430, 7.83247426152229309082e-02) (431, 1.96210276335477828979e-02) (432, -2.14289408177137374878e-02) (433, 1.76324829459190368652e-01) (434, 1.78042948246002197266e-01) (435, 1.70695737004280090332e-01) (436, 1.59636631608009338379e-01) (437, 1.32755398750305175781e-01) (438, 1.10985107719898223877e-01) (439, 9.00375172495841979980e-02) (440, 4.85499389469623565674e-02) (441, 5.84436431527137756348e-02) (442, 1.87037587165832519531e-02) (443, 1.56738199293613433838e-02) (444, 5.51590546965599060059e-02) (445, 1.99411794543266296387e-01) (446, -5.92715330421924591064e-02) (447, -9.94539782404899597168e-02) (448, -2.36861743032932281494e-02) (449, 1.12968320026993751526e-02) (450, 7.20524266362190246582e-02) (451, 1.99506897479295730591e-02) (452, -1.06338441371917724609e-01) (453, 4.54815290868282318115e-02) (454, -1.85643613338470458984e-01) (455, -5.44975809752941131592e-02) (456, -5.32296001911163330078e-02) (457, 7.04860836267471313477e-02) (458, 8.17450359463691711426e-02) (459, 5.54856583476066589355e-02) (460, 1.92894637584686279297e-01) (461, 7.71724060177803039551e-02) (462, 8.62182602286338806152e-02) (463, 1.93250060081481933594e-01) (464, 7.52575919032096862793e-02) (465, -7.94005468487739562988e-02) (466, 1.95824839174747467041e-02) (467, -1.36810421943664550781e-01) (468, -1.56296491622924804688e-01) (469, -6.12492151558399200439e-02) (470, -1.39907328411936759949e-02) (471, -5.87656125426292419434e-02) (472, 4.91866581141948699951e-02) (473, 3.66330444812774658203e-02) (474, -2.61761210858821868896e-02) (475, -1.15977779030799865723e-01) (476, 1.41503773629665374756e-02) (477, -2.40318849682807922363e-02) (478, -1.26656621694564819336e-01) (479, -1.08424656093120574951e-01) (480, -3.04194749332964420319e-03) (481, -7.78176039457321166992e-02) (482, -1.09963566064834594727e-01) (483, 3.33336507901549339294e-03) (484, -9.65441614389419555664e-02) (485, -1.54631987214088439941e-01) (486, -1.69684104621410369873e-02) (487, -3.50142791867256164551e-02) (488, -3.84156815707683563232e-02) (489, 8.89502391219139099121e-02) (490, 1.03198111057281494141e-01) (491, 6.91630765795707702637e-02) (492, 1.65347307920455932617e-01) (493, 1.97190344333648681641e-01) (494, 7.16802850365638732910e-02) (495, -9.78273004293441772461e-02) (496, -8.51148217916488647461e-02) (497, -1.05530716478824615479e-01) (498, -3.88722345232963562012e-02) (499, -2.22164988517761230469e-01) (500, -1.83390319347381591797e-01) (501, -3.06081891059875488281e-01) (502, -1.94667607545852661133e-01) (503, -1.77929446101188659668e-01) (504, -2.73922115564346313477e-01) (505, -3.59737455844879150391e-01) (506, -2.37894624471664428711e-01) (507, -2.59117215871810913086e-01) (508, -1.67958855628967285156e-01) (509, -1.57985955476760864258e-01) (510, -8.97027775645256042480e-02) (511, 4.78727230802178382874e-03) (512, -5.89602403342723846436e-02) (513, -8.87287110090255737305e-02) (514, -2.42987543344497680664e-01) (515, -2.29378104209899902344e-01) (516, 1.78649984300136566162e-02) (517, 3.79961170256137847900e-02) (518, 1.62119697779417037964e-02) (519, 9.15360227227210998535e-02) (520, 2.18528985977172851562e-01) (521, 2.28238865733146667480e-01) (522, 7.49258548021316528320e-02) (523, 1.92499890923500061035e-01) (524, 2.27678582072257995605e-01) (525, 1.27617537975311279297e-01) (526, 9.29107218980789184570e-02) (527, -6.41195178031921386719e-02) (528, 3.83649580180644989014e-02) (529, -5.03348708152770996094e-02) (530, -3.74406985938549041748e-02) (531, -5.39725124835968017578e-02) (532, -5.56558631360530853271e-02) (533, -4.75687868893146514893e-02) (534, -4.86598908901214599609e-01) (535, -3.19989442825317382812e-01) (536, -2.83844888210296630859e-01) (537, -4.05297815799713134766e-01) (538, -1.24902248382568359375e-01) (539, -3.88971306383609771729e-02) (540, -8.62587615847587585449e-02) (541, -3.88579852879047393799e-02) (542, -5.96158877015113830566e-02) (543, -3.37293185293674468994e-02) (544, -1.77607670426368713379e-01) (545, -1.39403790235519409180e-01) (546, 3.94465737044811248779e-02) (547, -5.65894208848476409912e-02) (548, -5.32977357506752014160e-02) (549, 3.33673469722270965576e-02) (550, 2.69127249717712402344e-01) (551, 6.83667436242103576660e-02) (552, 1.48343235254287719727e-01) (553, 1.21525213122367858887e-01) (554, 2.35397055745124816895e-01) (555, 6.42266124486923217773e-02) (556, 1.61349549889564514160e-01) (557, 1.86963528394699096680e-01) (558, 8.15246775746345520020e-02) (559, 8.85066837072372436523e-02) (560, -1.06080666184425354004e-01) (561, 2.93575040996074676514e-02) (562, -1.45224994048476219177e-02) (563, -9.98379588127136230469e-02) (564, -2.68711268901824951172e-01) (565, -2.77235478162765502930e-01) (566, -4.46671456098556518555e-01) (567, -3.08870285749435424805e-01) (568, -1.96114704012870788574e-01) (569, -1.38540491461753845215e-01) (570, -1.39527367427945137024e-02) (571, -8.44594910740852355957e-02) (572, 2.03057676553726196289e-02) (573, 2.64839734882116317749e-02) (574, -1.29054099321365356445e-01) (575, -2.01375082135200500488e-01) (576, -4.43037636578083038330e-02) (577, -2.91309715248644351959e-03) (578, 1.85393802821636199951e-02) (579, 6.64155036211013793945e-02) (580, 1.64595335721969604492e-01) (581, 1.08497597277164459229e-01) (582, 1.25363469123840332031e-01) (583, 1.81093081831932067871e-01) (584, 1.35342076420783996582e-01) (585, 7.22051486372947692871e-02) (586, 1.66143432259559631348e-01) (587, 2.35930964350700378418e-01) (588, 1.88358008861541748047e-01) (589, 1.84076726436614990234e-01) (590, 7.45476260781288146973e-02) (591, 1.75197362899780273438e-01) (592, -9.94635075330734252930e-02) (593, -1.86423599720001220703e-01) (594, -1.48164361715316772461e-01) (595, -3.11512082815170288086e-01) (596, -2.57899373769760131836e-01) (597, -3.57855051755905151367e-01) (598, -9.19983834028244018555e-02) (599, -1.98411241173744201660e-01) (600, 4.74011823534965515137e-02) (601, -1.08941584825515747070e-01) (602, -8.63766372203826904297e-02) (603, -4.08678911626338958740e-02) (604, -8.12657549977302551270e-02) (605, -9.00842174887657165527e-02) (606, 4.10859733819961547852e-02) (607, 1.87923535704612731934e-02) (608, 1.19956508278846740723e-01) (609, 1.91219821572303771973e-01) (610, 2.13475257158279418945e-01) (611, 1.61577597260475158691e-01) (612, 7.88838043808937072754e-02) (613, 1.73672780394554138184e-01) (614, 2.19960853457450866699e-01) (615, 1.27089455723762512207e-01) (616, 1.63175061345100402832e-01) (617, 1.12229019403457641602e-01) (618, 1.10202759504318237305e-01) (619, 1.18541918694972991943e-01) (620, 5.24458885192871093750e-02) (621, 1.30750298500061035156e-01) (622, -1.18406422436237335205e-01) (623, -2.43187844753265380859e-02) (624, -8.04167166352272033691e-02) (625, -1.92826464772224426270e-01) (626, -2.46641024947166442871e-01) (627, -2.14033380150794982910e-01) (628, -9.68819186091423034668e-02) (629, -1.43038973212242126465e-01) (630, 2.87426281720399856567e-02) (631, -9.90785658359527587891e-02) (632, -1.01573333144187927246e-01) (633, 3.69273014366626739502e-02) (634, -1.47839546203613281250e-01) (635, 3.78635488450527191162e-02) (636, 1.52567073702812194824e-01) (637, 8.32292810082435607910e-02) (638, 2.25242242217063903809e-01) (639, 1.06382168829441070557e-01) (640, 1.18032559752464294434e-01) (641, 1.04797899723052978516e-01) (642, 2.08323895931243896484e-01) (643, 8.56073871254920959473e-02) (644, 1.95994079113006591797e-01) (645, 1.55482769012451171875e-01) (646, 1.66845843195915222168e-01) (647, 1.15740470588207244873e-01) (648, 3.16526889801025390625e-02) (649, 3.37761566042900085449e-02) (650, 1.57019078731536865234e-01) (651, 2.47925128787755966187e-02) (652, -8.91179367899894714355e-02) (653, -1.01581394672393798828e-01) (654, -1.33227333426475524902e-01) (655, -2.36588165163993835449e-01) (656, -3.28497081995010375977e-01) (657, -2.26521328091621398926e-01) (658, -1.00998014211654663086e-01) (659, -8.21013897657394409180e-02) (660, 2.15816553682088851929e-02) (661, 7.46381580829620361328e-02) (662, -2.79116984456777572632e-02) (663, 2.48488597571849822998e-02) (664, -4.64037694036960601807e-02) (665, -1.62743464112281799316e-01) (666, 6.69777691364288330078e-02) (667, 1.16317309439182281494e-01) (668, 1.44046759232878684998e-02) (669, 1.94069385528564453125e-01) (670, 2.50990867614746093750e-01) (671, 1.07401035726070404053e-01) (672, 1.93236976861953735352e-01) (673, 1.62981346249580383301e-01) (674, 1.36722430586814880371e-01) (675, 1.36406376957893371582e-01) (676, 6.94380700588226318359e-02) (677, 6.59813359379768371582e-02) (678, 2.56559886038303375244e-02) (679, 7.26838558912277221680e-02) (680, 4.15268354117870330811e-02) (681, 1.64472267031669616699e-01) (682, -1.32788136601448059082e-01) (683, -1.38058200478553771973e-01) (684, -1.32471412420272827148e-01) (685, 1.86663004569709300995e-03) (686, -2.01873257756233215332e-01) (687, -2.77626037597656250000e-01) (688, -8.33373218774795532227e-02) (689, 3.42951044440269470215e-02) (690, 2.93145701289176940918e-02) (691, -1.13622114062309265137e-01) (692, 6.34387657046318054199e-02) (693, -9.12527367472648620605e-02) (694, -8.15520882606506347656e-02) (695, -1.56420897692441940308e-02) (696, -2.81815025955438613892e-02) (697, 5.73487356305122375488e-02) (698, 2.40545384585857391357e-02) (699, 2.21600644290447235107e-02) (700, 2.41338014602661132812e-01) (701, 2.29963883757591247559e-01) (702, 1.76129430532455444336e-01) (703, 1.82234078645706176758e-01) (704, 1.39504134654998779297e-01) (705, 6.31259828805923461914e-02) (706, 7.76527002453804016113e-02) (707, 1.80333554744720458984e-01) (708, 1.08003057539463043213e-01) (709, 7.39768967032432556152e-02) (710, 3.38269434869289398193e-02) (711, -8.78055021166801452637e-02) (712, -1.92515984177589416504e-01) (713, -1.27403259277343750000e-01) (714, -4.72348891198635101318e-02) (715, -3.29052269458770751953e-01) (716, -2.52798438072204589844e-01) (717, -2.05982431769371032715e-01) (718, 3.74158211052417755127e-02) (719, 2.54862359724938869476e-03) (720, 1.55899720266461372375e-02) (721, 1.41574945300817489624e-02) (722, 4.11135181784629821777e-02) (723, -1.36003205552697181702e-02) (724, -2.09505427628755569458e-02) (725, -4.59884814918041229248e-02) (726, -1.02793410420417785645e-01) (727, 1.73026099801063537598e-01) (728, 2.22354978322982788086e-01) (729, -1.62594555877149105072e-03) (730, -2.47448366135358810425e-02) (731, 2.36572727560997009277e-01) (732, 9.71085727214813232422e-02) (733, 3.69354747235774993896e-02) (734, 1.71315357089042663574e-01) (735, 1.89448699355125427246e-01) (736, 6.75977393984794616699e-02) (737, 1.96675658226013183594e-02) (738, 1.48937299847602844238e-01) (739, 1.56800284981727600098e-01) (740, -1.13505169749259948730e-01) (741, -1.32426768541336059570e-01) (742, -1.82632133364677429199e-01) (743, -1.69355317950248718262e-01) (744, -1.37469977140426635742e-01) (745, -3.71999979019165039062e-01) (746, -2.96843796968460083008e-01) (747, 5.75605854392051696777e-02) (748, -1.02490060031414031982e-01) (749, -1.20608225464820861816e-01) (750, 3.78813557326793670654e-02) (751, 5.18389455974102020264e-02) (752, 4.06980253756046295166e-02) (753, 1.35026481002569198608e-02) (754, -1.13675579428672790527e-01) (755, 2.83710546791553497314e-02) (756, 2.02099815011024475098e-01) (757, 3.84592682123184204102e-01) (758, 6.42098113894462585449e-02) (759, -5.70644102990627288818e-02) (760, -9.55983772873878479004e-02) (761, 8.20188522338867187500e-02) (762, -8.25429260730743408203e-02) (763, 9.07272398471832275391e-02) (764, 2.19873607158660888672e-01) (765, 1.90775170922279357910e-01) (766, 5.11416867375373840332e-02) (767, 5.65700270235538482666e-02) (768, -1.73018574714660644531e-02) (769, -2.29917541146278381348e-02) (770, -2.18483448028564453125e-01) (771, -3.51931989192962646484e-01) (772, -9.97626408934593200684e-02) (773, -1.32902652025222778320e-01) (774, -2.57528245449066162109e-01) (775, -3.94926816225051879883e-01) (776, -2.44218692183494567871e-01) (777, -1.36081248521804809570e-01) (778, -1.27462267875671386719e-01) (779, -1.01173311471939086914e-01) (780, -8.15589874982833862305e-02) (781, 4.96038757264614105225e-02) (782, 6.18753582239151000977e-02) (783, 9.18065160512924194336e-02) (784, -2.32672281563282012939e-02) (785, -1.66162714362144470215e-01) (786, 2.47473627328872680664e-01) (787, -1.66295364499092102051e-01) (788, 8.95762220025062561035e-02) (789, -5.87985962629318237305e-02) (790, -2.49401223845779895782e-03) (791, 5.69834150373935699463e-02) (792, -1.21055804193019866943e-01) (793, 6.37171044945716857910e-03) (794, -1.00360281765460968018e-01) (795, -1.54422104358673095703e-01) (796, -1.29112124443054199219e-01) (797, -1.69047877192497253418e-01) (798, -2.11411789059638977051e-01) (799, -1.95699691772460937500e-01) (800, -2.28534489870071411133e-01) (801, -2.52348780632019042969e-01) (802, -9.92689132690429687500e-02) (803, 6.33376687765121459961e-02) (804, 3.40804792940616607666e-02) (805, 2.57362909615039825439e-02) (806, -5.46976849436759948730e-02) (807, -8.73965397477149963379e-02) (808, -4.29766923189163208008e-02) (809, 6.52327090501785278320e-02) (810, -5.29097616672515869141e-02) (811, -2.01046336442232131958e-02) (812, 2.61953826993703842163e-02) (813, -5.77395819127559661865e-02) (814, -1.09029505401849746704e-02) (815, -6.90021142363548278809e-02) (816, -8.93889293074607849121e-02) (817, -2.32422932982444763184e-01) (818, -2.00652718544006347656e-01) (819, -2.09131345152854919434e-01) (820, -3.00119489431381225586e-01) (821, -7.88718909025192260742e-02) (822, -4.24717478454113006592e-02) (823, -8.83757025003433227539e-02) (824, -1.99880555272102355957e-01) (825, -9.00713130831718444824e-02) (826, -1.83428019285202026367e-01) (827, -1.50845825672149658203e-01) (828, -2.45330810546875000000e-01) (829, -1.67016267776489257812e-01) (830, 1.67526081204414367676e-02) (831, -1.12768448889255523682e-01) (832, 7.78894573450088500977e-02) (833, 1.56850770115852355957e-01) (834, -4.00678575038909912109e-01) (835, -1.50715410709381103516e-02) (836, -1.36877164244651794434e-01) (837, -7.57105425000190734863e-02) (838, -7.21795484423637390137e-02) (839, -8.87027978897094726562e-02) (840, 3.76694016158580780029e-02) (841, 1.18503786623477935791e-01) (842, 1.39599651098251342773e-01) (843, 1.27180069684982299805e-01) (844, 1.69653147459030151367e-01) (845, -8.71701464056968688965e-02) (846, 3.91668826341629028320e-02) (847, -6.21829042211174964905e-03) (848, -1.70988291501998901367e-01) (849, -2.54072457551956176758e-01) (850, -1.61093965172767639160e-01) (851, -2.55864411592483520508e-01) (852, -1.88540294766426086426e-01) (853, -2.65614479780197143555e-01) (854, -2.05047354102134704590e-01) (855, -3.30002129077911376953e-01) (856, 1.33784720674157142639e-03) (857, -3.41707915067672729492e-02) (858, -1.54095157980918884277e-01) (859, -1.79535567760467529297e-01) (860, -1.00559689104557037354e-01) (861, -1.16743393242359161377e-01) (862, -7.15836286544799804688e-02) (863, 4.07089330255985260010e-02) (864, -2.48503289185464382172e-03) (865, -5.12458980083465576172e-02) (866, -1.97349339723587036133e-01) (867, -2.43138205260038375854e-02) (868, -5.63775040209293365479e-02) (869, 4.66661490499973297119e-02) (870, -1.54429599642753601074e-02) (871, 2.66401860862970352173e-02) (872, 7.40358680486679077148e-02) (873, 4.76556085050106048584e-02) (874, 1.35009258985519409180e-01) (875, 2.26378485560417175293e-01) (876, -6.55561387538909912109e-02) (877, -5.52625395357608795166e-02) (878, -3.83507348597049713135e-02) (879, -6.37359023094177246094e-02) (880, -1.36862201616168022156e-02) (881, 6.66046738624572753906e-02) (882, -2.14867338538169860840e-01) (883, -1.23736567795276641846e-01) (884, -9.81957167387008666992e-02) (885, 6.45783916115760803223e-02) (886, -7.92032014578580856323e-03) (887, -1.25909477472305297852e-01) (888, 3.13264690339565277100e-02) (889, 4.43479083478450775146e-02) (890, 4.53770160675048828125e-02) (891, 2.07267597317695617676e-01) (892, 2.09332376718521118164e-01) (893, -2.16895099729299545288e-02) (894, 1.88337732106447219849e-02) (895, -3.26197571121156215668e-03) (896, 6.12259395420551300049e-02) (897, -5.50531595945358276367e-02) (898, 6.97989165782928466797e-02) (899, -9.76577177643775939941e-02) (900, -1.02504193782806396484e-01) (0, 4.26295928955078125000e+01) (1, 1.35739913940429687500e+02) (2, 1.49999841308593750000e+03) (3, 1.50000000000000000000e+03) (4, 1.50000000000000000000e+03) (5, 1.50000000000000000000e+03) (6, 1.50000000000000000000e+03) (7, 1.50000000000000000000e+03) (8, 1.50000000000000000000e+03) (9, 1.50000000000000000000e+03) (10, 1.50000000000000000000e+03) (11, 4.62584114074707031250e+01) (12, 2.96686801910400390625e+01) (13, 2.95476322174072265625e+01) (14, 2.43773441314697265625e+01) (15, 