FANN_FLO_2.1
num_layers=3
learning_rate=0.700000
connection_rate=1.000000
network_type=0
learning_momentum=0.000000
training_algorithm=2
train_error_function=1
train_stop_function=0
cascade_output_change_fraction=0.010000
quickprop_decay=-0.000100
quickprop_mu=1.750000
rprop_increase_factor=1.200000
rprop_decrease_factor=0.500000
rprop_delta_min=0.000000
rprop_delta_max=50.000000
rprop_delta_zero=0.100000
cascade_output_stagnation_epochs=12
cascade_candidate_change_fraction=0.010000
cascade_candidate_stagnation_epochs=12
cascade_max_out_epochs=150
cascade_max_cand_epochs=150
cascade_num_candidate_groups=2
bit_fail_limit=3.49999994039535522461e-01
cascade_candidate_limit=1.00000000000000000000e+03
cascade_weight_multiplier=4.00000005960464477539e-01
cascade_activation_functions_count=10
cascade_activation_functions=3 5 7 8 10 11 14 15 16 17 
cascade_activation_steepnesses_count=4
cascade_activation_steepnesses=2.50000000000000000000e-01 5.00000000000000000000e-01 7.50000000000000000000e-01 1.00000000000000000000e+00 
layer_sizes=901 101 37 
scale_included=0
neurons (num_inputs, activation_function, activation_steepness)=(0, 0, 0.00000000000000000000e+00) (0, 0, 0.00000000000000000000e+00) (0, 0, 0.00000000000000000000e+00) (0, 0, 0.00000000000000000000e+00) (0, 0, 0.00000000000000000000e+00) (0, 0, 0.00000000000000000000e+00) (0, 0, 0.00000000000000000000e+00) (0, 0, 0.00000000000000000000e+00) (0, 0, 0.00000000000000000000e+00) (0, 0, 0.00000000000000000000e+00) (0, 0, 0.00000000000000000000e+00) (0, 0, 0.00000000000000000000e+00) (0, 0, 0.00000000000000000000e+00) (0, 0, 0.00000000000000000000e+00) (0, 0, 0.00000000000000000000e+00) (0, 0, 0.00000000000000000000e+00) (0, 0, 0.00000000000000000000e+00) (0, 0, 0.00000000000000000000e+00) (0, 0, 0.00000000000000000000e+00) (0, 0, 0.00000000000000000000e+00) (0, 0, 0.00000000000000000000e+00) (0, 0, 0.00000000000000000000e+00) (0, 0, 0.00000000000000000000e+00) (0, 0, 0.00000000000000000000e+00) (0, 0, 0.00000000000000000000e+00) (0, 0, 0.00000000000000000000e+00) (0, 0, 0.00000000000000000000e+00) (0, 0, 0.00000000000000000000e+00) (0, 0, 0.00000000000000000000e+00) (0, 0, 0.00000000000000000000e+00) (0, 0, 0.00000000000000000000e+00) (0, 0, 0.00000000000000000000e+00) (0, 0, 0.00000000000000000000e+00) (0, 0, 0.00000000000000000000e+00) (0, 0, 0.00000000000000000000e+00) (0, 0, 0.00000000000000000000e+00) (0, 0, 0.00000000000000000000e+00) (0, 0, 0.00000000000000000000e+00) (0, 0, 0.00000000000000000000e+00) (0, 0, 0.00000000000000000000e+00) (0, 0, 0.00000000000000000000e+00) (0, 0, 0.00000000000000000000e+00) (0, 0, 0.00000000000000000000e+00) (0, 0, 0.00000000000000000000e+00) (0, 0, 0.00000000000000000000e+00) (0, 0, 0.00000000000000000000e+00) (0, 0, 0.00000000000000000000e+00) (0, 0, 0.00000000000000000000e+00) (0, 0, 0.00000000000000000000e+00) (0, 0, 0.00000000000000000000e+00) (0, 0, 0.00000000000000000000e+00) (0, 0, 0.00000000000000000000e+00) (0, 0, 0.00000000000000000000e+00) (0, 0, 0.00000000000000000000e+00) (0, 0, 0.00000000000000000000e+00) (0, 0, 0.00000000000000000000e+00) (0, 0, 0.00000000000000000000e+00) (0, 0, 0.00000000000000000000e+00) (0, 0, 0.00000000000000000000e+00) (0, 0, 0.00000000000000000000e+00) (0, 0, 0.00000000000000000000e+00) (0, 0, 0.00000000000000000000e+00) (0, 0, 0.00000000000000000000e+00) (0, 0, 0.00000000000000000000e+00) (0, 0, 0.00000000000000000000e+00) (0, 0, 0.00000000000000000000e+00) (0, 0, 0.00000000000000000000e+00) (0, 0, 0.00000000000000000000e+00) (0, 0, 0.00000000000000000000e+00) (0, 0, 0.00000000000000000000e+00) (0, 0, 0.00000000000000000000e+00) (0, 0, 0.00000000000000000000e+00) (0, 0, 0.00000000000000000000e+00) (0, 0, 0.00000000000000000000e+00) (0, 0, 0.00000000000000000000e+00) (0, 0, 0.00000000000000000000e+00) (0, 0, 0.00000000000000000000e+00) (0, 0, 0.00000000000000000000e+00) (0, 0, 0.00000000000000000000e+00) (0, 0, 0.00000000000000000000e+00) (0, 0, 0.00000000000000000000e+00) (0, 0, 0.00000000000000000000e+00) (0, 0, 0.00000000000000000000e+00) (0, 0, 0.00000000000000000000e+00) (0, 0, 0.00000000000000000000e+00) (0, 0, 0.00000000000000000000e+00) (0, 0, 0.00000000000000000000e+00) (0, 0, 0.00000000000000000000e+00) (0, 0, 0.00000000000000000000e+00) (0, 0, 0.00000000000000000000e+00) (0, 0, 0.00000000000000000000e+00) (0, 0, 0.00000000000000000000e+00) (0, 0, 0.00000000000000000000e+00) (0, 0, 0.00000000000000000000e+00) (0, 0, 0.00000000000000000000e+00) (0, 0, 0.00000000000000000000e+00) (0, 0, 0.00000000000000000000e+00) (0, 0, 0.00000000000000000000e+00) (0, 0, 0.00000000000000000000e+00) (0, 0, 0.00000000000000000000e+00) (0, 0, 0.00000000000000000000e+00) (0, 0, 0.00000000000000000000e+00) (0, 0, 0.00000000000000000000e+00) (0, 0, 0.00000000000000000000e+00) (0, 0, 0.00000000000000000000e+00) (0, 0, 0.00000000000000000000e+00) (0, 0, 0.00000000000000000000e+00) (0, 0, 0.00000000000000000000e+00) (0, 0, 0.00000000000000000000e+00) (0, 0, 0.00000000000000000000e+00) (0, 0, 0.00000000000000000000e+00) (0, 0, 0.00000000000000000000e+00) (0, 0, 0.00000000000000000000e+00) (0, 0, 0.00000000000000000000e+00) (0, 0, 0.00000000000000000000e+00) (0, 0, 0.00000000000000000000e+00) (0, 0, 0.00000000000000000000e+00) (0, 0, 0.00000000000000000000e+00) (0, 0, 0.00000000000000000000e+00) (0, 0, 0.00000000000000000000e+00) (0, 0, 0.00000000000000000000e+00) (0, 0, 0.00000000000000000000e+00) (0, 0, 0.00000000000000000000e+00) (0, 0, 0.00000000000000000000e+00) (0, 0, 0.00000000000000000000e+00) (0, 0, 0.00000000000000000000e+00) (0, 0, 0.00000000000000000000e+00) (0, 0, 0.00000000000000000000e+00) (0, 0, 0.00000000000000000000e+00) (0, 0, 0.00000000000000000000e+00) (0, 0, 0.00000000000000000000e+00) (0, 0, 0.00000000000000000000e+00) (0, 0, 0.00000000000000000000e+00) (0, 0, 0.00000000000000000000e+00) (0, 0, 0.00000000000000000000e+00) (0, 0, 0.00000000000000000000e+00) (0, 0, 0.00000000000000000000e+00) (0, 0, 0.00000000000000000000e+00) (0, 0, 0.00000000000000000000e+00) (0, 0, 0.00000000000000000000e+00) (0, 0, 0.00000000000000000000e+00) (0, 0, 0.00000000000000000000e+00) (0, 0, 0.00000000000000000000e+00) (0, 0, 0.00000000000000000000e+00) (0, 0, 0.00000000000000000000e+00) (0, 0, 0.00000000000000000000e+00) (0, 0, 0.00000000000000000000e+00) (0, 0, 0.00000000000000000000e+00) (0, 0, 0.00000000000000000000e+00) (0, 0, 0.00000000000000000000e+00) (0, 0, 0.00000000000000000000e+00) (0, 0, 0.00000000000000000000e+00) (0, 0, 0.00000000000000000000e+00) (0, 0, 0.00000000000000000000e+00) (0, 0, 0.00000000000000000000e+00) (0, 0, 0.00000000000000000000e+00) (0, 0, 0.00000000000000000000e+00) (0, 0, 0.00000000000000000000e+00) (0, 0, 0.00000000000000000000e+00) (0, 0, 0.00000000000000000000e+00) (0, 0, 0.00000000000000000000e+00) (0, 0, 0.00000000000000000000e+00) (0, 0, 0.00000000000000000000e+00) (0, 0, 0.00000000000000000000e+00) (0, 0, 0.00000000000000000000e+00) (0, 0, 0.00000000000000000000e+00) (0, 0, 0.00000000000000000000e+00) (0, 0, 0.00000000000000000000e+00) (0, 0, 0.00000000000000000000e+00) (0, 0, 0.00000000000000000000e+00) (0, 0, 0.00000000000000000000e+00) (0, 0, 0.00000000000000000000e+00) (0, 0, 0.00000000000000000000e+00) (0, 0, 0.00000000000000000000e+00) (0, 0, 0.00000000000000000000e+00) (0, 0, 0.00000000000000000000e+00) (0, 0, 0.00000000000000000000e+00) (0, 0, 0.00000000000000000000e+00) (0, 0, 0.00000000000000000000e+00) (0, 0, 0.00000000000000000000e+00) (0, 0, 0.00000000000000000000e+00) (0, 0, 0.00000000000000000000e+00) (0, 0, 0.00000000000000000000e+00) (0, 0, 0.00000000000000000000e+00) (0, 0, 0.00000000000000000000e+00) (0, 0, 0.00000000000000000000e+00) (0, 0, 0.00000000000000000000e+00) (0, 0, 0.00000000000000000000e+00) (0, 0, 0.00000000000000000000e+00) (0, 0, 0.00000000000000000000e+00) (0, 0, 0.00000000000000000000e+00) (0, 0, 0.00000000000000000000e+00) (0, 0, 0.00000000000000000000e+00) (0, 0, 0.00000000000000000000e+00) (0, 0, 0.00000000000000000000e+00) (0, 0, 0.00000000000000000000e+00) (0, 0, 0.00000000000000000000e+00) (0, 0, 0.00000000000000000000e+00) (0, 0, 0.00000000000000000000e+00) (0, 0, 0.00000000000000000000e+00) (0, 0, 0.00000000000000000000e+00) (0, 0, 0.00000000000000000000e+00) (0, 0, 0.00000000000000000000e+00) (0, 0, 0.00000000000000000000e+00) (0, 0, 0.00000000000000000000e+00) (0, 0, 0.00000000000000000000e+00) (0, 0, 0.00000000000000000000e+00) (0, 0, 0.00000000000000000000e+00) (0, 0, 0.00000000000000000000e+00) (0, 0, 0.00000000000000000000e+00) (0, 0, 0.00000000000000000000e+00) (0, 0, 0.00000000000000000000e+00) (0, 0, 0.00000000000000000000e+00) (0, 0, 0.00000000000000000000e+00) (0, 0, 0.00000000000000000000e+00) (0, 0, 0.00000000000000000000e+00) (0, 0, 0.00000000000000000000e+00) (0, 0, 0.00000000000000000000e+00) (0, 0, 0.00000000000000000000e+00) (0, 0, 0.00000000000000000000e+00) (0, 0, 0.00000000000000000000e+00) (0, 0, 0.00000000000000000000e+00) (0, 0, 0.00000000000000000000e+00) (0, 0, 0.00000000000000000000e+00) (0, 0, 0.00000000000000000000e+00) (0, 0, 0.00000000000000000000e+00) (0, 0, 0.00000000000000000000e+00) (0, 0, 0.00000000000000000000e+00) (0, 0, 0.00000000000000000000e+00) (0, 0, 0.00000000000000000000e+00) (0, 0, 0.00000000000000000000e+00) (0, 0, 0.00000000000000000000e+00) (0, 0, 0.00000000000000000000e+00) (0, 0, 0.00000000000000000000e+00) (0, 0, 0.00000000000000000000e+00) (0, 0, 0.00000000000000000000e+00) (0, 0, 0.00000000000000000000e+00) (0, 0, 0.00000000000000000000e+00) (0, 0, 0.00000000000000000000e+00) (0, 0, 0.00000000000000000000e+00) (0, 0, 0.00000000000000000000e+00) (0, 0, 0.00000000000000000000e+00) (0, 0, 0.00000000000000000000e+00) (0, 0, 0.00000000000000000000e+00) (0, 0, 0.00000000000000000000e+00) (0, 0, 0.00000000000000000000e+00) (0, 0, 0.00000000000000000000e+00) (0, 0, 0.00000000000000000000e+00) (0, 0, 0.00000000000000000000e+00) (0, 0, 0.00000000000000000000e+00) (0, 0, 0.00000000000000000000e+00) (0, 0, 0.00000000000000000000e+00) (0, 0, 0.00000000000000000000e+00) (0, 0, 0.00000000000000000000e+00) (0, 0, 0.00000000000000000000e+00) (0, 0, 0.00000000000000000000e+00) (0, 0, 0.00000000000000000000e+00) (0, 0, 0.00000000000000000000e+00) (0, 0, 0.00000000000000000000e+00) (0, 0, 0.00000000000000000000e+00) (0, 0, 0.00000000000000000000e+00) (0, 0, 0.00000000000000000000e+00) (0, 0, 0.00000000000000000000e+00) (0, 0, 0.00000000000000000000e+00) (0, 0, 0.00000000000000000000e+00) (0, 0, 0.00000000000000000000e+00) (0, 0, 0.00000000000000000000e+00) (0, 0, 0.00000000000000000000e+00) (0, 0, 0.00000000000000000000e+00) (0, 0, 0.00000000000000000000e+00) (0, 0, 0.00000000000000000000e+00) (0, 0, 0.00000000000000000000e+00) (0, 0, 0.00000000000000000000e+00) (0, 0, 0.00000000000000000000e+00) (0, 0, 0.00000000000000000000e+00) (0, 0, 0.00000000000000000000e+00) (0, 0, 0.00000000000000000000e+00) (0, 0, 0.00000000000000000000e+00) (0, 0, 0.00000000000000000000e+00) (0, 0, 0.00000000000000000000e+00) (0, 0, 0.00000000000000000000e+00) (0, 0, 0.00000000000000000000e+00) (0, 0, 0.00000000000000000000e+00) (0, 0, 0.00000000000000000000e+00) (0, 0, 0.00000000000000000000e+00) (0, 0, 0.00000000000000000000e+00) (0, 0, 0.00000000000000000000e+00) (0, 0, 0.00000000000000000000e+00) (0, 0, 0.00000000000000000000e+00) (0, 0, 0.00000000000000000000e+00) (0, 0, 0.00000000000000000000e+00) (0, 0, 0.00000000000000000000e+00) (0, 0, 0.00000000000000000000e+00) (0, 0, 0.00000000000000000000e+00) (0, 0, 0.00000000000000000000e+00) (0, 0, 0.00000000000000000000e+00) (0, 0, 0.00000000000000000000e+00) (0, 0, 0.00000000000000000000e+00) (0, 0, 0.00000000000000000000e+00) (0, 0, 0.00000000000000000000e+00) (0, 0, 0.00000000000000000000e+00) (0, 0, 0.00000000000000000000e+00) (0, 0, 0.00000000000000000000e+00) (0, 0, 0.00000000000000000000e+00) (0, 0, 0.00000000000000000000e+00) (0, 0, 0.00000000000000000000e+00) (0, 0, 0.00000000000000000000e+00) (0, 0, 0.00000000000000000000e+00) (0, 0, 0.00000000000000000000e+00) (0, 0, 0.00000000000000000000e+00) (0, 0, 0.00000000000000000000e+00) (0, 0, 0.00000000000000000000e+00) (0, 0, 0.00000000000000000000e+00) (0, 0, 0.00000000000000000000e+00) (0, 0, 0.00000000000000000000e+00) (0, 0, 0.00000000000000000000e+00) (0, 0, 0.00000000000000000000e+00) (0, 0, 0.00000000000000000000e+00) (0, 0, 0.00000000000000000000e+00) (0, 0, 0.00000000000000000000e+00) (0, 0, 0.00000000000000000000e+00) (0, 0, 0.00000000000000000000e+00) (0, 0, 0.00000000000000000000e+00) (0, 0, 0.00000000000000000000e+00) (0, 0, 0.00000000000000000000e+00) (0, 0, 0.00000000000000000000e+00) (0, 0, 0.00000000000000000000e+00) (0, 0, 0.00000000000000000000e+00) (0, 0, 0.00000000000000000000e+00) (0, 0, 0.00000000000000000000e+00) (0, 0, 0.00000000000000000000e+00) (0, 0, 0.00000000000000000000e+00) (0, 0, 0.00000000000000000000e+00) (0, 0, 0.00000000000000000000e+00) (0, 0, 0.00000000000000000000e+00) (0, 0, 0.00000000000000000000e+00) (0, 0, 0.00000000000000000000e+00) (0, 0, 0.00000000000000000000e+00) (0, 0, 0.00000000000000000000e+00) (0, 0, 0.00000000000000000000e+00) (0, 0, 0.00000000000000000000e+00) (0, 0, 0.00000000000000000000e+00) (0, 0, 0.00000000000000000000e+00) (0, 0, 0.00000000000000000000e+00) (0, 0, 0.00000000000000000000e+00) (0, 0, 0.00000000000000000000e+00) (0, 0, 0.00000000000000000000e+00) (0, 0, 0.00000000000000000000e+00) (0, 0, 0.00000000000000000000e+00) (0, 0, 0.00000000000000000000e+00) (0, 0, 0.00000000000000000000e+00) (0, 0, 0.00000000000000000000e+00) (0, 0, 0.00000000000000000000e+00) (0, 0, 0.00000000000000000000e+00) (0, 0, 0.00000000000000000000e+00) (0, 0, 0.00000000000000000000e+00) (0, 0, 0.00000000000000000000e+00) (0, 0, 0.00000000000000000000e+00) (0, 0, 0.00000000000000000000e+00) (0, 0, 0.00000000000000000000e+00) (0, 0, 0.00000000000000000000e+00) (0, 0, 0.00000000000000000000e+00) (0, 0, 0.00000000000000000000e+00) (0, 0, 0.00000000000000000000e+00) (0, 0, 0.00000000000000000000e+00) (0, 0, 0.00000000000000000000e+00) (0, 0, 0.00000000000000000000e+00) (0, 0, 0.00000000000000000000e+00) (0, 0, 0.00000000000000000000e+00) (0, 0, 0.00000000000000000000e+00) (0, 0, 0.00000000000000000000e+00) (0, 0, 0.00000000000000000000e+00) (0, 0, 0.00000000000000000000e+00) (0, 0, 0.00000000000000000000e+00) (0, 0, 0.00000000000000000000e+00) (0, 0, 0.00000000000000000000e+00) (0, 0, 0.00000000000000000000e+00) (0, 0, 0.00000000000000000000e+00) (0, 0, 0.00000000000000000000e+00) (0, 0, 0.00000000000000000000e+00) (0, 0, 0.00000000000000000000e+00) (0, 0, 0.00000000000000000000e+00) (0, 0, 0.00000000000000000000e+00) (0, 0, 0.00000000000000000000e+00) (0, 0, 0.00000000000000000000e+00) (0, 0, 0.00000000000000000000e+00) (0, 0, 0.00000000000000000000e+00) (0, 0, 0.00000000000000000000e+00) (0, 0, 0.00000000000000000000e+00) (0, 0, 0.00000000000000000000e+00) (0, 0, 0.00000000000000000000e+00) (0, 0, 0.00000000000000000000e+00) (0, 0, 0.00000000000000000000e+00) (0, 0, 0.00000000000000000000e+00) (0, 0, 0.00000000000000000000e+00) (0, 0, 0.00000000000000000000e+00) (0, 0, 0.00000000000000000000e+00) (0, 0, 0.00000000000000000000e+00) (0, 0, 0.00000000000000000000e+00) (0, 0, 0.00000000000000000000e+00) (0, 0, 0.00000000000000000000e+00) (0, 0, 0.00000000000000000000e+00) (0, 0, 0.00000000000000000000e+00) (0, 0, 0.00000000000000000000e+00) (0, 0, 0.00000000000000000000e+00) (0, 0, 0.00000000000000000000e+00) (0, 0, 0.00000000000000000000e+00) (0, 0, 0.00000000000000000000e+00) (0, 0, 0.00000000000000000000e+00) (0, 0, 0.00000000000000000000e+00) (0, 0, 0.00000000000000000000e+00) (0, 0, 0.00000000000000000000e+00) (0, 0, 0.00000000000000000000e+00) (0, 0, 0.00000000000000000000e+00) (0, 0, 0.00000000000000000000e+00) (0, 0, 0.00000000000000000000e+00) (0, 0, 0.00000000000000000000e+00) (0, 0, 0.00000000000000000000e+00) (0, 0, 0.00000000000000000000e+00) (0, 0, 0.00000000000000000000e+00) (0, 0, 0.00000000000000000000e+00) (0, 0, 0.00000000000000000000e+00) (0, 0, 0.00000000000000000000e+00) (0, 0, 0.00000000000000000000e+00) (0, 0, 0.00000000000000000000e+00) (0, 0, 0.00000000000000000000e+00) (0, 0, 0.00000000000000000000e+00) (0, 0, 0.00000000000000000000e+00) (0, 0, 0.00000000000000000000e+00) (0, 0, 0.00000000000000000000e+00) (0, 0, 0.00000000000000000000e+00) (0, 0, 0.00000000000000000000e+00) (0, 0, 0.00000000000000000000e+00) (0, 0, 0.00000000000000000000e+00) (0, 0, 0.00000000000000000000e+00) (0, 0, 0.00000000000000000000e+00) (0, 0, 0.00000000000000000000e+00) (0, 0, 0.00000000000000000000e+00) (0, 0, 0.00000000000000000000e+00) (0, 0, 0.00000000000000000000e+00) (0, 0, 0.00000000000000000000e+00) (0, 0, 0.00000000000000000000e+00) (0, 0, 0.00000000000000000000e+00) (0, 0, 0.00000000000000000000e+00) (0, 0, 0.00000000000000000000e+00) (0, 0, 0.00000000000000000000e+00) (0, 0, 0.00000000000000000000e+00) (0, 0, 0.00000000000000000000e+00) (0, 0, 0.00000000000000000000e+00) (0, 0, 0.00000000000000000000e+00) (0, 0, 0.00000000000000000000e+00) (0, 0, 0.00000000000000000000e+00) (0, 0, 0.00000000000000000000e+00) (0, 0, 0.00000000000000000000e+00) (0, 0, 0.00000000000000000000e+00) (0, 0, 0.00000000000000000000e+00) (0, 0, 0.00000000000000000000e+00) (0, 0, 0.00000000000000000000e+00) (0, 0, 0.00000000000000000000e+00) (0, 0, 0.00000000000000000000e+00) (0, 0, 0.00000000000000000000e+00) (0, 0, 0.00000000000000000000e+00) (0, 0, 0.00000000000000000000e+00) (0, 0, 0.00000000000000000000e+00) (0, 0, 0.00000000000000000000e+00) (0, 0, 0.00000000000000000000e+00) (0, 0, 0.00000000000000000000e+00) (0, 0, 0.00000000000000000000e+00) (0, 0, 0.00000000000000000000e+00) (0, 0, 0.00000000000000000000e+00) (0, 0, 0.00000000000000000000e+00) (0, 0, 0.00000000000000000000e+00) (0, 0, 0.00000000000000000000e+00) (0, 0, 0.00000000000000000000e+00) (0, 0, 0.00000000000000000000e+00) (0, 0, 0.00000000000000000000e+00) (0, 0, 0.00000000000000000000e+00) (0, 0, 0.00000000000000000000e+00) (0, 0, 0.00000000000000000000e+00) (0, 0, 0.00000000000000000000e+00) (0, 0, 0.00000000000000000000e+00) (0, 0, 0.00000000000000000000e+00) (0, 0, 0.00000000000000000000e+00) (0, 0, 0.00000000000000000000e+00) (0, 0, 0.00000000000000000000e+00) (0, 0, 0.00000000000000000000e+00) (0, 0, 0.00000000000000000000e+00) (0, 0, 0.00000000000000000000e+00) (0, 0, 0.00000000000000000000e+00) (0, 0, 0.00000000000000000000e+00) (0, 0, 0.00000000000000000000e+00) (0, 0, 0.00000000000000000000e+00) (0, 0, 0.00000000000000000000e+00) (0, 0, 0.00000000000000000000e+00) (0, 0, 0.00000000000000000000e+00) (0, 0, 0.00000000000000000000e+00) (0, 0, 0.00000000000000000000e+00) (0, 0, 0.00000000000000000000e+00) (0, 0, 0.00000000000000000000e+00) (0, 0, 0.00000000000000000000e+00) (0, 0, 0.00000000000000000000e+00) (0, 0, 0.00000000000000000000e+00) (0, 0, 0.00000000000000000000e+00) (0, 0, 0.00000000000000000000e+00) (0, 0, 0.00000000000000000000e+00) (0, 0, 0.00000000000000000000e+00) (0, 0, 0.00000000000000000000e+00) (0, 0, 0.00000000000000000000e+00) (0, 0, 0.00000000000000000000e+00) (0, 0, 0.00000000000000000000e+00) (0, 0, 0.00000000000000000000e+00) (0, 0, 0.00000000000000000000e+00) (0, 0, 0.00000000000000000000e+00) (0, 0, 0.00000000000000000000e+00) (0, 0, 0.00000000000000000000e+00) (0, 0, 0.00000000000000000000e+00) (0, 0, 0.00000000000000000000e+00) (0, 0, 0.00000000000000000000e+00) (0, 0, 0.00000000000000000000e+00) (0, 0, 0.00000000000000000000e+00) (0, 0, 0.00000000000000000000e+00) (0, 0, 0.00000000000000000000e+00) (0, 0, 0.00000000000000000000e+00) (0, 0, 0.00000000000000000000e+00) (0, 0, 0.00000000000000000000e+00) (0, 0, 0.00000000000000000000e+00) (0, 0, 0.00000000000000000000e+00) (0, 0, 0.00000000000000000000e+00) (0, 0, 0.00000000000000000000e+00) (0, 0, 0.00000000000000000000e+00) (0, 0, 0.00000000000000000000e+00) (0, 0, 0.00000000000000000000e+00) (0, 0, 0.00000000000000000000e+00) (0, 0, 0.00000000000000000000e+00) (0, 0, 0.00000000000000000000e+00) (0, 0, 0.00000000000000000000e+00) (0, 0, 0.00000000000000000000e+00) (0, 0, 0.00000000000000000000e+00) (0, 0, 0.00000000000000000000e+00) (0, 0, 0.00000000000000000000e+00) (0, 0, 0.00000000000000000000e+00) (0, 0, 0.00000000000000000000e+00) (0, 0, 0.00000000000000000000e+00) (0, 0, 0.00000000000000000000e+00) (0, 0, 0.00000000000000000000e+00) (0, 0, 0.00000000000000000000e+00) (0, 0, 0.00000000000000000000e+00) (0, 0, 0.00000000000000000000e+00) (0, 0, 0.00000000000000000000e+00) (0, 0, 0.00000000000000000000e+00) (0, 0, 0.00000000000000000000e+00) (0, 0, 0.00000000000000000000e+00) (0, 0, 0.00000000000000000000e+00) (0, 0, 0.00000000000000000000e+00) (0, 0, 0.00000000000000000000e+00) (0, 0, 0.00000000000000000000e+00) (0, 0, 0.00000000000000000000e+00) (0, 0, 0.00000000000000000000e+00) (0, 0, 0.00000000000000000000e+00) (0, 0, 0.00000000000000000000e+00) (0, 0, 0.00000000000000000000e+00) (0, 0, 0.00000000000000000000e+00) (0, 0, 0.00000000000000000000e+00) (0, 0, 0.00000000000000000000e+00) (0, 0, 0.00000000000000000000e+00) (0, 0, 0.00000000000000000000e+00) (0, 0, 0.00000000000000000000e+00) (0, 0, 0.00000000000000000000e+00) (0, 0, 0.00000000000000000000e+00) (0, 0, 0.00000000000000000000e+00) (0, 0, 0.00000000000000000000e+00) (0, 0, 0.00000000000000000000e+00) (0, 0, 0.00000000000000000000e+00) (0, 0, 0.00000000000000000000e+00) (0, 0, 0.00000000000000000000e+00) (0, 0, 0.00000000000000000000e+00) (0, 0, 0.00000000000000000000e+00) (0, 0, 0.00000000000000000000e+00) (0, 0, 0.00000000000000000000e+00) (0, 0, 0.00000000000000000000e+00) (0, 0, 0.00000000000000000000e+00) (0, 0, 0.00000000000000000000e+00) (0, 0, 0.00000000000000000000e+00) (0, 0, 0.00000000000000000000e+00) (0, 0, 0.00000000000000000000e+00) (0, 0, 0.00000000000000000000e+00) (0, 0, 0.00000000000000000000e+00) (0, 0, 0.00000000000000000000e+00) (0, 0, 0.00000000000000000000e+00) (0, 0, 0.00000000000000000000e+00) (0, 0, 0.00000000000000000000e+00) (0, 0, 0.00000000000000000000e+00) (0, 0, 0.00000000000000000000e+00) (0, 0, 0.00000000000000000000e+00) (0, 0, 0.00000000000000000000e+00) (0, 0, 0.00000000000000000000e+00) (0, 0, 0.00000000000000000000e+00) (0, 0, 0.00000000000000000000e+00) (0, 0, 0.00000000000000000000e+00) (0, 0, 0.00000000000000000000e+00) (0, 0, 0.00000000000000000000e+00) (0, 0, 0.00000000000000000000e+00) (0, 0, 0.00000000000000000000e+00) (0, 0, 0.00000000000000000000e+00) (0, 0, 0.00000000000000000000e+00) (0, 0, 0.00000000000000000000e+00) (0, 0, 0.00000000000000000000e+00) (0, 0, 0.00000000000000000000e+00) (0, 0, 0.00000000000000000000e+00) (0, 0, 0.00000000000000000000e+00) (0, 0, 0.00000000000000000000e+00) (0, 0, 0.00000000000000000000e+00) (0, 0, 0.00000000000000000000e+00) (0, 0, 0.00000000000000000000e+00) (0, 0, 0.00000000000000000000e+00) (0, 0, 0.00000000000000000000e+00) (0, 0, 0.00000000000000000000e+00) (0, 0, 0.00000000000000000000e+00) (0, 0, 0.00000000000000000000e+00) (0, 0, 0.00000000000000000000e+00) (0, 0, 0.00000000000000000000e+00) (0, 0, 0.00000000000000000000e+00) (0, 0, 0.00000000000000000000e+00) (0, 0, 0.00000000000000000000e+00) (0, 0, 0.00000000000000000000e+00) (0, 0, 0.00000000000000000000e+00) (0, 0, 0.00000000000000000000e+00) (0, 0, 0.00000000000000000000e+00) (0, 0, 0.00000000000000000000e+00) (0, 0, 0.00000000000000000000e+00) (0, 0, 0.00000000000000000000e+00) (0, 0, 0.00000000000000000000e+00) (0, 0, 0.00000000000000000000e+00) (0, 0, 0.00000000000000000000e+00) (0, 0, 0.00000000000000000000e+00) (0, 0, 0.00000000000000000000e+00) (0, 0, 0.00000000000000000000e+00) (0, 0, 0.00000000000000000000e+00) (0, 0, 0.00000000000000000000e+00) (0, 0, 0.00000000000000000000e+00) (0, 0, 0.00000000000000000000e+00) (0, 0, 0.00000000000000000000e+00) (0, 0, 0.00000000000000000000e+00) (0, 0, 0.00000000000000000000e+00) (0, 0, 0.00000000000000000000e+00) (0, 0, 0.00000000000000000000e+00) (0, 0, 0.00000000000000000000e+00) (0, 0, 0.00000000000000000000e+00) (0, 0, 0.00000000000000000000e+00) (0, 0, 0.00000000000000000000e+00) (0, 0, 0.00000000000000000000e+00) (0, 0, 0.00000000000000000000e+00) (0, 0, 0.00000000000000000000e+00) (0, 0, 0.00000000000000000000e+00) (0, 0, 0.00000000000000000000e+00) (0, 0, 0.00000000000000000000e+00) (0, 0, 0.00000000000000000000e+00) (0, 0, 0.00000000000000000000e+00) (0, 0, 0.00000000000000000000e+00) (0, 0, 0.00000000000000000000e+00) (0, 0, 0.00000000000000000000e+00) (0, 0, 0.00000000000000000000e+00) (0, 0, 0.00000000000000000000e+00) (0, 0, 0.00000000000000000000e+00) (0, 0, 0.00000000000000000000e+00) (0, 0, 0.00000000000000000000e+00) (0, 0, 0.00000000000000000000e+00) (0, 0, 0.00000000000000000000e+00) (0, 0, 0.00000000000000000000e+00) (0, 0, 0.00000000000000000000e+00) (0, 0, 0.00000000000000000000e+00) (0, 0, 0.00000000000000000000e+00) (0, 0, 0.00000000000000000000e+00) (0, 0, 0.00000000000000000000e+00) (0, 0, 0.00000000000000000000e+00) (0, 0, 0.00000000000000000000e+00) (0, 0, 0.00000000000000000000e+00) (0, 0, 0.00000000000000000000e+00) (0, 0, 0.00000000000000000000e+00) (0, 0, 0.00000000000000000000e+00) (0, 0, 0.00000000000000000000e+00) (0, 0, 0.00000000000000000000e+00) (0, 0, 0.00000000000000000000e+00) (0, 0, 0.00000000000000000000e+00) (0, 0, 0.00000000000000000000e+00) (0, 0, 0.00000000000000000000e+00) (0, 0, 0.00000000000000000000e+00) (0, 0, 0.00000000000000000000e+00) (0, 0, 0.00000000000000000000e+00) (0, 0, 0.00000000000000000000e+00) (0, 0, 0.00000000000000000000e+00) (0, 0, 0.00000000000000000000e+00) (0, 0, 0.00000000000000000000e+00) (0, 0, 0.00000000000000000000e+00) (0, 0, 0.00000000000000000000e+00) (0, 0, 0.00000000000000000000e+00) (0, 0, 0.00000000000000000000e+00) (0, 0, 0.00000000000000000000e+00) (0, 0, 0.00000000000000000000e+00) (0, 0, 0.00000000000000000000e+00) (0, 0, 0.00000000000000000000e+00) (0, 0, 0.00000000000000000000e+00) (0, 0, 0.00000000000000000000e+00) (0, 0, 0.00000000000000000000e+00) (0, 0, 0.00000000000000000000e+00) (0, 0, 0.00000000000000000000e+00) (0, 0, 0.00000000000000000000e+00) (0, 0, 0.00000000000000000000e+00) (0, 0, 0.00000000000000000000e+00) (0, 0, 0.00000000000000000000e+00) (0, 0, 0.00000000000000000000e+00) (0, 0, 0.00000000000000000000e+00) (0, 0, 0.00000000000000000000e+00) (0, 0, 0.00000000000000000000e+00) (0, 0, 0.00000000000000000000e+00) (0, 0, 0.00000000000000000000e+00) (0, 0, 0.00000000000000000000e+00) (0, 0, 0.00000000000000000000e+00) (0, 0, 0.00000000000000000000e+00) (0, 0, 0.00000000000000000000e+00) (0, 0, 0.00000000000000000000e+00) (0, 0, 0.00000000000000000000e+00) (0, 0, 0.00000000000000000000e+00) (0, 0, 0.00000000000000000000e+00) (0, 0, 0.00000000000000000000e+00) (0, 0, 0.00000000000000000000e+00) (0, 0, 0.00000000000000000000e+00) (0, 0, 0.00000000000000000000e+00) (0, 0, 0.00000000000000000000e+00) (0, 0, 0.00000000000000000000e+00) (0, 0, 0.00000000000000000000e+00) (0, 0, 0.00000000000000000000e+00) (0, 0, 0.00000000000000000000e+00) (0, 0, 0.00000000000000000000e+00) (0, 0, 0.00000000000000000000e+00) (0, 0, 0.00000000000000000000e+00) (0, 0, 0.00000000000000000000e+00) (0, 0, 0.00000000000000000000e+00) (0, 0, 0.00000000000000000000e+00) (0, 0, 0.00000000000000000000e+00) (0, 0, 0.00000000000000000000e+00) (0, 0, 0.00000000000000000000e+00) (0, 0, 0.00000000000000000000e+00) (0, 0, 0.00000000000000000000e+00) (0, 0, 0.00000000000000000000e+00) (0, 0, 0.00000000000000000000e+00) (0, 0, 0.00000000000000000000e+00) (0, 0, 0.00000000000000000000e+00) (0, 0, 0.00000000000000000000e+00) (0, 0, 0.00000000000000000000e+00) (0, 0, 0.00000000000000000000e+00) (0, 0, 0.00000000000000000000e+00) (0, 0, 0.00000000000000000000e+00) (0, 0, 0.00000000000000000000e+00) (0, 0, 0.00000000000000000000e+00) (0, 0, 0.00000000000000000000e+00) (0, 0, 0.00000000000000000000e+00) (0, 0, 0.00000000000000000000e+00) (0, 0, 0.00000000000000000000e+00) (0, 0, 0.00000000000000000000e+00) (0, 0, 0.00000000000000000000e+00) (0, 0, 0.00000000000000000000e+00) (0, 0, 0.00000000000000000000e+00) (0, 0, 0.00000000000000000000e+00) (0, 0, 0.00000000000000000000e+00) (0, 0, 0.00000000000000000000e+00) (0, 0, 0.00000000000000000000e+00) (0, 0, 0.00000000000000000000e+00) (0, 0, 0.00000000000000000000e+00) (0, 0, 0.00000000000000000000e+00) (0, 0, 0.00000000000000000000e+00) (0, 0, 0.00000000000000000000e+00) (0, 0, 0.00000000000000000000e+00) (0, 0, 0.00000000000000000000e+00) (0, 0, 0.00000000000000000000e+00) (0, 0, 0.00000000000000000000e+00) (0, 0, 0.00000000000000000000e+00) (0, 0, 0.00000000000000000000e+00) (0, 0, 0.00000000000000000000e+00) (0, 0, 0.00000000000000000000e+00) (0, 0, 0.00000000000000000000e+00) (0, 0, 0.00000000000000000000e+00) (0, 0, 0.00000000000000000000e+00) (0, 0, 0.00000000000000000000e+00) (0, 0, 0.00000000000000000000e+00) (0, 0, 0.00000000000000000000e+00) (0, 0, 0.00000000000000000000e+00) (0, 0, 0.00000000000000000000e+00) (0, 0, 0.00000000000000000000e+00) (0, 0, 0.00000000000000000000e+00) (0, 0, 0.00000000000000000000e+00) (0, 0, 0.00000000000000000000e+00) (0, 0, 0.00000000000000000000e+00) (0, 0, 0.00000000000000000000e+00) (0, 0, 0.00000000000000000000e+00) (0, 0, 0.00000000000000000000e+00) (0, 0, 0.00000000000000000000e+00) (0, 0, 0.00000000000000000000e+00) (0, 0, 0.00000000000000000000e+00) (0, 0, 0.00000000000000000000e+00) (0, 0, 0.00000000000000000000e+00) (0, 0, 0.00000000000000000000e+00) (0, 0, 0.00000000000000000000e+00) (0, 0, 0.00000000000000000000e+00) (0, 0, 0.00000000000000000000e+00) (0, 0, 0.00000000000000000000e+00) (0, 0, 0.00000000000000000000e+00) (0, 0, 0.00000000000000000000e+00) (0, 0, 0.00000000000000000000e+00) (0, 0, 0.00000000000000000000e+00) (0, 0, 0.00000000000000000000e+00) (0, 0, 0.00000000000000000000e+00) (0, 0, 0.00000000000000000000e+00) (0, 0, 0.00000000000000000000e+00) (0, 0, 0.00000000000000000000e+00) (0, 0, 0.00000000000000000000e+00) (0, 0, 0.00000000000000000000e+00) (0, 0, 0.00000000000000000000e+00) (0, 0, 0.00000000000000000000e+00) (0, 0, 0.00000000000000000000e+00) (0, 0, 0.00000000000000000000e+00) (0, 0, 0.00000000000000000000e+00) (0, 0, 0.00000000000000000000e+00) (0, 0, 0.00000000000000000000e+00) (0, 0, 0.00000000000000000000e+00) (0, 0, 0.00000000000000000000e+00) (0, 0, 0.00000000000000000000e+00) (0, 0, 0.00000000000000000000e+00) (0, 0, 0.00000000000000000000e+00) (0, 0, 0.00000000000000000000e+00) (0, 0, 0.00000000000000000000e+00) (0, 0, 0.00000000000000000000e+00) (0, 0, 0.00000000000000000000e+00) (0, 0, 0.00000000000000000000e+00) (0, 0, 0.00000000000000000000e+00) (0, 0, 0.00000000000000000000e+00) (0, 0, 0.00000000000000000000e+00) (0, 0, 0.00000000000000000000e+00) (0, 0, 0.00000000000000000000e+00) (0, 0, 0.00000000000000000000e+00) (0, 0, 0.00000000000000000000e+00) (0, 0, 0.00000000000000000000e+00) (0, 0, 0.00000000000000000000e+00) (0, 0, 0.00000000000000000000e+00) (0, 0, 0.00000000000000000000e+00) (0, 0, 0.00000000000000000000e+00) (0, 0, 0.00000000000000000000e+00) (0, 0, 0.00000000000000000000e+00) (0, 0, 0.00000000000000000000e+00) (0, 0, 0.00000000000000000000e+00) (0, 0, 0.00000000000000000000e+00) (0, 0, 0.00000000000000000000e+00) (0, 0, 0.00000000000000000000e+00) (0, 0, 0.00000000000000000000e+00) (0, 0, 0.00000000000000000000e+00) (0, 0, 0.00000000000000000000e+00) (0, 0, 0.00000000000000000000e+00) (0, 0, 0.00000000000000000000e+00) (0, 0, 0.00000000000000000000e+00) (0, 0, 0.00000000000000000000e+00) (0, 0, 0.00000000000000000000e+00) (0, 0, 0.00000000000000000000e+00) (0, 0, 0.00000000000000000000e+00) (0, 0, 0.00000000000000000000e+00) (0, 0, 0.00000000000000000000e+00) (0, 0, 0.00000000000000000000e+00) (0, 0, 0.00000000000000000000e+00) (0, 0, 0.00000000000000000000e+00) (0, 0, 0.00000000000000000000e+00) (0, 0, 0.00000000000000000000e+00) (0, 0, 0.00000000000000000000e+00) (0, 0, 0.00000000000000000000e+00) (0, 0, 0.00000000000000000000e+00) (0, 0, 0.00000000000000000000e+00) (0, 0, 0.00000000000000000000e+00) (0, 0, 0.00000000000000000000e+00) (0, 0, 0.00000000000000000000e+00) (0, 0, 0.00000000000000000000e+00) (0, 0, 0.00000000000000000000e+00) (0, 0, 0.00000000000000000000e+00) (0, 0, 0.00000000000000000000e+00) (0, 0, 0.00000000000000000000e+00) (0, 0, 0.00000000000000000000e+00) (0, 0, 0.00000000000000000000e+00) (0, 0, 0.00000000000000000000e+00) (0, 0, 0.00000000000000000000e+00) (0, 0, 0.00000000000000000000e+00) (0, 0, 0.00000000000000000000e+00) (0, 0, 0.00000000000000000000e+00) (0, 0, 0.00000000000000000000e+00) (0, 0, 0.00000000000000000000e+00) (0, 0, 0.00000000000000000000e+00) (0, 0, 0.00000000000000000000e+00) (0, 0, 0.00000000000000000000e+00) (0, 0, 0.00000000000000000000e+00) (0, 0, 0.00000000000000000000e+00) (0, 0, 0.00000000000000000000e+00) (0, 0, 0.00000000000000000000e+00) (0, 0, 0.00000000000000000000e+00) (0, 0, 0.00000000000000000000e+00) (0, 0, 0.00000000000000000000e+00) (901, 10, 5.00000000000000000000e-01) (901, 10, 5.00000000000000000000e-01) (901, 10, 5.00000000000000000000e-01) (901, 10, 5.00000000000000000000e-01) (901, 10, 5.00000000000000000000e-01) (901, 10, 5.00000000000000000000e-01) (901, 10, 5.00000000000000000000e-01) (901, 10, 5.00000000000000000000e-01) (901, 10, 5.00000000000000000000e-01) (901, 10, 5.00000000000000000000e-01) (901, 10, 5.00000000000000000000e-01) (901, 10, 5.00000000000000000000e-01) (901, 10, 5.00000000000000000000e-01) (901, 10, 5.00000000000000000000e-01) (901, 10, 5.00000000000000000000e-01) (901, 10, 5.00000000000000000000e-01) (901, 10, 5.00000000000000000000e-01) (901, 10, 5.00000000000000000000e-01) (901, 10, 5.00000000000000000000e-01) (901, 10, 5.00000000000000000000e-01) (901, 10, 5.00000000000000000000e-01) (901, 10, 5.00000000000000000000e-01) (901, 10, 5.00000000000000000000e-01) (901, 10, 5.00000000000000000000e-01) (901, 10, 5.00000000000000000000e-01) (901, 10, 5.00000000000000000000e-01) (901, 10, 5.00000000000000000000e-01) (901, 10, 5.00000000000000000000e-01) (901, 10, 5.00000000000000000000e-01) (901, 10, 5.00000000000000000000e-01) (901, 10, 5.00000000000000000000e-01) (901, 10, 5.00000000000000000000e-01) (901, 10, 5.00000000000000000000e-01) (901, 10, 5.00000000000000000000e-01) (901, 10, 5.00000000000000000000e-01) (901, 10, 5.00000000000000000000e-01) (901, 10, 5.00000000000000000000e-01) (901, 10, 5.00000000000000000000e-01) (901, 10, 5.00000000000000000000e-01) (901, 10, 5.00000000000000000000e-01) (901, 10, 5.00000000000000000000e-01) (901, 10, 5.00000000000000000000e-01) (901, 10, 5.00000000000000000000e-01) (901, 10, 5.00000000000000000000e-01) (901, 10, 5.00000000000000000000e-01) (901, 10, 5.00000000000000000000e-01) (901, 10, 5.00000000000000000000e-01) (901, 10, 5.00000000000000000000e-01) (901, 10, 5.00000000000000000000e-01) (901, 10, 5.00000000000000000000e-01) (901, 10, 5.00000000000000000000e-01) (901, 10, 5.00000000000000000000e-01) (901, 10, 5.00000000000000000000e-01) (901, 10, 5.00000000000000000000e-01) (901, 10, 5.00000000000000000000e-01) (901, 10, 5.00000000000000000000e-01) (901, 10, 5.00000000000000000000e-01) (901, 10, 5.00000000000000000000e-01) (901, 10, 5.00000000000000000000e-01) (901, 10, 5.00000000000000000000e-01) (901, 10, 5.00000000000000000000e-01) (901, 10, 5.00000000000000000000e-01) (901, 10, 5.00000000000000000000e-01) (901, 10, 5.00000000000000000000e-01) (901, 10, 5.00000000000000000000e-01) (901, 10, 5.00000000000000000000e-01) (901, 10, 5.00000000000000000000e-01) (901, 10, 5.00000000000000000000e-01) (901, 10, 5.00000000000000000000e-01) (901, 10, 5.00000000000000000000e-01) (901, 10, 5.00000000000000000000e-01) (901, 10, 5.00000000000000000000e-01) (901, 10, 5.00000000000000000000e-01) (901, 10, 5.00000000000000000000e-01) (901, 10, 5.00000000000000000000e-01) (901, 10, 5.00000000000000000000e-01) (901, 10, 5.00000000000000000000e-01) (901, 10, 5.00000000000000000000e-01) (901, 10, 5.00000000000000000000e-01) (901, 10, 5.00000000000000000000e-01) (901, 10, 5.00000000000000000000e-01) (901, 10, 5.00000000000000000000e-01) (901, 10, 5.00000000000000000000e-01) (901, 10, 5.00000000000000000000e-01) (901, 10, 5.00000000000000000000e-01) (901, 10, 5.00000000000000000000e-01) (901, 10, 5.00000000000000000000e-01) (901, 10, 5.00000000000000000000e-01) (901, 10, 5.00000000000000000000e-01) (901, 10, 5.00000000000000000000e-01) (901, 10, 5.00000000000000000000e-01) (901, 10, 5.00000000000000000000e-01) (901, 10, 5.00000000000000000000e-01) (901, 10, 5.00000000000000000000e-01) (901, 10, 5.00000000000000000000e-01) (901, 10, 5.00000000000000000000e-01) (901, 10, 5.00000000000000000000e-01) (901, 10, 5.00000000000000000000e-01) (901, 10, 5.00000000000000000000e-01) (901, 10, 5.00000000000000000000e-01) (0, 10, 0.00000000000000000000e+00) (101, 10, 5.00000000000000000000e-01) (101, 10, 5.00000000000000000000e-01) (101, 10, 5.00000000000000000000e-01) (101, 10, 5.00000000000000000000e-01) (101, 10, 5.00000000000000000000e-01) (101, 10, 5.00000000000000000000e-01) (101, 10, 5.00000000000000000000e-01) (101, 10, 5.00000000000000000000e-01) (101, 10, 5.00000000000000000000e-01) (101, 10, 5.00000000000000000000e-01) (101, 10, 5.00000000000000000000e-01) (101, 10, 5.00000000000000000000e-01) (101, 10, 5.00000000000000000000e-01) (101, 10, 5.00000000000000000000e-01) (101, 10, 5.00000000000000000000e-01) (101, 10, 5.00000000000000000000e-01) (101, 10, 5.00000000000000000000e-01) (101, 10, 5.00000000000000000000e-01) (101, 10, 5.00000000000000000000e-01) (101, 10, 5.00000000000000000000e-01) (101, 10, 5.00000000000000000000e-01) (101, 10, 5.00000000000000000000e-01) (101, 10, 5.00000000000000000000e-01) (101, 10, 5.00000000000000000000e-01) (101, 10, 5.00000000000000000000e-01) (101, 10, 5.00000000000000000000e-01) (101, 10, 5.00000000000000000000e-01) (101, 10, 5.00000000000000000000e-01) (101, 10, 5.00000000000000000000e-01) (101, 10, 5.00000000000000000000e-01) (101, 10, 5.00000000000000000000e-01) (101, 10, 5.00000000000000000000e-01) (101, 10, 5.00000000000000000000e-01) (101, 10, 5.00000000000000000000e-01) (101, 10, 5.00000000000000000000e-01) (101, 10, 5.00000000000000000000e-01) (0, 10, 0.00000000000000000000e+00) 
connections (connected_to_neuron, weight)=(0, 3.27619647979736328125e+00) (1, 3.23736810684204101562e+00) (2, 4.84926891326904296875e+00) (3, 4.84741640090942382812e+00) (4, 4.88365888595581054688e+00) (5, 4.84437036514282226562e+00) (6, 4.88598537445068359375e+00) (7, 4.79733896255493164062e+00) (8, 4.92333412170410156250e+00) (9, 4.77202081680297851562e+00) (10, 2.33760046958923339844e+00) (11, 2.41875672340393066406e+00) (12, 2.01708030700683593750e+00) (13, 2.02850914001464843750e+00) (14, 1.53895628452301025391e+00) (15, 1.50732886791229248047e+00) (16, 1.46452081203460693359e+00) (17, 1.57036530971527099609e+00) (18, 1.53864228725433349609e+00) (19, 1.50926101207733154297e+00) (20, 1.56672632694244384766e+00) (21, 1.50472509860992431641e+00) (22, 1.69023180007934570312e+00) (23, 1.63732123374938964844e+00) (24, 3.16117000579833984375e+00) (25, 3.13003444671630859375e+00) (26, 3.14718484878540039062e+00) (27, 3.17594480514526367188e+00) (28, 3.24430370330810546875e+00) (29, 1.70332121849060058594e+00) (30, 4.80200862884521484375e+00) (31, 4.86108970642089843750e+00) (32, 4.82996177673339843750e+00) (33, 4.90840816497802734375e+00) (34, 1.07834434509277343750e+01) (35, 1.07885580062866210938e+01) (36, 1.08277158737182617188e+01) (37, 1.09265604019165039062e+01) (38, 4.82522106170654296875e+00) (39, 4.79037427902221679688e+00) (40, 2.42082405090332031250e+00) (41, 2.10089540481567382812e+00) (42, 2.30862185359001159668e-01) (43, 7.10522830486297607422e-01) (44, 8.95012319087982177734e-01) (45, 9.21346008777618408203e-01) (46, 5.67670404911041259766e-01) (47, 5.72183072566986083984e-01) (48, 5.04361271858215332031e-01) (49, 1.21149957180023193359e+00) (50, 1.06394517421722412109e+00) (51, 1.02665972709655761719e+00) (52, 1.71607184410095214844e+00) (53, 6.85972881317138671875e+00) (54, 1.07807292938232421875e+01) (55, 1.06941785812377929688e+01) (56, 1.08487920761108398438e+01) (57, 1.08026752471923828125e+01) (58, 3.15710878372192382812e+00) (59, 3.18579864501953125000e+00) (60, 4.80749320983886718750e+00) (61, 4.87635946273803710938e+00) (62, 4.76413059234619140625e+00) (63, 1.09123926162719726562e+01) (64, 1.08597049713134765625e+01) (65, 1.44436889648437500000e+02) (66, 3.34452697753906250000e+02) (67, 1.44558929443359375000e+02) (68, 2.58858203887939453125e+01) (69, 1.10986137390136718750e+01) (70, 5.95946550369262695312e-01) (71, 3.97552251815795898438e+00) (72, 2.04066324234008789062e+00) (73, 1.63965010643005371094e+00) (74, 6.07652842998504638672e-01) (75, 1.67744624614715576172e+00) (76, 1.52631402015686035156e+00) (77, 1.03370189666748046875e+00) (78, 1.56218737363815307617e-01) (79, 5.67644119262695312500e-01) (80, 8.61981213092803955078e-01) (81, 8.27565848827362060547e-01) (82, 3.89953756332397460938e+00) (83, 1.43250991821289062500e+02) (84, 2.08970443725585937500e+02) (85, 1.42305236816406250000e+02) (86, 5.96354103088378906250e+01) (87, 2.51354446411132812500e+01) (88, 1.08498954772949218750e+01) (89, 4.80347776412963867188e+00) (90, 4.78856801986694335938e+00) (91, 4.78685569763183593750e+00) (92, 1.11200590133666992188e+01) (93, 2.54356555938720703125e+01) (94, 1.44588562011718750000e+02) (95, 3.34366210937500000000e+02) (96, 1.41990371704101562500e+02) (97, 1.42087631225585937500e+02) (98, 2.48718185424804687500e+01) (99, 2.50886325836181640625e+01) (100, 9.66419219970703125000e+00) (101, 9.69971084594726562500e+00) (102, 9.75279140472412109375e+00) (103, 2.02699875831604003906e+00) (104, 4.93093061447143554688e+00) (105, 1.79387938976287841797e+00) (106, 1.82311856746673583984e+00) (107, 7.25588500499725341797e-01) (108, 7.20698297023773193359e-01) (109, -5.09023852646350860596e-03) (110, 5.29030561447143554688e-01) (111, 7.05875635147094726562e-01) (112, 1.30016040802001953125e+00) (113, 5.01119842529296875000e+01) (114, 1.43160018920898437500e+02) (115, 3.34382507324218750000e+02) (116, 1.42274597167968750000e+02) (117, 5.95127677917480468750e+01) (118, 1.07866983413696289062e+01) (119, 1.08664722442626953125e+01) (120, 4.86709356307983398438e+00) (121, 4.90473270416259765625e+00) (122, 1.09658851623535156250e+01) (123, 2.53911151885986328125e+01) (124, 2.53016147613525390625e+01) (125, 3.34109771728515625000e+02) (126, 3.34085601806640625000e+02) (127, 1.43087600708007812500e+02) (128, 1.42958709716796875000e+02) (129, 1.44005599975585937500e+02) (130, 2.57444667816162109375e+01) (131, 1.00180625915527343750e+01) (132, 4.55027532577514648438e+00) (133, 4.54250431060791015625e+00) (134, 4.49748897552490234375e+00) (135, 4.42617750167846679688e+00) (136, 4.37741470336914062500e+00) (137, 4.36163854598999023438e+00) (138, 4.54804468154907226562e+00) (139, 4.49439191818237304688e+00) (140, 1.60479354858398437500e+00) (141, 2.77627468109130859375e-01) (142, 2.00598254799842834473e-01) (143, 1.01207780838012695312e+01) (144, 1.43270736694335937500e+02) (145, 1.43207504272460937500e+02) (146, 5.97955322265625000000e+01) (147, 5.97994232177734375000e+01) (148, 1.08957529067993164062e+01) (149, 1.08242273330688476562e+01) (150, 4.74346351623535156250e+00) (151, 1.10386400222778320312e+01) (152, 2.58926525115966796875e+01) (153, 6.10442695617675781250e+01) (154, 6.10347518920898437500e+01) (155, 6.11113662719726562500e+01) (156, 3.36731597900390625000e+02) (157, 3.36697906494140625000e+02) (158, 3.36702880859375000000e+02) (159, 1.46862304687500000000e+02) (160, 6.17385826110839843750e+01) (161, 1.15397768020629882812e+01) (162, 4.30297088623046875000e+00) (163, 2.05991744995117187500e+00) (164, 1.57054769992828369141e+00) (165, 1.49979627132415771484e+00) (166, 1.54974758625030517578e+00) (167, 1.07710182666778564453e+00) (168, 1.04342770576477050781e+00) (169, 1.10100078582763671875e+00) (170, 1.03677153587341308594e+00) (171, 1.29377138614654541016e+00) (172, 8.27482461929321289062e-01) (173, 7.32908844947814941406e-01) (174, 8.32037687301635742188e-01) (175, 1.26677548885345458984e+00) (176, 1.09241523742675781250e+01) (177, 1.10258798599243164062e+01) (178, 4.90995883941650390625e+00) (179, 4.79505300521850585938e+00) (180, 1.09715824127197265625e+01) (181, 2.59447784423828125000e+01) (182, 1.06555414199829101562e+01) (183, 6.11281661987304687500e+01) (184, 1.46946670532226562500e+02) (185, 1.46934341430664062500e+02) (186, 6.54952011108398437500e+01) (187, 1.46822814941406250000e+02) (188, 1.46776794433593750000e+02) (189, 3.46102569580078125000e+02) (190, 1.47252838134765625000e+02) (191, 5.04504728317260742188e+00) (192, 3.45788097381591796875e+00) (193, 1.54250252246856689453e+00) (194, 1.00698411464691162109e+00) (195, 8.36015939712524414062e-01) (196, 8.04003536701202392578e-01) (197, 7.55213320255279541016e-01) (198, 1.04269254207611083984e+00) (199, 8.73442173004150390625e-01) (200, 7.85049498081207275391e-01) (201, 9.09281015396118164062e-01) (202, 6.42103791236877441406e-01) (203, 8.40372920036315917969e-01) (204, 8.59385967254638671875e-01) (205, 2.38116741180419921875e+00) (206, 1.10733594894409179688e+01) (207, 2.59201564788818359375e+01) (208, 2.59244613647460937500e+01) (209, 1.10662002563476562500e+01) (210, 1.15131301879882812500e+01) (211, 2.58460235595703125000e+01) (212, 1.06687765121459960938e+01) (213, 1.46900985717773437500e+02) (214, 1.46931808471679687500e+02) (215, 3.46195373535156250000e+02) (216, 3.46167480468750000000e+02) (217, 3.39834777832031250000e+02) (218, 3.39806518554687500000e+02) (219, 1.47204589843750000000e+02) (220, 2.58819389343261718750e+01) (221, 1.63466510772705078125e+01) (222, 3.01781320571899414062e+00) (223, 1.54414761066436767578e+00) (224, 1.17346835136413574219e+00) (225, 7.87511765956878662109e-01) (226, 7.53242671489715576172e-01) (227, 7.26940572261810302734e-01) (228, 6.57091200351715087891e-01) (229, 7.23376691341400146484e-01) (230, 7.72408723831176757812e-01) (231, 7.78922915458679199219e-01) (232, 1.43481206893920898438e+00) (233, 1.33805632591247558594e+00) (234, 4.83465147018432617188e+00) (235, 2.53646068572998046875e+01) (236, 6.00100021362304687500e+01) (237, 6.00028266906738281250e+01) (238, 1.42471694946289062500e+02) (239, 1.11710681915283203125e+01) (240, 2.59458370208740234375e+01) (241, 2.59386997222900390625e+01) (242, 1.06748895645141601562e+01) (243, 1.43088256835937500000e+02) (244, 3.36706054687500000000e+02) (245, 8.16566040039062500000e+02) (246, 8.16648071289062500000e+02) (247, 5.74703735351562500000e+02) (248, 3.39738830566406250000e+02) (249, 1.44683303833007812500e+02) (250, 1.62735080718994140625e+01) (251, 1.64123458862304687500e+01) (252, 3.09497785568237304688e+00) (253, 5.45246601104736328125e-01) (254, 4.65672940015792846680e-01) (255, 5.83234906196594238281e-01) (256, 7.72040188312530517578e-01) (257, 9.93971109390258789062e-01) (258, 7.05021202564239501953e-01) (259, 6.52350962162017822266e-01) (260, 5.52643954753875732422e-01) (261, 1.30427157878875732422e+00) (262, 1.39769339561462402344e+00) (263, 1.14729328155517578125e+01) (264, 2.59541893005371093750e+01) (265, 5.74842895507812500000e+02) (266, 5.74674438476562500000e+02) (267, 1.42403274536132812500e+02) (268, 1.42460098266601562500e+02) (269, 1.42489883422851562500e+02) (270, 2.59878978729248046875e+01) (271, 2.58614253997802734375e+01) (272, 2.48314113616943359375e+01) (273, 3.34262786865234375000e+02) (274, 5.74689208984375000000e+02) (275, 5.74696472167968750000e+02) (276, 5.74593811035156250000e+02) (277, 5.74675292968750000000e+02) (278, 1.44600494384765625000e+02) (279, 6.05945930480957031250e+01) (280, 1.58598852157592773438e+01) (281, 3.20505714416503906250e+00) (282, 2.99918556213378906250e+00) (283, 1.18983066082000732422e+00) (284, 8.45755875110626220703e-01) (285, 7.58191168308258056641e-01) (286, 7.64251887798309326172e-01) (287, 5.91869592666625976562e-01) (288, 4.92864102125167846680e-01) (289, 4.48471635580062866211e-01) (290, 6.75103485584259033203e-01) (291, 1.38583302497863769531e+00) (292, 5.52564048767089843750e+00) (293, 2.59459896087646484375e+01) (294, 5.79696411132812500000e+02) (295, 8.15141052246093750000e+02) (296, 5.74764770507812500000e+02) (297, 1.42391372680664062500e+02) (298, 1.42411956787109375000e+02) (299, 1.42368576049804687500e+02) (300, 4.94246149063110351562e+00) (301, 5.99986801147460937500e+01) (302, 5.91925163269042968750e+01) (303, 5.91906890869140625000e+01) (304, 3.34237091064453125000e+02) (305, 5.74768188476562500000e+02) (306, 5.74573608398437500000e+02) (307, 3.34262634277343750000e+02) (308, 6.03851470947265625000e+01) (309, 1.08296670913696289062e+01) (310, 6.91982269287109375000e+00) (311, 3.39834976196289062500e+00) (312, 3.07481718063354492188e+00) (313, 1.28045642375946044922e+00) (314, 8.93302798271179199219e-01) (315, 7.03435778617858886719e-01) (316, 6.92878842353820800781e-01) (317, 6.30481243133544921875e-01) (318, 5.86394190788269042969e-01) (319, 5.78115284442901611328e-01) (320, 6.81947410106658935547e-01) (321, 1.38123393058776855469e+00) (322, 5.53594732284545898438e+00) (323, 2.58789501190185546875e+01) (324, 3.34787994384765625000e+02) (325, 8.15224975585937500000e+02) (326, 3.34793548583984375000e+02) (327, 1.42518264770507812500e+02) (328, 1.42483963012695312500e+02) (329, 1.42468048095703125000e+02) (330, 4.74804353713989257812e+00) (331, 2.51261119842529296875e+01) (332, 5.92858924865722656250e+01) (333, 5.91976890563964843750e+01) (334, 1.42000381469726562500e+02) (335, 3.34209472656250000000e+02) (336, 1.41963439941406250000e+02) (337, 5.90525283813476562500e+01) (338, 1.08844947814941406250e+01) (339, 4.87551403045654296875e+00) (340, 7.02227210998535156250e+00) (341, 3.26853990554809570312e+00) (342, 2.09490466117858886719e+00) (343, 8.89319002628326416016e-01) (344, 7.15569853782653808594e-01) (345, 6.18389725685119628906e-01) (346, 6.12085282802581787109e-01) (347, 5.69076955318450927734e-01) (348, 5.90253472328186035156e-01) (349, 5.03911018371582031250e-01) (350, 5.10782003402709960938e-01) (351, 7.79894530773162841797e-01) (352, 1.16088104248046875000e+01) (353, 1.43702499389648437500e+02) (354, 3.34923919677734375000e+02) (355, 3.34799011230468750000e+02) (356, 3.34921447753906250000e+02) (357, 1.42401809692382812500e+02) (358, 1.42387207031250000000e+02) (359, 1.42467971801757812500e+02) (360, 4.93105697631835937500e+00) (361, 2.50349273681640625000e+01) (362, 2.46382083892822265625e+01) (363, 5.92740821838378906250e+01) (364, 1.42116195678710937500e+02) (365, 5.91618270874023437500e+01) (366, 5.91716537475585937500e+01) (367, 1.01990156173706054688e+01) (368, 1.08683042526245117188e+01) (369, 3.52386093139648437500e+00) (370, 8.87873649597167968750e-01) (371, 1.07908844947814941406e+00) (372, 7.11898207664489746094e-01) (373, 8.06443929672241210938e-01) (374, 6.59438252449035644531e-01) (375, 5.73595523834228515625e-01) (376, 6.71212494373321533203e-01) (377, 5.35255849361419677734e-01) (378, 5.81198811531066894531e-01) (379, 5.53247094154357910156e-01) (380, 4.16281521320343017578e-01) (381, 7.56911575794219970703e-01) (382, 9.39488291740417480469e-01) (383, 6.16970481872558593750e+01) (384, 3.34819427490234375000e+02) (385, 3.34790435791015625000e+02) (386, 1.42450805664062500000e+02) (387, 1.42425216674804687500e+02) (388, 1.42454788208007812500e+02) (389, 8.74076156616210937500e+01) (390, 4.75437831878662109375e+00) (391, 2.50929012298583984375e+01) (392, 1.03797740936279296875e+01) (393, 5.91571235656738281250e+01) (394, 5.91421470642089843750e+01) (395, 5.92046127319335937500e+01) (396, 2.47182235717773437500e+01) (397, 1.03452301025390625000e+01) (398, 1.09310560226440429688e+01) (399, 2.76830053329467773438e+00) (400, 9.11228120326995849609e-01) (401, 7.75558829307556152344e-01) (402, 6.96912407875061035156e-01) (403, 6.28036618232727050781e-01) (404, 7.05882191658020019531e-01) (405, 6.31566047668457031250e-01) (406, 6.29700183868408203125e-01) (407, 4.44670677185058593750e-01) (408, 4.58042144775390625000e-01) (409, 5.24350404739379882812e-01) (410, 4.03792470693588256836e-01) (411, 6.50555849075317382812e-01) (412, 6.47754728794097900391e-01) (413, 5.17995023727416992188e+00) (414, 1.42476058959960937500e+02) (415, 1.42485855102539062500e+02) (416, 1.42473373413085937500e+02) (417, 8.72964706420898437500e+01) (418, 8.72806777954101562500e+01) (419, 8.73051376342773437500e+01) (420, 4.92967557907104492188e+00) (421, 2.50206089019775390625e+01) (422, 1.03352756500244140625e+01) (423, 2.47519855499267578125e+01) (424, 5.91906661987304687500e+01) (425, 2.45695075988769531250e+01) (426, 2.46632785797119140625e+01) (427, 1.02676715850830078125e+01) (428, 2.56932487487792968750e+01) (429, 2.75065302848815917969e+00) (430, 8.81481289863586425781e-01) (431, 1.15392923355102539062e+00) (432, 1.65801978111267089844e+00) (433, 2.59859395027160644531e+00) (434, 9.95609402656555175781e-01) (435, 9.19759273529052734375e-01) (436, 6.48962795734405517578e-01) (437, 7.93342232704162597656e-01) (438, 8.72118592262268066406e-01) (439, 4.37671214342117309570e-01) (440, 5.96010923385620117188e-01) (441, 7.26081728935241699219e-01) (442, 6.29773139953613281250e-01) (443, 6.46060645580291748047e-01) (444, 1.86424160003662109375e+00) (445, 1.34129676818847656250e+01) (446, 5.00986328125000000000e+01) (447, 8.74518661499023437500e+01) (448, 8.73372573852539062500e+01) (449, 3.76141357421875000000e+01) (450, 4.78258657455444335938e+00) (451, 2.50524883270263671875e+01) (452, 1.01868820190429687500e+01) (453, 1.03749923706054687500e+01) (454, 2.45998401641845703125e+01) (455, 2.46696319580078125000e+01) (456, 1.01960954666137695312e+01) (457, 2.51740684509277343750e+01) (458, 2.55134315490722656250e+01) (459, 1.11214847564697265625e+01) (460, 1.45004343986511230469e+00) (461, 2.56225013732910156250e+00) (462, 2.50750541687011718750e+00) (463, 2.34695005416870117188e+00) (464, 1.42020869255065917969e+00) (465, 8.35918664932250976562e-01) (466, 2.41864252090454101562e+00) (467, 1.34675896167755126953e+00) (468, 8.38046595454216003418e-02) (469, 1.04079931974411010742e-01) (470, 5.72670772671699523926e-02) (471, 1.12769804894924163818e-01) (472, 5.41804015636444091797e-01) (473, 4.99829262495040893555e-01) (474, 5.18262445926666259766e-01) (475, 9.88887131214141845703e-01) (476, 4.75541543960571289062e+00) (477, 1.35187702178955078125e+01) (478, 3.76386642456054687500e+01) (479, 1.61163349151611328125e+01) (480, 4.86721181869506835938e+00) (481, 1.07051725387573242188e+01) (482, 1.02284183502197265625e+01) (483, 1.03112258911132812500e+01) (484, 1.02120141983032226562e+01) (485, 1.02798547744750976562e+01) (486, 1.02324514389038085938e+01) (487, 5.96930427551269531250e+01) (488, 5.97116584777832031250e+01) (489, 2.55468330383300781250e+01) (490, 1.10850133895874023438e+01) (491, 1.11308202743530273438e+01) (492, 4.92957115173339843750e+00) (493, 5.10666847229003906250e+00) (494, 1.09536323547363281250e+01) (495, 4.95314550399780273438e+00) (496, 2.42109560966491699219e+00) (497, 7.44687676429748535156e-01) (498, 9.16803300380706787109e-01) (499, 2.07833051681518554688e-01) (500, 2.33655393123626708984e-01) (501, -6.28359895199537277222e-03) (502, 1.16814285516738891602e-01) (503, 5.32161951065063476562e-01) (504, 5.63099205493927001953e-01) (505, 6.85715198516845703125e-01) (506, 7.06066489219665527344e-01) (507, 7.42851138114929199219e-01) (508, 6.93738996982574462891e-01) (509, 1.48299431800842285156e+00) (510, 4.80579996109008789062e+00) (511, 4.80278444290161132812e+00) (512, 1.03439397811889648438e+01) (513, 1.02569675445556640625e+01) (514, 1.03735227584838867188e+01) (515, 1.03730087280273437500e+01) (516, 1.03514957427978515625e+01) (517, 2.50478420257568359375e+01) (518, 5.96670036315917968750e+01) (519, 5.96641044616699218750e+01) (520, 5.97254981994628906250e+01) (521, 1.11101503372192382812e+01) (522, 1.11530599594116210938e+01) (523, 1.09408674240112304688e+01) (524, 4.69563293457031250000e+00) (525, 1.07665014266967773438e+01) (526, 1.08185729980468750000e+01) (527, 8.88137996196746826172e-01) (528, 1.92186951637268066406e+00) (529, 5.36507666110992431641e-01) (530, 6.38354897499084472656e-01) (531, -1.26618500798940658569e-02) (532, 4.86547276377677917480e-02) (533, 5.40555715560913085938e-01) (534, 5.94126164913177490234e-01) (535, 5.17172992229461669922e-01) (536, 6.11605644226074218750e-01) (537, 5.41542053222656250000e-01) (538, 5.33946156501770019531e-01) (539, 5.00843882560729980469e-01) (540, 1.60224556922912597656e+00) (541, 2.38277173042297363281e+00) (542, 4.32072687149047851562e+00) (543, 1.03777294158935546875e+01) (544, 1.03771886825561523438e+01) (545, 1.02765274047851562500e+01) (546, 1.03654098510742187500e+01) (547, 1.03409738540649414062e+01) (548, 2.51333255767822265625e+01) (549, 2.50120239257812500000e+01) (550, 5.98221359252929687500e+01) (551, 1.10659370422363281250e+01) (552, 3.16207790374755859375e+00) (553, 1.59296774864196777344e+00) (554, 1.59638237953186035156e+00) (555, 3.23764610290527343750e+00) (556, 1.58366403579711914062e+01) (557, 1.59459114074707031250e+01) (558, 3.24844121932983398438e+00) (559, 1.75908279418945312500e+00) (560, 1.67288947105407714844e+00) (561, 1.05137133598327636719e+00) (562, 7.54018008708953857422e-01) (563, 7.06284046173095703125e-01) (564, 6.17139399051666259766e-01) (565, 6.18238449096679687500e-01) (566, 6.66372299194335937500e-01) (567, 4.90038335323333740234e-01) (568, 4.92074817419052124023e-01) (569, 4.91823405027389526367e-01) (570, 1.66747665405273437500e+00) (571, 1.65442705154418945312e+00) (572, 1.90271925926208496094e+00) (573, 1.03849706649780273438e+01) (574, 1.02613172531127929688e+01) (575, 2.47061576843261718750e+01) (576, 2.46329898834228515625e+01) (577, 2.45958366394042968750e+01) (578, 2.51091098785400390625e+01) (579, 2.50044326782226562500e+01) (580, 1.08417034149169921875e+01) (581, 4.86491298675537109375e+00) (582, 3.13001012802124023438e+00) (583, 1.63629961013793945312e+00) (584, 1.69527554512023925781e+00) (585, 1.62389826774597167969e+00) (586, 3.70266571044921875000e+01) (587, 3.70658035278320312500e+01) (588, 3.71234283447265625000e+01) (589, 3.71337203979492187500e+01) (590, 1.58757734298706054688e+01) (591, 7.19379043579101562500e+00) (592, 6.41811275482177734375e+00) (593, 1.21656191349029541016e+00) (594, 9.60822820663452148438e-01) (595, 6.43654584884643554688e-01) (596, 6.85823380947113037109e-01) (597, 6.26576423645019531250e-01) (598, 5.48741042613983154297e-01) (599, 6.03474199771881103516e-01) (600, 1.61285519599914550781e+00) (601, 2.26803731918334960938e+00) (602, 1.77457845211029052734e+00) (603, 1.01994943618774414062e+01) (604, 2.45472755432128906250e+01) (605, 2.46621456146240234375e+01) (606, 2.47203254699707031250e+01) (607, 2.46381187438964843750e+01) (608, 5.96195068359375000000e+01) (609, 2.51070232391357421875e+01) (610, 4.87594175338745117188e+00) (611, 1.10931482315063476562e+01) (612, 7.07404327392578125000e+00) (613, 1.76508975028991699219e+00) (614, 1.78247642517089843750e+00) (615, 7.25389385223388671875e+00) (616, 1.57029037475585937500e+01) (617, 3.72216567993164062500e+01) (618, 8.74190597534179687500e+01) (619, 8.75633773803710937500e+01) (620, 3.67269210815429687500e+01) (621, 8.72865982055664062500e+01) (622, 8.73655776977539062500e+01) (623, 2.78280124664306640625e+01) (624, 3.54770469665527343750e+00) (625, 1.99570417404174804688e+00) (626, 1.19707632064819335938e+00) (627, 5.68190276622772216797e-01) (628, 5.72213053703308105469e-01) (629, 6.71863079071044921875e-01) (630, 1.62856054306030273438e+00) (631, 1.74209189414978027344e+00) (632, 1.89098739624023437500e+00) (633, 2.46438789367675781250e+01) (634, 2.47275676727294921875e+01) (635, 2.46923770904541015625e+01) (636, 2.45638771057128906250e+01) (637, 5.96127510070800781250e+01) (638, 5.95150909423828125000e+01) (639, 2.57100467681884765625e+01) (640, 1.11196002960205078125e+01) (641, 1.12153234481811523438e+01) (642, 1.65940403938293457031e+00) (643, 1.69057750701904296875e+00) (644, 3.31169748306274414062e+00) (645, 7.26492309570312500000e+00) (646, 1.57686538696289062500e+01) (647, 3.68301773071289062500e+01) (648, 8.75491867065429687500e+01) (649, 3.67497940063476562500e+01) (650, 8.73810043334960937500e+01) (651, 8.72953109741210937500e+01) (652, 8.73893814086914062500e+01) (653, 7.67902069091796875000e+01) (654, 2.76646862030029296875e+01) (655, 1.96263670921325683594e+00) (656, 1.85676729679107666016e+00) (657, 8.36592614650726318359e-01) (658, 7.97069370746612548828e-01) (659, 1.26712977886199951172e+00) (660, 3.53720045089721679688e+00) (661, 3.42950677871704101562e+00) (662, 4.83883237838745117188e+00) (663, 5.96135368347167968750e+01) (664, 5.96487541198730468750e+01) (665, 1.42344146728515625000e+02) (666, 1.42335876464843750000e+02) (667, 3.34491271972656250000e+02) (668, 1.42673202514648437500e+02) (669, 2.61409282684326171875e+01) (670, 2.61992454528808593750e+01) (671, 2.04422688484191894531e+00) (672, 1.16852176189422607422e+00) (673, 1.10246849060058593750e+00) (674, 2.09684514999389648438e+00) (675, 4.14908838272094726562e+00) (676, 3.97604990005493164062e+00) (677, 3.66893157958984375000e+01) (678, 3.68141555786132812500e+01) (679, 3.68421401977539062500e+01) (680, 8.73445358276367187500e+01) (681, 8.73662033081054687500e+01) (682, 8.72904586791992187500e+01) (683, 7.67638320922851562500e+01) (684, 4.35105018615722656250e+01) (685, 5.42283010482788085938e+00) (686, 2.92283034324645996094e+00) (687, 9.62519586086273193359e-01) (688, 1.02750420570373535156e+00) (689, 1.29555165767669677734e+00) (690, 3.45296335220336914062e+00) (691, 3.10628128051757812500e+00) (692, 3.05587625503540039062e+00) (693, 6.07825126647949218750e+01) (694, 5.74381958007812500000e+02) (695, 5.74366760253906250000e+02) (696, 5.74283813476562500000e+02) (697, 1.43241485595703125000e+02) (698, 2.61695365905761718750e+01) (699, 2.61517066955566406250e+01) (700, 4.16401624679565429688e+00) (701, 9.18500006198883056641e-01) (702, 6.18782460689544677734e-01) (703, 6.39194488525390625000e-01) (704, 8.34704101085662841797e-01) (705, 1.36282706260681152344e+00) (706, 2.27604866027832031250e+00) (707, 2.97235512733459472656e+00) (708, 4.44925003051757812500e+01) (709, 8.73849105834960937500e+01) (710, 2.08882431030273437500e+02) (711, 3.67053222656250000000e+01) (712, 3.66502914428710937500e+01) (713, 3.66995697021484375000e+01) (714, 1.82413539886474609375e+01) (715, 1.17773265838623046875e+01) (716, 2.61323308944702148438e+00) (717, 1.48219752311706542969e+00) (718, 1.00557434558868408203e+00) (719, 1.21780335903167724609e+00) (720, 1.66493749618530273438e+00) (721, 1.59364187717437744141e+00) (722, 6.27521133422851562500e+00) (723, 1.42394134521484375000e+02) (724, 3.34394256591796875000e+02) (725, 3.34314361572265625000e+02) (726, 3.34276458740234375000e+02) (727, 6.11722183227539062500e+01) (728, 1.11431388854980468750e+01) (729, 2.24999403953552246094e+00) (730, 8.05061280727386474609e-01) (731, 7.38666355609893798828e-01) (732, 6.84364736080169677734e-01) (733, 5.57833969593048095703e-01) (734, 6.56564176082611083984e-01) (735, 9.98771190643310546875e-01) (736, 1.08279561996459960938e+00) (737, 9.39342403411865234375e+00) (738, 2.04279842376708984375e+01) (739, 4.45375366210937500000e+01) (740, 2.08816879272460937500e+02) (741, 2.08786575317382812500e+02) (742, 8.72556686401367187500e+01) (743, 3.67297058105468750000e+01) (744, 2.02417926788330078125e+01) (745, 1.17805080413818359375e+01) (746, 1.17704944610595703125e+01) (747, 2.80433058738708496094e+00) (748, 8.63316535949707031250e-01) (749, 1.14588427543640136719e+00) (750, 3.15838909149169921875e+00) (751, 6.94277763366699218750e+00) (752, 3.65703048706054687500e+01) (753, 1.42418960571289062500e+02) (754, 3.34205841064453125000e+02) (755, 8.14073974609375000000e+02) (756, 1.05423510742187500000e+03) (757, 3.43435638427734375000e+02) (758, 1.15148820877075195312e+01) (759, 7.55244135856628417969e-01) (760, 5.13841331005096435547e-01) (761, 4.16780859231948852539e-01) (762, 6.23049318790435791016e-01) (763, 6.64416909217834472656e-01) (764, 6.36292099952697753906e-01) (765, 7.94328153133392333984e-01) (766, 3.37502956390380859375e+00) (767, 6.06235980987548828125e+00) (768, 9.39830780029296875000e+00) (769, 4.61049690246582031250e+01) (770, 1.05897544860839843750e+02) (771, 2.08927932739257812500e+02) (772, 2.08837203979492187500e+02) (773, 4.93944854736328125000e+02) (774, 2.08930648803710937500e+02) (775, 2.08825973510742187500e+02) (776, 8.72949295043945312500e+01) (777, 1.03326705932617187500e+02) (778, 1.61267280578613281250e+01) (779, 1.72197222709655761719e+00) (780, 6.92938518524169921875e+00) (781, 2.50444068908691406250e+01) (782, 3.34221191406250000000e+02) (783, 3.34132904052734375000e+02) (784, 8.13594360351562500000e+02) (785, 1.05329760742187500000e+03) (786, 8.13287109375000000000e+02) (787, 1.05329528808593750000e+03) (788, 1.52485214233398437500e+02) (789, 2.75819396972656250000e+00) (790, 2.92727261781692504883e-01) (791, 1.53790819644927978516e+00) (792, 6.50867104530334472656e-01) (793, 6.41952514648437500000e-01) (794, 5.71272194385528564453e-01) (795, 8.11201691627502441406e-01) (796, 7.35252976417541503906e-01) (797, 2.15296053886413574219e+00) (798, 9.13609600067138671875e+00) (799, 1.66840629577636718750e+01) (800, 3.54631286621093750000e+02) (801, 5.46942504882812500000e+02) (802, 8.14340454101562500000e+02) (803, 8.14326171875000000000e+02) (804, 8.14326721191406250000e+02) (805, 7.48190490722656250000e+02) (806, 8.68974380493164062500e+01) (807, 2.08386001586914062500e+02) (808, 2.08819839477539062500e+02) (809, 3.77193984985351562500e+01) (810, 5.95877418518066406250e+01) (811, 1.42492568969726562500e+02) (812, 3.34153381347656250000e+02) (813, 3.34289916992187500000e+02) (814, 1.05325256347656250000e+03) (815, 8.13301147460937500000e+02) (816, 1.05334350585937500000e+03) (817, 1.05336596679687500000e+03) (818, 8.41539245605468750000e+02) (819, 4.63932800292968750000e+00) (820, 9.59983229637145996094e-01) (821, 6.22109234333038330078e-01) (822, 3.40044260025024414062e-01) (823, 1.06333804130554199219e+00) (824, 1.19165217876434326172e+00) (825, 9.25416797399520874023e-02) (826, 3.68731945753097534180e-01) (827, 4.10208940505981445312e-01) (828, 5.62958145141601562500e+00) (829, 9.18652915954589843750e+00) (830, 7.88678207397460937500e+01) (831, 5.28702758789062500000e+02) (832, 5.73771789550781250000e+02) (833, 5.73655029296875000000e+02) (834, 5.73815307617187500000e+02) (835, 3.33656829833984375000e+02) (836, 5.73488647460937500000e+02) (837, 2.08444503784179687500e+02) (838, 2.08436416625976562500e+02) (839, 3.61813354492187500000e+01) (840, 2.55073337554931640625e+01) (841, 1.42620437622070312500e+02) (842, 3.34192993164062500000e+02) (843, 3.34285064697265625000e+02) (844, 3.34289886474609375000e+02) (845, 1.05334179687500000000e+03) (846, 8.13282470703125000000e+02) (847, 8.13352050781250000000e+02) (848, 5.88328369140625000000e+02) (849, 1.33742675781250000000e+01) (850, 2.34144902229309082031e+00) (851, 5.96512019634246826172e-01) (852, 1.71034738421440124512e-01) (853, 4.36284273862838745117e-01) (854, 2.16495454311370849609e-01) (855, 2.39605605602264404297e-01) (856, 5.63934087753295898438e-01) (857, 9.34432446956634521484e-01) (858, 4.55342197418212890625e+00) (859, 2.42479915618896484375e+01) (860, 1.28135894775390625000e+02) (861, 8.14468505859375000000e+02) (862, 8.14293640136718750000e+02) (863, 8.14438964843750000000e+02) (864, 1.41991546630859375000e+02) (865, 3.33883087158203125000e+02) (866, 3.33750122070312500000e+02) (867, 3.33795684814453125000e+02) (868, 3.33822418212890625000e+02) (869, 3.63373641967773437500e+01) (870, 4.84759664535522460938e+00) (871, 2.54215927124023437500e+01) (872, 1.42593643188476562500e+02) (873, 1.42614486694335937500e+02) (874, 3.34130981445312500000e+02) (875, 3.34263092041015625000e+02) (876, 3.34288360595703125000e+02) (877, 1.42101547241210937500e+02) (878, 6.01591987609863281250e+01) (879, 4.66545772552490234375e+00) (880, 8.05959939956665039062e-01) (881, 3.59338700771331787109e-01) (882, 2.59125590324401855469e-01) (883, 2.74147123098373413086e-01) (884, 1.23076856136322021484e-01) (885, 1.51059493422508239746e-01) (886, 1.95225030183792114258e-01) (887, 4.79273176193237304688e+00) (888, 2.73687572479248046875e+01) (889, 1.29888134002685546875e+01) (890, 1.44535217285156250000e+02) (891, 3.34288940429687500000e+02) (892, 1.42393890380859375000e+02) (893, 3.34352539062500000000e+02) (894, 3.34138427734375000000e+02) (895, 1.41897384643554687500e+02) (896, 1.41962921142578125000e+02) (897, 1.41885528564453125000e+02) (898, 3.63402481079101562500e+01) (899, 8.74103164672851562500e+01) (900, 6.99163913726806640625e+00) (0, -2.74564698338508605957e-02) (1, 6.36079581454396247864e-03) (2, -8.42735543847084045410e-02) (3, -8.04731994867324829102e-03) (4, 5.86823374032974243164e-02) (5, 7.54700526595115661621e-02) (6, -4.78789247572422027588e-02) (7, -8.98975431919097900391e-02) (8, -4.80606630444526672363e-02) (9, 8.03722590208053588867e-02) (10, -1.30899501964449882507e-02) (11, -7.83931687474250793457e-02) (12, 2.22373884171247482300e-02) (13, -6.52166754007339477539e-02) (14, -7.65392705798149108887e-02) (15, -1.39115694910287857056e-02) (16, -7.22473785281181335449e-02) (17, -1.09044052660465240479e-01) (18, -7.02107846736907958984e-02) (19, 1.32681056857109069824e-02) (20, -1.38416439294815063477e-01) (21, -2.64697782695293426514e-02) (22, -8.82492214441299438477e-02) (23, 4.01374548673629760742e-02) (24, 8.13584402203559875488e-03) (25, 8.00622918177396059036e-04) (26, -4.53711953014135360718e-03) (27, -1.14396534860134124756e-01) (28, -2.23516561090946197510e-02) (29, -1.36906966567039489746e-01) (30, -9.52078681439161300659e-03) (31, 1.14835582673549652100e-01) (32, 4.18421551585197448730e-02) (33, 3.24187837541103363037e-02) (34, 2.53637824207544326782e-02) (35, 1.17420824244618415833e-02) (36, 9.56883747130632400513e-03) (37, 5.65279088914394378662e-02) (38, 3.26708628563210368156e-04) (39, 6.32152855396270751953e-02) (40, 4.20656278729438781738e-02) (41, 8.89580175280570983887e-02) (42, 9.00358930230140686035e-02) (43, -2.92404424399137496948e-02) (44, -6.54494613409042358398e-02) (45, -9.68836918473243713379e-02) (46, 4.73450124263763427734e-02) (47, -4.64948527514934539795e-02) (48, -6.57421797513961791992e-02) (49, -1.12996518611907958984e-01) (50, -1.24286428093910217285e-01) (51, -9.21196192502975463867e-02) (52, 5.94969186931848526001e-03) (53, -6.52350038290023803711e-02) (54, -9.76634398102760314941e-02) (55, -3.61922904849052429199e-02) (56, -1.15639425814151763916e-01) (57, 3.82127650082111358643e-02) (58, -1.14329382777214050293e-02) (59, 8.24131362605839967728e-04) (60, 8.80396664142608642578e-02) (61, 1.20615318417549133301e-01) (62, 8.35810452699661254883e-02) (63, 7.20064416527748107910e-02) (64, 2.09501296281814575195e-01) (65, 1.10931396484375000000e-01) (66, 2.53335446119308471680e-01) (67, 2.03688308596611022949e-01) (68, 1.02992750704288482666e-01) (69, -5.54823270067572593689e-03) (70, 1.34186103940010070801e-01) (71, 7.81013816595077514648e-02) (72, -4.97813783586025238037e-02) (73, 4.14791814982891082764e-02) (74, -6.96084275841712951660e-02) (75, -1.61720111966133117676e-01) (76, -1.28351256251335144043e-01) (77, -1.59355103969573974609e-01) (78, -1.46347403526306152344e-01) (79, -1.20046176016330718994e-01) (80, -1.67235076427459716797e-01) (81, -1.13805271685123443604e-01) (82, -2.14583694934844970703e-01) (83, -1.72650218009948730469e-01) (84, 1.07552818953990936279e-01) (85, -8.72174650430679321289e-02) (86, 2.47994679957628250122e-02) (87, 7.39861503243446350098e-02) (88, -1.18672750890254974365e-01) (89, -6.44305422902107238770e-02) (90, 4.80169355869293212891e-02) (91, 1.05229884386062622070e-01) (92, 1.70620735734701156616e-02) (93, 4.23918478190898895264e-02) (94, 1.87018483877182006836e-01) (95, 2.45536178350448608398e-01) (96, 3.07887762784957885742e-01) (97, 2.54454910755157470703e-01) (98, 1.52882441878318786621e-01) (99, -2.54023045301437377930e-01) (100, -2.54987657070159912109e-01) (101, -2.45293483138084411621e-01) (102, -6.18098117411136627197e-02) (103, -5.30433245003223419189e-02) (104, 2.44167149066925048828e-02) (105, -1.43290713429450988770e-01) (106, -4.88634854555130004883e-02) (107, -5.10484725236892700195e-02) (108, -4.81516793370246887207e-02) (109, 9.95874181389808654785e-02) (110, -9.97444465756416320801e-02) (111, -6.64220377802848815918e-02) (112, -1.34215191006660461426e-01) (113, -6.52405694127082824707e-02) (114, 1.86608936637639999390e-02) (115, -3.59348133206367492676e-02) (116, -2.84070963971316814423e-03) (117, 6.83177560567855834961e-02) (118, -4.55566495656967163086e-02) (119, -3.85039076209068298340e-02) (120, -4.57687675952911376953e-02) (121, -8.88426527380943298340e-02) (122, -9.80098731815814971924e-04) (123, 7.73860812187194824219e-02) (124, 1.22471280395984649658e-01) (125, 1.72349333763122558594e-01) (126, 1.46488875150680541992e-01) (127, 7.14175775647163391113e-02) (128, 5.57625964283943176270e-02) (129, -1.38181060552597045898e-01) (130, 1.46895064972341060638e-03) (131, -1.36377930641174316406e-01) (132, -7.58676454424858093262e-02) (133, -9.68031585216522216797e-02) (134, -4.05432805418968200684e-02) (135, -8.47977474331855773926e-02) (136, -1.11628018319606781006e-01) (137, -1.40468925237655639648e-01) (138, -1.34715184569358825684e-01) (139, -5.67870102822780609131e-02) (140, -1.63581803441047668457e-01) (141, 6.87740966677665710449e-02) (142, 2.68698157742619514465e-03) (143, -3.76459700055420398712e-03) (144, -2.27035349234938621521e-03) (145, 2.34972760081291198730e-01) (146, 2.75290429592132568359e-01) (147, 6.86559602618217468262e-02) (148, 1.19192730635404586792e-02) (149, -5.51211722195148468018e-02) (150, 8.95198434591293334961e-02) (151, -1.02296054363250732422e-01) (152, -1.00680962204933166504e-02) (153, 7.36995786428451538086e-03) (154, 8.01128596067428588867e-02) (155, 2.28368163108825683594e-01) (156, -1.46065130829811096191e-01) (157, -1.13244280219078063965e-01) (158, -4.86443080008029937744e-02) (159, 3.88568080961704254150e-02) (160, -1.25901937484741210938e-01) (161, -1.35079622268676757812e-01) (162, -7.98910334706306457520e-02) (163, 8.81801918148994445801e-03) (164, -1.78716495633125305176e-01) (165, -2.95555666089057922363e-02) (166, -1.61052063107490539551e-01) (167, -2.08952445536851882935e-02) (168, -3.08312494307756423950e-02) (169, -1.33610621094703674316e-01) (170, -1.65438488125801086426e-01) (171, -1.90566685050725936890e-02) (172, 2.09769103676080703735e-02) (173, 8.76685082912445068359e-02) (174, 1.84582173824310302734e-01) (175, 2.68495619297027587891e-01) (176, 7.61046782135963439941e-02) (177, -1.54353287070989608765e-02) (178, -5.65556734800338745117e-02) (179, -6.31299093365669250488e-02) (180, 2.22523994743824005127e-02) (181, -5.30591309070587158203e-02) (182, -3.36591489613056182861e-02) (183, -5.70060275495052337646e-02) (184, 4.24435697495937347412e-02) (185, -1.42017811536788940430e-01) (186, 1.17645580321550369263e-02) (187, 6.58160746097564697266e-02) (188, -9.89206358790397644043e-02) (189, -4.42685149610042572021e-02) (190, 4.87254746258258819580e-03) (191, -4.82839010655879974365e-02) (192, 7.64539539813995361328e-02) (193, 1.85173794627189636230e-01) (194, 2.15130858123302459717e-02) (195, 1.11028812825679779053e-01) (196, 8.46175923943519592285e-02) (197, -1.08978254720568656921e-02) (198, 1.74022354185581207275e-02) (199, 3.71696427464485168457e-02) (200, -4.53632995486259460449e-02) (201, -1.95623729377985000610e-02) (202, -9.21618863940238952637e-02) (203, 4.51966933906078338623e-02) (204, 3.40392962098121643066e-02) (205, 7.99893662333488464355e-02) (206, 5.43678030371665954590e-02) (207, -2.56562530994415283203e-02) (208, 6.55703470110893249512e-02) (209, 2.38390583544969558716e-02) (210, -1.88427045941352844238e-03) (211, -2.78084930032491683960e-02) (212, 7.76331424713134765625e-02) (213, 8.96287336945533752441e-02) (214, 1.61316841840744018555e-02) (215, -5.67773431539535522461e-02) (216, -1.41057185828685760498e-02) (217, 1.62022430449724197388e-02) (218, -2.34068036079406738281e-02) (219, 9.72939059138298034668e-02) (220, -1.29302829504013061523e-01) (221, 2.27565951645374298096e-02) (222, 6.86111450195312500000e-02) (223, 6.23444933444261550903e-03) (224, 1.41268402338027954102e-01) (225, 3.46695296466350555420e-02) (226, 6.74896389245986938477e-02) (227, 1.20495818555355072021e-01) (228, 1.22954182326793670654e-01) (229, 1.62838280200958251953e-01) (230, 1.42663484439253807068e-02) (231, 1.35950699448585510254e-01) (232, 1.37896537780761718750e-01) (233, 7.90219083428382873535e-02) (234, 8.48950147628784179688e-02) (235, 7.13605284690856933594e-02) (236, 1.97165891528129577637e-01) (237, 1.63673430681228637695e-01) (238, 1.46028533577919006348e-01) (239, 1.33699238300323486328e-01) (240, -6.06566220521926879883e-02) (241, 6.29994571208953857422e-02) (242, 6.45635202527046203613e-02) (243, -5.81700317561626434326e-02) (244, -5.92844076454639434814e-02) (245, -9.84225645661354064941e-02) (246, -4.86894287168979644775e-02) (247, 1.12776355817914009094e-02) (248, 7.44305625557899475098e-02) (249, -9.70263406634330749512e-02) (250, -1.43824573606252670288e-02) (251, 2.04305231571197509766e-01) (252, 1.06888366863131523132e-02) (253, -2.47521139681339263916e-03) (254, 1.40445277094841003418e-01) (255, -5.11179827153682708740e-02) (256, 3.54701392352581024170e-02) (257, 1.12804532051086425781e-01) (258, 1.23719073832035064697e-01) (259, 2.89898160845041275024e-02) (260, 1.15020677447319030762e-01) (261, 1.59603551030158996582e-01) (262, 1.64790287613868713379e-01) (263, 5.42687289416790008545e-02) (264, 2.29827538132667541504e-01) (265, 2.25181519985198974609e-01) (266, 1.07450485229492187500e-01) (267, 2.26185023784637451172e-01) (268, 1.84707835316658020020e-01) (269, 1.58492073416709899902e-01) (270, -7.53162950277328491211e-02) (271, 4.33467179536819458008e-02) (272, -4.52597327530384063721e-02) (273, -1.14581018686294555664e-01) (274, -9.91787463426589965820e-02) (275, -2.67857551574707031250e-01) (276, -1.88972622156143188477e-01) (277, -2.68297852016985416412e-04) (278, 3.66609990596771240234e-02) (279, -5.67600578069686889648e-02) (280, -7.44120031595230102539e-03) (281, 9.72075611352920532227e-02) (282, 4.86284010112285614014e-02) (283, 1.46794885396957397461e-01) (284, 3.98142002522945404053e-02) (285, -7.65047594904899597168e-03) (286, 9.73290801048278808594e-02) (287, 1.83799073100090026855e-01) (288, 1.76469370722770690918e-01) (289, 9.93021279573440551758e-02) (290, 2.75160465389490127563e-02) (291, 9.97689589858055114746e-02) (292, 5.44269979000091552734e-02) (293, 1.86270207166671752930e-01) (294, 1.42428770661354064941e-01) (295, 8.06786790490150451660e-02) (296, 2.50016391277313232422e-01) (297, 2.44617506861686706543e-01) (298, 2.06042513251304626465e-01) (299, 8.03544670343399047852e-02) (300, -5.64681962132453918457e-02) (301, 6.30396977066993713379e-02) (302, -1.27382293343544006348e-01) (303, 3.66422608494758605957e-02) (304, -2.59492993354797363281e-01) (305, -6.93550854921340942383e-02) (306, -2.25881844758987426758e-01) (307, -3.73512804508209228516e-02) (308, 1.85309946537017822266e-02) (309, 6.09285458922386169434e-02) (310, 2.39864108152687549591e-03) (311, 5.33062778413295745850e-02) (312, 7.43956267833709716797e-02) (313, -5.58409281075000762939e-02) (314, -5.60283884406089782715e-02) (315, 1.17485634982585906982e-01) (316, -4.05750889331102371216e-03) (317, 1.63160979747772216797e-01) (318, 1.78446128964424133301e-01) (319, 3.81070561707019805908e-02) (320, 6.00900463759899139404e-02) (321, 2.06842973828315734863e-01) (322, 1.26687392592430114746e-01) (323, 1.09919756650924682617e-01) (324, 2.01967015862464904785e-01) (325, 1.10593788325786590576e-01) (326, 2.01967880129814147949e-01) (327, 1.91432446241378784180e-01) (328, 2.12663218379020690918e-01) (329, 1.02647021412849426270e-01) (330, 2.76783779263496398926e-02) (331, -8.49129557609558105469e-02) (332, -5.75009509921073913574e-02) (333, 4.33146171271800994873e-02) (334, -2.53872573375701904297e-01) (335, -1.53092131018638610840e-01) (336, -6.66145682334899902344e-02) (337, -1.33165915030986070633e-03) (338, 7.74138495326042175293e-02) (339, -2.35898829996585845947e-02) (340, -1.41000628471374511719e-01) (341, 7.06888139247894287109e-02) (342, 7.75979161262512207031e-02) (343, 2.65269875526428222656e-02) (344, 6.70908689498901367188e-02) (345, 8.10034275054931640625e-02) (346, 3.00925262272357940674e-02) (347, 1.66147902607917785645e-01) (348, 8.48526582121849060059e-02) (349, 2.05999799072742462158e-02) (350, 8.68124607950448989868e-03) (351, 1.51093363761901855469e-01) (352, 4.21477518975734710693e-02) (353, 1.39525741338729858398e-01) (354, 7.76695832610130310059e-02) (355, 2.67248541116714477539e-01) (356, 2.19453424215316772461e-01) (357, 2.35247090458869934082e-01) (358, 1.16088449954986572266e-01) (359, 1.26532554626464843750e-01) (360, -7.93077424168586730957e-02) (361, -6.03941977024078369141e-02) (362, 4.48701493442058563232e-02) (363, 7.59855611249804496765e-04) (364, -1.58893525600433349609e-01) (365, 3.52565050125122070312e-02) (366, 1.69595539569854736328e-01) (367, 1.06630884110927581787e-01) (368, -8.52259173989295959473e-02) (369, 4.43611927330493927002e-02) (370, 7.84815549850463867188e-02) (371, -2.38115265965461730957e-02) (372, 1.11018400639295578003e-02) (373, 1.39308318495750427246e-01) (374, 3.56414429843425750732e-02) (375, -8.99474415928125381470e-03) (376, 1.22984558343887329102e-01) (377, 1.41760662198066711426e-01) (378, 1.75187110900878906250e-01) (379, 3.71993221342563629150e-02) (380, 1.90406560897827148438e-01) (381, 1.98082074522972106934e-01) (382, 1.98335319757461547852e-01) (383, 3.02352420985698699951e-02) (384, 1.50388866662979125977e-01) (385, 1.15228265523910522461e-01) (386, 2.78629958629608154297e-01) (387, 1.27313181757926940918e-01) (388, 2.04200118780136108398e-01) (389, 1.03622071444988250732e-01) (390, 4.10653315484523773193e-02) (391, -9.94923859834671020508e-02) (392, 1.98555439710617065430e-02) (393, -4.27630497142672538757e-03) (394, -5.21276928484439849854e-02) (395, -2.71286424249410629272e-02) (396, -9.90106016397476196289e-02) (397, 1.67207829654216766357e-02) (398, 2.80207954347133636475e-02) (399, -6.95719718933105468750e-02) (400, 7.53306522965431213379e-02) (401, 1.75653114914894104004e-01) (402, 5.12181967496871948242e-02) (403, 1.05282485485076904297e-01) (404, 1.27695932984352111816e-01) (405, 1.51199311017990112305e-01) (406, 1.30586221814155578613e-01) (407, 1.09790414571762084961e-01) (408, 1.34435296058654785156e-01) (409, 1.33642181754112243652e-01) (410, 1.58836916089057922363e-01) (411, 1.15371257066726684570e-01) (412, 1.36337175965309143066e-01) (413, 1.74353912472724914551e-01) (414, 1.64238244295120239258e-01) (415, 8.18816274404525756836e-02) (416, 2.14440986514091491699e-01) (417, 1.70514166355133056641e-01) (418, 1.24427735805511474609e-01) (419, 1.78680270910263061523e-01) (420, -9.00233238935470581055e-02) (421, -5.92463687062263488770e-02) (422, 6.58073723316192626953e-02) (423, 3.85751537978649139404e-02) (424, -4.08475100994110107422e-02) (425, -1.20135903358459472656e-01) (426, 5.01986034214496612549e-03) (427, -7.24857151508331298828e-02) (428, 9.08718407154083251953e-02) (429, 4.06973920762538909912e-02) (430, 9.53479781746864318848e-02) (431, 4.99477609992027282715e-02) (432, 8.47424753010272979736e-03) (433, 1.90470784902572631836e-01) (434, 1.88568055629730224609e-01) (435, 1.78921028971672058105e-01) (436, 1.66882380843162536621e-01) (437, 1.37301191687583923340e-01) (438, 1.13852724432945251465e-01) (439, 9.44510400295257568359e-02) (440, 5.34948967397212982178e-02) (441, 6.12601190805435180664e-02) (442, 2.25232765078544616699e-02) (443, 1.69490519911050796509e-02) (444, 5.79112395644187927246e-02) (445, 2.04951569437980651855e-01) (446, -5.40689677000045776367e-02) (447, -9.44465696811676025391e-02) (448, -1.78895108401775360107e-02) (449, 1.64961088448762893677e-02) (450, 7.83110484480857849121e-02) (451, 2.62096859514713287354e-02) (452, -1.00163638591766357422e-01) (453, 5.35888113081455230713e-02) (454, -1.78366482257843017578e-01) (455, -4.72294390201568603516e-02) (456, -4.81006577610969543457e-02) (457, 7.64410048723220825195e-02) (458, 8.70518162846565246582e-02) (459, 6.38071149587631225586e-02) (460, 2.06664815545082092285e-01) (461, 1.02402411401271820068e-01) (462, 1.02276332676410675049e-01) (463, 2.09279134869575500488e-01) (464, 8.64632651209831237793e-02) (465, -7.14924409985542297363e-02) (466, 2.65162643045186996460e-02) (467, -1.29064276814460754395e-01) (468, -1.48137763142585754395e-01) (469, -5.37565313279628753662e-02) (470, -1.60259078256785869598e-03) (471, -4.49362955987453460693e-02) (472, 6.22665472328662872314e-02) (473, 4.47695702314376831055e-02) (474, -2.05817669630050659180e-02) (475, -1.13617628812789916992e-01) (476, 1.63835585117340087891e-02) (477, -2.09976155310869216919e-02) (478, -1.24174930155277252197e-01) (479, -1.04627355933189392090e-01) (480, 2.27627623826265335083e-03) (481, -7.27877765893936157227e-02) (482, -1.04547157883644104004e-01) (483, 1.06110507622361183167e-02) (484, -8.92221257090568542480e-02) (485, -1.49256184697151184082e-01) (486, -1.73021182417869567871e-02) (487, -3.43508720397949218750e-02) (488, -3.70439700782299041748e-02) (489, 9.58355441689491271973e-02) (490, 1.12504333257675170898e-01) (491, 7.79315754771232604980e-02) (492, 1.74227863550186157227e-01) (493, 2.06168398261070251465e-01) (494, 7.91207998991012573242e-02) (495, -9.23801064491271972656e-02) (496, -7.94465392827987670898e-02) (497, -9.93405804038047790527e-02) (498, -3.32584641873836517334e-02) (499, -2.13084638118743896484e-01) (500, -1.69461354613304138184e-01) (501, -2.87771403789520263672e-01) (502, -1.69939011335372924805e-01) (503, -1.66084229946136474609e-01) (504, -2.66419470310211181641e-01) (505, -3.56672316789627075195e-01) (506, -2.34747976064682006836e-01) (507, -2.57235795259475708008e-01) (508, -1.65947645902633666992e-01) (509, -1.54589891433715820312e-01) (510, -8.62977355718612670898e-02) (511, 8.66310205310583114624e-03) (512, -5.44576160609722137451e-02) (513, -8.23776423931121826172e-02) (514, -2.37500399351119995117e-01) (515, -2.30710431933403015137e-01) (516, 1.56208612024784088135e-02) (517, 3.55601683259010314941e-02) (518, 1.85311064124107360840e-02) (519, 9.30116847157478332520e-02) (520, 2.21417903900146484375e-01) (521, 2.29277372360229492188e-01) (522, 7.52567276358604431152e-02) (523, 1.92197829484939575195e-01) (524, 2.28421851992607116699e-01) (525, 1.29026651382446289062e-01) (526, 9.46082398295402526855e-02) (527, -6.27425760030746459961e-02) (528, 4.02127988636493682861e-02) (529, -4.46056164801120758057e-02) (530, -2.61972881853580474854e-02) (531, -4.40875180065631866455e-02) (532, -4.53004688024520874023e-02) (533, -4.11239825189113616943e-02) (534, -4.73702818155288696289e-01) (535, -3.16392421722412109375e-01) (536, -2.80626654624938964844e-01) (537, -4.02564406394958496094e-01) (538, -1.21661908924579620361e-01) (539, -3.52530218660831451416e-02) (540, -8.23833197355270385742e-02) (541, -3.52699384093284606934e-02) (542, -5.51132634282112121582e-02) (543, -2.90443301200866699219e-02) (544, -1.74422174692153930664e-01) (545, -1.42819136381149291992e-01) (546, 3.43888625502586364746e-02) (547, -6.21644072234630584717e-02) (548, -5.73260858654975891113e-02) (549, 2.67262086272239685059e-02) (550, 2.67207562923431396484e-01) (551, 6.60432428121566772461e-02) (552, 1.45385682582855224609e-01) (553, 1.18280120193958282471e-01) (554, 2.31498658657073974609e-01) (555, 6.16536587476730346680e-02) (556, 1.59659132361412048340e-01) (557, 1.87130406498908996582e-01) (558, 8.47303345799446105957e-02) (559, 9.16901826858520507812e-02) (560, -9.98783335089683532715e-02) (561, 3.94899956881999969482e-02) (562, -4.70978487282991409302e-03) (563, -9.47581231594085693359e-02) (564, -2.59827017784118652344e-01) (565, -2.76218950748443603516e-01) (566, -4.44752395153045654297e-01) (567, -3.07018399238586425781e-01) (568, -1.93815484642982482910e-01) (569, -1.34683653712272644043e-01) (570, -9.89451445639133453369e-03) (571, -8.04016441106796264648e-02) (572, 2.50169392675161361694e-02) (573, 3.26855555176734924316e-02) (574, -1.24752588570117950439e-01) (575, -2.04592198133468627930e-01) (576, -4.96727079153060913086e-02) (577, -1.09001128003001213074e-02) (578, 8.40945634990930557251e-03) (579, 5.49810901284217834473e-02) (580, 1.56877517700195312500e-01) (581, 9.97253581881523132324e-02) (582, 1.15775145590305328369e-01) (583, 1.73671543598175048828e-01) (584, 1.28323718905448913574e-01) (585, 6.57057017087936401367e-02) (586, 1.61989763379096984863e-01) (587, 2.35474184155464172363e-01) (588, 1.90462142229080200195e-01) (589, 1.86128914356231689453e-01) (590, 7.82515928149223327637e-02) (591, 1.81398272514343261719e-01) (592, -9.31134223937988281250e-02) (593, -1.81863531470298767090e-01) (594, -1.43740937113761901855e-01) (595, -3.10677945613861083984e-01) (596, -2.55577087402343750000e-01) (597, -3.56166362762451171875e-01) (598, -8.88252481818199157715e-02) (599, -1.94554403424263000488e-01) (600, 5.05452267825603485107e-02) (601, -1.03832520544528961182e-01) (602, -7.99855813384056091309e-02) (603, -3.42471301555633544922e-02) (604, -7.57833272218704223633e-02) (605, -9.04329717159271240234e-02) (606, 3.66909913718700408936e-02) (607, 1.12528754398226737976e-02) (608, 1.09150789678096771240e-01) (609, 1.80759876966476440430e-01) (610, 2.01326966285705566406e-01) (611, 1.50068789720535278320e-01) (612, 6.70876130461692810059e-02) (613, 1.62651136517524719238e-01) (614, 2.11824119091033935547e-01) (615, 1.24290324747562408447e-01) (616, 1.61777526140213012695e-01) (617, 1.12216696143150329590e-01) (618, 1.10948830842971801758e-01) (619, 1.18644796311855316162e-01) (620, 5.33064119517803192139e-02) (621, 1.34715557098388671875e-01) (622, -1.13715708255767822266e-01) (623, -2.19716113060712814331e-02) (624, -8.23179036378860473633e-02) (625, -1.96640148758888244629e-01) (626, -2.49321877956390380859e-01) (627, -2.12787762284278869629e-01) (628, -9.45487916469573974609e-02) (629, -1.39282926917076110840e-01) (630, 3.31992655992507934570e-02) (631, -9.31401327252388000488e-02) (632, -9.58150923252105712891e-02) (633, 4.40448597073554992676e-02) (634, -1.43386974930763244629e-01) (635, 3.55122499167919158936e-02) (636, 1.46691799163818359375e-01) (637, 7.54544064402580261230e-02) (638, 2.14668065309524536133e-01) (639, 9.29994136095046997070e-02) (640, 1.04780502617359161377e-01) (641, 9.29537117481231689453e-02) (642, 1.97427079081535339355e-01) (643, 7.60863646864891052246e-02) (644, 1.91968560218811035156e-01) (645, 1.54142826795578002930e-01) (646, 1.65736317634582519531e-01) (647, 1.16256140172481536865e-01) (648, 3.32152992486953735352e-02) (649, 3.41675654053688049316e-02) (650, 1.57516896724700927734e-01) (651, 2.78932396322488784790e-02) (652, -8.56536552309989929199e-02) (653, -1.04104682803153991699e-01) (654, -1.38880506157875061035e-01) (655, -2.49065190553665161133e-01) (656, -3.38437825441360473633e-01) (657, -2.30753675103187561035e-01) (658, -1.01444043219089508057e-01) (659, -7.91561007499694824219e-02) (660, 2.66518015414476394653e-02) (661, 8.06939899921417236328e-02) (662, -2.13240440934896469116e-02) (663, 3.11389081180095672607e-02) (664, -4.16903272271156311035e-02) (665, -1.66431710124015808105e-01) (666, 5.98694235086441040039e-02) (667, 1.05220861732959747314e-01) (668, 2.06911866553127765656e-03) (669, 1.81483000516891479492e-01) (670, 2.37110674381256103516e-01) (671, 9.47672650218009948730e-02) (672, 1.82052150368690490723e-01) (673, 1.55439779162406921387e-01) (674, 1.35826513171195983887e-01) (675, 1.36638507246971130371e-01) (676, 7.19096884131431579590e-02) (677, 6.80857673287391662598e-02) (678, 2.75063700973987579346e-02) (679, 7.30747282505035400391e-02) (680, 4.32067066431045532227e-02) (681, 1.65638491511344909668e-01) (682, -1.31517931818962097168e-01) (683, -1.45637422800064086914e-01) (684, -1.36444553732872009277e-01) (685, -7.54413334652781486511e-03) (686, -2.12960734963417053223e-01) (687, -2.84299761056900024414e-01) (688, -8.36729332804679870605e-02) (689, 3.70273962616920471191e-02) (690, 3.36743518710136413574e-02) (691, -1.07793912291526794434e-01) (692, 6.93684965372085571289e-02) (693, -8.72215926647186279297e-02) (694, -8.12421813607215881348e-02) (695, -2.31875628232955932617e-02) (696, -3.75078096985816955566e-02) (697, 4.53561469912528991699e-02) (698, 1.07856607064604759216e-02) (699, 9.04643349349498748779e-03) (700, 2.28933990001678466797e-01) (701, 2.18491047620773315430e-01) (702, 1.66348621249198913574e-01) (703, 1.75508528947830200195e-01) (704, 1.38608217239379882812e-01) (705, 6.35907948017120361328e-02) (706, 7.96803310513496398926e-02) (707, 1.83260872960090637207e-01) (708, 1.10364302992820739746e-01) (709, 7.45481252670288085938e-02) (710, 3.53180430829524993896e-02) (711, -8.55261608958244323730e-02) (712, -1.92906662821769714355e-01) (713, -1.36908486485481262207e-01) (714, -5.43366558849811553955e-02) (715, -3.38973999023437500000e-01) (716, -2.63590723276138305664e-01) (717, -2.13745191693305969238e-01) (718, 3.69620658457279205322e-02) (719, 4.55483188852667808533e-03) (720, 2.04463619738817214966e-02) (721, 1.98636073619127273560e-02) (722, 4.63496521115303039551e-02) (723, -9.56880673766136169434e-03) (724, -2.18330007046461105347e-02) (725, -5.17001152038574218750e-02) (726, -1.12523108720779418945e-01) (727, 1.59830227494239807129e-01) (728, 2.07446143031120300293e-01) (729, -1.57716590911149978638e-02) (730, -3.60128544270992279053e-02) (731, 2.26583108305931091309e-01) (732, 8.73595550656318664551e-02) (733, 3.26972864568233489990e-02) (734, 1.69776260852813720703e-01) (735, 1.89673542976379394531e-01) (736, 6.82166069746017456055e-02) (737, 2.21995413303375244141e-02) (738, 1.51446506381034851074e-01) (739, 1.58237218856811523438e-01) (740, -1.12911671400070190430e-01) (741, -1.29571691155433654785e-01) (742, -1.88314035534858703613e-01) (743, -1.80570915341377258301e-01) (744, -1.48183941841125488281e-01) (745, -3.87119531631469726562e-01) (746, -3.09992909431457519531e-01) (747, 4.78308126330375671387e-02) (748, -1.07597514986991882324e-01) (749, -1.19682155549526214600e-01) (750, 4.17262017726898193359e-02) (751, 5.80733045935630798340e-02) (752, 4.78467866778373718262e-02) (753, 1.88368391245603561401e-02) (754, -1.10380142927169799805e-01) (755, 2.49542482197284698486e-02) (756, 1.96301981806755065918e-01) (757, 3.77323001623153686523e-01) (758, 5.19498959183692932129e-02) (759, -7.17968419194221496582e-02) (760, -1.07494533061981201172e-01) (761, 6.97714686393737792969e-02) (762, -9.42503139376640319824e-02) (763, 8.40669870376586914062e-02) (764, 2.17158451676368713379e-01) (765, 1.90193653106689453125e-01) (766, 5.14826998114585876465e-02) (767, 5.74614666402339935303e-02) (768, -1.55370691791176795959e-02) (769, -2.27757729589939117432e-02) (770, -2.22706928849220275879e-01) (771, -3.57428014278411865234e-01) (772, -1.09610609710216522217e-01) (773, -1.47433474659919738770e-01) (774, -2.67877221107482910156e-01) (775, -4.07324671745300292969e-01) (776, -2.57283061742782592773e-01) (777, -1.45485296845436096191e-01) (778, -1.33287832140922546387e-01) (779, -1.03057622909545898438e-01) (780, -7.77147263288497924805e-02) (781, 5.58382347226142883301e-02) (782, 6.86207041144371032715e-02) (783, 9.88395139575004577637e-02) (784, -1.82449314743280410767e-02) (785, -1.64148330688476562500e-01) (786, 2.47925788164138793945e-01) (787, -1.68897658586502075195e-01) (788, 8.20357650518417358398e-02) (789, -7.50828459858894348145e-02) (790, -1.44895026460289955139e-02) (791, 4.39196079969406127930e-02) (792, -1.36177197098731994629e-01) (793, -4.48746187612414360046e-03) (794, -1.09021283686161041260e-01) (795, -1.61384463310241699219e-01) (796, -1.34404093027114868164e-01) (797, -1.72323837876319885254e-01) (798, -2.14027747511863708496e-01) (799, -2.00392216444015502930e-01) (800, -2.38673835992813110352e-01) (801, -2.61629462242126464844e-01) (802, -1.09327547252178192139e-01) (803, 5.01635186374187469482e-02) (804, 2.18866430222988128662e-02) (805, 2.58576590567827224731e-03) (806, -7.05927312374114990234e-02) (807, -9.46447700262069702148e-02) (808, -4.84820678830146789551e-02) (809, 6.53880164027214050293e-02) (810, -4.78393621742725372314e-02) (811, -1.41913695260882377625e-02) (812, 3.41477096080780029297e-02) (813, -4.93582785129547119141e-02) (814, -3.51091241464018821716e-03) (815, -6.47452548146247863770e-02) (816, -8.68862569332122802734e-02) (817, -2.30918914079666137695e-01) (818, -2.02273517847061157227e-01) (819, -2.14757725596427917480e-01) (820, -3.05053740739822387695e-01) (821, -9.11026000976562500000e-02) (822, -5.72482421994209289551e-02) (823, -1.01904787123203277588e-01) (824, -2.11315095424652099609e-01) (825, -9.95099022984504699707e-02) (826, -1.92176043987274169922e-01) (827, -1.54937803745269775391e-01) (828, -2.47759565711021423340e-01) (829, -1.68944180011749267578e-01) (830, 1.10888397321105003357e-02) (831, -1.19208917021751403809e-01) (832, 5.76293319463729858398e-02) (833, 1.32809534668922424316e-01) (834, -4.10053133964538574219e-01) (835, -3.20373661816120147705e-02) (836, -1.51848301291465759277e-01) (837, -8.53971391916275024414e-02) (838, -7.65646174550056457520e-02) (839, -8.85351225733757019043e-02) (840, 4.22957986593246459961e-02) (841, 1.23528726398944854736e-01) (842, 1.45068287849426269531e-01) (843, 1.34562164545059204102e-01) (844, 1.75743713974952697754e-01) (845, -8.31539109349250793457e-02) (846, 4.13851439952850341797e-02) (847, -4.86966548487544059753e-03) (848, -1.72690778970718383789e-01) (849, -2.59744793176651000977e-01) (850, -1.67987555265426635742e-01) (851, -2.66339629888534545898e-01) (852, -2.02646061778068542480e-01) (853, -2.77623385190963745117e-01) (854, -2.17134729027748107910e-01) (855, -3.40764433145523071289e-01) (856, -8.16855672746896743774e-03) (857, -3.99065688252449035645e-02) (858, -1.56011149287223815918e-01) (859, -1.81117922067642211914e-01) (860, -1.03245578706264495850e-01) (861, -1.18195720016956329346e-01) (862, -7.69911110401153564453e-02) (863, 3.08315418660640716553e-02) (864, -1.14370351657271385193e-02) (865, -6.06799274682998657227e-02) (866, -2.07773163914680480957e-01) (867, -3.38848568499088287354e-02) (868, -6.09829016029834747314e-02) (869, 4.64047603309154510498e-02) (870, -1.04185659438371658325e-02) (871, 3.18207442760467529297e-02) (872, 7.99751952290534973145e-02) (873, 5.17401359975337982178e-02) (874, 1.40033721923828125000e-01) (875, 2.30874940752983093262e-01) (876, -6.28329738974571228027e-02) (877, -5.23129031062126159668e-02) (878, -3.96850928664207458496e-02) (879, -6.69233873486518859863e-02) (880, -1.78526453673839569092e-02) (881, 5.93212731182575225830e-02) (882, -2.25549757480621337891e-01) (883, -1.34454905986785888672e-01) (884, -1.07925526797771453857e-01) (885, 5.34112527966499328613e-02) (886, -1.61368735134601593018e-02) (887, -1.29849731922149658203e-01) (888, 3.10567691922187805176e-02) (889, 4.40649352967739105225e-02) (890, 4.57780435681343078613e-02) (891, 2.09268808364868164062e-01) (892, 2.08851680159568786621e-01) (893, -2.78095379471778869629e-02) (894, 1.20321409776806831360e-02) (895, -1.01475780829787254333e-02) (896, 5.31285442411899566650e-02) (897, -6.33665695786476135254e-02) (898, 6.84737935662269592285e-02) (899, -9.65180620551109313965e-02) (900, -1.06080494821071624756e-01) (0, 1.39781856536865234375e+01) (1, 5.69654130935668945312e+00) (2, 5.73485040664672851562e+00) (3, 5.77316284179687500000e+00) (4, 6.56529712677001953125e+00) (5, 6.49406099319458007812e+00) (6, 5.80047035217285156250e+00) (7, 5.83543491363525390625e+00) (8, 1.39986963272094726562e+01) (9, 1.41530141830444335938e+01) (10, 1.40349903106689453125e+01) (11, 1.40772733688354492188e+01) (12, 1.40437660217285156250e+01) (13, 1.40364484786987304688e+01) (14, 1.41055850982666015625e+01) (15, 1.40334148406982421875e+01) (16, 1.41565494537353515625e+01) (17, 