FANN_FLO_2.1
num_layers=3
learning_rate=0.700000
connection_rate=1.000000
network_type=0
learning_momentum=0.000000
training_algorithm=2
train_error_function=1
train_stop_function=0
cascade_output_change_fraction=0.010000
quickprop_decay=-0.000100
quickprop_mu=1.750000
rprop_increase_factor=1.200000
rprop_decrease_factor=0.500000
rprop_delta_min=0.000000
rprop_delta_max=50.000000
rprop_delta_zero=0.100000
cascade_output_stagnation_epochs=12
cascade_candidate_change_fraction=0.010000
cascade_candidate_stagnation_epochs=12
cascade_max_out_epochs=150
cascade_max_cand_epochs=150
cascade_num_candidate_groups=2
bit_fail_limit=3.49999994039535522461e-01
cascade_candidate_limit=1.00000000000000000000e+03
cascade_weight_multiplier=4.00000005960464477539e-01
cascade_activation_functions_count=10
cascade_activation_functions=3 5 7 8 10 11 14 15 16 17 
cascade_activation_steepnesses_count=4
cascade_activation_steepnesses=2.50000000000000000000e-01 5.00000000000000000000e-01 7.50000000000000000000e-01 1.00000000000000000000e+00 
layer_sizes=901 101 37 
scale_included=0
neurons (num_inputs, activation_function, activation_steepness)=(0, 0, 0.00000000000000000000e+00) (0, 0, 0.00000000000000000000e+00) (0, 0, 0.00000000000000000000e+00) (0, 0, 0.00000000000000000000e+00) (0, 0, 0.00000000000000000000e+00) (0, 0, 0.00000000000000000000e+00) (0, 0, 0.00000000000000000000e+00) (0, 0, 0.00000000000000000000e+00) (0, 0, 0.00000000000000000000e+00) (0, 0, 0.00000000000000000000e+00) (0, 0, 0.00000000000000000000e+00) (0, 0, 0.00000000000000000000e+00) (0, 0, 0.00000000000000000000e+00) (0, 0, 0.00000000000000000000e+00) (0, 0, 0.00000000000000000000e+00) (0, 0, 0.00000000000000000000e+00) (0, 0, 0.00000000000000000000e+00) (0, 0, 0.00000000000000000000e+00) (0, 0, 0.00000000000000000000e+00) (0, 0, 0.00000000000000000000e+00) (0, 0, 0.00000000000000000000e+00) (0, 0, 0.00000000000000000000e+00) (0, 0, 0.00000000000000000000e+00) (0, 0, 0.00000000000000000000e+00) (0, 0, 0.00000000000000000000e+00) (0, 0, 0.00000000000000000000e+00) (0, 0, 0.00000000000000000000e+00) (0, 0, 0.00000000000000000000e+00) (0, 0, 0.00000000000000000000e+00) (0, 0, 0.00000000000000000000e+00) (0, 0, 0.00000000000000000000e+00) (0, 0, 0.00000000000000000000e+00) (0, 0, 0.00000000000000000000e+00) (0, 0, 0.00000000000000000000e+00) (0, 0, 0.00000000000000000000e+00) (0, 0, 0.00000000000000000000e+00) (0, 0, 0.00000000000000000000e+00) (0, 0, 0.00000000000000000000e+00) (0, 0, 0.00000000000000000000e+00) (0, 0, 0.00000000000000000000e+00) (0, 0, 0.00000000000000000000e+00) (0, 0, 0.00000000000000000000e+00) (0, 0, 0.00000000000000000000e+00) (0, 0, 0.00000000000000000000e+00) (0, 0, 0.00000000000000000000e+00) (0, 0, 0.00000000000000000000e+00) (0, 0, 0.00000000000000000000e+00) (0, 0, 0.00000000000000000000e+00) (0, 0, 0.00000000000000000000e+00) (0, 0, 0.00000000000000000000e+00) (0, 0, 0.00000000000000000000e+00) (0, 0, 0.00000000000000000000e+00) (0, 0, 0.00000000000000000000e+00) (0, 0, 0.00000000000000000000e+00) (0, 0, 0.00000000000000000000e+00) (0, 0, 0.00000000000000000000e+00) (0, 0, 0.00000000000000000000e+00) (0, 0, 0.00000000000000000000e+00) (0, 0, 0.00000000000000000000e+00) (0, 0, 0.00000000000000000000e+00) (0, 0, 0.00000000000000000000e+00) (0, 0, 0.00000000000000000000e+00) (0, 0, 0.00000000000000000000e+00) (0, 0, 0.00000000000000000000e+00) (0, 0, 0.00000000000000000000e+00) (0, 0, 0.00000000000000000000e+00) (0, 0, 0.00000000000000000000e+00) (0, 0, 0.00000000000000000000e+00) (0, 0, 0.00000000000000000000e+00) (0, 0, 0.00000000000000000000e+00) (0, 0, 0.00000000000000000000e+00) (0, 0, 0.00000000000000000000e+00) (0, 0, 0.00000000000000000000e+00) (0, 0, 0.00000000000000000000e+00) (0, 0, 0.00000000000000000000e+00) (0, 0, 0.00000000000000000000e+00) (0, 0, 0.00000000000000000000e+00) (0, 0, 0.00000000000000000000e+00) (0, 0, 0.00000000000000000000e+00) (0, 0, 0.00000000000000000000e+00) (0, 0, 0.00000000000000000000e+00) (0, 0, 0.00000000000000000000e+00) (0, 0, 0.00000000000000000000e+00) (0, 0, 0.00000000000000000000e+00) (0, 0, 0.00000000000000000000e+00) (0, 0, 0.00000000000000000000e+00) (0, 0, 0.00000000000000000000e+00) (0, 0, 0.00000000000000000000e+00) (0, 0, 0.00000000000000000000e+00) (0, 0, 0.00000000000000000000e+00) (0, 0, 0.00000000000000000000e+00) (0, 0, 0.00000000000000000000e+00) (0, 0, 0.00000000000000000000e+00) (0, 0, 0.00000000000000000000e+00) (0, 0, 0.00000000000000000000e+00) (0, 0, 0.00000000000000000000e+00) (0, 0, 0.00000000000000000000e+00) (0, 0, 0.00000000000000000000e+00) (0, 0, 0.00000000000000000000e+00) (0, 0, 0.00000000000000000000e+00) (0, 0, 0.00000000000000000000e+00) (0, 0, 0.00000000000000000000e+00) (0, 0, 0.00000000000000000000e+00) (0, 0, 0.00000000000000000000e+00) (0, 0, 0.00000000000000000000e+00) (0, 0, 0.00000000000000000000e+00) (0, 0, 0.00000000000000000000e+00) (0, 0, 0.00000000000000000000e+00) (0, 0, 0.00000000000000000000e+00) (0, 0, 0.00000000000000000000e+00) (0, 0, 0.00000000000000000000e+00) (0, 0, 0.00000000000000000000e+00) (0, 0, 0.00000000000000000000e+00) (0, 0, 0.00000000000000000000e+00) (0, 0, 0.00000000000000000000e+00) (0, 0, 0.00000000000000000000e+00) (0, 0, 0.00000000000000000000e+00) (0, 0, 0.00000000000000000000e+00) (0, 0, 0.00000000000000000000e+00) (0, 0, 0.00000000000000000000e+00) (0, 0, 0.00000000000000000000e+00) (0, 0, 0.00000000000000000000e+00) (0, 0, 0.00000000000000000000e+00) (0, 0, 0.00000000000000000000e+00) (0, 0, 0.00000000000000000000e+00) (0, 0, 0.00000000000000000000e+00) (0, 0, 0.00000000000000000000e+00) (0, 0, 0.00000000000000000000e+00) (0, 0, 0.00000000000000000000e+00) (0, 0, 0.00000000000000000000e+00) (0, 0, 0.00000000000000000000e+00) (0, 0, 0.00000000000000000000e+00) (0, 0, 0.00000000000000000000e+00) (0, 0, 0.00000000000000000000e+00) (0, 0, 0.00000000000000000000e+00) (0, 0, 0.00000000000000000000e+00) (0, 0, 0.00000000000000000000e+00) (0, 0, 0.00000000000000000000e+00) (0, 0, 0.00000000000000000000e+00) (0, 0, 0.00000000000000000000e+00) (0, 0, 0.00000000000000000000e+00) (0, 0, 0.00000000000000000000e+00) (0, 0, 0.00000000000000000000e+00) (0, 0, 0.00000000000000000000e+00) (0, 0, 0.00000000000000000000e+00) (0, 0, 0.00000000000000000000e+00) (0, 0, 0.00000000000000000000e+00) (0, 0, 0.00000000000000000000e+00) (0, 0, 0.00000000000000000000e+00) (0, 0, 0.00000000000000000000e+00) (0, 0, 0.00000000000000000000e+00) (0, 0, 0.00000000000000000000e+00) (0, 0, 0.00000000000000000000e+00) (0, 0, 0.00000000000000000000e+00) (0, 0, 0.00000000000000000000e+00) (0, 0, 0.00000000000000000000e+00) (0, 0, 0.00000000000000000000e+00) (0, 0, 0.00000000000000000000e+00) (0, 0, 0.00000000000000000000e+00) (0, 0, 0.00000000000000000000e+00) (0, 0, 0.00000000000000000000e+00) (0, 0, 0.00000000000000000000e+00) (0, 0, 0.00000000000000000000e+00) (0, 0, 0.00000000000000000000e+00) (0, 0, 0.00000000000000000000e+00) (0, 0, 0.00000000000000000000e+00) (0, 0, 0.00000000000000000000e+00) (0, 0, 0.00000000000000000000e+00) (0, 0, 0.00000000000000000000e+00) (0, 0, 0.00000000000000000000e+00) (0, 0, 0.00000000000000000000e+00) (0, 0, 0.00000000000000000000e+00) (0, 0, 0.00000000000000000000e+00) (0, 0, 0.00000000000000000000e+00) (0, 0, 0.00000000000000000000e+00) (0, 0, 0.00000000000000000000e+00) (0, 0, 0.00000000000000000000e+00) (0, 0, 0.00000000000000000000e+00) (0, 0, 0.00000000000000000000e+00) (0, 0, 0.00000000000000000000e+00) (0, 0, 0.00000000000000000000e+00) (0, 0, 0.00000000000000000000e+00) (0, 0, 0.00000000000000000000e+00) (0, 0, 0.00000000000000000000e+00) (0, 0, 0.00000000000000000000e+00) (0, 0, 0.00000000000000000000e+00) (0, 0, 0.00000000000000000000e+00) (0, 0, 0.00000000000000000000e+00) (0, 0, 0.00000000000000000000e+00) (0, 0, 0.00000000000000000000e+00) (0, 0, 0.00000000000000000000e+00) (0, 0, 0.00000000000000000000e+00) (0, 0, 0.00000000000000000000e+00) (0, 0, 0.00000000000000000000e+00) (0, 0, 0.00000000000000000000e+00) (0, 0, 0.00000000000000000000e+00) (0, 0, 0.00000000000000000000e+00) (0, 0, 0.00000000000000000000e+00) (0, 0, 0.00000000000000000000e+00) (0, 0, 0.00000000000000000000e+00) (0, 0, 0.00000000000000000000e+00) (0, 0, 0.00000000000000000000e+00) (0, 0, 0.00000000000000000000e+00) (0, 0, 0.00000000000000000000e+00) (0, 0, 0.00000000000000000000e+00) (0, 0, 0.00000000000000000000e+00) (0, 0, 0.00000000000000000000e+00) (0, 0, 0.00000000000000000000e+00) (0, 0, 0.00000000000000000000e+00) (0, 0, 0.00000000000000000000e+00) (0, 0, 0.00000000000000000000e+00) (0, 0, 0.00000000000000000000e+00) (0, 0, 0.00000000000000000000e+00) (0, 0, 0.00000000000000000000e+00) (0, 0, 0.00000000000000000000e+00) (0, 0, 0.00000000000000000000e+00) (0, 0, 0.00000000000000000000e+00) (0, 0, 0.00000000000000000000e+00) (0, 0, 0.00000000000000000000e+00) (0, 0, 0.00000000000000000000e+00) (0, 0, 0.00000000000000000000e+00) (0, 0, 0.00000000000000000000e+00) (0, 0, 0.00000000000000000000e+00) (0, 0, 0.00000000000000000000e+00) (0, 0, 0.00000000000000000000e+00) (0, 0, 0.00000000000000000000e+00) (0, 0, 0.00000000000000000000e+00) (0, 0, 0.00000000000000000000e+00) (0, 0, 0.00000000000000000000e+00) (0, 0, 0.00000000000000000000e+00) (0, 0, 0.00000000000000000000e+00) (0, 0, 0.00000000000000000000e+00) (0, 0, 0.00000000000000000000e+00) (0, 0, 0.00000000000000000000e+00) (0, 0, 0.00000000000000000000e+00) (0, 0, 0.00000000000000000000e+00) (0, 0, 0.00000000000000000000e+00) (0, 0, 0.00000000000000000000e+00) (0, 0, 0.00000000000000000000e+00) (0, 0, 0.00000000000000000000e+00) (0, 0, 0.00000000000000000000e+00) (0, 0, 0.00000000000000000000e+00) (0, 0, 0.00000000000000000000e+00) (0, 0, 0.00000000000000000000e+00) (0, 0, 0.00000000000000000000e+00) (0, 0, 0.00000000000000000000e+00) (0, 0, 0.00000000000000000000e+00) (0, 0, 0.00000000000000000000e+00) (0, 0, 0.00000000000000000000e+00) (0, 0, 0.00000000000000000000e+00) (0, 0, 0.00000000000000000000e+00) (0, 0, 0.00000000000000000000e+00) (0, 0, 0.00000000000000000000e+00) (0, 0, 0.00000000000000000000e+00) (0, 0, 0.00000000000000000000e+00) (0, 0, 0.00000000000000000000e+00) (0, 0, 0.00000000000000000000e+00) (0, 0, 0.00000000000000000000e+00) (0, 0, 0.00000000000000000000e+00) (0, 0, 0.00000000000000000000e+00) (0, 0, 0.00000000000000000000e+00) (0, 0, 0.00000000000000000000e+00) (0, 0, 0.00000000000000000000e+00) (0, 0, 0.00000000000000000000e+00) (0, 0, 0.00000000000000000000e+00) (0, 0, 0.00000000000000000000e+00) (0, 0, 0.00000000000000000000e+00) (0, 0, 0.00000000000000000000e+00) (0, 0, 0.00000000000000000000e+00) (0, 0, 0.00000000000000000000e+00) (0, 0, 0.00000000000000000000e+00) (0, 0, 0.00000000000000000000e+00) (0, 0, 0.00000000000000000000e+00) (0, 0, 0.00000000000000000000e+00) (0, 0, 0.00000000000000000000e+00) (0, 0, 0.00000000000000000000e+00) (0, 0, 0.00000000000000000000e+00) (0, 0, 0.00000000000000000000e+00) (0, 0, 0.00000000000000000000e+00) (0, 0, 0.00000000000000000000e+00) (0, 0, 0.00000000000000000000e+00) (0, 0, 0.00000000000000000000e+00) (0, 0, 0.00000000000000000000e+00) (0, 0, 0.00000000000000000000e+00) (0, 0, 0.00000000000000000000e+00) (0, 0, 0.00000000000000000000e+00) (0, 0, 0.00000000000000000000e+00) (0, 0, 0.00000000000000000000e+00) (0, 0, 0.00000000000000000000e+00) (0, 0, 0.00000000000000000000e+00) (0, 0, 0.00000000000000000000e+00) (0, 0, 0.00000000000000000000e+00) (0, 0, 0.00000000000000000000e+00) (0, 0, 0.00000000000000000000e+00) (0, 0, 0.00000000000000000000e+00) (0, 0, 0.00000000000000000000e+00) (0, 0, 0.00000000000000000000e+00) (0, 0, 0.00000000000000000000e+00) (0, 0, 0.00000000000000000000e+00) (0, 0, 0.00000000000000000000e+00) (0, 0, 0.00000000000000000000e+00) (0, 0, 0.00000000000000000000e+00) (0, 0, 0.00000000000000000000e+00) (0, 0, 0.00000000000000000000e+00) (0, 0, 0.00000000000000000000e+00) (0, 0, 0.00000000000000000000e+00) (0, 0, 0.00000000000000000000e+00) (0, 0, 0.00000000000000000000e+00) (0, 0, 0.00000000000000000000e+00) (0, 0, 0.00000000000000000000e+00) (0, 0, 0.00000000000000000000e+00) (0, 0, 0.00000000000000000000e+00) (0, 0, 0.00000000000000000000e+00) (0, 0, 0.00000000000000000000e+00) (0, 0, 0.00000000000000000000e+00) (0, 0, 0.00000000000000000000e+00) (0, 0, 0.00000000000000000000e+00) (0, 0, 0.00000000000000000000e+00) (0, 0, 0.00000000000000000000e+00) (0, 0, 0.00000000000000000000e+00) (0, 0, 0.00000000000000000000e+00) (0, 0, 0.00000000000000000000e+00) (0, 0, 0.00000000000000000000e+00) (0, 0, 0.00000000000000000000e+00) (0, 0, 0.00000000000000000000e+00) (0, 0, 0.00000000000000000000e+00) (0, 0, 0.00000000000000000000e+00) (0, 0, 0.00000000000000000000e+00) (0, 0, 0.00000000000000000000e+00) (0, 0, 0.00000000000000000000e+00) (0, 0, 0.00000000000000000000e+00) (0, 0, 0.00000000000000000000e+00) (0, 0, 0.00000000000000000000e+00) (0, 0, 0.00000000000000000000e+00) (0, 0, 0.00000000000000000000e+00) (0, 0, 0.00000000000000000000e+00) (0, 0, 0.00000000000000000000e+00) (0, 0, 0.00000000000000000000e+00) (0, 0, 0.00000000000000000000e+00) (0, 0, 0.00000000000000000000e+00) (0, 0, 0.00000000000000000000e+00) (0, 0, 0.00000000000000000000e+00) (0, 0, 0.00000000000000000000e+00) (0, 0, 0.00000000000000000000e+00) (0, 0, 0.00000000000000000000e+00) (0, 0, 0.00000000000000000000e+00) (0, 0, 0.00000000000000000000e+00) (0, 0, 0.00000000000000000000e+00) (0, 0, 0.00000000000000000000e+00) (0, 0, 0.00000000000000000000e+00) (0, 0, 0.00000000000000000000e+00) (0, 0, 0.00000000000000000000e+00) (0, 0, 0.00000000000000000000e+00) (0, 0, 0.00000000000000000000e+00) (0, 0, 0.00000000000000000000e+00) (0, 0, 0.00000000000000000000e+00) (0, 0, 0.00000000000000000000e+00) (0, 0, 0.00000000000000000000e+00) (0, 0, 0.00000000000000000000e+00) (0, 0, 0.00000000000000000000e+00) (0, 0, 0.00000000000000000000e+00) (0, 0, 0.00000000000000000000e+00) (0, 0, 0.00000000000000000000e+00) (0, 0, 0.00000000000000000000e+00) (0, 0, 0.00000000000000000000e+00) (0, 0, 0.00000000000000000000e+00) (0, 0, 0.00000000000000000000e+00) (0, 0, 0.00000000000000000000e+00) (0, 0, 0.00000000000000000000e+00) (0, 0, 0.00000000000000000000e+00) (0, 0, 0.00000000000000000000e+00) (0, 0, 0.00000000000000000000e+00) (0, 0, 0.00000000000000000000e+00) (0, 0, 0.00000000000000000000e+00) (0, 0, 0.00000000000000000000e+00) (0, 0, 0.00000000000000000000e+00) (0, 0, 0.00000000000000000000e+00) (0, 0, 0.00000000000000000000e+00) (0, 0, 0.00000000000000000000e+00) (0, 0, 0.00000000000000000000e+00) (0, 0, 0.00000000000000000000e+00) (0, 0, 0.00000000000000000000e+00) (0, 0, 0.00000000000000000000e+00) (0, 0, 0.00000000000000000000e+00) (0, 0, 0.00000000000000000000e+00) (0, 0, 0.00000000000000000000e+00) (0, 0, 0.00000000000000000000e+00) (0, 0, 0.00000000000000000000e+00) (0, 0, 0.00000000000000000000e+00) (0, 0, 0.00000000000000000000e+00) (0, 0, 0.00000000000000000000e+00) (0, 0, 0.00000000000000000000e+00) (0, 0, 0.00000000000000000000e+00) (0, 0, 0.00000000000000000000e+00) (0, 0, 0.00000000000000000000e+00) (0, 0, 0.00000000000000000000e+00) (0, 0, 0.00000000000000000000e+00) (0, 0, 0.00000000000000000000e+00) (0, 0, 0.00000000000000000000e+00) (0, 0, 0.00000000000000000000e+00) (0, 0, 0.00000000000000000000e+00) (0, 0, 0.00000000000000000000e+00) (0, 0, 0.00000000000000000000e+00) (0, 0, 0.00000000000000000000e+00) (0, 0, 0.00000000000000000000e+00) (0, 0, 0.00000000000000000000e+00) (0, 0, 0.00000000000000000000e+00) (0, 0, 0.00000000000000000000e+00) (0, 0, 0.00000000000000000000e+00) (0, 0, 0.00000000000000000000e+00) (0, 0, 0.00000000000000000000e+00) (0, 0, 0.00000000000000000000e+00) (0, 0, 0.00000000000000000000e+00) (0, 0, 0.00000000000000000000e+00) (0, 0, 0.00000000000000000000e+00) (0, 0, 0.00000000000000000000e+00) (0, 0, 0.00000000000000000000e+00) (0, 0, 0.00000000000000000000e+00) (0, 0, 0.00000000000000000000e+00) (0, 0, 0.00000000000000000000e+00) (0, 0, 0.00000000000000000000e+00) (0, 0, 0.00000000000000000000e+00) (0, 0, 0.00000000000000000000e+00) (0, 0, 0.00000000000000000000e+00) (0, 0, 0.00000000000000000000e+00) (0, 0, 0.00000000000000000000e+00) (0, 0, 0.00000000000000000000e+00) (0, 0, 0.00000000000000000000e+00) (0, 0, 0.00000000000000000000e+00) (0, 0, 0.00000000000000000000e+00) (0, 0, 0.00000000000000000000e+00) (0, 0, 0.00000000000000000000e+00) (0, 0, 0.00000000000000000000e+00) (0, 0, 0.00000000000000000000e+00) (0, 0, 0.00000000000000000000e+00) (0, 0, 0.00000000000000000000e+00) (0, 0, 0.00000000000000000000e+00) (0, 0, 0.00000000000000000000e+00) (0, 0, 0.00000000000000000000e+00) (0, 0, 0.00000000000000000000e+00) (0, 0, 0.00000000000000000000e+00) (0, 0, 0.00000000000000000000e+00) (0, 0, 0.00000000000000000000e+00) (0, 0, 0.00000000000000000000e+00) (0, 0, 0.00000000000000000000e+00) (0, 0, 0.00000000000000000000e+00) (0, 0, 0.00000000000000000000e+00) (0, 0, 0.00000000000000000000e+00) (0, 0, 0.00000000000000000000e+00) (0, 0, 0.00000000000000000000e+00) (0, 0, 0.00000000000000000000e+00) (0, 0, 0.00000000000000000000e+00) (0, 0, 0.00000000000000000000e+00) (0, 0, 0.00000000000000000000e+00) (0, 0, 0.00000000000000000000e+00) (0, 0, 0.00000000000000000000e+00) (0, 0, 0.00000000000000000000e+00) (0, 0, 0.00000000000000000000e+00) (0, 0, 0.00000000000000000000e+00) (0, 0, 0.00000000000000000000e+00) (0, 0, 0.00000000000000000000e+00) (0, 0, 0.00000000000000000000e+00) (0, 0, 0.00000000000000000000e+00) (0, 0, 0.00000000000000000000e+00) (0, 0, 0.00000000000000000000e+00) (0, 0, 0.00000000000000000000e+00) (0, 0, 0.00000000000000000000e+00) (0, 0, 0.00000000000000000000e+00) (0, 0, 0.00000000000000000000e+00) (0, 0, 0.00000000000000000000e+00) (0, 0, 0.00000000000000000000e+00) (0, 0, 0.00000000000000000000e+00) (0, 0, 0.00000000000000000000e+00) (0, 0, 0.00000000000000000000e+00) (0, 0, 0.00000000000000000000e+00) (0, 0, 0.00000000000000000000e+00) (0, 0, 0.00000000000000000000e+00) (0, 0, 0.00000000000000000000e+00) (0, 0, 0.00000000000000000000e+00) (0, 0, 0.00000000000000000000e+00) (0, 0, 0.00000000000000000000e+00) (0, 0, 0.00000000000000000000e+00) (0, 0, 0.00000000000000000000e+00) (0, 0, 0.00000000000000000000e+00) (0, 0, 0.00000000000000000000e+00) (0, 0, 0.00000000000000000000e+00) (0, 0, 0.00000000000000000000e+00) (0, 0, 0.00000000000000000000e+00) (0, 0, 0.00000000000000000000e+00) (0, 0, 0.00000000000000000000e+00) (0, 0, 0.00000000000000000000e+00) (0, 0, 0.00000000000000000000e+00) (0, 0, 0.00000000000000000000e+00) (0, 0, 0.00000000000000000000e+00) (0, 0, 0.00000000000000000000e+00) (0, 0, 0.00000000000000000000e+00) (0, 0, 0.00000000000000000000e+00) (0, 0, 0.00000000000000000000e+00) (0, 0, 0.00000000000000000000e+00) (0, 0, 0.00000000000000000000e+00) (0, 0, 0.00000000000000000000e+00) (0, 0, 0.00000000000000000000e+00) (0, 0, 0.00000000000000000000e+00) (0, 0, 0.00000000000000000000e+00) (0, 0, 0.00000000000000000000e+00) (0, 0, 0.00000000000000000000e+00) (0, 0, 0.00000000000000000000e+00) (0, 0, 0.00000000000000000000e+00) (0, 0, 0.00000000000000000000e+00) (0, 0, 0.00000000000000000000e+00) (0, 0, 0.00000000000000000000e+00) (0, 0, 0.00000000000000000000e+00) (0, 0, 0.00000000000000000000e+00) (0, 0, 0.00000000000000000000e+00) (0, 0, 0.00000000000000000000e+00) (0, 0, 0.00000000000000000000e+00) (0, 0, 0.00000000000000000000e+00) (0, 0, 0.00000000000000000000e+00) (0, 0, 0.00000000000000000000e+00) (0, 0, 0.00000000000000000000e+00) (0, 0, 0.00000000000000000000e+00) (0, 0, 0.00000000000000000000e+00) (0, 0, 0.00000000000000000000e+00) (0, 0, 0.00000000000000000000e+00) (0, 0, 0.00000000000000000000e+00) (0, 0, 0.00000000000000000000e+00) (0, 0, 0.00000000000000000000e+00) (0, 0, 0.00000000000000000000e+00) (0, 0, 0.00000000000000000000e+00) (0, 0, 0.00000000000000000000e+00) (0, 0, 0.00000000000000000000e+00) (0, 0, 0.00000000000000000000e+00) (0, 0, 0.00000000000000000000e+00) (0, 0, 0.00000000000000000000e+00) (0, 0, 0.00000000000000000000e+00) (0, 0, 0.00000000000000000000e+00) (0, 0, 0.00000000000000000000e+00) (0, 0, 0.00000000000000000000e+00) (0, 0, 0.00000000000000000000e+00) (0, 0, 0.00000000000000000000e+00) (0, 0, 0.00000000000000000000e+00) (0, 0, 0.00000000000000000000e+00) (0, 0, 0.00000000000000000000e+00) (0, 0, 0.00000000000000000000e+00) (0, 0, 0.00000000000000000000e+00) (0, 0, 0.00000000000000000000e+00) (0, 0, 0.00000000000000000000e+00) (0, 0, 0.00000000000000000000e+00) (0, 0, 0.00000000000000000000e+00) (0, 0, 0.00000000000000000000e+00) (0, 0, 0.00000000000000000000e+00) (0, 0, 0.00000000000000000000e+00) (0, 0, 0.00000000000000000000e+00) (0, 0, 0.00000000000000000000e+00) (0, 0, 0.00000000000000000000e+00) (0, 0, 0.00000000000000000000e+00) (0, 0, 0.00000000000000000000e+00) (0, 0, 0.00000000000000000000e+00) (0, 0, 0.00000000000000000000e+00) (0, 0, 0.00000000000000000000e+00) (0, 0, 0.00000000000000000000e+00) (0, 0, 0.00000000000000000000e+00) (0, 0, 0.00000000000000000000e+00) (0, 0, 0.00000000000000000000e+00) (0, 0, 0.00000000000000000000e+00) (0, 0, 0.00000000000000000000e+00) (0, 0, 0.00000000000000000000e+00) (0, 0, 0.00000000000000000000e+00) (0, 0, 0.00000000000000000000e+00) (0, 0, 0.00000000000000000000e+00) (0, 0, 0.00000000000000000000e+00) (0, 0, 0.00000000000000000000e+00) (0, 0, 0.00000000000000000000e+00) (0, 0, 0.00000000000000000000e+00) (0, 0, 0.00000000000000000000e+00) (0, 0, 0.00000000000000000000e+00) (0, 0, 0.00000000000000000000e+00) (0, 0, 0.00000000000000000000e+00) (0, 0, 0.00000000000000000000e+00) (0, 0, 0.00000000000000000000e+00) (0, 0, 0.00000000000000000000e+00) (0, 0, 0.00000000000000000000e+00) (0, 0, 0.00000000000000000000e+00) (0, 0, 0.00000000000000000000e+00) (0, 0, 0.00000000000000000000e+00) (0, 0, 0.00000000000000000000e+00) (0, 0, 0.00000000000000000000e+00) (0, 0, 0.00000000000000000000e+00) (0, 0, 0.00000000000000000000e+00) (0, 0, 0.00000000000000000000e+00) (0, 0, 0.00000000000000000000e+00) (0, 0, 0.00000000000000000000e+00) (0, 0, 0.00000000000000000000e+00) (0, 0, 0.00000000000000000000e+00) (0, 0, 0.00000000000000000000e+00) (0, 0, 0.00000000000000000000e+00) (0, 0, 0.00000000000000000000e+00) (0, 0, 0.00000000000000000000e+00) (0, 0, 0.00000000000000000000e+00) (0, 0, 0.00000000000000000000e+00) (0, 0, 0.00000000000000000000e+00) (0, 0, 0.00000000000000000000e+00) (0, 0, 0.00000000000000000000e+00) (0, 0, 0.00000000000000000000e+00) (0, 0, 0.00000000000000000000e+00) (0, 0, 0.00000000000000000000e+00) (0, 0, 0.00000000000000000000e+00) (0, 0, 0.00000000000000000000e+00) (0, 0, 0.00000000000000000000e+00) (0, 0, 0.00000000000000000000e+00) (0, 0, 0.00000000000000000000e+00) (0, 0, 0.00000000000000000000e+00) (0, 0, 0.00000000000000000000e+00) (0, 0, 0.00000000000000000000e+00) (0, 0, 0.00000000000000000000e+00) (0, 0, 0.00000000000000000000e+00) (0, 0, 0.00000000000000000000e+00) (0, 0, 0.00000000000000000000e+00) (0, 0, 0.00000000000000000000e+00) (0, 0, 0.00000000000000000000e+00) (0, 0, 0.00000000000000000000e+00) (0, 0, 0.00000000000000000000e+00) (0, 0, 0.00000000000000000000e+00) (0, 0, 0.00000000000000000000e+00) (0, 0, 0.00000000000000000000e+00) (0, 0, 0.00000000000000000000e+00) (0, 0, 0.00000000000000000000e+00) (0, 0, 0.00000000000000000000e+00) (0, 0, 0.00000000000000000000e+00) (0, 0, 0.00000000000000000000e+00) (0, 0, 0.00000000000000000000e+00) (0, 0, 0.00000000000000000000e+00) (0, 0, 0.00000000000000000000e+00) (0, 0, 0.00000000000000000000e+00) (0, 0, 0.00000000000000000000e+00) (0, 0, 0.00000000000000000000e+00) (0, 0, 0.00000000000000000000e+00) (0, 0, 0.00000000000000000000e+00) (0, 0, 0.00000000000000000000e+00) (0, 0, 0.00000000000000000000e+00) (0, 0, 0.00000000000000000000e+00) (0, 0, 0.00000000000000000000e+00) (0, 0, 0.00000000000000000000e+00) (0, 0, 0.00000000000000000000e+00) (0, 0, 0.00000000000000000000e+00) (0, 0, 0.00000000000000000000e+00) (0, 0, 0.00000000000000000000e+00) (0, 0, 0.00000000000000000000e+00) (0, 0, 0.00000000000000000000e+00) (0, 0, 0.00000000000000000000e+00) (0, 0, 0.00000000000000000000e+00) (0, 0, 0.00000000000000000000e+00) (0, 0, 0.00000000000000000000e+00) (0, 0, 0.00000000000000000000e+00) (0, 0, 0.00000000000000000000e+00) (0, 0, 0.00000000000000000000e+00) (0, 0, 0.00000000000000000000e+00) (0, 0, 0.00000000000000000000e+00) (0, 0, 0.00000000000000000000e+00) (0, 0, 0.00000000000000000000e+00) (0, 0, 0.00000000000000000000e+00) (0, 0, 0.00000000000000000000e+00) (0, 0, 0.00000000000000000000e+00) (0, 0, 0.00000000000000000000e+00) (0, 0, 0.00000000000000000000e+00) (0, 0, 0.00000000000000000000e+00) (0, 0, 0.00000000000000000000e+00) (0, 0, 0.00000000000000000000e+00) (0, 0, 0.00000000000000000000e+00) (0, 0, 0.00000000000000000000e+00) (0, 0, 0.00000000000000000000e+00) (0, 0, 0.00000000000000000000e+00) (0, 0, 0.00000000000000000000e+00) (0, 0, 0.00000000000000000000e+00) (0, 0, 0.00000000000000000000e+00) (0, 0, 0.00000000000000000000e+00) (0, 0, 0.00000000000000000000e+00) (0, 0, 0.00000000000000000000e+00) (0, 0, 0.00000000000000000000e+00) (0, 0, 0.00000000000000000000e+00) (0, 0, 0.00000000000000000000e+00) (0, 0, 0.00000000000000000000e+00) (0, 0, 0.00000000000000000000e+00) (0, 0, 0.00000000000000000000e+00) (0, 0, 0.00000000000000000000e+00) (0, 0, 0.00000000000000000000e+00) (0, 0, 0.00000000000000000000e+00) (0, 0, 0.00000000000000000000e+00) (0, 0, 0.00000000000000000000e+00) (0, 0, 0.00000000000000000000e+00) (0, 0, 0.00000000000000000000e+00) (0, 0, 0.00000000000000000000e+00) (0, 0, 0.00000000000000000000e+00) (0, 0, 0.00000000000000000000e+00) (0, 0, 0.00000000000000000000e+00) (0, 0, 0.00000000000000000000e+00) (0, 0, 0.00000000000000000000e+00) (0, 0, 0.00000000000000000000e+00) (0, 0, 0.00000000000000000000e+00) (0, 0, 0.00000000000000000000e+00) (0, 0, 0.00000000000000000000e+00) (0, 0, 0.00000000000000000000e+00) (0, 0, 0.00000000000000000000e+00) (0, 0, 0.00000000000000000000e+00) (0, 0, 0.00000000000000000000e+00) (0, 0, 0.00000000000000000000e+00) (0, 0, 0.00000000000000000000e+00) (0, 0, 0.00000000000000000000e+00) (0, 0, 0.00000000000000000000e+00) (0, 0, 0.00000000000000000000e+00) (0, 0, 0.00000000000000000000e+00) (0, 0, 0.00000000000000000000e+00) (0, 0, 0.00000000000000000000e+00) (0, 0, 0.00000000000000000000e+00) (0, 0, 0.00000000000000000000e+00) (0, 0, 0.00000000000000000000e+00) (0, 0, 0.00000000000000000000e+00) (0, 0, 0.00000000000000000000e+00) (0, 0, 0.00000000000000000000e+00) (0, 0, 0.00000000000000000000e+00) (0, 0, 0.00000000000000000000e+00) (0, 0, 0.00000000000000000000e+00) (0, 0, 0.00000000000000000000e+00) (0, 0, 0.00000000000000000000e+00) (0, 0, 0.00000000000000000000e+00) (0, 0, 0.00000000000000000000e+00) (0, 0, 0.00000000000000000000e+00) (0, 0, 0.00000000000000000000e+00) (0, 0, 0.00000000000000000000e+00) (0, 0, 0.00000000000000000000e+00) (0, 0, 0.00000000000000000000e+00) (0, 0, 0.00000000000000000000e+00) (0, 0, 0.00000000000000000000e+00) (0, 0, 0.00000000000000000000e+00) (0, 0, 0.00000000000000000000e+00) (0, 0, 0.00000000000000000000e+00) (0, 0, 0.00000000000000000000e+00) (0, 0, 0.00000000000000000000e+00) (0, 0, 0.00000000000000000000e+00) (0, 0, 0.00000000000000000000e+00) (0, 0, 0.00000000000000000000e+00) (0, 0, 0.00000000000000000000e+00) (0, 0, 0.00000000000000000000e+00) (0, 0, 0.00000000000000000000e+00) (0, 0, 0.00000000000000000000e+00) (0, 0, 0.00000000000000000000e+00) (0, 0, 0.00000000000000000000e+00) (0, 0, 0.00000000000000000000e+00) (0, 0, 0.00000000000000000000e+00) (0, 0, 0.00000000000000000000e+00) (0, 0, 0.00000000000000000000e+00) (0, 0, 0.00000000000000000000e+00) (0, 0, 0.00000000000000000000e+00) (0, 0, 0.00000000000000000000e+00) (0, 0, 0.00000000000000000000e+00) (0, 0, 0.00000000000000000000e+00) (0, 0, 0.00000000000000000000e+00) (0, 0, 0.00000000000000000000e+00) (0, 0, 0.00000000000000000000e+00) (0, 0, 0.00000000000000000000e+00) (0, 0, 0.00000000000000000000e+00) (0, 0, 0.00000000000000000000e+00) (0, 0, 0.00000000000000000000e+00) (0, 0, 0.00000000000000000000e+00) (0, 0, 0.00000000000000000000e+00) (0, 0, 0.00000000000000000000e+00) (0, 0, 0.00000000000000000000e+00) (0, 0, 0.00000000000000000000e+00) (0, 0, 0.00000000000000000000e+00) (0, 0, 0.00000000000000000000e+00) (0, 0, 0.00000000000000000000e+00) (0, 0, 0.00000000000000000000e+00) (0, 0, 0.00000000000000000000e+00) (0, 0, 0.00000000000000000000e+00) (0, 0, 0.00000000000000000000e+00) (0, 0, 0.00000000000000000000e+00) (0, 0, 0.00000000000000000000e+00) (0, 0, 0.00000000000000000000e+00) (0, 0, 0.00000000000000000000e+00) (0, 0, 0.00000000000000000000e+00) (0, 0, 0.00000000000000000000e+00) (0, 0, 0.00000000000000000000e+00) (0, 0, 0.00000000000000000000e+00) (0, 0, 0.00000000000000000000e+00) (0, 0, 0.00000000000000000000e+00) (0, 0, 0.00000000000000000000e+00) (0, 0, 0.00000000000000000000e+00) (0, 0, 0.00000000000000000000e+00) (0, 0, 0.00000000000000000000e+00) (0, 0, 0.00000000000000000000e+00) (0, 0, 0.00000000000000000000e+00) (0, 0, 0.00000000000000000000e+00) (0, 0, 0.00000000000000000000e+00) (0, 0, 0.00000000000000000000e+00) (0, 0, 0.00000000000000000000e+00) (0, 0, 0.00000000000000000000e+00) (0, 0, 0.00000000000000000000e+00) (0, 0, 0.00000000000000000000e+00) (0, 0, 0.00000000000000000000e+00) (0, 0, 0.00000000000000000000e+00) (0, 0, 0.00000000000000000000e+00) (0, 0, 0.00000000000000000000e+00) (0, 0, 0.00000000000000000000e+00) (0, 0, 0.00000000000000000000e+00) (0, 0, 0.00000000000000000000e+00) (0, 0, 0.00000000000000000000e+00) (0, 0, 0.00000000000000000000e+00) (0, 0, 0.00000000000000000000e+00) (0, 0, 0.00000000000000000000e+00) (0, 0, 0.00000000000000000000e+00) (0, 0, 0.00000000000000000000e+00) (0, 0, 0.00000000000000000000e+00) (0, 0, 0.00000000000000000000e+00) (0, 0, 0.00000000000000000000e+00) (0, 0, 0.00000000000000000000e+00) (0, 0, 0.00000000000000000000e+00) (0, 0, 0.00000000000000000000e+00) (0, 0, 0.00000000000000000000e+00) (0, 0, 0.00000000000000000000e+00) (0, 0, 0.00000000000000000000e+00) (0, 0, 0.00000000000000000000e+00) (0, 0, 0.00000000000000000000e+00) (0, 0, 0.00000000000000000000e+00) (0, 0, 0.00000000000000000000e+00) (0, 0, 0.00000000000000000000e+00) (0, 0, 0.00000000000000000000e+00) (0, 0, 0.00000000000000000000e+00) (0, 0, 0.00000000000000000000e+00) (0, 0, 0.00000000000000000000e+00) (0, 0, 0.00000000000000000000e+00) (0, 0, 0.00000000000000000000e+00) (0, 0, 0.00000000000000000000e+00) (0, 0, 0.00000000000000000000e+00) (0, 0, 0.00000000000000000000e+00) (0, 0, 0.00000000000000000000e+00) (0, 0, 0.00000000000000000000e+00) (0, 0, 0.00000000000000000000e+00) (0, 0, 0.00000000000000000000e+00) (0, 0, 0.00000000000000000000e+00) (0, 0, 0.00000000000000000000e+00) (0, 0, 0.00000000000000000000e+00) (0, 0, 0.00000000000000000000e+00) (0, 0, 0.00000000000000000000e+00) (0, 0, 0.00000000000000000000e+00) (0, 0, 0.00000000000000000000e+00) (0, 0, 0.00000000000000000000e+00) (0, 0, 0.00000000000000000000e+00) (0, 0, 0.00000000000000000000e+00) (0, 0, 0.00000000000000000000e+00) (0, 0, 0.00000000000000000000e+00) (0, 0, 0.00000000000000000000e+00) (0, 0, 0.00000000000000000000e+00) (0, 0, 0.00000000000000000000e+00) (0, 0, 0.00000000000000000000e+00) (0, 0, 0.00000000000000000000e+00) (0, 0, 0.00000000000000000000e+00) (0, 0, 0.00000000000000000000e+00) (0, 0, 0.00000000000000000000e+00) (0, 0, 0.00000000000000000000e+00) (0, 0, 0.00000000000000000000e+00) (0, 0, 0.00000000000000000000e+00) (0, 0, 0.00000000000000000000e+00) (0, 0, 0.00000000000000000000e+00) (0, 0, 0.00000000000000000000e+00) (0, 0, 0.00000000000000000000e+00) (0, 0, 0.00000000000000000000e+00) (0, 0, 0.00000000000000000000e+00) (0, 0, 0.00000000000000000000e+00) (0, 0, 0.00000000000000000000e+00) (0, 0, 0.00000000000000000000e+00) (0, 0, 0.00000000000000000000e+00) (0, 0, 0.00000000000000000000e+00) (0, 0, 0.00000000000000000000e+00) (0, 0, 0.00000000000000000000e+00) (0, 0, 0.00000000000000000000e+00) (0, 0, 0.00000000000000000000e+00) (0, 0, 0.00000000000000000000e+00) (0, 0, 0.00000000000000000000e+00) (0, 0, 0.00000000000000000000e+00) (0, 0, 0.00000000000000000000e+00) (0, 0, 0.00000000000000000000e+00) (0, 0, 0.00000000000000000000e+00) (0, 0, 0.00000000000000000000e+00) (0, 0, 0.00000000000000000000e+00) (0, 0, 0.00000000000000000000e+00) (0, 0, 0.00000000000000000000e+00) (0, 0, 0.00000000000000000000e+00) (0, 0, 0.00000000000000000000e+00) (0, 0, 0.00000000000000000000e+00) (0, 0, 0.00000000000000000000e+00) (0, 0, 0.00000000000000000000e+00) (0, 0, 0.00000000000000000000e+00) (0, 0, 0.00000000000000000000e+00) (0, 0, 0.00000000000000000000e+00) (0, 0, 0.00000000000000000000e+00) (0, 0, 0.00000000000000000000e+00) (0, 0, 0.00000000000000000000e+00) (0, 0, 0.00000000000000000000e+00) (0, 0, 0.00000000000000000000e+00) (0, 0, 0.00000000000000000000e+00) (0, 0, 0.00000000000000000000e+00) (901, 10, 5.00000000000000000000e-01) (901, 10, 5.00000000000000000000e-01) (901, 10, 5.00000000000000000000e-01) (901, 10, 5.00000000000000000000e-01) (901, 10, 5.00000000000000000000e-01) (901, 10, 5.00000000000000000000e-01) (901, 10, 5.00000000000000000000e-01) (901, 10, 5.00000000000000000000e-01) (901, 10, 5.00000000000000000000e-01) (901, 10, 5.00000000000000000000e-01) (901, 10, 5.00000000000000000000e-01) (901, 10, 5.00000000000000000000e-01) (901, 10, 5.00000000000000000000e-01) (901, 10, 5.00000000000000000000e-01) (901, 10, 5.00000000000000000000e-01) (901, 10, 5.00000000000000000000e-01) (901, 10, 5.00000000000000000000e-01) (901, 10, 5.00000000000000000000e-01) (901, 10, 5.00000000000000000000e-01) (901, 10, 5.00000000000000000000e-01) (901, 10, 5.00000000000000000000e-01) (901, 10, 5.00000000000000000000e-01) (901, 10, 5.00000000000000000000e-01) (901, 10, 5.00000000000000000000e-01) (901, 10, 5.00000000000000000000e-01) (901, 10, 5.00000000000000000000e-01) (901, 10, 5.00000000000000000000e-01) (901, 10, 5.00000000000000000000e-01) (901, 10, 5.00000000000000000000e-01) (901, 10, 5.00000000000000000000e-01) (901, 10, 5.00000000000000000000e-01) (901, 10, 5.00000000000000000000e-01) (901, 10, 5.00000000000000000000e-01) (901, 10, 5.00000000000000000000e-01) (901, 10, 5.00000000000000000000e-01) (901, 10, 5.00000000000000000000e-01) (901, 10, 5.00000000000000000000e-01) (901, 10, 5.00000000000000000000e-01) (901, 10, 5.00000000000000000000e-01) (901, 10, 5.00000000000000000000e-01) (901, 10, 5.00000000000000000000e-01) (901, 10, 5.00000000000000000000e-01) (901, 10, 5.00000000000000000000e-01) (901, 10, 5.00000000000000000000e-01) (901, 10, 5.00000000000000000000e-01) (901, 10, 5.00000000000000000000e-01) (901, 10, 5.00000000000000000000e-01) (901, 10, 5.00000000000000000000e-01) (901, 10, 5.00000000000000000000e-01) (901, 10, 5.00000000000000000000e-01) (901, 10, 5.00000000000000000000e-01) (901, 10, 5.00000000000000000000e-01) (901, 10, 5.00000000000000000000e-01) (901, 10, 5.00000000000000000000e-01) (901, 10, 5.00000000000000000000e-01) (901, 10, 5.00000000000000000000e-01) (901, 10, 5.00000000000000000000e-01) (901, 10, 5.00000000000000000000e-01) (901, 10, 5.00000000000000000000e-01) (901, 10, 5.00000000000000000000e-01) (901, 10, 5.00000000000000000000e-01) (901, 10, 5.00000000000000000000e-01) (901, 10, 5.00000000000000000000e-01) (901, 10, 5.00000000000000000000e-01) (901, 10, 5.00000000000000000000e-01) (901, 10, 5.00000000000000000000e-01) (901, 10, 5.00000000000000000000e-01) (901, 10, 5.00000000000000000000e-01) (901, 10, 5.00000000000000000000e-01) (901, 10, 5.00000000000000000000e-01) (901, 10, 5.00000000000000000000e-01) (901, 10, 5.00000000000000000000e-01) (901, 10, 5.00000000000000000000e-01) (901, 10, 5.00000000000000000000e-01) (901, 10, 5.00000000000000000000e-01) (901, 10, 5.00000000000000000000e-01) (901, 10, 5.00000000000000000000e-01) (901, 10, 5.00000000000000000000e-01) (901, 10, 5.00000000000000000000e-01) (901, 10, 5.00000000000000000000e-01) (901, 10, 5.00000000000000000000e-01) (901, 10, 5.00000000000000000000e-01) (901, 10, 5.00000000000000000000e-01) (901, 10, 5.00000000000000000000e-01) (901, 10, 5.00000000000000000000e-01) (901, 10, 5.00000000000000000000e-01) (901, 10, 5.00000000000000000000e-01) (901, 10, 5.00000000000000000000e-01) (901, 10, 5.00000000000000000000e-01) (901, 10, 5.00000000000000000000e-01) (901, 10, 5.00000000000000000000e-01) (901, 10, 5.00000000000000000000e-01) (901, 10, 5.00000000000000000000e-01) (901, 10, 5.00000000000000000000e-01) (901, 10, 5.00000000000000000000e-01) (901, 10, 5.00000000000000000000e-01) (901, 10, 5.00000000000000000000e-01) (901, 10, 5.00000000000000000000e-01) (901, 10, 5.00000000000000000000e-01) (901, 10, 5.00000000000000000000e-01) (0, 10, 0.00000000000000000000e+00) (101, 10, 5.00000000000000000000e-01) (101, 10, 5.00000000000000000000e-01) (101, 10, 5.00000000000000000000e-01) (101, 10, 5.00000000000000000000e-01) (101, 10, 5.00000000000000000000e-01) (101, 10, 5.00000000000000000000e-01) (101, 10, 5.00000000000000000000e-01) (101, 10, 5.00000000000000000000e-01) (101, 10, 5.00000000000000000000e-01) (101, 10, 5.00000000000000000000e-01) (101, 10, 5.00000000000000000000e-01) (101, 10, 5.00000000000000000000e-01) (101, 10, 5.00000000000000000000e-01) (101, 10, 5.00000000000000000000e-01) (101, 10, 5.00000000000000000000e-01) (101, 10, 5.00000000000000000000e-01) (101, 10, 5.00000000000000000000e-01) (101, 10, 5.00000000000000000000e-01) (101, 10, 5.00000000000000000000e-01) (101, 10, 5.00000000000000000000e-01) (101, 10, 5.00000000000000000000e-01) (101, 10, 5.00000000000000000000e-01) (101, 10, 5.00000000000000000000e-01) (101, 10, 5.00000000000000000000e-01) (101, 10, 5.00000000000000000000e-01) (101, 10, 5.00000000000000000000e-01) (101, 10, 5.00000000000000000000e-01) (101, 10, 5.00000000000000000000e-01) (101, 10, 5.00000000000000000000e-01) (101, 10, 5.00000000000000000000e-01) (101, 10, 5.00000000000000000000e-01) (101, 10, 5.00000000000000000000e-01) (101, 10, 5.00000000000000000000e-01) (101, 10, 5.00000000000000000000e-01) (101, 10, 5.00000000000000000000e-01) (101, 10, 5.00000000000000000000e-01) (0, 10, 0.00000000000000000000e+00) 
connections (connected_to_neuron, weight)=(0, 1.50000000000000000000e+03) (1, 1.50000000000000000000e+03) (2, 1.50000000000000000000e+03) (3, 1.50000000000000000000e+03) (4, 1.50000000000000000000e+03) (5, 1.50000000000000000000e+03) (6, 1.50000000000000000000e+03) (7, 1.50000000000000000000e+03) (8, 1.50000000000000000000e+03) (9, 1.50000000000000000000e+03) (10, 1.50000000000000000000e+03) (11, 1.50000000000000000000e+03) (12, 1.50000000000000000000e+03) (13, 1.49999926757812500000e+03) (14, 1.49996081542968750000e+03) (15, 1.49992687988281250000e+03) (16, -1.04996589660644531250e+02) (17, -1.48656738281250000000e+03) (18, -2.66570220947265625000e+02) (19, 6.69911813735961914062e+00) (20, 2.01786956787109375000e+01) (21, 1.50000000000000000000e+03) (22, 1.50000000000000000000e+03) (23, 1.50000000000000000000e+03) (24, 1.50000000000000000000e+03) (25, 1.50000000000000000000e+03) (26, 1.50000000000000000000e+03) (27, 1.50000000000000000000e+03) (28, 1.50000000000000000000e+03) (29, 1.50000000000000000000e+03) (30, 1.50000000000000000000e+03) (31, 1.50000000000000000000e+03) (32, 1.50000000000000000000e+03) (33, 1.50000000000000000000e+03) (34, 1.50000000000000000000e+03) (35, 1.50000000000000000000e+03) (36, 1.50000000000000000000e+03) (37, 1.50000000000000000000e+03) (38, 1.50000000000000000000e+03) (39, 1.50000000000000000000e+03) (40, 1.50000000000000000000e+03) (41, 1.50000000000000000000e+03) (42, 6.63211059570312500000e+01) (43, -1.48568884277343750000e+03) (44, -1.50000000000000000000e+03) (45, -1.50000000000000000000e+03) (46, -1.50000000000000000000e+03) (47, -1.50000000000000000000e+03) (48, -1.50000000000000000000e+03) (49, -1.50000000000000000000e+03) (50, -1.49118457031250000000e+03) (51, -1.49350732421875000000e+03) (52, 1.50000000000000000000e+03) (53, 1.50000000000000000000e+03) (54, 1.50000000000000000000e+03) (55, 1.50000000000000000000e+03) (56, 1.50000000000000000000e+03) (57, 1.50000000000000000000e+03) (58, 1.50000000000000000000e+03) (59, 1.50000000000000000000e+03) (60, 1.50000000000000000000e+03) (61, 1.50000000000000000000e+03) (62, 1.50000000000000000000e+03) (63, 1.50000000000000000000e+03) (64, 1.50000000000000000000e+03) (65, 1.50000000000000000000e+03) (66, 1.50000000000000000000e+03) (67, 1.50000000000000000000e+03) (68, 1.50000000000000000000e+03) (69, 1.50000000000000000000e+03) (70, 1.50000000000000000000e+03) (71, 5.16559204101562500000e+02) (72, -1.47202917480468750000e+03) (73, -1.50000000000000000000e+03) (74, -1.50000000000000000000e+03) (75, -1.50000000000000000000e+03) (76, -1.50000000000000000000e+03) (77, -1.50000000000000000000e+03) (78, -1.50000000000000000000e+03) (79, -1.50000000000000000000e+03) (80, -1.50000000000000000000e+03) (81, -1.50000000000000000000e+03) (82, -1.48812829589843750000e+03) (83, 1.49997863769531250000e+03) (84, 1.50000000000000000000e+03) (85, 1.50000000000000000000e+03) (86, 1.50000000000000000000e+03) (87, 1.50000000000000000000e+03) (88, 1.50000000000000000000e+03) (89, 1.50000000000000000000e+03) (90, 1.50000000000000000000e+03) (91, 1.50000000000000000000e+03) (92, 1.50000000000000000000e+03) (93, 1.50000000000000000000e+03) (94, 1.50000000000000000000e+03) (95, 1.50000000000000000000e+03) (96, 1.50000000000000000000e+03) (97, 1.50000000000000000000e+03) (98, 1.50000000000000000000e+03) (99, 1.50000000000000000000e+03) (100, 1.50000000000000000000e+03) (101, 1.50000000000000000000e+03) (102, 4.65442199707031250000e+01) (103, -1.48407214355468750000e+03) (104, -1.50000000000000000000e+03) (105, -1.50000000000000000000e+03) (106, -1.50000000000000000000e+03) (107, -1.50000000000000000000e+03) (108, -1.50000000000000000000e+03) (109, -1.50000000000000000000e+03) (110, -1.50000000000000000000e+03) (111, -1.50000000000000000000e+03) (112, -1.48812829589843750000e+03) (113, 1.49912561035156250000e+03) (114, 1.49971826171875000000e+03) (115, 1.50000000000000000000e+03) (116, 1.50000000000000000000e+03) (117, 1.50000000000000000000e+03) (118, 1.50000000000000000000e+03) (119, 1.50000000000000000000e+03) (120, 1.50000000000000000000e+03) (121, 1.50000000000000000000e+03) (122, 1.50000000000000000000e+03) (123, 1.50000000000000000000e+03) (124, 1.50000000000000000000e+03) (125, 1.50000000000000000000e+03) (126, 1.50000000000000000000e+03) (127, 1.50000000000000000000e+03) (128, 1.50000000000000000000e+03) (129, 1.50000000000000000000e+03) (130, 1.50000000000000000000e+03) (131, 1.50000000000000000000e+03) (132, 1.50000000000000000000e+03) (133, 2.71937255859375000000e+01) (134, -1.55470764160156250000e+02) (135, -1.49504638671875000000e+03) (136, -1.48985485839843750000e+03) (137, -1.50000000000000000000e+03) (138, -1.49504638671875000000e+03) (139, -1.46330529785156250000e+03) (140, -1.48684411621093750000e+03) (141, -1.48558142089843750000e+03) (142, 2.11211979389190673828e-01) (143, 1.49983044433593750000e+03) (144, 1.50000000000000000000e+03) (145, 1.50000000000000000000e+03) (146, 1.50000000000000000000e+03) (147, 1.50000000000000000000e+03) (148, 1.50000000000000000000e+03) (149, 1.50000000000000000000e+03) (150, 1.50000000000000000000e+03) (151, 1.50000000000000000000e+03) (152, 1.50000000000000000000e+03) (153, 1.50000000000000000000e+03) (154, 1.50000000000000000000e+03) (155, 1.50000000000000000000e+03) (156, 1.50000000000000000000e+03) (157, 1.50000000000000000000e+03) (158, 1.50000000000000000000e+03) (159, 1.50000000000000000000e+03) (160, 1.50000000000000000000e+03) (161, 1.50000000000000000000e+03) (162, 1.50000000000000000000e+03) (163, 1.50000000000000000000e+03) (164, 1.49999987792968750000e+03) (165, 1.49999987792968750000e+03) (166, 3.81560468673706054688e+00) (167, 1.65715646743774414062e+00) (168, 2.18856143951416015625e+00) (169, 1.50000000000000000000e+03) (170, 1.50000000000000000000e+03) (171, 1.50000000000000000000e+03) (172, 1.50000000000000000000e+03) (173, 1.50000000000000000000e+03) (174, 1.50000000000000000000e+03) (175, 1.50000000000000000000e+03) (176, 1.50000000000000000000e+03) (177, 1.50000000000000000000e+03) (178, 1.50000000000000000000e+03) (179, 1.50000000000000000000e+03) (180, 1.50000000000000000000e+03) (181, 1.50000000000000000000e+03) (182, 1.50000000000000000000e+03) (183, 1.50000000000000000000e+03) (184, 1.50000000000000000000e+03) (185, 1.50000000000000000000e+03) (186, 1.50000000000000000000e+03) (187, 1.50000000000000000000e+03) (188, 1.50000000000000000000e+03) (189, 1.50000000000000000000e+03) (190, 1.50000000000000000000e+03) (191, 1.50000000000000000000e+03) (192, 1.50000000000000000000e+03) (193, 1.50000000000000000000e+03) (194, 1.50000000000000000000e+03) (195, 1.50000000000000000000e+03) (196, 8.45888900756835937500e+01) (197, 1.82620096206665039062e+00) (198, 2.48414382934570312500e+02) (199, 1.50000000000000000000e+03) (200, 1.50000000000000000000e+03) (201, 1.50000000000000000000e+03) (202, 1.50000000000000000000e+03) (203, 1.50000000000000000000e+03) (204, 1.50000000000000000000e+03) (205, 1.50000000000000000000e+03) (206, 1.50000000000000000000e+03) (207, 1.50000000000000000000e+03) (208, 1.50000000000000000000e+03) (209, 1.50000000000000000000e+03) (210, 1.50000000000000000000e+03) (211, 1.50000000000000000000e+03) (212, 1.50000000000000000000e+03) (213, 1.50000000000000000000e+03) (214, 1.49999072265625000000e+03) (215, 1.50000000000000000000e+03) (216, 1.50000000000000000000e+03) (217, 1.50000000000000000000e+03) (218, 1.50000000000000000000e+03) (219, 1.50000000000000000000e+03) (220, 1.50000000000000000000e+03) (221, 1.50000000000000000000e+03) (222, 1.50000000000000000000e+03) (223, 1.50000000000000000000e+03) (224, 1.50000000000000000000e+03) (225, 1.58434417724609375000e+02) (226, 9.22302603721618652344e-01) (227, 8.15396428108215332031e-01) (228, 7.66413211822509765625e-01) (229, 7.27275037765502929688e+00) (230, 1.50000000000000000000e+03) (231, 1.50000000000000000000e+03) (232, 1.50000000000000000000e+03) (233, 1.50000000000000000000e+03) (234, 1.50000000000000000000e+03) (235, 1.50000000000000000000e+03) (236, 1.50000000000000000000e+03) (237, 1.50000000000000000000e+03) (238, 1.50000000000000000000e+03) (239, 1.50000000000000000000e+03) (240, 1.50000000000000000000e+03) (241, 1.50000000000000000000e+03) (242, 1.50000000000000000000e+03) (243, 1.50000000000000000000e+03) (244, 1.50000000000000000000e+03) (245, 1.50000000000000000000e+03) (246, 1.50000000000000000000e+03) (247, 1.50000000000000000000e+03) (248, 1.50000000000000000000e+03) (249, 1.50000000000000000000e+03) (250, 1.50000000000000000000e+03) (251, 1.50000000000000000000e+03) (252, 1.50000000000000000000e+03) (253, 1.50000000000000000000e+03) (254, 1.50000000000000000000e+03) (255, 8.58188476562500000000e+01) (256, 8.47160160541534423828e-01) (257, 9.99014258384704589844e-01) (258, 7.28391468524932861328e-01) (259, 6.83970451354980468750e-01) (260, 8.59062314033508300781e-01) (261, 1.50000000000000000000e+03) (262, 1.50000000000000000000e+03) (263, 1.50000000000000000000e+03) (264, 1.50000000000000000000e+03) (265, 1.50000000000000000000e+03) (266, 1.50000000000000000000e+03) (267, 1.50000000000000000000e+03) (268, 1.50000000000000000000e+03) (269, 1.50000000000000000000e+03) (270, 1.50000000000000000000e+03) (271, 1.50000000000000000000e+03) (272, 1.50000000000000000000e+03) (273, 1.50000000000000000000e+03) (274, 1.50000000000000000000e+03) (275, 1.50000000000000000000e+03) (276, 1.50000000000000000000e+03) (277, 1.50000000000000000000e+03) (278, 1.50000000000000000000e+03) (279, 1.50000000000000000000e+03) (280, 1.50000000000000000000e+03) (281, 1.50000000000000000000e+03) (282, 1.50000000000000000000e+03) (283, 1.50000000000000000000e+03) (284, 1.50000000000000000000e+03) (285, 1.50000000000000000000e+03) (286, 2.30259561538696289062e+00) (287, 6.50233507156372070312e-01) (288, 5.25664031505584716797e-01) (289, 5.24363279342651367188e-01) (290, 2.65254855155944824219e+00) (291, 1.50000000000000000000e+03) (292, 1.50000000000000000000e+03) (293, 1.50000000000000000000e+03) (294, 1.50000000000000000000e+03) (295, 1.50000000000000000000e+03) (296, 1.50000000000000000000e+03) (297, 1.50000000000000000000e+03) (298, 1.50000000000000000000e+03) (299, 1.50000000000000000000e+03) (300, 1.50000000000000000000e+03) (301, 1.50000000000000000000e+03) (302, 1.50000000000000000000e+03) (303, 1.50000000000000000000e+03) (304, 1.50000000000000000000e+03) (305, 1.50000000000000000000e+03) (306, 1.50000000000000000000e+03) (307, 1.50000000000000000000e+03) (308, 1.50000000000000000000e+03) (309, 1.50000000000000000000e+03) (310, 1.50000000000000000000e+03) (311, 1.50000000000000000000e+03) (312, 1.50000000000000000000e+03) (313, 1.50000000000000000000e+03) (314, 1.50000000000000000000e+03) (315, 1.50000000000000000000e+03) (316, 1.50000000000000000000e+03) (317, 1.40529108047485351562e+00) (318, 6.70164942741394042969e-01) (319, 7.78996586799621582031e-01) (320, 2.33899259567260742188e+00) (321, 1.50000000000000000000e+03) (322, 1.50000000000000000000e+03) (323, 1.50000000000000000000e+03) (324, 1.50000000000000000000e+03) (325, 1.50000000000000000000e+03) (326, 1.50000000000000000000e+03) (327, 1.50000000000000000000e+03) (328, 1.50000000000000000000e+03) (329, 1.50000000000000000000e+03) (330, 1.50000000000000000000e+03) (331, 1.50000000000000000000e+03) (332, 1.50000000000000000000e+03) (333, 1.50000000000000000000e+03) (334, 1.50000000000000000000e+03) (335, 1.50000000000000000000e+03) (336, 1.50000000000000000000e+03) (337, 1.50000000000000000000e+03) (338, 1.50000000000000000000e+03) (339, 1.50000000000000000000e+03) (340, 1.50000000000000000000e+03) (341, 1.50000000000000000000e+03) (342, 1.50000000000000000000e+03) (343, 1.50000000000000000000e+03) (344, 1.50000000000000000000e+03) (345, 1.50000000000000000000e+03) (346, 1.50000000000000000000e+03) (347, 6.73065368652343750000e+02) (348, 4.48643875122070312500e+00) (349, 2.06933331489562988281e+00) (350, 1.31980073451995849609e+00) (351, 2.41964359283447265625e+01) (352, 1.50000000000000000000e+03) (353, 1.50000000000000000000e+03) (354, 1.50000000000000000000e+03) (355, 1.50000000000000000000e+03) (356, 1.50000000000000000000e+03) (357, 1.50000000000000000000e+03) (358, 1.50000000000000000000e+03) (359, 1.50000000000000000000e+03) (360, 1.50000000000000000000e+03) (361, 1.50000000000000000000e+03) (362, 1.50000000000000000000e+03) (363, 1.50000000000000000000e+03) (364, 1.50000000000000000000e+03) (365, 1.50000000000000000000e+03) (366, 1.50000000000000000000e+03) (367, 1.50000000000000000000e+03) (368, 1.50000000000000000000e+03) (369, 1.50000000000000000000e+03) (370, 1.50000000000000000000e+03) (371, 1.50000000000000000000e+03) (372, 1.50000000000000000000e+03) (373, 1.50000000000000000000e+03) (374, 1.50000000000000000000e+03) (375, 1.50000000000000000000e+03) (376, 1.50000000000000000000e+03) (377, 1.50000000000000000000e+03) (378, 1.50000000000000000000e+03) (379, 5.90428009033203125000e+01) (380, 1.73813199996948242188e+00) (381, 4.42406749725341796875e+00) (382, 1.50000000000000000000e+03) (383, 1.50000000000000000000e+03) (384, 1.50000000000000000000e+03) (385, 1.50000000000000000000e+03) (386, 1.50000000000000000000e+03) (387, 1.50000000000000000000e+03) (388, 1.50000000000000000000e+03) (389, 1.50000000000000000000e+03) (390, 1.50000000000000000000e+03) (391, 1.50000000000000000000e+03) (392, 1.50000000000000000000e+03) (393, 1.50000000000000000000e+03) (394, 1.50000000000000000000e+03) (395, 1.50000000000000000000e+03) (396, 1.50000000000000000000e+03) (397, 1.50000000000000000000e+03) (398, 1.50000000000000000000e+03) (399, 1.50000000000000000000e+03) (400, 1.50000000000000000000e+03) (401, 1.50000000000000000000e+03) (402, 1.50000000000000000000e+03) (403, 1.50000000000000000000e+03) (404, 1.50000000000000000000e+03) (405, 1.50000000000000000000e+03) (406, 1.50000000000000000000e+03) (407, 1.50000000000000000000e+03) (408, 1.50000000000000000000e+03) (409, 1.50000000000000000000e+03) (410, 8.96739125251770019531e-01) (411, -1.04823693847656250000e+03) (412, 1.14759254455566406250e+00) (413, 1.50000000000000000000e+03) (414, 1.50000000000000000000e+03) (415, 1.50000000000000000000e+03) (416, 1.50000000000000000000e+03) (417, 1.50000000000000000000e+03) (418, 1.50000000000000000000e+03) (419, 1.50000000000000000000e+03) (420, 1.50000000000000000000e+03) (421, 1.50000000000000000000e+03) (422, 1.50000000000000000000e+03) (423, 1.50000000000000000000e+03) (424, 1.50000000000000000000e+03) (425, 1.50000000000000000000e+03) (426, 1.50000000000000000000e+03) (427, 1.50000000000000000000e+03) (428, 1.50000000000000000000e+03) (429, 1.50000000000000000000e+03) (430, 1.50000000000000000000e+03) (431, 1.50000000000000000000e+03) (432, 1.50000000000000000000e+03) (433, 1.50000000000000000000e+03) (434, 1.50000000000000000000e+03) (435, 1.50000000000000000000e+03) (436, 1.50000000000000000000e+03) (437, 1.50000000000000000000e+03) (438, 1.50000000000000000000e+03) (439, 1.50000000000000000000e+03) (440, 1.38361001014709472656e+00) (441, -1.48772058105468750000e+03) (442, -1.52643632888793945312e+01) (443, -3.45498740673065185547e-01) (444, 1.50000000000000000000e+03) (445, 1.50000000000000000000e+03) (446, 1.50000000000000000000e+03) (447, 1.50000000000000000000e+03) (448, 1.50000000000000000000e+03) (449, 1.50000000000000000000e+03) (450, 1.50000000000000000000e+03) (451, 1.50000000000000000000e+03) (452, 1.50000000000000000000e+03) (453, 1.50000000000000000000e+03) (454, 1.50000000000000000000e+03) (455, 1.50000000000000000000e+03) (456, 1.50000000000000000000e+03) (457, 1.50000000000000000000e+03) (458, 1.50000000000000000000e+03) (459, 1.50000000000000000000e+03) (460, 1.50000000000000000000e+03) (461, 1.50000000000000000000e+03) (462, 1.50000000000000000000e+03) (463, 1.50000000000000000000e+03) (464, 1.50000000000000000000e+03) (465, 1.50000000000000000000e+03) (466, 1.50000000000000000000e+03) (467, 1.50000000000000000000e+03) (468, 1.50000000000000000000e+03) (469, 1.50000000000000000000e+03) (470, 3.51700425148010253906e-01) (471, -1.88402557373046875000e+01) (472, -2.87073588371276855469e+00) (473, -1.04508224487304687500e+02) (474, 1.50000000000000000000e+03) (475, 1.50000000000000000000e+03) (476, 1.50000000000000000000e+03) (477, 1.50000000000000000000e+03) (478, 1.50000000000000000000e+03) (479, 1.50000000000000000000e+03) (480, 1.50000000000000000000e+03) (481, 1.50000000000000000000e+03) (482, 1.50000000000000000000e+03) (483, 1.50000000000000000000e+03) (484, 1.50000000000000000000e+03) (485, 1.50000000000000000000e+03) (486, 1.50000000000000000000e+03) (487, 1.50000000000000000000e+03) (488, 1.50000000000000000000e+03) (489, 1.50000000000000000000e+03) (490, 1.50000000000000000000e+03) (491, 1.50000000000000000000e+03) (492, 1.50000000000000000000e+03) (493, 1.50000000000000000000e+03) (494, 1.50000000000000000000e+03) (495, 1.50000000000000000000e+03) (496, 1.50000000000000000000e+03) (497, 1.50000000000000000000e+03) (498, 1.50000000000000000000e+03) (499, 1.64617279052734375000e+02) (500, 1.98892545700073242188e+00) (501, -1.49955346679687500000e+03) (502, -1.45764038085937500000e+03) (503, -1.45507666015625000000e+03) (504, -1.08379096984863281250e+01) (505, 3.58692359924316406250e+01) (506, 1.50000000000000000000e+03) (507, 1.50000000000000000000e+03) (508, 1.50000000000000000000e+03) (509, 1.50000000000000000000e+03) (510, 1.50000000000000000000e+03) (511, 1.50000000000000000000e+03) (512, 1.50000000000000000000e+03) (513, 1.50000000000000000000e+03) (514, 1.50000000000000000000e+03) (515, 1.50000000000000000000e+03) (516, 1.50000000000000000000e+03) (517, 1.50000000000000000000e+03) (518, 1.50000000000000000000e+03) (519, 1.50000000000000000000e+03) (520, 1.50000000000000000000e+03) (521, 1.50000000000000000000e+03) (522, 1.50000000000000000000e+03) (523, 1.50000000000000000000e+03) (524, 1.50000000000000000000e+03) (525, 1.50000000000000000000e+03) (526, 1.50000000000000000000e+03) (527, 1.50000000000000000000e+03) (528, 1.50000000000000000000e+03) (529, 1.50000000000000000000e+03) (530, 7.81316947937011718750e+00) (531, -3.05654382705688476562e+00) (532, -1.35378112792968750000e+02) (533, -1.45596789550781250000e+03) (534, -6.21736259460449218750e+01) (535, 1.34225778579711914062e+01) (536, 1.50000000000000000000e+03) (537, 1.50000000000000000000e+03) (538, 1.50000000000000000000e+03) (539, 1.50000000000000000000e+03) (540, 1.49817443847656250000e+02) (541, 3.92845611572265625000e+02) (542, 1.50000000000000000000e+03) (543, 1.50000000000000000000e+03) (544, 1.50000000000000000000e+03) (545, 1.50000000000000000000e+03) (546, 1.50000000000000000000e+03) (547, 1.50000000000000000000e+03) (548, 1.50000000000000000000e+03) (549, 1.50000000000000000000e+03) (550, 1.50000000000000000000e+03) (551, 1.50000000000000000000e+03) (552, 1.50000000000000000000e+03) (553, 1.50000000000000000000e+03) (554, 1.50000000000000000000e+03) (555, 1.50000000000000000000e+03) (556, 1.50000000000000000000e+03) (557, 1.50000000000000000000e+03) (558, 1.50000000000000000000e+03) (559, 1.50000000000000000000e+03) (560, 2.78788665771484375000e+02) (561, 9.88615894317626953125e+00) (562, 9.73061263561248779297e-01) (563, -2.23286843299865722656e+00) (564, 2.09895782470703125000e+01) (565, 1.50000000000000000000e+03) (566, 1.50000000000000000000e+03) (567, 1.50000000000000000000e+03) (568, 1.50000000000000000000e+03) (569, 1.50000000000000000000e+03) (570, 6.05872421264648437500e+01) (571, 3.33057518005371093750e+01) (572, 5.46766319274902343750e+01) (573, 1.50000000000000000000e+03) (574, 1.50000000000000000000e+03) (575, 1.50000000000000000000e+03) (576, 1.50000000000000000000e+03) (577, 1.50000000000000000000e+03) (578, 1.50000000000000000000e+03) (579, 1.50000000000000000000e+03) (580, 1.50000000000000000000e+03) (581, 1.50000000000000000000e+03) (582, 1.50000000000000000000e+03) (583, 1.50000000000000000000e+03) (584, 1.50000000000000000000e+03) (585, 1.50000000000000000000e+03) (586, 1.50000000000000000000e+03) (587, 1.50000000000000000000e+03) (588, 1.50000000000000000000e+03) (589, 1.50000000000000000000e+03) (590, 1.50000000000000000000e+03) (591, 5.83907531738281250000e+02) (592, 1.50000000000000000000e+03) (593, 1.50000000000000000000e+03) (594, 1.50000000000000000000e+03) (595, 1.50000000000000000000e+03) (596, 1.50000000000000000000e+03) (597, 1.50000000000000000000e+03) (598, 1.50000000000000000000e+03) (599, 1.50000000000000000000e+03) (600, 5.33700141906738281250e+01) (601, 2.75614585876464843750e+01) (602, 1.48166465759277343750e+01) (603, 5.55629394531250000000e+02) (604, 1.50000000000000000000e+03) (605, 1.50000000000000000000e+03) (606, 1.50000000000000000000e+03) (607, 1.50000000000000000000e+03) (608, 1.50000000000000000000e+03) (609, 1.50000000000000000000e+03) (610, 1.50000000000000000000e+03) (611, 1.50000000000000000000e+03) (612, 1.50000000000000000000e+03) (613, 1.50000000000000000000e+03) (614, 1.50000000000000000000e+03) (615, 1.49994860839843750000e+03) (616, 1.49986010742187500000e+03) (617, 1.50000000000000000000e+03) (618, 1.50000000000000000000e+03) (619, 1.50000000000000000000e+03) (620, 1.50000000000000000000e+03) (621, 1.50000000000000000000e+03) (622, 1.50000000000000000000e+03) (623, 1.50000000000000000000e+03) (624, 1.50000000000000000000e+03) (625, 1.50000000000000000000e+03) (626, 1.50000000000000000000e+03) (627, 1.50000000000000000000e+03) (628, 1.50000000000000000000e+03) (629, 1.50000000000000000000e+03) (630, 1.83762989044189453125e+01) (631, 6.82023048400878906250e+00) (632, 1.48825187683105468750e+01) (633, 5.76592529296875000000e+02) (634, 1.50000000000000000000e+03) (635, 1.50000000000000000000e+03) (636, 1.50000000000000000000e+03) (637, 1.50000000000000000000e+03) (638, 1.50000000000000000000e+03) (639, 1.50000000000000000000e+03) (640, 1.50000000000000000000e+03) (641, 1.50000000000000000000e+03) (642, 1.50000000000000000000e+03) (643, 1.50000000000000000000e+03) (644, 1.50000000000000000000e+03) (645, 1.50000000000000000000e+03) (646, 1.50000000000000000000e+03) (647, 1.50000000000000000000e+03) (648, 1.50000000000000000000e+03) (649, 1.50000000000000000000e+03) (650, 1.50000000000000000000e+03) (651, 1.50000000000000000000e+03) (652, 1.50000000000000000000e+03) (653, 1.50000000000000000000e+03) (654, 1.50000000000000000000e+03) (655, 1.50000000000000000000e+03) (656, 1.50000000000000000000e+03) (657, 1.50000000000000000000e+03) (658, 1.50000000000000000000e+03) (659, 1.50000000000000000000e+03) (660, 2.55496883392333984375e+01) (661, 1.13676815032958984375e+01) (662, 2.19274806976318359375e+01) (663, 5.27654846191406250000e+02) (664, 1.21834204101562500000e+03) (665, 1.50000000000000000000e+03) (666, 1.50000000000000000000e+03) (667, 1.50000000000000000000e+03) (668, 1.50000000000000000000e+03) (669, 1.50000000000000000000e+03) (670, 1.50000000000000000000e+03) (671, 1.50000000000000000000e+03) (672, 1.50000000000000000000e+03) (673, 1.50000000000000000000e+03) (674, 1.49981933593750000000e+03) (675, 1.50000000000000000000e+03) (676, 1.50000000000000000000e+03) (677, 1.50000000000000000000e+03) (678, 1.50000000000000000000e+03) (679, 1.50000000000000000000e+03) (680, 1.50000000000000000000e+03) (681, 1.50000000000000000000e+03) (682, 1.50000000000000000000e+03) (683, 1.50000000000000000000e+03) (684, 1.50000000000000000000e+03) (685, 1.50000000000000000000e+03) (686, 1.50000000000000000000e+03) (687, 1.50000000000000000000e+03) (688, 1.50000000000000000000e+03) (689, 1.50000000000000000000e+03) (690, 5.16978950500488281250e+01) (691, 3.62598876953125000000e+02) (692, 7.30065774917602539062e+00) (693, 1.50000000000000000000e+03) (694, 1.50000000000000000000e+03) (695, 1.50000000000000000000e+03) (696, 1.50000000000000000000e+03) (697, 1.50000000000000000000e+03) (698, 1.50000000000000000000e+03) (699, 1.50000000000000000000e+03) (700, 1.50000000000000000000e+03) (701, 1.50000000000000000000e+03) (702, 1.50000000000000000000e+03) (703, 1.50000000000000000000e+03) (704, 1.50000000000000000000e+03) (705, 1.50000000000000000000e+03) (706, 1.50000000000000000000e+03) (707, 1.50000000000000000000e+03) (708, 1.50000000000000000000e+03) (709, 1.50000000000000000000e+03) (710, 1.50000000000000000000e+03) (711, 1.50000000000000000000e+03) (712, 1.50000000000000000000e+03) (713, 1.50000000000000000000e+03) (714, 1.50000000000000000000e+03) (715, 1.50000000000000000000e+03) (716, 1.50000000000000000000e+03) (717, 1.50000000000000000000e+03) (718, 1.50000000000000000000e+03) (719, 1.50000000000000000000e+03) (720, 1.50000000000000000000e+03) (721, 1.50000000000000000000e+03) (722, 1.50000000000000000000e+03) (723, 1.50000000000000000000e+03) (724, 1.50000000000000000000e+03) (725, 1.50000000000000000000e+03) (726, 1.50000000000000000000e+03) (727, 1.50000000000000000000e+03) (728, 1.50000000000000000000e+03) (729, 1.50000000000000000000e+03) (730, 1.50000000000000000000e+03) (731, 1.50000000000000000000e+03) (732, 1.50000000000000000000e+03) (733, 1.50000000000000000000e+03) (734, 1.50000000000000000000e+03) (735, 1.50000000000000000000e+03) (736, 1.50000000000000000000e+03) (737, 1.50000000000000000000e+03) (738, 1.50000000000000000000e+03) (739, 1.50000000000000000000e+03) (740, 1.50000000000000000000e+03) (741, 1.50000000000000000000e+03) (742, 1.50000000000000000000e+03) (743, 1.50000000000000000000e+03) (744, 1.50000000000000000000e+03) (745, 1.50000000000000000000e+03) (746, 1.50000000000000000000e+03) (747, 1.50000000000000000000e+03) (748, 1.50000000000000000000e+03) (749, 1.50000000000000000000e+03) (750, 1.50000000000000000000e+03) (751, 1.50000000000000000000e+03) (752, 1.50000000000000000000e+03) (753, 1.50000000000000000000e+03) (754, 1.50000000000000000000e+03) (755, 1.50000000000000000000e+03) (756, 1.50000000000000000000e+03) (757, 1.50000000000000000000e+03) (758, 1.50000000000000000000e+03) (759, 1.50000000000000000000e+03) (760, 1.50000000000000000000e+03) (761, 1.50000000000000000000e+03) (762, 1.50000000000000000000e+03) (763, 1.50000000000000000000e+03) (764, 1.50000000000000000000e+03) (765, 1.50000000000000000000e+03) (766, 1.50000000000000000000e+03) (767, 1.50000000000000000000e+03) (768, 1.50000000000000000000e+03) (769, 1.50000000000000000000e+03) (770, 1.50000000000000000000e+03) (771, 1.50000000000000000000e+03) (772, 1.50000000000000000000e+03) (773, 1.50000000000000000000e+03) (774, 1.50000000000000000000e+03) (775, 1.50000000000000000000e+03) (776, 1.50000000000000000000e+03) (777, 1.50000000000000000000e+03) (778, 1.50000000000000000000e+03) (779, 1.50000000000000000000e+03) (780, 1.50000000000000000000e+03) (781, 1.50000000000000000000e+03) (782, 1.50000000000000000000e+03) (783, 1.50000000000000000000e+03) (784, 1.50000000000000000000e+03) (785, 1.50000000000000000000e+03) (786, 1.50000000000000000000e+03) (787, 1.50000000000000000000e+03) (788, 1.50000000000000000000e+03) (789, 1.50000000000000000000e+03) (790, 1.49999987792968750000e+03) (791, 1.49999951171875000000e+03) (792, 3.08031630516052246094e+00) (793, 7.66887366771697998047e-01) (794, 6.61422848701477050781e-01) (795, 3.88081836700439453125e+00) (796, 1.49999987792968750000e+03) (797, 1.49999987792968750000e+03) (798, 1.50000000000000000000e+03) (799, 1.50000000000000000000e+03) (800, 1.50000000000000000000e+03) (801, 1.50000000000000000000e+03) (802, 1.50000000000000000000e+03) (803, 1.50000000000000000000e+03) (804, 1.50000000000000000000e+03) (805, 1.50000000000000000000e+03) (806, 1.50000000000000000000e+03) (807, 1.50000000000000000000e+03) (808, 1.50000000000000000000e+03) (809, 1.50000000000000000000e+03) (810, 1.50000000000000000000e+03) (811, 1.50000000000000000000e+03) (812, 1.50000000000000000000e+03) (813, 1.50000000000000000000e+03) (814, 1.50000000000000000000e+03) (815, 1.50000000000000000000e+03) (816, 1.50000000000000000000e+03) (817, 1.50000000000000000000e+03) (818, 1.50000000000000000000e+03) (819, 3.80793121337890625000e+02) (820, -1.49746533203125000000e+03) (821, -1.50000000000000000000e+03) (822, -1.50000000000000000000e+03) (823, -1.50000000000000000000e+03) (824, -1.50000000000000000000e+03) (825, -1.50000000000000000000e+03) (826, -1.50000000000000000000e+03) (827, -1.50000000000000000000e+03) (828, -1.50000000000000000000e+03) (829, -1.50000000000000000000e+03) (830, -1.50000000000000000000e+03) (831, -1.49859460449218750000e+03) (832, 1.50000000000000000000e+03) (833, 1.50000000000000000000e+03) (834, 1.50000000000000000000e+03) (835, 1.50000000000000000000e+03) (836, 1.50000000000000000000e+03) (837, 1.50000000000000000000e+03) (838, 1.50000000000000000000e+03) (839, 1.50000000000000000000e+03) (840, 1.50000000000000000000e+03) (841, 1.50000000000000000000e+03) (842, 1.50000000000000000000e+03) (843, 1.50000000000000000000e+03) (844, 1.50000000000000000000e+03) (845, 1.50000000000000000000e+03) (846, 1.50000000000000000000e+03) (847, 1.50000000000000000000e+03) (848, 1.50000000000000000000e+03) (849, 1.50000000000000000000e+03) (850, -1.49828930664062500000e+03) (851, -1.50000000000000000000e+03) (852, -1.50000000000000000000e+03) (853, -1.50000000000000000000e+03) (854, -1.50000000000000000000e+03) (855, -1.50000000000000000000e+03) (856, -1.50000000000000000000e+03) (857, -1.50000000000000000000e+03) (858, -1.50000000000000000000e+03) (859, -1.50000000000000000000e+03) (860, -1.50000000000000000000e+03) (861, -1.49933703613281250000e+03) (862, 1.50000000000000000000e+03) (863, 1.50000000000000000000e+03) (864, 1.50000000000000000000e+03) (865, 1.50000000000000000000e+03) (866, 1.50000000000000000000e+03) (867, 1.50000000000000000000e+03) (868, 1.50000000000000000000e+03) (869, 1.50000000000000000000e+03) (870, 1.50000000000000000000e+03) (871, 1.50000000000000000000e+03) (872, 1.50000000000000000000e+03) (873, 1.50000000000000000000e+03) (874, 1.50000000000000000000e+03) (875, 1.50000000000000000000e+03) (876, 1.50000000000000000000e+03) (877, 1.50000000000000000000e+03) (878, 1.50000000000000000000e+03) (879, 1.50000000000000000000e+03) (880, 2.17350459098815917969e+00) (881, -1.49875634765625000000e+03) (882, -1.49035974121093750000e+03) (883, -1.50000000000000000000e+03) (884, -1.50000000000000000000e+03) (885, -1.50000000000000000000e+03) (886, -1.50000000000000000000e+03) (887, -1.50000000000000000000e+03) (888, -1.50000000000000000000e+03) (889, -1.50000000000000000000e+03) (890, 6.69150451660156250000e+02) (891, 1.50000000000000000000e+03) (892, 1.50000000000000000000e+03) (893, 1.50000000000000000000e+03) (894, 1.50000000000000000000e+03) (895, 1.50000000000000000000e+03) (896, 1.50000000000000000000e+03) (897, 1.50000000000000000000e+03) (898, 1.50000000000000000000e+03) (899, 1.50000000000000000000e+03) (900, 1.50000000000000000000e+03) (0, -2.12236233055591583252e-02) (1, 1.74656361341476440430e-02) (2, -6.97718635201454162598e-02) (3, 1.27942878752946853638e-02) (4, 7.06994980573654174805e-02) (5, 8.71229767799377441406e-02) (6, -3.53828258812427520752e-02) (7, -8.44101309776306152344e-02) (8, -4.35346066951751708984e-02) (9, 7.78105333447456359863e-02) (10, -1.77527405321598052979e-02) (11, -8.61531943082809448242e-02) (12, 1.27519508823752403259e-02) (13, -7.39425420761108398438e-02) (14, -8.54955390095710754395e-02) (15, -2.21537873148918151855e-02) (16, -8.14807340502738952637e-02) (17, -1.17425411939620971680e-01) (18, -7.41689950227737426758e-02) (19, 1.19673553854227066040e-02) (20, -1.30503594875335693359e-01) (21, -1.72392949461936950684e-02) (22, -7.81634524464607238770e-02) (23, 4.80015128850936889648e-02) (24, 9.55426227301359176636e-03) (25, 9.32630151510238647461e-04) (26, -4.53713675960898399353e-03) (27, -1.15007460117340087891e-01) (28, -2.53334697335958480835e-02) (29, -1.40330418944358825684e-01) (30, -1.51678407564759254456e-03) (31, 1.37949496507644653320e-01) (32, 7.25762844085693359375e-02) (33, 6.98718950152397155762e-02) (34, 6.54112249612808227539e-02) (35, 4.46554459631443023682e-02) (36, 3.73342409729957580566e-02) (37, 7.48547911643981933594e-02) (38, 7.13108759373426437378e-03) (39, 6.52903094887733459473e-02) (40, 3.85083816945552825928e-02) (41, 8.25752541422843933105e-02) (42, 8.12809169292449951172e-02) (43, -3.87556776404380798340e-02) (44, -7.58772194385528564453e-02) (45, -1.07541851699352264404e-01) (46, 3.65875400602817535400e-02) (47, -5.88939264416694641113e-02) (48, -7.52419158816337585449e-02) (49, -1.14656209945678710938e-01) (50, -1.21525146067142486572e-01) (51, -8.53410363197326660156e-02) (52, 1.18897743523120880127e-02) (53, -5.07616475224494934082e-02) (54, -7.89362043142318725586e-02) (55, -2.01373081654310226440e-02) (56, -9.84881743788719177246e-02) (57, 5.23384772241115570068e-02) (58, -2.84331152215600013733e-03) (59, 3.53852612897753715515e-03) (60, 1.01302973926067352295e-01) (61, 1.46019339561462402344e-01) (62, 1.21074408292770385742e-01) (63, 1.30402848124504089355e-01) (64, 2.89309501647949218750e-01) (65, 1.60226359963417053223e-01) (66, 2.90622651576995849609e-01) (67, 2.22342178225517272949e-01) (68, 1.05383820831775665283e-01) (69, -7.87641387432813644409e-03) (70, 1.28275617957115173340e-01) (71, 7.15990513563156127930e-02) (72, -5.74665591120719909668e-02) (73, 3.31521406769752502441e-02) (74, -7.79588073492050170898e-02) (75, -1.70105740427970886230e-01) (76, -1.36427029967308044434e-01) (77, -1.66694477200508117676e-01) (78, -1.52659565210342407227e-01) (79, -1.20289884507656097412e-01) (80, -1.65850237011909484863e-01) (81, -1.10670737922191619873e-01) (82, -2.10953980684280395508e-01) (83, -1.62229627370834350586e-01) (84, 1.18855074048042297363e-01) (85, -6.59127384424209594727e-02) (86, 4.89661470055580139160e-02) (87, 9.87120419740676879883e-02) (88, -1.01866751909255981445e-01) (89, -5.29851987957954406738e-02) (90, 5.85354194045066833496e-02) (91, 1.22621126472949981689e-01) (92, 5.01552298665046691895e-02) (93, 9.72512215375900268555e-02) (94, 2.67470955848693847656e-01) (95, 2.92720675468444824219e-01) (96, 3.44668209552764892578e-01) (97, 2.64780759811401367188e-01) (98, 1.48261949419975280762e-01) (99, -2.65143901109695434570e-01) (100, -2.68873900175094604492e-01) (101, -2.57381677627563476562e-01) (102, -7.13807567954063415527e-02) (103, -6.29491731524467468262e-02) (104, 1.58562771975994110107e-02) (105, -1.52561366558074951172e-01) (106, -5.17356470227241516113e-02) (107, -5.49718439579010009766e-02) (108, -5.05702421069145202637e-02) (109, 9.77467894554138183594e-02) (110, -9.90123003721237182617e-02) (111, -6.62573501467704772949e-02) (112, -1.35685816407203674316e-01) (113, -6.19263090193271636963e-02) (114, 2.17112898826599121094e-02) (115, -2.55516115576028823853e-02) (116, 1.22885154560208320618e-02) (117, 8.87260138988494873047e-02) (118, -3.22550088167190551758e-02) (119, -2.97031551599502563477e-02) (120, -3.61286848783493041992e-02) (121, -6.78706243634223937988e-02) (122, 2.88255736231803894043e-02) (123, 1.12663395702838897705e-01) (124, 1.61006063222885131836e-01) (125, 2.08114713430404663086e-01) (126, 1.64988413453102111816e-01) (127, 6.64016008377075195312e-02) (128, 4.44262884557247161865e-02) (129, -1.55972719192504882812e-01) (130, -1.69777981936931610107e-02) (131, -1.50441706180572509766e-01) (132, -8.78242328763008117676e-02) (133, -1.10577829182147979736e-01) (134, -5.37466146051883697510e-02) (135, -9.49796363711357116699e-02) (136, -1.15491956472396850586e-01) (137, -1.43386095762252807617e-01) (138, -1.38246163725852966309e-01) (139, -5.82676604390144348145e-02) (140, -1.67449116706848144531e-01) (141, 5.85354864597320556641e-02) (142, -9.30254533886909484863e-03) (143, -9.07372403889894485474e-03) (144, -9.21261496841907501221e-03) (145, 2.36434936523437500000e-01) (146, 2.83579975366592407227e-01) (147, 8.11501070857048034668e-02) (148, 1.93620789796113967896e-02) (149, -5.38350977003574371338e-02) (150, 9.60128232836723327637e-02) (151, -8.41896012425422668457e-02) (152, 1.49183245375752449036e-02) (153, 3.04065868258476257324e-02) (154, 1.07602551579475402832e-01) (155, 2.59853124618530273438e-01) (156, -1.35814860463142395020e-01) (157, -1.15293256938457489014e-01) (158, -6.34139850735664367676e-02) (159, 1.75344441086053848267e-02) (160, -1.41878053545951843262e-01) (161, -1.50384172797203063965e-01) (162, -9.44457501173019409180e-02) (163, -5.17864013090729713440e-03) (164, -1.90965935587882995605e-01) (165, -3.80074009299278259277e-02) (166, -1.61527782678604125977e-01) (167, -1.93626526743173599243e-02) (168, -2.98022869974374771118e-02) (169, -1.33367687463760375977e-01) (170, -1.67940959334373474121e-01) (171, -2.73463185876607894897e-02) (172, 7.24505726248025894165e-03) (173, 7.63008221983909606934e-02) (174, 1.78999766707420349121e-01) (175, 2.75660037994384765625e-01) (176, 9.10928025841712951660e-02) (177, -5.90213574469089508057e-03) (178, -5.04699721932411193848e-02) (179, -6.10157027840614318848e-02) (180, 2.27025877684354782104e-02) (181, -4.78816926479339599609e-02) (182, -2.56745368242263793945e-02) (183, -5.41553422808647155762e-02) (184, 5.80356679856777191162e-02) (185, -1.24888747930526733398e-01) (186, 1.68847907334566116333e-02) (187, 6.64645060896873474121e-02) (188, -1.00387983024120330811e-01) (189, -5.36626242101192474365e-02) (190, -5.56797534227371215820e-03) (191, -6.04108683764934539795e-02) (192, 6.47300109267234802246e-02) (193, 1.73142284154891967773e-01) (194, 1.38341365382075309753e-02) (195, 1.13716393709182739258e-01) (196, 9.16718915104866027832e-02) (197, -2.13353475555777549744e-03) (198, 2.23961509764194488525e-02) (199, 5.45795001089572906494e-02) (200, -3.37993577122688293457e-02) (201, -2.06733960658311843872e-02) (202, -9.17428508400917053223e-02) (203, 3.85209880769252777100e-02) (204, 3.23197990655899047852e-02) (205, 8.60475078225135803223e-02) (206, 6.73698410391807556152e-02) (207, -1.81126222014427185059e-02) (208, 6.50266259908676147461e-02) (209, 1.97748430073261260986e-02) (210, -2.10644723847508430481e-03) (211, -2.61044520884752273560e-02) (212, 8.13949480652809143066e-02) (213, 8.92603918910026550293e-02) (214, 2.20191031694412231445e-02) (215, -5.62592893838882446289e-02) (216, -2.11222618818283081055e-02) (217, 7.22544174641370773315e-03) (218, -3.17008383572101593018e-02) (219, 9.09699946641921997070e-02) (220, -1.37709900736808776855e-01) (221, 3.85003443807363510132e-03) (222, 5.67660108208656311035e-02) (223, -4.43891575559973716736e-03) (224, 1.35264933109283447266e-01) (225, 3.84617671370506286621e-02) (226, 7.77665898203849792480e-02) (227, 1.31809547543525695801e-01) (228, 1.36322334408760070801e-01) (229, 1.81105062365531921387e-01) (230, 2.73375213146209716797e-02) (231, 1.39006510376930236816e-01) (232, 1.39871120452880859375e-01) (233, 7.69900456070899963379e-02) (234, 8.03630799055099487305e-02) (235, 7.14426636695861816406e-02) (236, 1.99638679623603820801e-01) (237, 1.65197744965553283691e-01) (238, 1.42955765128135681152e-01) (239, 1.28735288977622985840e-01) (240, -6.28675520420074462891e-02) (241, 6.33335188031196594238e-02) (242, 6.27910569310188293457e-02) (243, -6.14321455359458923340e-02) (244, -5.17657175660133361816e-02) (245, -8.82381126284599304199e-02) (246, -4.09095175564289093018e-02) (247, 2.63304878026247024536e-02) (248, 8.69629457592964172363e-02) (249, -8.69097113609313964844e-02) (250, -1.69822890311479568481e-02) (251, 1.95220082998275756836e-01) (252, 1.04357339441776275635e-02) (253, -1.00098690018057823181e-02) (254, 1.41899794340133666992e-01) (255, -4.33441549539566040039e-02) (256, 4.36999797821044921875e-02) (257, 1.22759021818637847900e-01) (258, 1.35750666260719299316e-01) (259, 4.81317043304443359375e-02) (260, 1.32988363504409790039e-01) (261, 1.63631469011306762695e-01) (262, 1.71986490488052368164e-01) (263, 6.09055832028388977051e-02) (264, 2.30623871088027954102e-01) (265, 2.24424764513969421387e-01) (266, 1.07627429068088531494e-01) (267, 2.26571425795555114746e-01) (268, 1.79350271821022033691e-01) (269, 1.52731329202651977539e-01) (270, -8.04919824004173278809e-02) (271, 4.01612296700477600098e-02) (272, -4.83924262225627899170e-02) (273, -1.19588501751422882080e-01) (274, -8.99690091609954833984e-02) (275, -2.53776580095291137695e-01) (276, -1.71335339546203613281e-01) (277, 2.43125502020120620728e-02) (278, 6.22845143079757690430e-02) (279, -3.82050834596157073975e-02) (280, -2.51257268246263265610e-04) (281, 9.98508334159851074219e-02) (282, 5.00247366726398468018e-02) (283, 1.45774453878402709961e-01) (284, 4.17672879993915557861e-02) (285, 2.13194522075355052948e-03) (286, 1.00651696324348449707e-01) (287, 1.83453649282455444336e-01) (288, 1.77834242582321166992e-01) (289, 1.08799986541271209717e-01) (290, 4.34083491563796997070e-02) (291, 1.03351466357707977295e-01) (292, 5.85035905241966247559e-02) (293, 1.94240927696228027344e-01) (294, 1.40903830528259277344e-01) (295, 8.04181769490242004395e-02) (296, 2.46791139245033264160e-01) (297, 2.38961011171340942383e-01) (298, 1.95725336670875549316e-01) (299, 6.99091330170631408691e-02) (300, -6.35222941637039184570e-02) (301, 5.64138218760490417480e-02) (302, -1.35996058583259582520e-01) (303, 2.74836849421262741089e-02) (304, -2.58266299962997436523e-01) (305, -5.94890005886554718018e-02) (306, -2.08952546119689941406e-01) (307, -1.44145917147397994995e-02) (308, 4.77818213403224945068e-02) (309, 8.66124927997589111328e-02) (310, 2.08347924053668975830e-02) (311, 5.64114190638065338135e-02) (312, 7.58607462048530578613e-02) (313, -6.29896074533462524414e-02) (314, -7.25940391421318054199e-02) (315, 1.16562597453594207764e-01) (316, -1.49613432586193084717e-02) (317, 1.58384174108505249023e-01) (318, 1.77762001752853393555e-01) (319, 4.41757440567016601562e-02) (320, 7.00202733278274536133e-02) (321, 2.08058103919029235840e-01) (322, 1.26409038901329040527e-01) (323, 1.09615325927734375000e-01) (324, 1.96743220090866088867e-01) (325, 1.05903185904026031494e-01) (326, 1.95106759667396545410e-01) (327, 1.83798328042030334473e-01) (328, 2.00800120830535888672e-01) (329, 8.93406420946121215820e-02) (330, 1.92256476730108261108e-02) (331, -9.29205939173698425293e-02) (332, -6.66851922869682312012e-02) (333, 3.39732766151428222656e-02) (334, -2.54692107439041137695e-01) (335, -1.50066480040550231934e-01) (336, -5.63646852970123291016e-02) (337, 9.90813411772251129150e-03) (338, 9.36188101768493652344e-02) (339, 1.64063111878931522369e-03) (340, -1.29872441291809082031e-01) (341, 6.85097426176071166992e-02) (342, 6.35607466101646423340e-02) (343, 6.33306847885251045227e-03) (344, 5.07736280560493469238e-02) (345, 6.63145110011100769043e-02) (346, 1.62414442747831344604e-02) (347, 1.60538330674171447754e-01) (348, 8.13174620270729064941e-02) (349, 2.14661210775375366211e-02) (350, 1.51926549151539802551e-02) (351, 1.51245281100273132324e-01) (352, 4.04191873967647552490e-02) (353, 1.38518124818801879883e-01) (354, 7.16460496187210083008e-02) (355, 2.60776668787002563477e-01) (356, 2.11237296462059020996e-01) (357, 2.23520949482917785645e-01) (358, 1.01874575018882751465e-01) (359, 1.10749274492263793945e-01) (360, -8.94381478428840637207e-02) (361, -6.98179006576538085938e-02) (362, 3.42688038945198059082e-02) (363, -1.19610214605927467346e-02) (364, -1.63631096482276916504e-01) (365, 3.01825292408466339111e-02) (366, 1.66495323181152343750e-01) (367, 1.00850194692611694336e-01) (368, -8.61128121614456176758e-02) (369, 5.01227602362632751465e-02) (370, 6.96314945816993713379e-02) (371, -4.71961498260498046875e-02) (372, -4.87143509089946746826e-02) (373, 9.93780791759490966797e-02) (374, 7.85798113793134689331e-03) (375, -1.66518855839967727661e-02) (376, 1.13708093762397766113e-01) (377, 1.36114969849586486816e-01) (378, 1.64839312434196472168e-01) (379, 2.84128021448850631714e-02) (380, 1.89916208386421203613e-01) (381, 1.96077615022659301758e-01) (382, 1.98404148221015930176e-01) (383, 3.11907548457384109497e-02) (384, 1.41882419586181640625e-01) (385, 1.08786262571811676025e-01) (386, 2.68294960260391235352e-01) (387, 1.14624008536338806152e-01) (388, 1.88818469643592834473e-01) (389, 8.81820991635322570801e-02) (390, 3.00392489880323410034e-02) (391, -1.11404575407505035400e-01) (392, 8.13638977706432342529e-03) (393, -1.93638708442449569702e-02) (394, -6.52832537889480590820e-02) (395, -3.88265736401081085205e-02) (396, -1.15099251270294189453e-01) (397, -3.09306953568011522293e-04) (398, 1.26638850197196006775e-02) (399, -8.72260034084320068359e-02) (400, 4.93640936911106109619e-02) (401, 1.02715209126472473145e-01) (402, 2.33344919979572296143e-02) (403, 8.00618529319763183594e-02) (404, 1.00011505186557769775e-01) (405, 1.38794064521789550781e-01) (406, 1.14665858447551727295e-01) (407, 9.80679839849472045898e-02) (408, 1.25378012657165527344e-01) (409, 1.24926805496215820312e-01) (410, 1.54307544231414794922e-01) (411, 1.07181504368782043457e-01) (412, 1.30680888891220092773e-01) (413, 1.70875564217567443848e-01) (414, 1.54193744063377380371e-01) (415, 7.07764476537704467773e-02) (416, 2.02006801962852478027e-01) (417, 1.56614273786544799805e-01) (418, 1.08799219131469726562e-01) (419, 1.63580492138862609863e-01) (420, -1.03824578225612640381e-01) (421, -7.37319588661193847656e-02) (422, 5.27030080556869506836e-02) (423, 2.07898858934640884399e-02) (424, -5.58285750448703765869e-02) (425, -1.39867871999740600586e-01) (426, -1.32989743724465370178e-02) (427, -9.61668789386749267578e-02) (428, 6.76504373550415039062e-02) (429, 1.72280780971050262451e-02) (430, 6.48040100932121276855e-02) (431, 3.46001214347779750824e-03) (432, -3.53767238557338714600e-02) (433, 1.63393661379814147949e-01) (434, 1.66615292429924011230e-01) (435, 1.65430411696434020996e-01) (436, 1.52470484375953674316e-01) (437, 1.27527311444282531738e-01) (438, 1.04994386434555053711e-01) (439, 8.41355100274085998535e-02) (440, 4.34122756123542785645e-02) (441, 5.39038740098476409912e-02) (442, 1.28705743700265884399e-02) (443, 8.43423977494239807129e-03) (444, 4.46427389979362487793e-02) (445, 1.87906101346015930176e-01) (446, -7.05315992236137390137e-02) (447, -1.09406001865863800049e-01) (448, -3.30293402075767517090e-02) (449, 2.48163635842502117157e-03) (450, 6.30938261747360229492e-02) (451, 1.05472309514880180359e-02) (452, -1.15373536944389343262e-01) (453, 3.53434123098850250244e-02) (454, -1.96463912725448608398e-01) (455, -6.90172836184501647949e-02) (456, -6.74675479531288146973e-02) (457, 5.18974140286445617676e-02) (458, 6.60493746399879455566e-02) (459, 3.84633243083953857422e-02) (460, 1.72038286924362182617e-01) (461, 5.54540455341339111328e-02) (462, 6.61671757698059082031e-02) (463, 1.74737215042114257812e-01) (464, 6.09771981835365295410e-02) (465, -9.30615738034248352051e-02) (466, 7.22406990826129913330e-03) (467, -1.46262466907501220703e-01) (468, -1.66801407933235168457e-01) (469, -6.99736103415489196777e-02) (470, -2.32376959174871444702e-02) (471, -6.26240000128746032715e-02) (472, 4.36370037496089935303e-02) (473, 2.99961734563112258911e-02) (474, -3.62562686204910278320e-02) (475, -1.23010635375976562500e-01) (476, 3.93024040386080741882e-03) (477, -3.24244238436222076416e-02) (478, -1.34378328919410705566e-01) (479, -1.16062976419925689697e-01) (480, -1.14443460479378700256e-02) (481, -8.55351164937019348145e-02) (482, -1.18528261780738830566e-01) (483, -6.86714705079793930054e-03) (484, -1.06120854616165161133e-01) (485, -1.66978746652603149414e-01) (486, -2.97603867948055267334e-02) (487, -4.77599911391735076904e-02) (488, -4.97709847986698150635e-02) (489, 7.62524157762527465820e-02) (490, 8.98487269878387451172e-02) (491, 5.39946816861629486084e-02) (492, 1.52586683630943298340e-01) (493, 1.84766426682472229004e-01) (494, 6.17096051573753356934e-02) (495, -1.07797980308532714844e-01) (496, -9.64404195547103881836e-02) (497, -1.18110150098800659180e-01) (498, -5.15025556087493896484e-02) (499, -2.33357250690460205078e-01) (500, -1.93841814994812011719e-01) (501, -3.12674492597579956055e-01) (502, -2.02317789196968078613e-01) (503, -1.86702817678451538086e-01) (504, -2.82700330018997192383e-01) (505, -3.65547180175781250000e-01) (506, -2.45913818478584289551e-01) (507, -2.66070991754531860352e-01) (508, -1.73359736800193786621e-01) (509, -1.63830861449241638184e-01) (510, -9.72163006663322448730e-02) (511, -3.19751515053212642670e-03) (512, -6.70815482735633850098e-02) (513, -9.83043387532234191895e-02) (514, -2.50417768955230712891e-01) (515, -2.36549243330955505371e-01) (516, 1.39682386070489883423e-02) (517, 3.05574238300323486328e-02) (518, 9.74578317254781723022e-03) (519, 8.40548276901245117188e-02) (520, 2.11094066500663757324e-01) (521, 2.24704429507255554199e-01) (522, 7.27488994598388671875e-02) (523, 1.87943011522293090820e-01) (524, 2.23066329956054687500e-01) (525, 1.24706961214542388916e-01) (526, 8.52713212370872497559e-02) (527, -7.27477148175239562988e-02) (528, 2.45959125459194183350e-02) (529, -6.41555041074752807617e-02) (530, -4.92971576750278472900e-02) (531, -6.29651248455047607422e-02) (532, -6.66581094264984130859e-02) (533, -5.68768344819545745850e-02) (534, -4.95115518569946289062e-01) (535, -3.25608789920806884766e-01) (536, -2.90301859378814697266e-01) (537, -4.10907566547393798828e-01) (538, -1.28678679466247558594e-01) (539, -4.44104261696338653564e-02) (540, -9.42426845431327819824e-02) (541, -4.59552817046642303467e-02) (542, -6.60020932555198669434e-02) (543, -4.18735295534133911133e-02) (544, -1.81910410523414611816e-01) (545, -1.41956686973571777344e-01) (546, 4.47346009314060211182e-02) (547, -5.40962927043437957764e-02) (548, -4.84512522816658020020e-02) (549, 4.03980091214179992676e-02) (550, 2.76331663131713867188e-01) (551, 8.12649205327033996582e-02) (552, 1.62550702691078186035e-01) (553, 1.35821238160133361816e-01) (554, 2.50797361135482788086e-01) (555, 7.68415778875350952148e-02) (556, 1.66841298341751098633e-01) (557, 1.80193528532981872559e-01) (558, 7.21438303589820861816e-02) (559, 7.44473859667778015137e-02) (560, -1.19125835597515106201e-01) (561, 1.48038193583488464355e-02) (562, -2.85014137625694274902e-02) (563, -1.10093951225280761719e-01) (564, -2.76742070913314819336e-01) (565, -2.82333433628082275391e-01) (566, -4.51508432626724243164e-01) (567, -3.10944706201553344727e-01) (568, -1.99158668518066406250e-01) (569, -1.43163695931434631348e-01) (570, -2.21414715051651000977e-02) (571, -9.22034159302711486816e-02) (572, 1.46359894424676895142e-02) (573, 1.90147161483764648438e-02) (574, -1.26770123839378356934e-01) (575, -2.05074265599250793457e-01) (576, -3.90794388949871063232e-02) (577, 4.23410208895802497864e-03) (578, 2.88019608706235885620e-02) (579, 8.39215964078903198242e-02) (580, 1.81238800287246704102e-01) (581, 1.23596534132957458496e-01) (582, 1.41925349831581115723e-01) (583, 1.98403760790824890137e-01) (584, 1.53055936098098754883e-01) (585, 8.88712629675865173340e-02) (586, 1.76832333207130432129e-01) (587, 2.34421908855438232422e-01) (588, 1.82066529989242553711e-01) (589, 1.73922434449195861816e-01) (590, 6.36586919426918029785e-02) (591, 1.59678921103477478027e-01) (592, -1.12957894802093505859e-01) (593, -1.94967880845069885254e-01) (594, -1.56478226184844970703e-01) (595, -3.13996881246566772461e-01) (596, -2.63468354940414428711e-01) (597, -3.60008627176284790039e-01) (598, -9.62623804807662963867e-02) (599, -2.04294487833976745605e-01) (600, 3.80564182996749877930e-02) (601, -1.18556141853332519531e-01) (602, -9.52327996492385864258e-02) (603, -4.92689013481140136719e-02) (604, -8.66318345069885253906e-02) (605, -9.41283181309700012207e-02) (606, 4.78558912873268127441e-02) (607, 2.82389353960752487183e-02) (608, 1.30551829934120178223e-01) (609, 2.10390537977218627930e-01) (610, 2.32019558548927307129e-01) (611, 1.77616253495216369629e-01) (612, 9.59411114454269409180e-02) (613, 1.89423426985740661621e-01) (614, 2.36515477299690246582e-01) (615, 1.39976829290390014648e-01) (616, 1.62706300616264343262e-01) (617, 1.09094336628913879395e-01) (618, 1.04583971202373504639e-01) (619, 1.07874959707260131836e-01) (620, 4.14863638579845428467e-02) (621, 1.18671201169490814209e-01) (622, -1.31202310323715209961e-01) (623, -3.09361983090639114380e-02) (624, -7.66694322228431701660e-02) (625, -1.80848732590675354004e-01) (626, -2.36813679337501525879e-01) (627, -2.06354126334190368652e-01) (628, -9.60795879364013671875e-02) (629, -1.46114185452461242676e-01) (630, 1.96288339793682098389e-02) (631, -1.08018733561038970947e-01) (632, -1.10810577869415283203e-01) (633, 2.69473996013402938843e-02) (634, -1.56500265002250671387e-01) (635, 3.05066946893930435181e-02) (636, 1.55112132430076599121e-01) (637, 9.29609611630439758301e-02) (638, 2.31949865818023681641e-01) (639, 1.19707532227039337158e-01) (640, 1.32985711097717285156e-01) (641, 1.19520053267478942871e-01) (642, 2.23054498434066772461e-01) (643, 9.82415750622749328613e-02) (644, 2.06342220306396484375e-01) (645, 1.55599683523178100586e-01) (646, 1.62759140133857727051e-01) (647, 1.08480095863342285156e-01) (648, 2.29755528271198272705e-02) (649, 2.13821288198232650757e-02) (650, 1.46274954080581665039e-01) (651, 1.27945467829704284668e-02) (652, -1.01164728403091430664e-01) (653, -9.66761484742164611816e-02) (654, -1.20520040392875671387e-01) (655, -2.19978258013725280762e-01) (656, -3.14874798059463500977e-01) (657, -2.14413896203041076660e-01) (658, -9.78605151176452636719e-02) (659, -8.43229964375495910645e-02) (660, 1.21966740116477012634e-02) (661, 6.41188099980354309082e-02) (662, -3.90269905328750610352e-02) (663, 1.21248541399836540222e-02) (664, -5.82151859998703002930e-02) (665, -1.72964259982109069824e-01) (666, 6.57153800129890441895e-02) (667, 1.26253232359886169434e-01) (668, 2.03520581126213073730e-02) (669, 2.07974478602409362793e-01) (670, 2.64051914215087890625e-01) (671, 1.18883244693279266357e-01) (672, 1.98821157217025756836e-01) (673, 1.65863037109375000000e-01) (674, 1.33563295006752014160e-01) (675, 1.30601257085800170898e-01) (676, 6.18585050106048583984e-02) (677, 5.65841384232044219971e-02) (678, 1.38767501339316368103e-02) (679, 5.98140358924865722656e-02) (680, 2.92449444532394409180e-02) (681, 1.51669085025787353516e-01) (682, -1.39843389391899108887e-01) (683, -1.29537612199783325195e-01) (684, -1.17645114660263061523e-01) (685, 1.94946601986885070801e-02) (686, -1.87545731663703918457e-01) (687, -2.66830980777740478516e-01) (688, -8.12917873263359069824e-02) (689, 2.97851227223873138428e-02) (690, 1.92551910877227783203e-02) (691, -1.23911060392856597900e-01) (692, 5.13235069811344146729e-02) (693, -1.04667142033576965332e-01) (694, -9.30583924055099487305e-02) (695, -2.48360913246870040894e-02) (696, -2.77428478002548217773e-02) (697, 6.34749010205268859863e-02) (698, 3.12463734298944473267e-02) (699, 3.93440462648868560791e-02) (700, 2.53421574831008911133e-01) (701, 2.38504827022552490234e-01) (702, 1.77851974964141845703e-01) (703, 1.82514175772666931152e-01) (704, 1.34851098060607910156e-01) (705, 5.67815154790878295898e-02) (706, 6.97560310363769531250e-02) (707, 1.70263066887855529785e-01) (708, 9.73261669278144836426e-02) (709, 6.31563067436218261719e-02) (710, 2.42856275290250778198e-02) (711, -9.63098555803298950195e-02) (712, -1.92756414413452148438e-01) (713, -1.10563784837722778320e-01) (714, -2.45048273354768753052e-02) (715, -3.04735004901885986328e-01) (716, -2.36098170280456542969e-01) (717, -1.99824601411819458008e-01) (718, 3.85601408779621124268e-02) (719, 1.29415391711518168449e-04) (720, 6.70651393011212348938e-03) (721, 4.98603377491235733032e-03) (722, 3.08048613369464874268e-02) (723, -2.41104867309331893921e-02) (724, -2.95208599418401718140e-02) (725, -4.98461239039897918701e-02) (726, -9.92896035313606262207e-02) (727, 1.81340619921684265137e-01) (728, 2.30124741792678833008e-01) (729, 1.83998607099056243896e-02) (730, -1.23750092461705207825e-02) (731, 2.45874434709548950195e-01) (732, 1.05353228747844696045e-01) (733, 3.85285876691341400146e-02) (734, 1.67106345295906066895e-01) (735, 1.83890804648399353027e-01) (736, 5.95907494425773620605e-02) (737, 9.93440952152013778687e-03) (738, 1.37822836637496948242e-01) (739, 1.46514102816581726074e-01) (740, -1.20387285947799682617e-01) (741, -1.36483222246170043945e-01) (742, -1.70291751623153686523e-01) (743, -1.45475804805755615234e-01) (744, -1.08853533864021301270e-01) (745, -3.43160867691040039062e-01) (746, -2.79227703809738159180e-01) (747, 7.35350996255874633789e-02) (748, -9.91053730249404907227e-02) (749, -1.20074696838855743408e-01) (750, 2.98072919249534606934e-02) (751, 4.49624396860599517822e-02) (752, 3.16085889935493469238e-02) (753, 3.50121688097715377808e-03) (754, -1.18546076118946075439e-01) (755, 2.54026986658573150635e-02) (756, 2.02642202377319335938e-01) (757, 3.88560652732849121094e-01) (758, 6.77855759859085083008e-02) (759, -4.35983389616012573242e-02) (760, -8.61295834183692932129e-02) (761, 8.45587477087974548340e-02) (762, -7.84982293844223022461e-02) (763, 9.44839417934417724609e-02) (764, 2.19974964857101440430e-01) (765, 1.87574163079261779785e-01) (766, 4.90075945854187011719e-02) (767, 5.10196797549724578857e-02) (768, -2.37983297556638717651e-02) (769, -2.86087617278099060059e-02) (770, -2.18440845608711242676e-01) (771, -3.54563057422637939453e-01) (772, -8.81375223398208618164e-02) (773, -1.14164583384990692139e-01) (774, -2.37022593617439270020e-01) (775, -3.73720139265060424805e-01) (776, -2.28424802422523498535e-01) (777, -1.19790881872177124023e-01) (778, -1.16041958332061767578e-01) (779, -9.95358005166053771973e-02) (780, -8.73949155211448669434e-02) (781, 4.51825745403766632080e-02) (782, 5.59364296495914459229e-02) (783, 8.50317850708961486816e-02) (784, -2.73176841437816619873e-02) (785, -1.72066718339920043945e-01) (786, 2.44936674833297729492e-01) (787, -1.68754145503044128418e-01) (788, 8.71929004788398742676e-02) (789, -5.85397146642208099365e-02) (790, -4.20982483774423599243e-03) (791, 5.69530837237834930420e-02) (792, -1.17193512618541717529e-01) (793, 1.06773488223552703857e-02) (794, -9.52595993876457214355e-02) (795, -1.49008348584175109863e-01) (796, -1.25962197780609130859e-01) (797, -1.66317373514175415039e-01) (798, -2.08513379096984863281e-01) (799, -1.94361075758934020996e-01) (800, -2.27318286895751953125e-01) (801, -2.58066177368164062500e-01) (802, -1.03395707905292510986e-01) (803, 6.45625293254852294922e-02) (804, 4.21057641506195068359e-02) (805, 4.01770360767841339111e-02) (806, -4.41165715456008911133e-02) (807, -7.32503905892372131348e-02) (808, -2.92707551270723342896e-02) (809, 6.87301754951477050781e-02) (810, -5.18663004040718078613e-02) (811, -1.76949482411146163940e-02) (812, 2.70162448287010192871e-02) (813, -6.27858638763427734375e-02) (814, -1.53477592393755912781e-02) (815, -7.61534497141838073730e-02) (816, -9.41994860768318176270e-02) (817, -2.39130690693855285645e-01) (818, -2.07369208335876464844e-01) (819, -2.09970369935035705566e-01) (820, -3.01832497119903564453e-01) (821, -7.73002281785011291504e-02) (822, -3.46986167132854461670e-02) (823, -7.71935135126113891602e-02) (824, -1.90761119127273559570e-01) (825, -8.22874829173088073730e-02) (826, -1.76543027162551879883e-01) (827, -1.40617683529853820801e-01) (828, -2.41691529750823974609e-01) (829, -1.65128022432327270508e-01) (830, 1.63606684654951095581e-02) (831, -1.17654681205749511719e-01) (832, 7.51391276717185974121e-02) (833, 1.55535280704498291016e-01) (834, -4.00657504796981811523e-01) (835, -4.94350260123610496521e-03) (836, -1.27649798989295959473e-01) (837, -6.13411962985992431641e-02) (838, -5.65911456942558288574e-02) (839, -8.33021625876426696777e-02) (840, 3.81848625838756561279e-02) (841, 1.21110938489437103271e-01) (842, 1.40856310725212097168e-01) (843, 1.28244295716285705566e-01) (844, 1.72388255596160888672e-01) (845, -9.01261717081069946289e-02) (846, 3.47663648426532745361e-02) (847, -9.61616262793540954590e-03) (848, -1.76019027829170227051e-01) (849, -2.54719763994216918945e-01) (850, -1.60698622465133666992e-01) (851, -2.53538370132446289062e-01) (852, -1.78760856389999389648e-01) (853, -2.51776307821273803711e-01) (854, -1.93268671631813049316e-01) (855, -3.19092154502868652344e-01) (856, 1.66786704212427139282e-02) (857, -2.11028475314378738403e-02) (858, -1.47291854023933410645e-01) (859, -1.74174711108207702637e-01) (860, -1.01239196956157684326e-01) (861, -1.20599053800106048584e-01) (862, -7.25655555725097656250e-02) (863, 4.04419898986816406250e-02) (864, 3.34966811351478099823e-04) (865, -4.02663871645927429199e-02) (866, -1.87123551964759826660e-01) (867, -1.01897688582539558411e-02) (868, -4.15219925343990325928e-02) (869, 5.25360889732837677002e-02) (870, -2.05381046980619430542e-02) (871, 2.89178714156150817871e-02) (872, 7.45899975299835205078e-02) (873, 4.68059927225112915039e-02) (874, 1.37434735894203186035e-01) (875, 2.27863132953643798828e-01) (876, -6.59052506089210510254e-02) (877, -6.14281147718429565430e-02) (878, -4.43963035941123962402e-02) (879, -6.43842965364456176758e-02) (880, -1.16928350180387496948e-02) (881, 6.95707201957702636719e-02) (882, -2.07999125123023986816e-01) (883, -1.13687165081501007080e-01) (884, -8.84343087673187255859e-02) (885, 7.97637552022933959961e-02) (886, 7.26447859779000282288e-03) (887, -1.15322262048721313477e-01) (888, 3.88379767537117004395e-02) (889, 5.07050044834613800049e-02) (890, 4.84557002782821655273e-02) (891, 2.07633852958679199219e-01) (892, 2.10831478238105773926e-01) (893, -2.05062329769134521484e-02) (894, 2.03985851258039474487e-02) (895, 3.25883622281253337860e-03) (896, 7.00845271348953247070e-02) (897, -4.99104335904121398926e-02) (898, 7.67139494419097900391e-02) (899, -9.49018299579620361328e-02) (900, -1.03369861841201782227e-01) (0, 4.26786727905273437500e+01) (1, 1.35841156005859375000e+02) (2, 1.50000000000000000000e+03) (3, 1.50000000000000000000e+03) (4, 1.50000000000000000000e+03) (5, 1.50000000000000000000e+03) (6, 1.50000000000000000000e+03) (7, 1.50000000000000000000e+03) (8, 1.50000000000000000000e+03) (9, 1.49994592285156250000e+03) (10, 1.50000000000000000000e+03) (11, 4.63014564514160156250e+01) (12, 2.96089477539062500000e+01) (13, -1.47173461914062500000e+03) (14, -1.50000000000000000000e+03) 