FANN_FLO_2.1
num_layers=3
learning_rate=0.700000
connection_rate=1.000000
network_type=0
learning_momentum=0.000000
training_algorithm=2
train_error_function=1
train_stop_function=0
cascade_output_change_fraction=0.010000
quickprop_decay=-0.000100
quickprop_mu=1.750000
rprop_increase_factor=1.200000
rprop_decrease_factor=0.500000
rprop_delta_min=0.000000
rprop_delta_max=50.000000
rprop_delta_zero=0.100000
cascade_output_stagnation_epochs=12
cascade_candidate_change_fraction=0.010000
cascade_candidate_stagnation_epochs=12
cascade_max_out_epochs=150
cascade_max_cand_epochs=150
cascade_num_candidate_groups=2
bit_fail_limit=3.49999994039535522461e-01
cascade_candidate_limit=1.00000000000000000000e+03
cascade_weight_multiplier=4.00000005960464477539e-01
cascade_activation_functions_count=10
cascade_activation_functions=3 5 7 8 10 11 14 15 16 17 
cascade_activation_steepnesses_count=4
cascade_activation_steepnesses=2.50000000000000000000e-01 5.00000000000000000000e-01 7.50000000000000000000e-01 1.00000000000000000000e+00 
layer_sizes=901 101 37 
scale_included=0
neurons (num_inputs, activation_function, activation_steepness)=(0, 0, 0.00000000000000000000e+00) (0, 0, 0.00000000000000000000e+00) (0, 0, 0.00000000000000000000e+00) (0, 0, 0.00000000000000000000e+00) (0, 0, 0.00000000000000000000e+00) (0, 0, 0.00000000000000000000e+00) (0, 0, 0.00000000000000000000e+00) (0, 0, 0.00000000000000000000e+00) (0, 0, 0.00000000000000000000e+00) (0, 0, 0.00000000000000000000e+00) (0, 0, 0.00000000000000000000e+00) (0, 0, 0.00000000000000000000e+00) (0, 0, 0.00000000000000000000e+00) (0, 0, 0.00000000000000000000e+00) (0, 0, 0.00000000000000000000e+00) (0, 0, 0.00000000000000000000e+00) (0, 0, 0.00000000000000000000e+00) (0, 0, 0.00000000000000000000e+00) (0, 0, 0.00000000000000000000e+00) (0, 0, 0.00000000000000000000e+00) (0, 0, 0.00000000000000000000e+00) (0, 0, 0.00000000000000000000e+00) (0, 0, 0.00000000000000000000e+00) (0, 0, 0.00000000000000000000e+00) (0, 0, 0.00000000000000000000e+00) (0, 0, 0.00000000000000000000e+00) (0, 0, 0.00000000000000000000e+00) (0, 0, 0.00000000000000000000e+00) (0, 0, 0.00000000000000000000e+00) (0, 0, 0.00000000000000000000e+00) (0, 0, 0.00000000000000000000e+00) (0, 0, 0.00000000000000000000e+00) (0, 0, 0.00000000000000000000e+00) (0, 0, 0.00000000000000000000e+00) (0, 0, 0.00000000000000000000e+00) (0, 0, 0.00000000000000000000e+00) (0, 0, 0.00000000000000000000e+00) (0, 0, 0.00000000000000000000e+00) (0, 0, 0.00000000000000000000e+00) (0, 0, 0.00000000000000000000e+00) (0, 0, 0.00000000000000000000e+00) (0, 0, 0.00000000000000000000e+00) (0, 0, 0.00000000000000000000e+00) (0, 0, 0.00000000000000000000e+00) (0, 0, 0.00000000000000000000e+00) (0, 0, 0.00000000000000000000e+00) (0, 0, 0.00000000000000000000e+00) (0, 0, 0.00000000000000000000e+00) (0, 0, 0.00000000000000000000e+00) (0, 0, 0.00000000000000000000e+00) (0, 0, 0.00000000000000000000e+00) (0, 0, 0.00000000000000000000e+00) (0, 0, 0.00000000000000000000e+00) (0, 0, 0.00000000000000000000e+00) (0, 0, 0.00000000000000000000e+00) (0, 0, 0.00000000000000000000e+00) (0, 0, 0.00000000000000000000e+00) (0, 0, 0.00000000000000000000e+00) (0, 0, 0.00000000000000000000e+00) (0, 0, 0.00000000000000000000e+00) (0, 0, 0.00000000000000000000e+00) (0, 0, 0.00000000000000000000e+00) (0, 0, 0.00000000000000000000e+00) (0, 0, 0.00000000000000000000e+00) (0, 0, 0.00000000000000000000e+00) (0, 0, 0.00000000000000000000e+00) (0, 0, 0.00000000000000000000e+00) (0, 0, 0.00000000000000000000e+00) (0, 0, 0.00000000000000000000e+00) (0, 0, 0.00000000000000000000e+00) (0, 0, 0.00000000000000000000e+00) (0, 0, 0.00000000000000000000e+00) (0, 0, 0.00000000000000000000e+00) (0, 0, 0.00000000000000000000e+00) (0, 0, 0.00000000000000000000e+00) (0, 0, 0.00000000000000000000e+00) (0, 0, 0.00000000000000000000e+00) (0, 0, 0.00000000000000000000e+00) (0, 0, 0.00000000000000000000e+00) (0, 0, 0.00000000000000000000e+00) (0, 0, 0.00000000000000000000e+00) (0, 0, 0.00000000000000000000e+00) (0, 0, 0.00000000000000000000e+00) (0, 0, 0.00000000000000000000e+00) (0, 0, 0.00000000000000000000e+00) (0, 0, 0.00000000000000000000e+00) (0, 0, 0.00000000000000000000e+00) (0, 0, 0.00000000000000000000e+00) (0, 0, 0.00000000000000000000e+00) (0, 0, 0.00000000000000000000e+00) (0, 0, 0.00000000000000000000e+00) (0, 0, 0.00000000000000000000e+00) (0, 0, 0.00000000000000000000e+00) (0, 0, 0.00000000000000000000e+00) (0, 0, 0.00000000000000000000e+00) (0, 0, 0.00000000000000000000e+00) (0, 0, 0.00000000000000000000e+00) (0, 0, 0.00000000000000000000e+00) (0, 0, 0.00000000000000000000e+00) (0, 0, 0.00000000000000000000e+00) (0, 0, 0.00000000000000000000e+00) (0, 0, 0.00000000000000000000e+00) (0, 0, 0.00000000000000000000e+00) (0, 0, 0.00000000000000000000e+00) (0, 0, 0.00000000000000000000e+00) (0, 0, 0.00000000000000000000e+00) (0, 0, 0.00000000000000000000e+00) (0, 0, 0.00000000000000000000e+00) (0, 0, 0.00000000000000000000e+00) (0, 0, 0.00000000000000000000e+00) (0, 0, 0.00000000000000000000e+00) (0, 0, 0.00000000000000000000e+00) (0, 0, 0.00000000000000000000e+00) (0, 0, 0.00000000000000000000e+00) (0, 0, 0.00000000000000000000e+00) (0, 0, 0.00000000000000000000e+00) (0, 0, 0.00000000000000000000e+00) (0, 0, 0.00000000000000000000e+00) (0, 0, 0.00000000000000000000e+00) (0, 0, 0.00000000000000000000e+00) (0, 0, 0.00000000000000000000e+00) (0, 0, 0.00000000000000000000e+00) (0, 0, 0.00000000000000000000e+00) (0, 0, 0.00000000000000000000e+00) (0, 0, 0.00000000000000000000e+00) (0, 0, 0.00000000000000000000e+00) (0, 0, 0.00000000000000000000e+00) (0, 0, 0.00000000000000000000e+00) (0, 0, 0.00000000000000000000e+00) (0, 0, 0.00000000000000000000e+00) (0, 0, 0.00000000000000000000e+00) (0, 0, 0.00000000000000000000e+00) (0, 0, 0.00000000000000000000e+00) (0, 0, 0.00000000000000000000e+00) (0, 0, 0.00000000000000000000e+00) (0, 0, 0.00000000000000000000e+00) (0, 0, 0.00000000000000000000e+00) (0, 0, 0.00000000000000000000e+00) (0, 0, 0.00000000000000000000e+00) (0, 0, 0.00000000000000000000e+00) (0, 0, 0.00000000000000000000e+00) (0, 0, 0.00000000000000000000e+00) (0, 0, 0.00000000000000000000e+00) (0, 0, 0.00000000000000000000e+00) (0, 0, 0.00000000000000000000e+00) (0, 0, 0.00000000000000000000e+00) (0, 0, 0.00000000000000000000e+00) (0, 0, 0.00000000000000000000e+00) (0, 0, 0.00000000000000000000e+00) (0, 0, 0.00000000000000000000e+00) (0, 0, 0.00000000000000000000e+00) (0, 0, 0.00000000000000000000e+00) (0, 0, 0.00000000000000000000e+00) (0, 0, 0.00000000000000000000e+00) (0, 0, 0.00000000000000000000e+00) (0, 0, 0.00000000000000000000e+00) (0, 0, 0.00000000000000000000e+00) (0, 0, 0.00000000000000000000e+00) (0, 0, 0.00000000000000000000e+00) (0, 0, 0.00000000000000000000e+00) (0, 0, 0.00000000000000000000e+00) (0, 0, 0.00000000000000000000e+00) (0, 0, 0.00000000000000000000e+00) (0, 0, 0.00000000000000000000e+00) (0, 0, 0.00000000000000000000e+00) (0, 0, 0.00000000000000000000e+00) (0, 0, 0.00000000000000000000e+00) (0, 0, 0.00000000000000000000e+00) (0, 0, 0.00000000000000000000e+00) (0, 0, 0.00000000000000000000e+00) (0, 0, 0.00000000000000000000e+00) (0, 0, 0.00000000000000000000e+00) (0, 0, 0.00000000000000000000e+00) (0, 0, 0.00000000000000000000e+00) (0, 0, 0.00000000000000000000e+00) (0, 0, 0.00000000000000000000e+00) (0, 0, 0.00000000000000000000e+00) (0, 0, 0.00000000000000000000e+00) (0, 0, 0.00000000000000000000e+00) (0, 0, 0.00000000000000000000e+00) (0, 0, 0.00000000000000000000e+00) (0, 0, 0.00000000000000000000e+00) (0, 0, 0.00000000000000000000e+00) (0, 0, 0.00000000000000000000e+00) (0, 0, 0.00000000000000000000e+00) (0, 0, 0.00000000000000000000e+00) (0, 0, 0.00000000000000000000e+00) (0, 0, 0.00000000000000000000e+00) (0, 0, 0.00000000000000000000e+00) (0, 0, 0.00000000000000000000e+00) (0, 0, 0.00000000000000000000e+00) (0, 0, 0.00000000000000000000e+00) (0, 0, 0.00000000000000000000e+00) (0, 0, 0.00000000000000000000e+00) (0, 0, 0.00000000000000000000e+00) (0, 0, 0.00000000000000000000e+00) (0, 0, 0.00000000000000000000e+00) (0, 0, 0.00000000000000000000e+00) (0, 0, 0.00000000000000000000e+00) (0, 0, 0.00000000000000000000e+00) (0, 0, 0.00000000000000000000e+00) (0, 0, 0.00000000000000000000e+00) (0, 0, 0.00000000000000000000e+00) (0, 0, 0.00000000000000000000e+00) (0, 0, 0.00000000000000000000e+00) (0, 0, 0.00000000000000000000e+00) (0, 0, 0.00000000000000000000e+00) (0, 0, 0.00000000000000000000e+00) (0, 0, 0.00000000000000000000e+00) (0, 0, 0.00000000000000000000e+00) (0, 0, 0.00000000000000000000e+00) (0, 0, 0.00000000000000000000e+00) (0, 0, 0.00000000000000000000e+00) (0, 0, 0.00000000000000000000e+00) (0, 0, 0.00000000000000000000e+00) (0, 0, 0.00000000000000000000e+00) (0, 0, 0.00000000000000000000e+00) (0, 0, 0.00000000000000000000e+00) (0, 0, 0.00000000000000000000e+00) (0, 0, 0.00000000000000000000e+00) (0, 0, 0.00000000000000000000e+00) (0, 0, 0.00000000000000000000e+00) (0, 0, 0.00000000000000000000e+00) (0, 0, 0.00000000000000000000e+00) (0, 0, 0.00000000000000000000e+00) (0, 0, 0.00000000000000000000e+00) (0, 0, 0.00000000000000000000e+00) (0, 0, 0.00000000000000000000e+00) (0, 0, 0.00000000000000000000e+00) (0, 0, 0.00000000000000000000e+00) (0, 0, 0.00000000000000000000e+00) (0, 0, 0.00000000000000000000e+00) (0, 0, 0.00000000000000000000e+00) (0, 0, 0.00000000000000000000e+00) (0, 0, 0.00000000000000000000e+00) (0, 0, 0.00000000000000000000e+00) (0, 0, 0.00000000000000000000e+00) (0, 0, 0.00000000000000000000e+00) (0, 0, 0.00000000000000000000e+00) (0, 0, 0.00000000000000000000e+00) (0, 0, 0.00000000000000000000e+00) (0, 0, 0.00000000000000000000e+00) (0, 0, 0.00000000000000000000e+00) (0, 0, 0.00000000000000000000e+00) (0, 0, 0.00000000000000000000e+00) (0, 0, 0.00000000000000000000e+00) (0, 0, 0.00000000000000000000e+00) (0, 0, 0.00000000000000000000e+00) (0, 0, 0.00000000000000000000e+00) (0, 0, 0.00000000000000000000e+00) (0, 0, 0.00000000000000000000e+00) (0, 0, 0.00000000000000000000e+00) (0, 0, 0.00000000000000000000e+00) (0, 0, 0.00000000000000000000e+00) (0, 0, 0.00000000000000000000e+00) (0, 0, 0.00000000000000000000e+00) (0, 0, 0.00000000000000000000e+00) (0, 0, 0.00000000000000000000e+00) (0, 0, 0.00000000000000000000e+00) (0, 0, 0.00000000000000000000e+00) (0, 0, 0.00000000000000000000e+00) (0, 0, 0.00000000000000000000e+00) (0, 0, 0.00000000000000000000e+00) (0, 0, 0.00000000000000000000e+00) (0, 0, 0.00000000000000000000e+00) (0, 0, 0.00000000000000000000e+00) (0, 0, 0.00000000000000000000e+00) (0, 0, 0.00000000000000000000e+00) (0, 0, 0.00000000000000000000e+00) (0, 0, 0.00000000000000000000e+00) (0, 0, 0.00000000000000000000e+00) (0, 0, 0.00000000000000000000e+00) (0, 0, 0.00000000000000000000e+00) (0, 0, 0.00000000000000000000e+00) (0, 0, 0.00000000000000000000e+00) (0, 0, 0.00000000000000000000e+00) (0, 0, 0.00000000000000000000e+00) (0, 0, 0.00000000000000000000e+00) (0, 0, 0.00000000000000000000e+00) (0, 0, 0.00000000000000000000e+00) (0, 0, 0.00000000000000000000e+00) (0, 0, 0.00000000000000000000e+00) (0, 0, 0.00000000000000000000e+00) (0, 0, 0.00000000000000000000e+00) (0, 0, 0.00000000000000000000e+00) (0, 0, 0.00000000000000000000e+00) (0, 0, 0.00000000000000000000e+00) (0, 0, 0.00000000000000000000e+00) (0, 0, 0.00000000000000000000e+00) (0, 0, 0.00000000000000000000e+00) (0, 0, 0.00000000000000000000e+00) (0, 0, 0.00000000000000000000e+00) (0, 0, 0.00000000000000000000e+00) (0, 0, 0.00000000000000000000e+00) (0, 0, 0.00000000000000000000e+00) (0, 0, 0.00000000000000000000e+00) (0, 0, 0.00000000000000000000e+00) (0, 0, 0.00000000000000000000e+00) (0, 0, 0.00000000000000000000e+00) (0, 0, 0.00000000000000000000e+00) (0, 0, 0.00000000000000000000e+00) (0, 0, 0.00000000000000000000e+00) (0, 0, 0.00000000000000000000e+00) (0, 0, 0.00000000000000000000e+00) (0, 0, 0.00000000000000000000e+00) (0, 0, 0.00000000000000000000e+00) (0, 0, 0.00000000000000000000e+00) (0, 0, 0.00000000000000000000e+00) (0, 0, 0.00000000000000000000e+00) (0, 0, 0.00000000000000000000e+00) (0, 0, 0.00000000000000000000e+00) (0, 0, 0.00000000000000000000e+00) (0, 0, 0.00000000000000000000e+00) (0, 0, 0.00000000000000000000e+00) (0, 0, 0.00000000000000000000e+00) (0, 0, 0.00000000000000000000e+00) (0, 0, 0.00000000000000000000e+00) (0, 0, 0.00000000000000000000e+00) (0, 0, 0.00000000000000000000e+00) (0, 0, 0.00000000000000000000e+00) (0, 0, 0.00000000000000000000e+00) (0, 0, 0.00000000000000000000e+00) (0, 0, 0.00000000000000000000e+00) (0, 0, 0.00000000000000000000e+00) (0, 0, 0.00000000000000000000e+00) (0, 0, 0.00000000000000000000e+00) (0, 0, 0.00000000000000000000e+00) (0, 0, 0.00000000000000000000e+00) (0, 0, 0.00000000000000000000e+00) (0, 0, 0.00000000000000000000e+00) (0, 0, 0.00000000000000000000e+00) (0, 0, 0.00000000000000000000e+00) (0, 0, 0.00000000000000000000e+00) (0, 0, 0.00000000000000000000e+00) (0, 0, 0.00000000000000000000e+00) (0, 0, 0.00000000000000000000e+00) (0, 0, 0.00000000000000000000e+00) (0, 0, 0.00000000000000000000e+00) (0, 0, 0.00000000000000000000e+00) (0, 0, 0.00000000000000000000e+00) (0, 0, 0.00000000000000000000e+00) (0, 0, 0.00000000000000000000e+00) (0, 0, 0.00000000000000000000e+00) (0, 0, 0.00000000000000000000e+00) (0, 0, 0.00000000000000000000e+00) (0, 0, 0.00000000000000000000e+00) (0, 0, 0.00000000000000000000e+00) (0, 0, 0.00000000000000000000e+00) (0, 0, 0.00000000000000000000e+00) (0, 0, 0.00000000000000000000e+00) (0, 0, 0.00000000000000000000e+00) (0, 0, 0.00000000000000000000e+00) (0, 0, 0.00000000000000000000e+00) (0, 0, 0.00000000000000000000e+00) (0, 0, 0.00000000000000000000e+00) (0, 0, 0.00000000000000000000e+00) (0, 0, 0.00000000000000000000e+00) (0, 0, 0.00000000000000000000e+00) (0, 0, 0.00000000000000000000e+00) (0, 0, 0.00000000000000000000e+00) (0, 0, 0.00000000000000000000e+00) (0, 0, 0.00000000000000000000e+00) (0, 0, 0.00000000000000000000e+00) (0, 0, 0.00000000000000000000e+00) (0, 0, 0.00000000000000000000e+00) (0, 0, 0.00000000000000000000e+00) (0, 0, 0.00000000000000000000e+00) (0, 0, 0.00000000000000000000e+00) (0, 0, 0.00000000000000000000e+00) (0, 0, 0.00000000000000000000e+00) (0, 0, 0.00000000000000000000e+00) (0, 0, 0.00000000000000000000e+00) (0, 0, 0.00000000000000000000e+00) (0, 0, 0.00000000000000000000e+00) (0, 0, 0.00000000000000000000e+00) (0, 0, 0.00000000000000000000e+00) (0, 0, 0.00000000000000000000e+00) (0, 0, 0.00000000000000000000e+00) (0, 0, 0.00000000000000000000e+00) (0, 0, 0.00000000000000000000e+00) (0, 0, 0.00000000000000000000e+00) (0, 0, 0.00000000000000000000e+00) (0, 0, 0.00000000000000000000e+00) (0, 0, 0.00000000000000000000e+00) (0, 0, 0.00000000000000000000e+00) (0, 0, 0.00000000000000000000e+00) (0, 0, 0.00000000000000000000e+00) (0, 0, 0.00000000000000000000e+00) (0, 0, 0.00000000000000000000e+00) (0, 0, 0.00000000000000000000e+00) (0, 0, 0.00000000000000000000e+00) (0, 0, 0.00000000000000000000e+00) (0, 0, 0.00000000000000000000e+00) (0, 0, 0.00000000000000000000e+00) (0, 0, 0.00000000000000000000e+00) (0, 0, 0.00000000000000000000e+00) (0, 0, 0.00000000000000000000e+00) (0, 0, 0.00000000000000000000e+00) (0, 0, 0.00000000000000000000e+00) (0, 0, 0.00000000000000000000e+00) (0, 0, 0.00000000000000000000e+00) (0, 0, 0.00000000000000000000e+00) (0, 0, 0.00000000000000000000e+00) (0, 0, 0.00000000000000000000e+00) (0, 0, 0.00000000000000000000e+00) (0, 0, 0.00000000000000000000e+00) (0, 0, 0.00000000000000000000e+00) (0, 0, 0.00000000000000000000e+00) (0, 0, 0.00000000000000000000e+00) (0, 0, 0.00000000000000000000e+00) (0, 0, 0.00000000000000000000e+00) (0, 0, 0.00000000000000000000e+00) (0, 0, 0.00000000000000000000e+00) (0, 0, 0.00000000000000000000e+00) (0, 0, 0.00000000000000000000e+00) (0, 0, 0.00000000000000000000e+00) (0, 0, 0.00000000000000000000e+00) (0, 0, 0.00000000000000000000e+00) (0, 0, 0.00000000000000000000e+00) (0, 0, 0.00000000000000000000e+00) (0, 0, 0.00000000000000000000e+00) (0, 0, 0.00000000000000000000e+00) (0, 0, 0.00000000000000000000e+00) (0, 0, 0.00000000000000000000e+00) (0, 0, 0.00000000000000000000e+00) (0, 0, 0.00000000000000000000e+00) (0, 0, 0.00000000000000000000e+00) (0, 0, 0.00000000000000000000e+00) (0, 0, 0.00000000000000000000e+00) (0, 0, 0.00000000000000000000e+00) (0, 0, 0.00000000000000000000e+00) (0, 0, 0.00000000000000000000e+00) (0, 0, 0.00000000000000000000e+00) (0, 0, 0.00000000000000000000e+00) (0, 0, 0.00000000000000000000e+00) (0, 0, 0.00000000000000000000e+00) (0, 0, 0.00000000000000000000e+00) (0, 0, 0.00000000000000000000e+00) (0, 0, 0.00000000000000000000e+00) (0, 0, 0.00000000000000000000e+00) (0, 0, 0.00000000000000000000e+00) (0, 0, 0.00000000000000000000e+00) (0, 0, 0.00000000000000000000e+00) (0, 0, 0.00000000000000000000e+00) (0, 0, 0.00000000000000000000e+00) (0, 0, 0.00000000000000000000e+00) (0, 0, 0.00000000000000000000e+00) (0, 0, 0.00000000000000000000e+00) (0, 0, 0.00000000000000000000e+00) (0, 0, 0.00000000000000000000e+00) (0, 0, 0.00000000000000000000e+00) (0, 0, 0.00000000000000000000e+00) (0, 0, 0.00000000000000000000e+00) (0, 0, 0.00000000000000000000e+00) (0, 0, 0.00000000000000000000e+00) (0, 0, 0.00000000000000000000e+00) (0, 0, 0.00000000000000000000e+00) (0, 0, 0.00000000000000000000e+00) (0, 0, 0.00000000000000000000e+00) (0, 0, 0.00000000000000000000e+00) (0, 0, 0.00000000000000000000e+00) (0, 0, 0.00000000000000000000e+00) (0, 0, 0.00000000000000000000e+00) (0, 0, 0.00000000000000000000e+00) (0, 0, 0.00000000000000000000e+00) (0, 0, 0.00000000000000000000e+00) (0, 0, 0.00000000000000000000e+00) (0, 0, 0.00000000000000000000e+00) (0, 0, 0.00000000000000000000e+00) (0, 0, 0.00000000000000000000e+00) (0, 0, 0.00000000000000000000e+00) (0, 0, 0.00000000000000000000e+00) (0, 0, 0.00000000000000000000e+00) (0, 0, 0.00000000000000000000e+00) (0, 0, 0.00000000000000000000e+00) (0, 0, 0.00000000000000000000e+00) (0, 0, 0.00000000000000000000e+00) (0, 0, 0.00000000000000000000e+00) (0, 0, 0.00000000000000000000e+00) (0, 0, 0.00000000000000000000e+00) (0, 0, 0.00000000000000000000e+00) (0, 0, 0.00000000000000000000e+00) (0, 0, 0.00000000000000000000e+00) (0, 0, 0.00000000000000000000e+00) (0, 0, 0.00000000000000000000e+00) (0, 0, 0.00000000000000000000e+00) (0, 0, 0.00000000000000000000e+00) (0, 0, 0.00000000000000000000e+00) (0, 0, 0.00000000000000000000e+00) (0, 0, 0.00000000000000000000e+00) (0, 0, 0.00000000000000000000e+00) (0, 0, 0.00000000000000000000e+00) (0, 0, 0.00000000000000000000e+00) (0, 0, 0.00000000000000000000e+00) (0, 0, 0.00000000000000000000e+00) (0, 0, 0.00000000000000000000e+00) (0, 0, 0.00000000000000000000e+00) (0, 0, 0.00000000000000000000e+00) (0, 0, 0.00000000000000000000e+00) (0, 0, 0.00000000000000000000e+00) (0, 0, 0.00000000000000000000e+00) (0, 0, 0.00000000000000000000e+00) (0, 0, 0.00000000000000000000e+00) (0, 0, 0.00000000000000000000e+00) (0, 0, 0.00000000000000000000e+00) (0, 0, 0.00000000000000000000e+00) (0, 0, 0.00000000000000000000e+00) (0, 0, 0.00000000000000000000e+00) (0, 0, 0.00000000000000000000e+00) (0, 0, 0.00000000000000000000e+00) (0, 0, 0.00000000000000000000e+00) (0, 0, 0.00000000000000000000e+00) (0, 0, 0.00000000000000000000e+00) (0, 0, 0.00000000000000000000e+00) (0, 0, 0.00000000000000000000e+00) (0, 0, 0.00000000000000000000e+00) (0, 0, 0.00000000000000000000e+00) (0, 0, 0.00000000000000000000e+00) (0, 0, 0.00000000000000000000e+00) (0, 0, 0.00000000000000000000e+00) (0, 0, 0.00000000000000000000e+00) (0, 0, 0.00000000000000000000e+00) (0, 0, 0.00000000000000000000e+00) (0, 0, 0.00000000000000000000e+00) (0, 0, 0.00000000000000000000e+00) (0, 0, 0.00000000000000000000e+00) (0, 0, 0.00000000000000000000e+00) (0, 0, 0.00000000000000000000e+00) (0, 0, 0.00000000000000000000e+00) (0, 0, 0.00000000000000000000e+00) (0, 0, 0.00000000000000000000e+00) (0, 0, 0.00000000000000000000e+00) (0, 0, 0.00000000000000000000e+00) (0, 0, 0.00000000000000000000e+00) (0, 0, 0.00000000000000000000e+00) (0, 0, 0.00000000000000000000e+00) (0, 0, 0.00000000000000000000e+00) (0, 0, 0.00000000000000000000e+00) (0, 0, 0.00000000000000000000e+00) (0, 0, 0.00000000000000000000e+00) (0, 0, 0.00000000000000000000e+00) (0, 0, 0.00000000000000000000e+00) (0, 0, 0.00000000000000000000e+00) (0, 0, 0.00000000000000000000e+00) (0, 0, 0.00000000000000000000e+00) (0, 0, 0.00000000000000000000e+00) (0, 0, 0.00000000000000000000e+00) (0, 0, 0.00000000000000000000e+00) (0, 0, 0.00000000000000000000e+00) (0, 0, 0.00000000000000000000e+00) (0, 0, 0.00000000000000000000e+00) (0, 0, 0.00000000000000000000e+00) (0, 0, 0.00000000000000000000e+00) (0, 0, 0.00000000000000000000e+00) (0, 0, 0.00000000000000000000e+00) (0, 0, 0.00000000000000000000e+00) (0, 0, 0.00000000000000000000e+00) (0, 0, 0.00000000000000000000e+00) (0, 0, 0.00000000000000000000e+00) (0, 0, 0.00000000000000000000e+00) (0, 0, 0.00000000000000000000e+00) (0, 0, 0.00000000000000000000e+00) (0, 0, 0.00000000000000000000e+00) (0, 0, 0.00000000000000000000e+00) (0, 0, 0.00000000000000000000e+00) (0, 0, 0.00000000000000000000e+00) (0, 0, 0.00000000000000000000e+00) (0, 0, 0.00000000000000000000e+00) (0, 0, 0.00000000000000000000e+00) (0, 0, 0.00000000000000000000e+00) (0, 0, 0.00000000000000000000e+00) (0, 0, 0.00000000000000000000e+00) (0, 0, 0.00000000000000000000e+00) (0, 0, 0.00000000000000000000e+00) (0, 0, 0.00000000000000000000e+00) (0, 0, 0.00000000000000000000e+00) (0, 0, 0.00000000000000000000e+00) (0, 0, 0.00000000000000000000e+00) (0, 0, 0.00000000000000000000e+00) (0, 0, 0.00000000000000000000e+00) (0, 0, 0.00000000000000000000e+00) (0, 0, 0.00000000000000000000e+00) (0, 0, 0.00000000000000000000e+00) (0, 0, 0.00000000000000000000e+00) (0, 0, 0.00000000000000000000e+00) (0, 0, 0.00000000000000000000e+00) (0, 0, 0.00000000000000000000e+00) (0, 0, 0.00000000000000000000e+00) (0, 0, 0.00000000000000000000e+00) (0, 0, 0.00000000000000000000e+00) (0, 0, 0.00000000000000000000e+00) (0, 0, 0.00000000000000000000e+00) (0, 0, 0.00000000000000000000e+00) (0, 0, 0.00000000000000000000e+00) (0, 0, 0.00000000000000000000e+00) (0, 0, 0.00000000000000000000e+00) (0, 0, 0.00000000000000000000e+00) (0, 0, 0.00000000000000000000e+00) (0, 0, 0.00000000000000000000e+00) (0, 0, 0.00000000000000000000e+00) (0, 0, 0.00000000000000000000e+00) (0, 0, 0.00000000000000000000e+00) (0, 0, 0.00000000000000000000e+00) (0, 0, 0.00000000000000000000e+00) (0, 0, 0.00000000000000000000e+00) (0, 0, 0.00000000000000000000e+00) (0, 0, 0.00000000000000000000e+00) (0, 0, 0.00000000000000000000e+00) (0, 0, 0.00000000000000000000e+00) (0, 0, 0.00000000000000000000e+00) (0, 0, 0.00000000000000000000e+00) (0, 0, 0.00000000000000000000e+00) (0, 0, 0.00000000000000000000e+00) (0, 0, 0.00000000000000000000e+00) (0, 0, 0.00000000000000000000e+00) (0, 0, 0.00000000000000000000e+00) (0, 0, 0.00000000000000000000e+00) (0, 0, 0.00000000000000000000e+00) (0, 0, 0.00000000000000000000e+00) (0, 0, 0.00000000000000000000e+00) (0, 0, 0.00000000000000000000e+00) (0, 0, 0.00000000000000000000e+00) (0, 0, 0.00000000000000000000e+00) (0, 0, 0.00000000000000000000e+00) (0, 0, 0.00000000000000000000e+00) (0, 0, 0.00000000000000000000e+00) (0, 0, 0.00000000000000000000e+00) (0, 0, 0.00000000000000000000e+00) (0, 0, 0.00000000000000000000e+00) (0, 0, 0.00000000000000000000e+00) (0, 0, 0.00000000000000000000e+00) (0, 0, 0.00000000000000000000e+00) (0, 0, 0.00000000000000000000e+00) (0, 0, 0.00000000000000000000e+00) (0, 0, 0.00000000000000000000e+00) (0, 0, 0.00000000000000000000e+00) (0, 0, 0.00000000000000000000e+00) (0, 0, 0.00000000000000000000e+00) (0, 0, 0.00000000000000000000e+00) (0, 0, 0.00000000000000000000e+00) (0, 0, 0.00000000000000000000e+00) (0, 0, 0.00000000000000000000e+00) (0, 0, 0.00000000000000000000e+00) (0, 0, 0.00000000000000000000e+00) (0, 0, 0.00000000000000000000e+00) (0, 0, 0.00000000000000000000e+00) (0, 0, 0.00000000000000000000e+00) (0, 0, 0.00000000000000000000e+00) (0, 0, 0.00000000000000000000e+00) (0, 0, 0.00000000000000000000e+00) (0, 0, 0.00000000000000000000e+00) (0, 0, 0.00000000000000000000e+00) (0, 0, 0.00000000000000000000e+00) (0, 0, 0.00000000000000000000e+00) (0, 0, 0.00000000000000000000e+00) (0, 0, 0.00000000000000000000e+00) (0, 0, 0.00000000000000000000e+00) (0, 0, 0.00000000000000000000e+00) (0, 0, 0.00000000000000000000e+00) (0, 0, 0.00000000000000000000e+00) (0, 0, 0.00000000000000000000e+00) (0, 0, 0.00000000000000000000e+00) (0, 0, 0.00000000000000000000e+00) (0, 0, 0.00000000000000000000e+00) (0, 0, 0.00000000000000000000e+00) (0, 0, 0.00000000000000000000e+00) (0, 0, 0.00000000000000000000e+00) (0, 0, 0.00000000000000000000e+00) (0, 0, 0.00000000000000000000e+00) (0, 0, 0.00000000000000000000e+00) (0, 0, 0.00000000000000000000e+00) (0, 0, 0.00000000000000000000e+00) (0, 0, 0.00000000000000000000e+00) (0, 0, 0.00000000000000000000e+00) (0, 0, 0.00000000000000000000e+00) (0, 0, 0.00000000000000000000e+00) (0, 0, 0.00000000000000000000e+00) (0, 0, 0.00000000000000000000e+00) (0, 0, 0.00000000000000000000e+00) (0, 0, 0.00000000000000000000e+00) (0, 0, 0.00000000000000000000e+00) (0, 0, 0.00000000000000000000e+00) (0, 0, 0.00000000000000000000e+00) (0, 0, 0.00000000000000000000e+00) (0, 0, 0.00000000000000000000e+00) (0, 0, 0.00000000000000000000e+00) (0, 0, 0.00000000000000000000e+00) (0, 0, 0.00000000000000000000e+00) (0, 0, 0.00000000000000000000e+00) (0, 0, 0.00000000000000000000e+00) (0, 0, 0.00000000000000000000e+00) (0, 0, 0.00000000000000000000e+00) (0, 0, 0.00000000000000000000e+00) (0, 0, 0.00000000000000000000e+00) (0, 0, 0.00000000000000000000e+00) (0, 0, 0.00000000000000000000e+00) (0, 0, 0.00000000000000000000e+00) (0, 0, 0.00000000000000000000e+00) (0, 0, 0.00000000000000000000e+00) (0, 0, 0.00000000000000000000e+00) (0, 0, 0.00000000000000000000e+00) (0, 0, 0.00000000000000000000e+00) (0, 0, 0.00000000000000000000e+00) (0, 0, 0.00000000000000000000e+00) (0, 0, 0.00000000000000000000e+00) (0, 0, 0.00000000000000000000e+00) (0, 0, 0.00000000000000000000e+00) (0, 0, 0.00000000000000000000e+00) (0, 0, 0.00000000000000000000e+00) (0, 0, 0.00000000000000000000e+00) (0, 0, 0.00000000000000000000e+00) (0, 0, 0.00000000000000000000e+00) (0, 0, 0.00000000000000000000e+00) (0, 0, 0.00000000000000000000e+00) (0, 0, 0.00000000000000000000e+00) (0, 0, 0.00000000000000000000e+00) (0, 0, 0.00000000000000000000e+00) (0, 0, 0.00000000000000000000e+00) (0, 0, 0.00000000000000000000e+00) (0, 0, 0.00000000000000000000e+00) (0, 0, 0.00000000000000000000e+00) (0, 0, 0.00000000000000000000e+00) (0, 0, 0.00000000000000000000e+00) (0, 0, 0.00000000000000000000e+00) (0, 0, 0.00000000000000000000e+00) (0, 0, 0.00000000000000000000e+00) (0, 0, 0.00000000000000000000e+00) (0, 0, 0.00000000000000000000e+00) (0, 0, 0.00000000000000000000e+00) (0, 0, 0.00000000000000000000e+00) (0, 0, 0.00000000000000000000e+00) (0, 0, 0.00000000000000000000e+00) (0, 0, 0.00000000000000000000e+00) (0, 0, 0.00000000000000000000e+00) (0, 0, 0.00000000000000000000e+00) (0, 0, 0.00000000000000000000e+00) (0, 0, 0.00000000000000000000e+00) (0, 0, 0.00000000000000000000e+00) (0, 0, 0.00000000000000000000e+00) (0, 0, 0.00000000000000000000e+00) (0, 0, 0.00000000000000000000e+00) (0, 0, 0.00000000000000000000e+00) (0, 0, 0.00000000000000000000e+00) (0, 0, 0.00000000000000000000e+00) (0, 0, 0.00000000000000000000e+00) (0, 0, 0.00000000000000000000e+00) (0, 0, 0.00000000000000000000e+00) (0, 0, 0.00000000000000000000e+00) (0, 0, 0.00000000000000000000e+00) (0, 0, 0.00000000000000000000e+00) (0, 0, 0.00000000000000000000e+00) (0, 0, 0.00000000000000000000e+00) (0, 0, 0.00000000000000000000e+00) (0, 0, 0.00000000000000000000e+00) (0, 0, 0.00000000000000000000e+00) (0, 0, 0.00000000000000000000e+00) (0, 0, 0.00000000000000000000e+00) (0, 0, 0.00000000000000000000e+00) (0, 0, 0.00000000000000000000e+00) (0, 0, 0.00000000000000000000e+00) (0, 0, 0.00000000000000000000e+00) (0, 0, 0.00000000000000000000e+00) (0, 0, 0.00000000000000000000e+00) (0, 0, 0.00000000000000000000e+00) (0, 0, 0.00000000000000000000e+00) (0, 0, 0.00000000000000000000e+00) (0, 0, 0.00000000000000000000e+00) (0, 0, 0.00000000000000000000e+00) (0, 0, 0.00000000000000000000e+00) (0, 0, 0.00000000000000000000e+00) (0, 0, 0.00000000000000000000e+00) (0, 0, 0.00000000000000000000e+00) (0, 0, 0.00000000000000000000e+00) (0, 0, 0.00000000000000000000e+00) (0, 0, 0.00000000000000000000e+00) (0, 0, 0.00000000000000000000e+00) (0, 0, 0.00000000000000000000e+00) (0, 0, 0.00000000000000000000e+00) (0, 0, 0.00000000000000000000e+00) (0, 0, 0.00000000000000000000e+00) (0, 0, 0.00000000000000000000e+00) (0, 0, 0.00000000000000000000e+00) (0, 0, 0.00000000000000000000e+00) (0, 0, 0.00000000000000000000e+00) (0, 0, 0.00000000000000000000e+00) (0, 0, 0.00000000000000000000e+00) (0, 0, 0.00000000000000000000e+00) (0, 0, 0.00000000000000000000e+00) (0, 0, 0.00000000000000000000e+00) (0, 0, 0.00000000000000000000e+00) (0, 0, 0.00000000000000000000e+00) (0, 0, 0.00000000000000000000e+00) (0, 0, 0.00000000000000000000e+00) (0, 0, 0.00000000000000000000e+00) (0, 0, 0.00000000000000000000e+00) (0, 0, 0.00000000000000000000e+00) (0, 0, 0.00000000000000000000e+00) (0, 0, 0.00000000000000000000e+00) (0, 0, 0.00000000000000000000e+00) (0, 0, 0.00000000000000000000e+00) (0, 0, 0.00000000000000000000e+00) (0, 0, 0.00000000000000000000e+00) (0, 0, 0.00000000000000000000e+00) (0, 0, 0.00000000000000000000e+00) (0, 0, 0.00000000000000000000e+00) (0, 0, 0.00000000000000000000e+00) (0, 0, 0.00000000000000000000e+00) (0, 0, 0.00000000000000000000e+00) (0, 0, 0.00000000000000000000e+00) (0, 0, 0.00000000000000000000e+00) (0, 0, 0.00000000000000000000e+00) (0, 0, 0.00000000000000000000e+00) (0, 0, 0.00000000000000000000e+00) (0, 0, 0.00000000000000000000e+00) (0, 0, 0.00000000000000000000e+00) (0, 0, 0.00000000000000000000e+00) (0, 0, 0.00000000000000000000e+00) (0, 0, 0.00000000000000000000e+00) (0, 0, 0.00000000000000000000e+00) (0, 0, 0.00000000000000000000e+00) (0, 0, 0.00000000000000000000e+00) (0, 0, 0.00000000000000000000e+00) (0, 0, 0.00000000000000000000e+00) (0, 0, 0.00000000000000000000e+00) (0, 0, 0.00000000000000000000e+00) (0, 0, 0.00000000000000000000e+00) (0, 0, 0.00000000000000000000e+00) (0, 0, 0.00000000000000000000e+00) (0, 0, 0.00000000000000000000e+00) (0, 0, 0.00000000000000000000e+00) (0, 0, 0.00000000000000000000e+00) (0, 0, 0.00000000000000000000e+00) (0, 0, 0.00000000000000000000e+00) (0, 0, 0.00000000000000000000e+00) (0, 0, 0.00000000000000000000e+00) (0, 0, 0.00000000000000000000e+00) (0, 0, 0.00000000000000000000e+00) (0, 0, 0.00000000000000000000e+00) (0, 0, 0.00000000000000000000e+00) (0, 0, 0.00000000000000000000e+00) (0, 0, 0.00000000000000000000e+00) (0, 0, 0.00000000000000000000e+00) (0, 0, 0.00000000000000000000e+00) (0, 0, 0.00000000000000000000e+00) (0, 0, 0.00000000000000000000e+00) (0, 0, 0.00000000000000000000e+00) (0, 0, 0.00000000000000000000e+00) (0, 0, 0.00000000000000000000e+00) (0, 0, 0.00000000000000000000e+00) (0, 0, 0.00000000000000000000e+00) (0, 0, 0.00000000000000000000e+00) (0, 0, 0.00000000000000000000e+00) (0, 0, 0.00000000000000000000e+00) (0, 0, 0.00000000000000000000e+00) (0, 0, 0.00000000000000000000e+00) (0, 0, 0.00000000000000000000e+00) (0, 0, 0.00000000000000000000e+00) (0, 0, 0.00000000000000000000e+00) (0, 0, 0.00000000000000000000e+00) (0, 0, 0.00000000000000000000e+00) (0, 0, 0.00000000000000000000e+00) (0, 0, 0.00000000000000000000e+00) (0, 0, 0.00000000000000000000e+00) (0, 0, 0.00000000000000000000e+00) (0, 0, 0.00000000000000000000e+00) (0, 0, 0.00000000000000000000e+00) (0, 0, 0.00000000000000000000e+00) (0, 0, 0.00000000000000000000e+00) (0, 0, 0.00000000000000000000e+00) (0, 0, 0.00000000000000000000e+00) (0, 0, 0.00000000000000000000e+00) (0, 0, 0.00000000000000000000e+00) (0, 0, 0.00000000000000000000e+00) (0, 0, 0.00000000000000000000e+00) (0, 0, 0.00000000000000000000e+00) (0, 0, 0.00000000000000000000e+00) (0, 0, 0.00000000000000000000e+00) (0, 0, 0.00000000000000000000e+00) (0, 0, 0.00000000000000000000e+00) (0, 0, 0.00000000000000000000e+00) (0, 0, 0.00000000000000000000e+00) (0, 0, 0.00000000000000000000e+00) (0, 0, 0.00000000000000000000e+00) (0, 0, 0.00000000000000000000e+00) (0, 0, 0.00000000000000000000e+00) (0, 0, 0.00000000000000000000e+00) (0, 0, 0.00000000000000000000e+00) (0, 0, 0.00000000000000000000e+00) (0, 0, 0.00000000000000000000e+00) (0, 0, 0.00000000000000000000e+00) (0, 0, 0.00000000000000000000e+00) (0, 0, 0.00000000000000000000e+00) (0, 0, 0.00000000000000000000e+00) (0, 0, 0.00000000000000000000e+00) (0, 0, 0.00000000000000000000e+00) (0, 0, 0.00000000000000000000e+00) (0, 0, 0.00000000000000000000e+00) (0, 0, 0.00000000000000000000e+00) (0, 0, 0.00000000000000000000e+00) (0, 0, 0.00000000000000000000e+00) (0, 0, 0.00000000000000000000e+00) (901, 4, 5.00000000000000000000e-01) (901, 4, 5.00000000000000000000e-01) (901, 4, 5.00000000000000000000e-01) (901, 4, 5.00000000000000000000e-01) (901, 4, 5.00000000000000000000e-01) (901, 4, 5.00000000000000000000e-01) (901, 4, 5.00000000000000000000e-01) (901, 4, 5.00000000000000000000e-01) (901, 4, 5.00000000000000000000e-01) (901, 4, 5.00000000000000000000e-01) (901, 4, 5.00000000000000000000e-01) (901, 4, 5.00000000000000000000e-01) (901, 4, 5.00000000000000000000e-01) (901, 4, 5.00000000000000000000e-01) (901, 4, 5.00000000000000000000e-01) (901, 4, 5.00000000000000000000e-01) (901, 4, 5.00000000000000000000e-01) (901, 4, 5.00000000000000000000e-01) (901, 4, 5.00000000000000000000e-01) (901, 4, 5.00000000000000000000e-01) (901, 4, 5.00000000000000000000e-01) (901, 4, 5.00000000000000000000e-01) (901, 4, 5.00000000000000000000e-01) (901, 4, 5.00000000000000000000e-01) (901, 4, 5.00000000000000000000e-01) (901, 4, 5.00000000000000000000e-01) (901, 4, 5.00000000000000000000e-01) (901, 4, 5.00000000000000000000e-01) (901, 4, 5.00000000000000000000e-01) (901, 4, 5.00000000000000000000e-01) (901, 4, 5.00000000000000000000e-01) (901, 4, 5.00000000000000000000e-01) (901, 4, 5.00000000000000000000e-01) (901, 4, 5.00000000000000000000e-01) (901, 4, 5.00000000000000000000e-01) (901, 4, 5.00000000000000000000e-01) (901, 4, 5.00000000000000000000e-01) (901, 4, 5.00000000000000000000e-01) (901, 4, 5.00000000000000000000e-01) (901, 4, 5.00000000000000000000e-01) (901, 4, 5.00000000000000000000e-01) (901, 4, 5.00000000000000000000e-01) (901, 4, 5.00000000000000000000e-01) (901, 4, 5.00000000000000000000e-01) (901, 4, 5.00000000000000000000e-01) (901, 4, 5.00000000000000000000e-01) (901, 4, 5.00000000000000000000e-01) (901, 4, 5.00000000000000000000e-01) (901, 4, 5.00000000000000000000e-01) (901, 4, 5.00000000000000000000e-01) (901, 4, 5.00000000000000000000e-01) (901, 4, 5.00000000000000000000e-01) (901, 4, 5.00000000000000000000e-01) (901, 4, 5.00000000000000000000e-01) (901, 4, 5.00000000000000000000e-01) (901, 4, 5.00000000000000000000e-01) (901, 4, 5.00000000000000000000e-01) (901, 4, 5.00000000000000000000e-01) (901, 4, 5.00000000000000000000e-01) (901, 4, 5.00000000000000000000e-01) (901, 4, 5.00000000000000000000e-01) (901, 4, 5.00000000000000000000e-01) (901, 4, 5.00000000000000000000e-01) (901, 4, 5.00000000000000000000e-01) (901, 4, 5.00000000000000000000e-01) (901, 4, 5.00000000000000000000e-01) (901, 4, 5.00000000000000000000e-01) (901, 4, 5.00000000000000000000e-01) (901, 4, 5.00000000000000000000e-01) (901, 4, 5.00000000000000000000e-01) (901, 4, 5.00000000000000000000e-01) (901, 4, 5.00000000000000000000e-01) (901, 4, 5.00000000000000000000e-01) (901, 4, 5.00000000000000000000e-01) (901, 4, 5.00000000000000000000e-01) (901, 4, 5.00000000000000000000e-01) (901, 4, 5.00000000000000000000e-01) (901, 4, 5.00000000000000000000e-01) (901, 4, 5.00000000000000000000e-01) (901, 4, 5.00000000000000000000e-01) (901, 4, 5.00000000000000000000e-01) (901, 4, 5.00000000000000000000e-01) (901, 4, 5.00000000000000000000e-01) (901, 4, 5.00000000000000000000e-01) (901, 4, 5.00000000000000000000e-01) (901, 4, 5.00000000000000000000e-01) (901, 4, 5.00000000000000000000e-01) (901, 4, 5.00000000000000000000e-01) (901, 4, 5.00000000000000000000e-01) (901, 4, 5.00000000000000000000e-01) (901, 4, 5.00000000000000000000e-01) (901, 4, 5.00000000000000000000e-01) (901, 4, 5.00000000000000000000e-01) (901, 4, 5.00000000000000000000e-01) (901, 4, 5.00000000000000000000e-01) (901, 4, 5.00000000000000000000e-01) (901, 4, 5.00000000000000000000e-01) (901, 4, 5.00000000000000000000e-01) (901, 4, 5.00000000000000000000e-01) (901, 4, 5.00000000000000000000e-01) (0, 0, 0.00000000000000000000e+00) (101, 4, 5.00000000000000000000e-01) (101, 4, 5.00000000000000000000e-01) (101, 4, 5.00000000000000000000e-01) (101, 4, 5.00000000000000000000e-01) (101, 4, 5.00000000000000000000e-01) (101, 4, 5.00000000000000000000e-01) (101, 4, 5.00000000000000000000e-01) (101, 4, 5.00000000000000000000e-01) (101, 4, 5.00000000000000000000e-01) (101, 4, 5.00000000000000000000e-01) (101, 4, 5.00000000000000000000e-01) (101, 4, 5.00000000000000000000e-01) (101, 4, 5.00000000000000000000e-01) (101, 4, 5.00000000000000000000e-01) (101, 4, 5.00000000000000000000e-01) (101, 4, 5.00000000000000000000e-01) (101, 4, 5.00000000000000000000e-01) (101, 4, 5.00000000000000000000e-01) (101, 4, 5.00000000000000000000e-01) (101, 4, 5.00000000000000000000e-01) (101, 4, 5.00000000000000000000e-01) (101, 4, 5.00000000000000000000e-01) (101, 4, 5.00000000000000000000e-01) (101, 4, 5.00000000000000000000e-01) (101, 4, 5.00000000000000000000e-01) (101, 4, 5.00000000000000000000e-01) (101, 4, 5.00000000000000000000e-01) (101, 4, 5.00000000000000000000e-01) (101, 4, 5.00000000000000000000e-01) (101, 4, 5.00000000000000000000e-01) (101, 4, 5.00000000000000000000e-01) (101, 4, 5.00000000000000000000e-01) (101, 4, 5.00000000000000000000e-01) (101, 4, 5.00000000000000000000e-01) (101, 4, 5.00000000000000000000e-01) (101, 4, 5.00000000000000000000e-01) (0, 0, 0.00000000000000000000e+00) 
connections (connected_to_neuron, weight)=(0, -1.30840837955474853516e-01) (1, -1.75845652818679809570e-01) (2, -2.48135238885879516602e-01) (3, -3.87028217315673828125e-01) (4, -3.79887759685516357422e-01) (5, -4.92370843887329101562e-01) (6, -5.12869775295257568359e-01) (7, -1.66032522916793823242e-01) (8, -2.55854338407516479492e-01) (9, -1.45026415586471557617e-01) (10, -2.21233874559402465820e-01) (11, -1.19130276143550872803e-01) (12, -1.99186891317367553711e-01) (13, -2.18410938978195190430e-01) (14, -1.58454626798629760742e-01) (15, -9.60109755396842956543e-02) (16, -1.33438378572463989258e-01) (17, -2.60306388139724731445e-01) (18, -2.39966899156570434570e-01) (19, -1.88104242086410522461e-01) (20, -1.34747236967086791992e-01) (21, -1.13745741546154022217e-01) (22, -1.18639908730983734131e-01) (23, -2.80669957399368286133e-01) (24, -1.74338489770889282227e-01) (25, -2.31599956750869750977e-01) (26, -1.71532541513442993164e-01) (27, -1.59456521272659301758e-01) (28, -2.62629240751266479492e-01) (29, -1.03283785283565521240e-01) (30, -3.62520277500152587891e-01) (31, -3.46270084381103515625e-01) (32, -4.31929409503936767578e-01) (33, -5.18655478954315185547e-01) (34, -3.96498262882232666016e-01) (35, -4.75017130374908447266e-01) (36, -4.74226295948028564453e-01) (37, -3.72568011283874511719e-01) (38, -1.04249618947505950928e-01) (39, -1.93280637264251708984e-01) (40, -1.80794388055801391602e-01) (41, -2.33483523130416870117e-01) (42, -2.20410913228988647461e-01) (43, -2.87981301546096801758e-01) (44, -1.59894406795501708984e-01) (45, -2.86865532398223876953e-01) (46, -2.91992276906967163086e-01) (47, -2.01332777738571166992e-01) (48, -2.55171924829483032227e-01) (49, -2.39959150552749633789e-01) (50, -9.74369868636131286621e-02) (51, -9.79191288352012634277e-02) (52, -2.61704891920089721680e-01) (53, -1.24076925218105316162e-01) (54, -2.86589115858078002930e-01) (55, -1.44043356180191040039e-01) (56, -2.63676851987838745117e-01) (57, -1.66121631860733032227e-01) (58, -2.11499899625778198242e-01) (59, -2.34306126832962036133e-01) (60, -4.22205388545989990234e-01) (61, -4.82020139694213867188e-01) (62, -4.88576173782348632812e-01) (63, -5.17334818840026855469e-01) (64, -4.63875591754913330078e-01) (65, -3.48274409770965576172e-01) (66, -4.55551922321319580078e-01) (67, -1.56501889228820800781e-01) (68, -1.39242380857467651367e-01) (69, -2.23001509904861450195e-01) (70, -2.57782489061355590820e-01) (71, -2.28036791086196899414e-01) (72, -1.64485007524490356445e-01) (73, -1.86193406581878662109e-01) (74, -2.24018067121505737305e-01) (75, -2.32379406690597534180e-01) (76, -1.81058913469314575195e-01) (77, -2.24010318517684936523e-01) (78, -1.41712158918380737305e-01) (79, -1.44230812788009643555e-01) (80, -1.71969443559646606445e-01) (81, -1.47149145603179931641e-01) (82, -1.50149941444396972656e-01) (83, -1.41674309968948364258e-01) (84, -1.79226040840148925781e-01) (85, -1.44739001989364624023e-01) (86, -1.93717688322067260742e-01) (87, -1.50902897119522094727e-01) (88, -2.18860626220703125000e-01) (89, -1.13217554986476898193e-01) (90, -3.38008999824523925781e-01) (91, -3.49066019058227539062e-01) (92, -5.03237664699554443359e-01) (93, -4.89785134792327880859e-01) (94, -5.29600799083709716797e-01) (95, -1.85513228178024291992e-01) (96, -2.56459534168243408203e-01) (97, -2.03552663326263427734e-01) (98, -2.50015109777450561523e-01) (99, -1.03701911866664886475e-01) (100, -1.34554177522659301758e-01) (101, -2.15797603130340576172e-01) (102, -2.39738672971725463867e-01) (103, -2.07039147615432739258e-01) (104, -1.09991006553173065186e-01) (105, -1.71756744384765625000e-01) (106, -1.47418558597564697266e-01) (107, -1.99049919843673706055e-01) (108, -1.03767029941082000732e-01) (109, -1.97130709886550903320e-01) (110, -2.51280725002288818359e-01) (111, -1.83736473321914672852e-01) (112, -2.52279818058013916016e-01) (113, -1.09430633485317230225e-01) (114, -2.33410775661468505859e-01) (115, -1.39505833387374877930e-01) (116, -1.62169635295867919922e-01) (117, -1.35128438472747802734e-01) (118, -1.98408722877502441406e-01) (119, -2.89030224084854125977e-01) (120, -1.56345963478088378906e-01) (121, -1.99617713689804077148e-01) (122, -1.01296208798885345459e-01) (123, -1.22783623635768890381e-01) (124, -1.52602821588516235352e-01) (125, -9.40969809889793395996e-02) (126, -2.16296851634979248047e-01) (127, -1.17062322795391082764e-01) (128, -2.05649644136428833008e-01) (129, -1.74311935901641845703e-01) (130, -1.28764241933822631836e-01) (131, -2.48203784227371215820e-01) (132, -9.81095358729362487793e-02) (133, -2.76502877473831176758e-01) (134, -1.63242936134338378906e-01) (135, -1.16100512444972991943e-01) (136, -1.56259626150131225586e-01) (137, -2.18661457300186157227e-01) (138, -2.23150432109832763672e-01) (139, -1.68026626110076904297e-01) (140, -1.23792134225368499756e-01) (141, -1.82431131601333618164e-01) (142, -2.59763091802597045898e-01) (143, -2.84071952104568481445e-01) (144, -1.99861764907836914062e-01) (145, -2.01173871755599975586e-01) (146, -1.31577759981155395508e-01) (147, -2.70031392574310302734e-01) (148, -2.44302272796630859375e-01) (149, -2.37986475229263305664e-01) (150, -2.67061620950698852539e-01) (151, -1.08648233115673065186e-01) (152, -1.45604163408279418945e-01) (153, -2.76357859373092651367e-01) (154, -1.39431834220886230469e-01) (155, -2.06206947565078735352e-01) (156, -2.78454810380935668945e-01) (157, -2.63728708028793334961e-01) (158, -2.31269270181655883789e-01) (159, -1.92104429006576538086e-01) (160, -1.46040618419647216797e-01) (161, -2.68033474683761596680e-01) (162, -1.48308187723159790039e-01) (163, -1.52150124311447143555e-01) (164, -2.52536386251449584961e-01) (165, -2.19551116228103637695e-01) (166, -1.76250636577606201172e-01) (167, -1.16795979440212249756e-01) (168, -1.46212548017501831055e-01) (169, -1.07401035726070404053e-01) (170, -1.92822605371475219727e-01) (171, -1.78004682064056396484e-01) (172, -1.97832196950912475586e-01) (173, -1.60585671663284301758e-01) (174, -1.70076608657836914062e-01) (175, -1.05693928897380828857e-01) (176, -2.69759505987167358398e-01) (177, -2.09654361009597778320e-01) (178, -2.83725291490554809570e-01) (179, -2.22061783075332641602e-01) (180, -1.55640810728073120117e-01) (181, -2.58786916732788085938e-01) (182, -2.38709986209869384766e-01) (183, -2.09244936704635620117e-01) (184, -2.43144750595092773438e-01) (185, -2.86141842603683471680e-01) (186, -1.23451851308345794678e-01) (187, -2.29599565267562866211e-01) (188, -2.57870495319366455078e-01) (189, -2.62721151113510131836e-01) (190, -1.29703968763351440430e-01) (191, -1.11911080777645111084e-01) (192, -2.38754600286483764648e-01) (193, -1.86012148857116699219e-01) (194, -4.16861236095428466797e-01) (195, -4.44090962409973144531e-01) (196, -3.58363270759582519531e-01) (197, -2.56311863660812377930e-01) (198, -2.24086910486221313477e-01) (199, -1.67775779962539672852e-01) (200, -2.71712869405746459961e-01) (201, -1.24909482896327972412e-01) (202, -2.53780454397201538086e-01) (203, -1.77545040845870971680e-01) (204, -1.93495184183120727539e-01) (205, -1.31857037544250488281e-01) (206, -1.91238969564437866211e-01) (207, -1.71254664659500122070e-01) (208, -2.49511390924453735352e-01) (209, -1.82964265346527099609e-01) (210, -1.01316414773464202881e-01) (211, -1.13152138888835906982e-01) (212, -1.49751156568527221680e-01) (213, -2.48026400804519653320e-01) (214, -2.30397075414657592773e-01) (215, -1.00895904004573822021e-01) (216, -2.42168217897415161133e-01) (217, -2.61848956346511840820e-01) (218, -2.38495439291000366211e-01) (219, -2.08038657903671264648e-01) (220, -2.32570052146911621094e-01) (221, -5.20999372005462646484e-01) (222, -4.72749769687652587891e-01) (223, -4.24124658107757568359e-01) (224, -4.15011525154113769531e-01) (225, -3.52810978889465332031e-01) (226, -2.86615580320358276367e-01) (227, -1.91774725914001464844e-01) (228, -2.72322803735733032227e-01) (229, -2.18702465295791625977e-01) (230, -2.67550498247146606445e-01) (231, -2.52035647630691528320e-01) (232, -2.51611977815628051758e-01) (233, -2.29330927133560180664e-01) (234, -1.37580662965774536133e-01) (235, -1.53107136487960815430e-01) (236, -2.69187957048416137695e-01) (237, -4.81619656085968017578e-01) (238, -4.77161765098571777344e-01) (239, -4.71499323844909667969e-01) (240, -1.27783864736557006836e-01) (241, -2.41678178310394287109e-01) (242, -2.47851461172103881836e-01) (243, -1.85535013675689697266e-01) (244, -1.97704583406448364258e-01) (245, -1.86248511075973510742e-01) (246, -1.94430917501449584961e-01) (247, -1.47872745990753173828e-01) (248, -4.00897443294525146484e-01) (249, -3.85726332664489746094e-01) (250, -5.08711397647857666016e-01) (251, -3.41467499732971191406e-01) (252, -3.69925677776336669922e-01) (253, -4.44661140441894531250e-01) (254, -4.28792119026184082031e-01) (255, -4.48137164115905761719e-01) (256, -2.15872079133987426758e-01) (257, -1.78607672452926635742e-01) (258, -1.03111855685710906982e-01) (259, -1.96194857358932495117e-01) (260, -1.05310104787349700928e-01) (261, -2.78662353754043579102e-01) (262, -1.56230479478836059570e-01) (263, -2.64922112226486206055e-01) (264, -2.15993314981460571289e-01) (265, -2.01811134815216064453e-01) (266, -3.70829224586486816406e-01) (267, -4.37981247901916503906e-01) (268, -3.91430735588073730469e-01) (269, -5.11190950870513916016e-01) (270, -1.27880573272705078125e-01) (271, -1.82414621114730834961e-01) (272, -2.16069132089614868164e-01) (273, -2.83732026815414428711e-01) (274, -2.75949627161026000977e-01) (275, -1.21773682534694671631e-01) (276, -4.22780573368072509766e-01) (277, -4.23180520534515380859e-01) (278, -4.22446429729461669922e-01) (279, -4.86877977848052978516e-01) (280, -4.72106814384460449219e-01) (281, -3.94357800483703613281e-01) (282, -4.91545438766479492188e-01) (283, -5.05232453346252441406e-01) (284, -5.02218961715698242188e-01) (285, -1.38737499713897705078e-01) (286, -1.71769589185714721680e-01) (287, -1.81291013956069946289e-01) (288, -2.25345164537429809570e-01) (289, -1.82881444692611694336e-01) (290, -2.85485833883285522461e-01) (291, -2.38655239343643188477e-01) (292, -1.69543802738189697266e-01) (293, -1.49716287851333618164e-01) (294, -2.11577326059341430664e-01) (295, -3.38337123394012451172e-01) (296, -5.04327416419982910156e-01) (297, -4.90406513214111328125e-01) (298, -4.39518332481384277344e-01) (299, -3.58958184719085693359e-01) (300, -2.19997465610504150391e-01) (301, -2.30598896741867065430e-01) (302, -2.04572767019271850586e-01) (303, -1.44066572189331054688e-01) (304, -4.67130899429321289062e-01) (305, -4.33322370052337646484e-01) (306, -4.18640255928039550781e-01) (307, -3.53111445903778076172e-01) (308, -5.19702851772308349609e-01) (309, -5.04286646842956542969e-01) (310, -5.03189384937286376953e-01) (311, -4.55009639263153076172e-01) (312, -3.61844420433044433594e-01) (313, -4.57934796810150146484e-01) (314, -4.23442065715789794922e-01) (315, -2.82463341951370239258e-01) (316, -2.59872287511825561523e-01) (317, -2.58411675691604614258e-01) (318, -1.71754360198974609375e-01) (319, -1.93217396736145019531e-01) (320, -1.49293094873428344727e-01) (321, -1.65240168571472167969e-01) (322, -1.39872640371322631836e-01) (323, -2.26836889982223510742e-01) (324, -2.22956448793411254883e-01) (325, -5.04249989986419677734e-01) (326, -4.73173975944519042969e-01) (327, -4.35283899307250976562e-01) (328, -4.57856476306915283203e-01) (329, -3.75892281532287597656e-01) (330, -2.12642043828964233398e-01) (331, -1.41053944826126098633e-01) (332, -2.69691199064254760742e-01) (333, -3.70014786720275878906e-01) (334, -4.37920510768890380859e-01) (335, -4.44822072982788085938e-01) (336, -4.66537117958068847656e-01) (337, -5.19760727882385253906e-01) (338, -4.61133480072021484375e-01) (339, -4.49439942836761474609e-01) (340, -4.87247347831726074219e-01) (341, -4.27522897720336914062e-01) (342, -3.67649555206298828125e-01) (343, -5.12291789054870605469e-01) (344, -3.48657667636871337891e-01) (345, -2.09491580724716186523e-01) (346, -2.57955104112625122070e-01) (347, -2.71729916334152221680e-01) (348, -1.75903201103210449219e-01) (349, -1.37709438800811767578e-01) (350, -1.72947287559509277344e-01) (351, -2.33196288347244262695e-01) (352, -2.10949599742889404297e-01) (353, -2.20819920301437377930e-01) (354, -1.68033152818679809570e-01) (355, -3.86706054210662841797e-01) (356, -4.33069884777069091797e-01) (357, -3.49207103252410888672e-01) (358, -4.85189914703369140625e-01) (359, -3.54126334190368652344e-01) (360, -1.43499404191970825195e-01) (361, -1.61031931638717651367e-01) (362, -4.03180241584777832031e-01) (363, -3.65990579128265380859e-01) (364, -4.39046680927276611328e-01) (365, -5.04300773143768310547e-01) (366, -4.74012613296508789062e-01) (367, -3.68783771991729736328e-01) (368, -4.87261474132537841797e-01) (369, -3.98346126079559326172e-01) (370, -4.81423676013946533203e-01) (371, -4.37708795070648193359e-01) (372, -4.89068984985351562500e-01) (373, -5.12273132801055908203e-01) (374, -4.13200557231903076172e-01) (375, -2.56126552820205688477e-01) (376, -1.84964716434478759766e-01) (377, -1.34355604648590087891e-01) (378, -2.35856443643569946289e-01) (379, -2.68867880105972290039e-01) (380, -1.80065035820007324219e-01) (381, -1.16803698241710662842e-01) (382, -2.10064142942428588867e-01) (383, -9.90146026015281677246e-02) (384, -4.90423619747161865234e-01) (385, -5.30897319316864013672e-01) (386, -3.93720686435699462891e-01) (387, -3.86693477630615234375e-01) (388, -3.43304395675659179688e-01) (389, -3.42110574245452880859e-01) (390, -1.59219801425933837891e-01) (391, -1.50003790855407714844e-01) (392, -4.11142528057098388672e-01) (393, -4.70400035381317138672e-01) (394, -4.23994362354278564453e-01) (395, -5.13389170169830322266e-01) (396, -4.37900781631469726562e-01) (397, -3.61206948757171630859e-01) (398, -3.45372915267944335938e-01) (399, -3.88362228870391845703e-01) (400, -4.22753036022186279297e-01) (401, -4.89996552467346191406e-01) (402, -4.89270985126495361328e-01) (403, -3.75021994113922119141e-01) (404, -2.20669656991958618164e-01) (405, -1.20871447026729583740e-01) (406, -9.43485125899314880371e-02) (407, -1.13634370267391204834e-01) (408, -1.63227051496505737305e-01) (409, -2.38204956054687500000e-01) (410, -2.90502250194549560547e-01) (411, -2.51292079687118530273e-01) (412, -2.63008654117584228516e-01) (413, -4.53366398811340332031e-01) (414, -5.03106713294982910156e-01) (415, -4.61432278156280517578e-01) (416, -4.47463691234588623047e-01) (417, -3.60027372837066650391e-01) (418, -5.11325716972351074219e-01) (419, -4.53968107700347900391e-01) (420, -1.20537899434566497803e-01) (421, -1.33745461702346801758e-01) (422, -5.11971831321716308594e-01) (423, -4.39680397510528564453e-01) (424, -5.12145519256591796875e-01) (425, -3.99166166782379150391e-01) (426, -4.16269540786743164062e-01) (427, -4.13246273994445800781e-01) (428, -4.23573136329650878906e-01) (429, -4.24842417240142822266e-01) (430, -4.64808464050292968750e-01) (431, -5.09526133537292480469e-01) (432, -3.78038942813873291016e-01) (433, -4.17279392480850219727e-01) (434, -1.02948091924190521240e-01) (435, -2.61908620595932006836e-01) (436, -2.01350837945938110352e-01) (437, -1.05296604335308074951e-01) (438, -2.83542960882186889648e-01) (439, -2.72577911615371704102e-01) (440, -2.51501560211181640625e-01) (441, -2.82045215368270874023e-01) (442, -2.31869965791702270508e-01) (443, -4.67310190200805664062e-01) (444, -4.43411588668823242188e-01) (445, -4.42976653575897216797e-01) (446, -3.91942441463470458984e-01) (447, -3.54075253009796142578e-01) (448, -4.66203987598419189453e-01) (449, -3.66468131542205810547e-01) (450, -2.26443320512771606445e-01) (451, -2.49941855669021606445e-01) (452, -4.08213615417480468750e-01) (453, -4.46415185928344726562e-01) (454, -3.97622287273406982422e-01) (455, -3.83559048175811767578e-01) (456, -5.08781313896179199219e-01) (457, -4.77091789245605468750e-01) (458, -4.60005283355712890625e-01) (459, -3.95554423332214355469e-01) (460, -3.65134179592132568359e-01) (461, -3.88013720512390136719e-01) (462, -3.68280529975891113281e-01) (463, -4.06373143196105957031e-01) (464, -2.23693072795867919922e-01) (465, -1.34428620338439941406e-01) (466, -1.31481736898422241211e-01) (467, -1.33043885231018066406e-01) (468, -1.47725224494934082031e-01) (469, -1.23024694621562957764e-01) (470, -1.13621763885021209717e-01) (471, -1.07226751744747161865e-01) (472, -1.13069884479045867920e-01) (473, -4.98291730880737304688e-01) (474, -4.82536971569061279297e-01) (475, -4.64481472969055175781e-01) (476, -4.04468357563018798828e-01) (477, -3.37679386138916015625e-01) (478, -4.81756687164306640625e-01) (479, -5.33872306346893310547e-01) (480, -1.22547440230846405029e-01) (481, -1.71399980783462524414e-01) (482, -4.91814196109771728516e-01) (483, -4.38761055469512939453e-01) (484, -5.25815129280090332031e-01) (485, -3.52636396884918212891e-01) (486, -4.85520064830780029297e-01) (487, -4.97796416282653808594e-01) (488, -4.92928147315979003906e-01) (489, -4.08725380897521972656e-01) (490, -3.56550812721252441406e-01) (491, -5.21262347698211669922e-01) (492, -4.59939062595367431641e-01) (493, -3.88031363487243652344e-01) (494, -1.46035462617874145508e-01) (495, -1.46832108497619628906e-01) (496, -1.85659945011138916016e-01) (497, -1.85517162084579467773e-01) (498, -1.87875986099243164062e-01) (499, -2.41385132074356079102e-01) (500, -2.16541856527328491211e-01) (501, -2.09497720003128051758e-01) (502, -5.01411914825439453125e-01) (503, -4.82411742210388183594e-01) (504, -4.15789484977722167969e-01) (505, -4.47148859500885009766e-01) (506, -4.10093188285827636719e-01) (507, -4.83457803726196289062e-01) (508, -4.48028147220611572266e-01) (509, -3.55049848556518554688e-01) (510, -2.35730081796646118164e-01) (511, -2.33775585889816284180e-01) (512, -4.34449851512908935547e-01) (513, -4.35544252395629882812e-01) (514, -3.80536615848541259766e-01) (515, -4.23464953899383544922e-01) (516, -4.51380610466003417969e-01) (517, -5.29256641864776611328e-01) (518, -3.84461402893066406250e-01) (519, -4.07508730888366699219e-01) (520, -4.01181995868682861328e-01) (521, -4.04212176799774169922e-01) (522, -3.91971051692962646484e-01) (523, -5.24321019649505615234e-01) (524, -4.55443501472473144531e-01) (525, -4.46006536483764648438e-01) (526, -1.34353101253509521484e-01) (527, -1.04303441941738128662e-01) (528, -9.47236642241477966309e-02) (529, -2.30229079723358154297e-01) (530, -4.98488605022430419922e-01) (531, -4.64065551757812500000e-01) (532, -3.92526805400848388672e-01) (533, -4.63100492954254150391e-01) (534, -4.09677207469940185547e-01) (535, -4.71516251564025878906e-01) (536, -3.73449265956878662109e-01) (537, -4.82970356941223144531e-01) (538, -1.73373997211456298828e-01) (539, -2.39877432584762573242e-01) (540, -2.56420224905014038086e-01) (541, -1.17104046046733856201e-01) (542, -4.26452994346618652344e-01) (543, -3.98870050907135009766e-01) (544, -4.60648238658905029297e-01) (545, -4.70189571380615234375e-01) (546, -4.85534965991973876953e-01) (547, -3.75228822231292724609e-01) (548, -4.62646186351776123047e-01) (549, -5.33196330070495605469e-01) (550, -4.45937573909759521484e-01) (551, -5.27028203010559082031e-01) (552, -4.00608479976654052734e-01) (553, -5.01108586788177490234e-01) (554, -5.14549195766448974609e-01) (555, -5.19252002239227294922e-01) (556, -4.10315096378326416016e-01) (557, -3.56902301311492919922e-01) (558, -5.31555414199829101562e-01) (559, -4.13038790225982666016e-01) (560, -4.95131313800811767578e-01) (561, -4.93243992328643798828e-01) (562, -3.40304255485534667969e-01) (563, -3.50858151912689208984e-01) (564, -4.19544458389282226562e-01) (565, -4.13181483745574951172e-01) (566, -2.40774333477020263672e-01) (567, -2.11393684148788452148e-01) (568, -1.14551804959774017334e-01) (569, -1.22148297727108001709e-01) (570, -1.59271091222763061523e-01) (571, -2.78971999883651733398e-01) (572, -3.92052352428436279297e-01) (573, -4.93724107742309570312e-01) (574, -3.85842025279998779297e-01) (575, -5.15900552272796630859e-01) (576, -4.27113652229309082031e-01) (577, -5.34577012062072753906e-01) (578, -3.54329407215118408203e-01) (579, -3.52959811687469482422e-01) (580, -5.30973315238952636719e-01) (581, -4.63466942310333251953e-01) (582, -3.43187987804412841797e-01) (583, -3.94781768321990966797e-01) (584, -4.27775502204895019531e-01) (585, -5.20937144756317138672e-01) (586, -3.77233743667602539062e-01) (587, -5.01290559768676757812e-01) (588, -3.41039419174194335938e-01) (589, -3.71989130973815917969e-01) (590, -3.77529323101043701172e-01) (591, -4.99370694160461425781e-01) (592, -5.28433084487915039062e-01) (593, -3.81033539772033691406e-01) (594, -5.13428807258605957031e-01) (595, -1.66377454996109008789e-01) (596, -2.12614983320236206055e-01) (597, -2.17403084039688110352e-01) (598, -2.85771161317825317383e-01) (599, -2.35166817903518676758e-01) (600, -2.47551411390304565430e-01) (601, -1.53042227029800415039e-01) (602, -4.66938793659210205078e-01) (603, -3.47603738307952880859e-01) (604, -3.54766309261322021484e-01) (605, -5.15980839729309082031e-01) (606, -5.26704251766204833984e-01) (607, -4.45079922676086425781e-01) (608, -5.13757824897766113281e-01) (609, -3.44233632087707519531e-01) (610, -4.61239695549011230469e-01) (611, -5.07931053638458251953e-01) (612, -4.70900535583496093750e-01) (613, -4.67627644538879394531e-01) (614, -3.65912795066833496094e-01) (615, -3.61876010894775390625e-01) (616, -4.51764762401580810547e-01) (617, -4.06346499919891357422e-01) (618, -5.26366531848907470703e-01) (619, -4.56004142761230468750e-01) (620, -4.41535592079162597656e-01) (621, -3.67095828056335449219e-01) (622, -4.18574810028076171875e-01) (623, -1.88368588685989379883e-01) (624, -1.66529387235641479492e-01) (625, -1.50403559207916259766e-01) (626, -2.62746065855026245117e-01) (627, -2.87144362926483154297e-01) (628, -2.75806635618209838867e-01) (629, -2.56517201662063598633e-01) (630, -2.30311155319213867188e-01) (631, -2.31358021497726440430e-01) (632, -1.17559365928173065186e-01) (633, -1.60449951887130737305e-01) (634, -4.86961722373962402344e-01) (635, -3.80325675010681152344e-01) (636, -3.84430766105651855469e-01) (637, -4.76865947246551513672e-01) (638, -4.88605499267578125000e-01) (639, -3.61388564109802246094e-01) (640, -4.84299540519714355469e-01) (641, -4.13045197725296020508e-01) (642, -5.32519578933715820312e-01) (643, -4.18400049209594726562e-01) (644, -3.43872845172882080078e-01) (645, -3.61632406711578369141e-01) (646, -4.43476021289825439453e-01) (647, -4.58837568759918212891e-01) (648, -4.31178867816925048828e-01) (649, -4.33042526245117187500e-01) (650, -3.78041684627532958984e-01) (651, -2.91114360094070434570e-01) (652, -2.18538343906402587891e-01) (653, -2.15016484260559082031e-01) (654, -1.87482953071594238281e-01) (655, -9.30676981806755065918e-02) (656, -2.73420035839080810547e-01) (657, -1.58228993415832519531e-01) (658, -2.88212031126022338867e-01) (659, -2.57226675748825073242e-01) (660, -1.22746162116527557373e-01) (661, -2.26523190736770629883e-01) (662, -1.96584671735763549805e-01) (663, -1.48305535316467285156e-01) (664, -9.49731096625328063965e-02) (665, -1.46746367216110229492e-01) (666, -1.91831141710281372070e-01) (667, -1.42603874206542968750e-01) (668, -5.31612336635589599609e-01) (669, -3.88436675071716308594e-01) (670, -4.11992430686950683594e-01) (671, -4.79111850261688232422e-01) (672, -4.64681804180145263672e-01) (673, -4.07711982727050781250e-01) (674, -3.60711872577667236328e-01) (675, -4.71754610538482666016e-01) (676, -4.32544350624084472656e-01) (677, -4.67387855052947998047e-01) (678, -3.93792152404785156250e-01) (679, -5.26923179626464843750e-01) (680, -1.18830375373363494873e-01) (681, -1.90233826637268066406e-01) (682, -2.81237512826919555664e-01) (683, -2.45368689298629760742e-01) (684, -1.13250277936458587646e-01) (685, -1.76720470190048217773e-01) (686, -2.46436387300491333008e-01) (687, -9.46703180670738220215e-02) (688, -2.42949455976486206055e-01) (689, -2.42648422718048095703e-01) (690, -2.59896963834762573242e-01) (691, -2.73695617914199829102e-01) (692, -1.77171587944030761719e-01) (693, -1.64481639862060546875e-01) (694, -1.30001097917556762695e-01) (695, -1.80144667625427246094e-01) (696, -2.19227999448776245117e-01) (697, -2.29832261800765991211e-01) (698, -2.30748534202575683594e-01) (699, -4.58840310573577880859e-01) (700, -5.26268899440765380859e-01) (701, -3.50740909576416015625e-01) (702, -4.01152193546295166016e-01) (703, -4.54150676727294921875e-01) (704, -4.21652913093566894531e-01) (705, -4.25064027309417724609e-01) (706, -3.89105260372161865234e-01) (707, -5.17397224903106689453e-01) (708, -3.55651915073394775391e-01) (709, -2.01297432184219360352e-01) (710, -2.62720316648483276367e-01) (711, -1.37682229280471801758e-01) (712, -9.95312258601188659668e-02) (713, -2.51957833766937255859e-01) (714, -2.91050940752029418945e-01) (715, -1.20781503617763519287e-01) (716, -1.36678278446197509766e-01) (717, -2.45487302541732788086e-01) (718, -1.23451821506023406982e-01) (719, -2.87627726793289184570e-01) (720, -1.96135729551315307617e-01) (721, -2.91348785161972045898e-01) (722, -2.69323289394378662109e-01) (723, -2.81307280063629150391e-01) (724, -1.63830399513244628906e-01) (725, -1.07324384152889251709e-01) (726, -1.69451951980590820312e-01) (727, -2.91058391332626342773e-01) (728, -2.45156615972518920898e-01) (729, -1.08200453221797943115e-01) (730, -2.13098704814910888672e-01) (731, -4.79425489902496337891e-01) (732, -3.66941392421722412109e-01) (733, -5.22250890731811523438e-01) (734, -3.96776139736175537109e-01) (735, -4.51794207096099853516e-01) (736, -4.10514891147613525391e-01) (737, -2.04281389713287353516e-01) (738, -1.87591403722763061523e-01) (739, -1.84566736221313476562e-01) (740, -1.13578759133815765381e-01) (741, -1.58311694860458374023e-01) (742, -2.30248957872390747070e-01) (743, -1.21109984815120697021e-01) (744, -1.18269495666027069092e-01) (745, -2.29299873113632202148e-01) (746, -1.49891495704650878906e-01) (747, -1.62947773933410644531e-01) (748, -1.82787179946899414062e-01) (749, -1.81343317031860351562e-01) (750, -1.58575445413589477539e-01) (751, -2.86922901868820190430e-01) (752, -1.80692076683044433594e-01) (753, -1.35898739099502563477e-01) (754, -2.76230126619338989258e-01) (755, -2.52522498369216918945e-01) (756, -1.51223093271255493164e-01) (757, -1.53682082891464233398e-01) (758, -2.51580864191055297852e-01) (759, -1.04379706084728240967e-01) (760, -1.69882506132125854492e-01) (761, -1.72679573297500610352e-01) (762, -2.47005194425582885742e-01) (763, -2.00023859739303588867e-01) (764, -1.58130407333374023438e-01) (765, -1.06981299817562103271e-01) (766, -1.15018032491207122803e-01) (767, -2.31845259666442871094e-01) (768, -2.19262689352035522461e-01) (769, -2.10609406232833862305e-01) (770, -1.24411962926387786865e-01) (771, -2.40841448307037353516e-01) (772, -2.76921123266220092773e-01) (773, -2.62660950422286987305e-01) (774, -2.69951432943344116211e-01) (775, -1.03190593421459197998e-01) (776, -1.99960827827453613281e-01) (777, -1.27842903137207031250e-01) (778, -1.74138367176055908203e-01) (779, -2.90747970342636108398e-01) (780, -2.17186212539672851562e-01) (781, -2.40713804960250854492e-01) (782, -2.85670846700668334961e-01) (783, -1.05878256261348724365e-01) (784, -2.84612506628036499023e-01) (785, -2.69901007413864135742e-01) (786, -2.66400724649429321289e-01) (787, -1.43835633993148803711e-01) (788, -1.31583034992218017578e-01) (789, -2.25981593132019042969e-01) (790, -1.56215339899063110352e-01) (791, -2.09465533494949340820e-01) (792, -1.06661133468151092529e-01) (793, -1.11220501363277435303e-01) (794, -1.17489360272884368896e-01) (795, -1.72791510820388793945e-01) (796, -1.26201808452606201172e-01) (797, -1.40507429838180541992e-01) (798, -1.12636767327785491943e-01) (799, -2.53464490175247192383e-01) (800, -2.59116828441619873047e-01) (801, -1.45048737525939941406e-01) (802, -2.02305942773818969727e-01) (803, -2.44037926197052001953e-01) (804, -1.15709684789180755615e-01) (805, -1.80257350206375122070e-01) (806, -2.55228519439697265625e-01) (807, -2.23670512437820434570e-01) (808, -2.16100245714187622070e-01) (809, -1.37366861104965209961e-01) (810, -2.22418457269668579102e-01) (811, -1.41286432743072509766e-01) (812, -2.86080628633499145508e-01) (813, -2.16089308261871337891e-01) (814, -1.55164688825607299805e-01) (815, -2.78693169355392456055e-01) (816, -1.93990290164947509766e-01) (817, -1.29565417766571044922e-01) (818, -1.30528777837753295898e-01) (819, -2.33573317527770996094e-01) (820, -2.63546973466873168945e-01) (821, -1.94744080305099487305e-01) (822, -1.51038855314254760742e-01) (823, -2.78208106756210327148e-01) (824, -2.13964551687240600586e-01) (825, -1.76528215408325195312e-01) (826, -1.58999621868133544922e-01) (827, -2.48166352510452270508e-01) (828, -2.25035637617111206055e-01) (829, -1.79636389017105102539e-01) (830, -2.09630817174911499023e-01) (831, -1.92152440547943115234e-01) (832, -2.32685118913650512695e-01) (833, -1.19936726987361907959e-01) (834, -1.44190341234207153320e-01) (835, -2.56394773721694946289e-01) (836, -2.08194047212600708008e-01) (837, -1.07418857514858245850e-01) (838, -1.88065260648727416992e-01) (839, -1.32294267416000366211e-01) (840, -1.52785688638687133789e-01) (841, -1.18483714759349822998e-01) (842, -1.81580692529678344727e-01) (843, -1.46866321563720703125e-01) (844, -2.42573022842407226562e-01) (845, -2.44745343923568725586e-01) (846, -1.33559465408325195312e-01) (847, -1.44563287496566772461e-01) (848, -2.82310754060745239258e-01) (849, -1.72088205814361572266e-01) (850, -2.86136597394943237305e-01) (851, -2.53857731819152832031e-01) (852, -2.74832278490066528320e-01) (853, -1.45175427198410034180e-01) (854, -2.40065842866897583008e-01) (855, -1.96796834468841552734e-01) (856, -2.29703634977340698242e-01) (857, -1.07065431773662567139e-01) (858, -1.52963161468505859375e-01) (859, -1.62739247083663940430e-01) (860, -1.94701820611953735352e-01) (861, -2.70593971014022827148e-01) (862, -2.62891680002212524414e-01) (863, -1.35386943817138671875e-01) (864, -9.85307022929191589355e-02) (865, -1.15081988275051116943e-01) (866, -9.97817143797874450684e-02) (867, -2.14724749326705932617e-01) (868, -1.30500823259353637695e-01) (869, -1.95846945047378540039e-01) (870, -2.55018979310989379883e-01) (871, -1.91286504268646240234e-01) (872, -2.22330659627914428711e-01) (873, -1.44599646329879760742e-01) (874, -2.46152848005294799805e-01) (875, -1.72903656959533691406e-01) (876, -9.73449870944023132324e-02) (877, -2.87712305784225463867e-01) (878, -2.25466936826705932617e-01) (879, -2.87655740976333618164e-01) (880, -1.67800486087799072266e-01) (881, -2.19603508710861206055e-01) (882, -2.49513477087020874023e-01) (883, -1.50632739067077636719e-01) (884, -2.72778898477554321289e-01) (885, -1.97579294443130493164e-01) (886, -2.55429565906524658203e-01) (887, -2.10482507944107055664e-01) (888, -2.12644726037979125977e-01) (889, -1.16392694413661956787e-01) (890, -2.81221717596054077148e-01) (891, -1.15346513688564300537e-01) (892, -9.49866697192192077637e-02) (893, -2.52113372087478637695e-01) (894, -1.58733457326889038086e-01) (895, -1.01517371833324432373e-01) (896, -2.75195330381393432617e-01) (897, -1.66515141725540161133e-01) (898, -2.24242091178894042969e-01) (899, -1.13696150481700897217e-01) (900, -2.70362108945846557617e-01) (0, 2.56738960742950439453e-01) (1, 2.31017380952835083008e-01) (2, 2.43307292461395263672e-01) (3, 2.04139322042465209961e-01) (4, 2.76864558458328247070e-01) (5, 1.62403643131256103516e-01) (6, 1.98794335126876831055e-01) (7, 2.81152278184890747070e-01) (8, 2.28936731815338134766e-01) (9, 2.03138589859008789062e-01) (10, 2.05351829528808593750e-01) (11, 3.01333248615264892578e-01) (12, 2.45625168085098266602e-01) (13, 3.46719086170196533203e-01) (14, 3.20554345846176147461e-01) (15, 3.40045899152755737305e-01) (16, 1.83289557695388793945e-01) (17, 2.02071845531463623047e-01) (18, 2.19401210546493530273e-01) (19, 1.58896848559379577637e-01) (20, 2.12850153446197509766e-01) (21, 1.96054697036743164062e-01) (22, 1.55910179018974304199e-01) (23, 2.52736806869506835938e-01) (24, 3.29321265220642089844e-01) (25, 3.46392810344696044922e-01) (26, 2.69541442394256591797e-01) (27, 2.54806131124496459961e-01) (28, 2.14150756597518920898e-01) (29, 2.47845321893692016602e-01) (30, 2.76444077491760253906e-01) (31, 3.18889707326889038086e-01) (32, 3.26862663030624389648e-01) (33, 1.67751371860504150391e-01) (34, 1.71029001474380493164e-01) (35, 2.51727223396301269531e-01) (36, 1.78155004978179931641e-01) (37, 2.17823326587677001953e-01) (38, 1.80879503488540649414e-01) (39, 2.55091726779937744141e-01) (40, 2.68961906433105468750e-01) (41, 2.34231323003768920898e-01) (42, 2.04424947500228881836e-01) (43, 1.62587061524391174316e-01) (44, 2.28950381278991699219e-01) (45, 1.72979295253753662109e-01) (46, 3.50632935762405395508e-01) (47, 2.60239928960800170898e-01) (48, 2.23051160573959350586e-01) (49, 2.18034148216247558594e-01) (50, 2.67136752605438232422e-01) (51, 2.83901274204254150391e-01) (52, 2.62088835239410400391e-01) (53, 2.71046936511993408203e-01) (54, 1.84638053178787231445e-01) (55, 2.39410072565078735352e-01) (56, 2.65439748764038085938e-01) (57, 3.02179515361785888672e-01) (58, 3.42216193675994873047e-01) (59, 3.27590495347976684570e-01) (60, 1.98024809360504150391e-01) (61, 2.66660273075103759766e-01) (62, 2.94480174779891967773e-01) (63, 1.72887474298477172852e-01) (64, 2.82411605119705200195e-01) (65, 3.13509166240692138672e-01) (66, 2.72614657878875732422e-01) (67, 3.08566600084304809570e-01) (68, 1.79332494735717773438e-01) (69, 3.01494151353836059570e-01) (70, 2.11658328771591186523e-01) (71, 2.96294391155242919922e-01) (72, 1.83725446462631225586e-01) (73, 2.64083266258239746094e-01) (74, 3.06881457567214965820e-01) (75, 2.60675847530364990234e-01) (76, 2.85062551498413085938e-01) (77, 3.05514395236968994141e-01) (78, 1.68915748596191406250e-01) (79, 1.56113684177398681641e-01) (80, 1.71548515558242797852e-01) (81, 2.84052520990371704102e-01) (82, 2.88014978170394897461e-01) (83, 2.81637310981750488281e-01) (84, 2.03099429607391357422e-01) (85, 3.20653021335601806641e-01) (86, 1.69047385454177856445e-01) (87, 3.16539168357849121094e-01) (88, 2.70832538604736328125e-01) (89, 1.59263581037521362305e-01) (90, 2.92129665613174438477e-01) (91, 3.16857308149337768555e-01) (92, 2.73923844099044799805e-01) (93, 2.34609842300415039062e-01) (94, 3.37744772434234619141e-01) (95, 2.04335451126098632812e-01) (96, 1.96119010448455810547e-01) (97, 2.58359432220458984375e-01) (98, 1.60902053117752075195e-01) (99, 2.23451465368270874023e-01) (100, 2.07853585481643676758e-01) (101, 2.20560371875762939453e-01) (102, 1.67745858430862426758e-01) (103, 2.39579051733016967773e-01) (104, 3.32643598318099975586e-01) (105, 3.22627305984497070312e-01) (106, 3.48254859447479248047e-01) (107, 2.65706151723861694336e-01) (108, 2.76141703128814697266e-01) (109, 1.65170609951019287109e-01) (110, 2.69819855690002441406e-01) (111, 2.95690178871154785156e-01) (112, 2.97223120927810668945e-01) (113, 2.05834805965423583984e-01) (114, 2.25327521562576293945e-01) (115, 3.48322540521621704102e-01) (116, 1.74487799406051635742e-01) (117, 2.42374897003173828125e-01) (118, 3.12861710786819458008e-01) (119, 2.93320327997207641602e-01) (120, 2.49638468027114868164e-01) (121, 2.52991378307342529297e-01) (122, 2.58177638053894042969e-01) (123, 1.71562284231185913086e-01) (124, 3.35601180791854858398e-01) (125, 2.43922412395477294922e-01) (126, 2.23897725343704223633e-01) (127, 1.79720193147659301758e-01) (128, 3.50281834602355957031e-01) (129, 2.32799768447875976562e-01) (130, 2.51171648502349853516e-01) (131, 2.06135421991348266602e-01) (132, 3.01360100507736206055e-01) (133, 2.66917526721954345703e-01) (134, 2.93714433908462524414e-01) (135, 2.82003700733184814453e-01) (136, 2.37544804811477661133e-01) (137, 2.89969295263290405273e-01) (138, 1.95709854364395141602e-01) (139, 1.61686480045318603516e-01) (140, 3.03139895200729370117e-01) (141, 3.13529700040817260742e-01) (142, 3.05376678705215454102e-01) (143, 2.48363018035888671875e-01) (144, 1.67364478111267089844e-01) (145, 1.78704172372817993164e-01) (146, 2.44685560464859008789e-01) (147, 1.89852267503738403320e-01) (148, 2.69079029560089111328e-01) (149, 2.05547273159027099609e-01) (150, 3.31172585487365722656e-01) (151, 1.66717484593391418457e-01) (152, 3.06538641452789306641e-01) (153, 2.37350225448608398438e-01) (154, 1.86279758810997009277e-01) (155, 2.90139824151992797852e-01) (156, 3.29272598028182983398e-01) (157, 2.58177459239959716797e-01) (158, 3.17860007286071777344e-01) (159, 3.27554434537887573242e-01) (160, 3.38977217674255371094e-01) (161, 2.17031657695770263672e-01) (162, 1.81689858436584472656e-01) (163, 2.88337320089340209961e-01) (164, 3.31949144601821899414e-01) (165, 3.23404282331466674805e-01) (166, 2.18341022729873657227e-01) (167, 2.17493951320648193359e-01) (168, 2.61373609304428100586e-01) (169, 2.62050867080688476562e-01) (170, 2.27180421352386474609e-01) (171, 2.12513506412506103516e-01) (172, 2.23580569028854370117e-01) (173, 1.80557101964950561523e-01) (174, 3.08876514434814453125e-01) (175, 2.38945037126541137695e-01) (176, 2.07261234521865844727e-01) (177, 2.01562076807022094727e-01) (178, 2.76797294616699218750e-01) (179, 3.24340254068374633789e-01) (180, 2.55109369754791259766e-01) (181, 2.55969852209091186523e-01) (182, 3.39057743549346923828e-01) (183, 2.09647983312606811523e-01) (184, 3.41320067644119262695e-01) (185, 1.73337489366531372070e-01) (186, 3.47787827253341674805e-01) (187, 3.18592667579650878906e-01) (188, 2.79514938592910766602e-01) (189, 3.13647806644439697266e-01) (190, 2.94147104024887084961e-01) (191, 2.66492187976837158203e-01) (192, 1.78679466247558593750e-01) (193, 3.23836952447891235352e-01) (194, 2.02829480171203613281e-01) (195, 1.58628612756729125977e-01) (196, 2.95241236686706542969e-01) (197, 2.69170522689819335938e-01) (198, 2.24122583866119384766e-01) (199, 2.04614847898483276367e-01) (200, 1.79221391677856445312e-01) (201, 2.99302995204925537109e-01) (202, 2.65128344297409057617e-01) (203, 2.50801950693130493164e-01) (204, 3.27860087156295776367e-01) (205, 2.22004860639572143555e-01) (206, 3.37746948003768920898e-01) (207, 1.83121323585510253906e-01) (208, 2.71566927433013916016e-01) (209, 2.62544244527816772461e-01) (210, 1.55461579561233520508e-01) (211, 1.74676269292831420898e-01) (212, 1.66514098644256591797e-01) (213, 3.42519313097000122070e-01) (214, 2.32324272394180297852e-01) (215, 1.55834153294563293457e-01) (216, 1.63856804370880126953e-01) (217, 2.28112071752548217773e-01) (218, 3.22426795959472656250e-01) (219, 2.91371732950210571289e-01) (220, 1.89759880304336547852e-01) (221, 2.64573901891708374023e-01) (222, 2.05863922834396362305e-01) (223, 2.16439336538314819336e-01) (224, 2.36410856246948242188e-01) (225, 2.56693392992019653320e-01) (226, 2.23067939281463623047e-01) (227, 1.79652094841003417969e-01) (228, 1.73863917589187622070e-01) (229, 2.95190513134002685547e-01) (230, 2.32266932725906372070e-01) (231, 2.01085299253463745117e-01) (232, 2.42493510246276855469e-01) (233, 3.45395267009735107422e-01) (234, 2.99887210130691528320e-01) (235, 2.18353569507598876953e-01) (236, 2.15400129556655883789e-01) (237, 2.85634189844131469727e-01) (238, 2.49474883079528808594e-01) (239, 3.34967046976089477539e-01) (240, 1.96178421378135681152e-01) (241, 2.52936452627182006836e-01) (242, 1.57643318176269531250e-01) (243, 2.10692495107650756836e-01) (244, 2.43455737829208374023e-01) (245, 2.37967550754547119141e-01) (246, 2.14526653289794921875e-01) (247, 2.55312532186508178711e-01) (248, 3.14079612493515014648e-01) (249, 1.84953451156616210938e-01) (250, 1.94684296846389770508e-01) (251, 3.51839482784271240234e-01) (252, 2.97527343034744262695e-01) (253, 2.48548179864883422852e-01) (254, 2.16278821229934692383e-01) (255, 1.81938186287879943848e-01) (256, 1.53241574764251708984e-01) (257, 2.87346750497817993164e-01) (258, 2.09590256214141845703e-01) (259, 1.75105482339859008789e-01) (260, 2.30537235736846923828e-01) (261, 2.89857178926467895508e-01) (262, 2.24190771579742431641e-01) (263, 3.21030735969543457031e-01) (264, 2.83252447843551635742e-01) (265, 1.72077983617782592773e-01) (266, 1.87384292483329772949e-01) (267, 3.46652537584304809570e-01) (268, 3.05712163448333740234e-01) (269, 2.84859150648117065430e-01) (270, 3.29619556665420532227e-01) (271, 3.49890559911727905273e-01) (272, 1.85795575380325317383e-01) (273, 3.35262864828109741211e-01) (274, 2.08583086729049682617e-01) (275, 2.77251332998275756836e-01) (276, 2.21230417490005493164e-01) (277, 2.71109730005264282227e-01) (278, 1.80563867092132568359e-01) (279, 1.83310031890869140625e-01) (280, 3.04063141345977783203e-01) (281, 2.23248124122619628906e-01) (282, 1.83149501681327819824e-01) (283, 2.49590486288070678711e-01) (284, 3.19796293973922729492e-01) (285, 2.47428297996520996094e-01) (286, 2.79528647661209106445e-01) (287, 3.21037888526916503906e-01) (288, 1.82775035500526428223e-01) (289, 3.37118893861770629883e-01) (290, 3.44143360853195190430e-01) (291, 2.61312276124954223633e-01) (292, 2.74976074695587158203e-01) (293, 2.16334104537963867188e-01) (294, 2.30342984199523925781e-01) (295, 2.06228524446487426758e-01) (296, 2.36412078142166137695e-01) (297, 2.65727281570434570312e-01) (298, 2.00881034135818481445e-01) (299, 1.90124243497848510742e-01) (300, 1.98586404323577880859e-01) (301, 1.78500622510910034180e-01) (302, 1.88014805316925048828e-01) (303, 2.32381999492645263672e-01) (304, 1.61763489246368408203e-01) (305, 2.44597882032394409180e-01) (306, 1.57633319497108459473e-01) (307, 2.30993896722793579102e-01) (308, 1.63707584142684936523e-01) (309, 1.86197161674499511719e-01) (310, 2.62303918600082397461e-01) (311, 3.15770745277404785156e-01) (312, 2.57445275783538818359e-01) (313, 2.93453395366668701172e-01) (314, 2.13361233472824096680e-01) (315, 2.25241601467132568359e-01) (316, 1.88881695270538330078e-01) (317, 3.40889871120452880859e-01) (318, 1.94279477000236511230e-01) (319, 2.19656705856323242188e-01) (320, 3.26008766889572143555e-01) (321, 1.86422824859619140625e-01) (322, 3.28968971967697143555e-01) (323, 2.48984873294830322266e-01) (324, 2.50756919384002685547e-01) (325, 2.07311958074569702148e-01) (326, 3.03213357925415039062e-01) (327, 3.35168987512588500977e-01) (328, 3.21039199829101562500e-01) (329, 1.52094408869743347168e-01) (330, 1.73293247818946838379e-01) (331, 1.67625620961189270020e-01) (332, 1.78595006465911865234e-01) (333, 2.09308058023452758789e-01) (334, 2.48007625341415405273e-01) (335, 1.88358485698699951172e-01) (336, 3.01905930042266845703e-01) (337, 2.53640919923782348633e-01) (338, 2.67352372407913208008e-01) (339, 3.13613504171371459961e-01) (340, 2.87838071584701538086e-01) (341, 1.77656263113021850586e-01) (342, 2.77384251356124877930e-01) (343, 1.93283349275588989258e-01) (344, 3.19109648466110229492e-01) (345, 3.38745445013046264648e-01) (346, 2.66524940729141235352e-01) (347, 1.55991345643997192383e-01) (348, 3.27635318040847778320e-01) (349, 3.08804422616958618164e-01) (350, 2.23648041486740112305e-01) (351, 3.01644086837768554688e-01) (352, 3.43227237462997436523e-01) (353, 2.00616985559463500977e-01) (354, 1.98628932237625122070e-01) (355, 2.41984158754348754883e-01) (356, 2.55928933620452880859e-01) (357, 3.49842309951782226562e-01) (358, 2.25153148174285888672e-01) (359, 2.24968135356903076172e-01) (360, 3.49936693906784057617e-01) (361, 2.46446371078491210938e-01) (362, 2.40593731403350830078e-01) (363, 1.76531702280044555664e-01) (364, 3.03754419088363647461e-01) (365, 3.36601346731185913086e-01) (366, 2.12890177965164184570e-01) (367, 2.53660351037979125977e-01) (368, 2.38242238759994506836e-01) (369, 3.28242540359497070312e-01) (370, 2.15273857116699218750e-01) (371, 1.74080312252044677734e-01) (372, 1.53898790478706359863e-01) (373, 3.40658068656921386719e-01) (374, 2.15363651514053344727e-01) (375, 3.21008414030075073242e-01) (376, 3.27403515577316284180e-01) (377, 3.29888612031936645508e-01) (378, 3.24999749660491943359e-01) (379, 3.03038835525512695312e-01) (380, 2.86693006753921508789e-01) (381, 1.96647793054580688477e-01) (382, 2.52682924270629882812e-01) (383, 2.77920216321945190430e-01) (384, 2.45264768600463867188e-01) (385, 2.99311846494674682617e-01) (386, 1.67904347181320190430e-01) (387, 3.49193662405014038086e-01) (388, 2.97154158353805541992e-01) (389, 2.41057485342025756836e-01) (390, 2.22161799669265747070e-01) (391, 2.95090824365615844727e-01) (392, 3.35503846406936645508e-01) (393, 3.10755521059036254883e-01) (394, 3.19622546434402465820e-01) (395, 2.87258267402648925781e-01) (396, 2.95356869697570800781e-01) (397, 1.80512726306915283203e-01) (398, 1.88918620347976684570e-01) (399, 1.81599110364913940430e-01) (400, 1.56755238771438598633e-01) (401, 2.52192437648773193359e-01) (402, 2.03679412603378295898e-01) (403, 1.58654019236564636230e-01) (404, 2.40850508213043212891e-01) (405, 2.67043083906173706055e-01) (406, 3.27662438154220581055e-01) (407, 2.16254025697708129883e-01) (408, 2.44931668043136596680e-01) (409, 3.00662189722061157227e-01) (410, 1.67292863130569458008e-01) (411, 1.79624676704406738281e-01) (412, 3.45309972763061523438e-01) (413, 2.67975777387619018555e-01) (414, 3.05544883012771606445e-01) (415, 2.38574743270874023438e-01) (416, 2.15287625789642333984e-01) (417, 3.21449220180511474609e-01) (418, 2.35768407583236694336e-01) (419, 1.60441756248474121094e-01) (420, 2.10506707429885864258e-01) (421, 3.05930197238922119141e-01) (422, 3.03532600402832031250e-01) (423, 1.94010555744171142578e-01) (424, 2.64685720205307006836e-01) (425, 2.71155148744583129883e-01) (426, 3.29268813133239746094e-01) (427, 2.08042591810226440430e-01) (428, 2.99667835235595703125e-01) (429, 1.66187435388565063477e-01) (430, 2.37641692161560058594e-01) (431, 3.04423063993453979492e-01) (432, 2.66379892826080322266e-01) (433, 2.89321094751358032227e-01) (434, 3.11077088117599487305e-01) (435, 1.55230388045310974121e-01) (436, 2.04364180564880371094e-01) (437, 2.86739528179168701172e-01) (438, 2.19484418630599975586e-01) (439, 2.97295838594436645508e-01) (440, 2.35401719808578491211e-01) (441, 2.34777271747589111328e-01) (442, 3.24920475482940673828e-01) (443, 2.28711694478988647461e-01) (444, 3.50753039121627807617e-01) (445, 2.78465360403060913086e-01) (446, 3.15286397933959960938e-01) (447, 2.14040666818618774414e-01) (448, 2.47914552688598632812e-01) (449, 1.99054807424545288086e-01) (450, 2.22482413053512573242e-01) (451, 3.06421250104904174805e-01) (452, 1.52984991669654846191e-01) (453, 1.74015000462532043457e-01) (454, 3.48431795835494995117e-01) (455, 2.65670716762542724609e-01) (456, 2.93170124292373657227e-01) (457, 3.25700610876083374023e-01) (458, 3.21713268756866455078e-01) (459, 2.40837961435317993164e-01) (460, 3.39888066053390502930e-01) (461, 2.07354962825775146484e-01) (462, 1.93261027336120605469e-01) (463, 2.54267930984497070312e-01) (464, 3.44676047563552856445e-01) (465, 1.52338087558746337891e-01) (466, 2.57498294115066528320e-01) (467, 1.97040230035781860352e-01) (468, 2.87077605724334716797e-01) (469, 3.24982702732086181641e-01) (470, 3.42336028814315795898e-01) (471, 1.70479327440261840820e-01) (472, 2.07759976387023925781e-01) (473, 3.15256506204605102539e-01) (474, 2.47190982103347778320e-01) (475, 2.06513017416000366211e-01) (476, 2.41721868515014648438e-01) (477, 2.10477381944656372070e-01) (478, 2.68553644418716430664e-01) (479, 3.37636411190032958984e-01) (480, 2.57532179355621337891e-01) (481, 3.39036047458648681641e-01) (482, 2.92057663202285766602e-01) (483, 2.58517146110534667969e-01) (484, 1.61051034927368164062e-01) (485, 2.88489460945129394531e-01) (486, 1.72187849879264831543e-01) (487, 3.02221149206161499023e-01) (488, 2.62190103530883789062e-01) (489, 3.41901123523712158203e-01) (490, 1.91059112548828125000e-01) (491, 2.50078141689300537109e-01) (492, 1.97256088256835937500e-01) (493, 2.32320129871368408203e-01) (494, 1.52346044778823852539e-01) (495, 1.89932137727737426758e-01) (496, 2.32658207416534423828e-01) (497, 2.57844358682632446289e-01) (498, 2.34972357749938964844e-01) (499, 1.67735815048217773438e-01) (500, 2.30827063322067260742e-01) (501, 2.25308388471603393555e-01) (502, 1.86215102672576904297e-01) (503, 2.86586999893188476562e-01) (504, 1.88564896583557128906e-01) (505, 2.81406074762344360352e-01) (506, 3.41100007295608520508e-01) (507, 2.78286755084991455078e-01) (508, 3.39883446693420410156e-01) (509, 2.57653653621673583984e-01) (510, 2.63923168182373046875e-01) (511, 2.45415627956390380859e-01) (512, 2.44689702987670898438e-01) (513, 2.03980833292007446289e-01) (514, 3.51932764053344726562e-01) (515, 2.53740727901458740234e-01) (516, 3.40470284223556518555e-01) (517, 1.72120600938796997070e-01) (518, 2.03961849212646484375e-01) (519, 2.50660359859466552734e-01) (520, 1.62021711468696594238e-01) (521, 2.43020951747894287109e-01) (522, 3.48738491535186767578e-01) (523, 2.07277774810791015625e-01) (524, 3.23341041803359985352e-01) (525, 3.49084526300430297852e-01) (526, 2.45209902524948120117e-01) (527, 2.03999251127243041992e-01) (528, 2.54928886890411376953e-01) (529, 3.28182250261306762695e-01) (530, 2.19735056161880493164e-01) (531, 3.33755910396575927734e-01) (532, 2.01490640640258789062e-01) (533, 2.53950148820877075195e-01) (534, 2.68342912197113037109e-01) (535, 2.38055527210235595703e-01) (536, 1.83356225490570068359e-01) (537, 2.57442921400070190430e-01) (538, 1.64342284202575683594e-01) (539, 1.71239674091339111328e-01) (540, 1.63096576929092407227e-01) (541, 2.76265442371368408203e-01) (542, 2.64655292034149169922e-01) (543, 2.55786240100860595703e-01) (544, 3.28246235847473144531e-01) (545, 2.64588028192520141602e-01) (546, 1.57526969909667968750e-01) (547, 3.16716521978378295898e-01) (548, 2.84708619117736816406e-01) (549, 2.09488809108734130859e-01) (550, 2.15376883745193481445e-01) (551, 2.94730305671691894531e-01) (552, 3.00509750843048095703e-01) (553, 2.12115377187728881836e-01) (554, 3.50008100271224975586e-01) (555, 2.71850824356079101562e-01) (556, 2.09199905395507812500e-01) (557, 2.43218004703521728516e-01) (558, 3.23850065469741821289e-01) (559, 3.12128752470016479492e-01) (560, 2.19400256872177124023e-01) (561, 1.91585093736648559570e-01) (562, 2.93884664773941040039e-01) (563, 2.68890857696533203125e-01) (564, 2.93535232543945312500e-01) (565, 2.10227578878402709961e-01) (566, 1.54946386814117431641e-01) (567, 3.24891448020935058594e-01) (568, 3.15670490264892578125e-01) (569, 1.67288661003112792969e-01) (570, 3.44131112098693847656e-01) (571, 3.26767057180404663086e-01) (572, 2.91554063558578491211e-01) (573, 2.56786376237869262695e-01) (574, 2.30553299188613891602e-01) (575, 2.67800331115722656250e-01) (576, 1.69374406337738037109e-01) (577, 2.36080259084701538086e-01) (578, 2.32516855001449584961e-01) (579, 3.02082985639572143555e-01) (580, 2.93569058179855346680e-01) (581, 2.95893698930740356445e-01) (582, 2.44813323020935058594e-01) (583, 2.42078810930252075195e-01) (584, 1.56009078025817871094e-01) (585, 2.42821395397186279297e-01) (586, 1.61929637193679809570e-01) (587, 2.13208973407745361328e-01) (588, 3.34039390087127685547e-01) (589, 3.33779662847518920898e-01) (590, 1.73337727785110473633e-01) (591, 2.01439619064331054688e-01) (592, 1.73364773392677307129e-01) (593, 3.15222382545471191406e-01) (594, 3.18330466747283935547e-01) (595, 3.14900010824203491211e-01) (596, 1.73449963331222534180e-01) (597, 3.21276873350143432617e-01) (598, 2.87791430950164794922e-01) (599, 3.37120443582534790039e-01) (600, 3.36565524339675903320e-01) (601, 2.79922544956207275391e-01) (602, 3.11887502670288085938e-01) (603, 2.76119589805603027344e-01) (604, 1.84708923101425170898e-01) (605, 1.90440803766250610352e-01) (606, 1.91919922828674316406e-01) (607, 2.02083289623260498047e-01) (608, 2.74521052837371826172e-01) (609, 2.72436738014221191406e-01) (610, 1.52166306972503662109e-01) (611, 2.16090112924575805664e-01) (612, 2.16330438852310180664e-01) (613, 2.44979590177536010742e-01) (614, 3.06168943643569946289e-01) (615, 2.20339506864547729492e-01) (616, 3.35800975561141967773e-01) (617, 3.16098541021347045898e-01) (618, 2.81548470258712768555e-01) (619, 3.17840367555618286133e-01) (620, 2.97878235578536987305e-01) (621, 3.02886158227920532227e-01) (622, 1.67279988527297973633e-01) (623, 3.19242984056472778320e-01) (624, 2.66108542680740356445e-01) (625, 3.33610445261001586914e-01) (626, 2.82142966985702514648e-01) (627, 2.87558495998382568359e-01) (628, 3.02887290716171264648e-01) (629, 2.17934429645538330078e-01) (630, 2.72678941488265991211e-01) (631, 2.87452816963195800781e-01) (632, 3.45856934785842895508e-01) (633, 2.32566446065902709961e-01) (634, 2.11572408676147460938e-01) (635, 1.78565859794616699219e-01) (636, 2.71007239818572998047e-01) (637, 2.51492321491241455078e-01) (638, 2.28649139404296875000e-01) (639, 1.93528294563293457031e-01) (640, 1.71929061412811279297e-01) (641, 2.28815436363220214844e-01) (642, 2.57618397474288940430e-01) (643, 2.36259490251541137695e-01) (644, 3.21795016527175903320e-01) (645, 2.11787313222885131836e-01) (646, 3.04598987102508544922e-01) (647, 3.05595993995666503906e-01) (648, 1.75885856151580810547e-01) (649, 2.34147459268569946289e-01) (650, 2.71436363458633422852e-01) (651, 3.21764081716537475586e-01) (652, 1.85033619403839111328e-01) (653, 2.86716312170028686523e-01) (654, 2.89007067680358886719e-01) (655, 2.99142152070999145508e-01) (656, 2.68326789140701293945e-01) (657, 2.19150036573410034180e-01) (658, 2.34700649976730346680e-01) (659, 2.19214081764221191406e-01) (660, 2.85084426403045654297e-01) (661, 1.55379593372344970703e-01) (662, 1.54666900634765625000e-01) (663, 2.78941363096237182617e-01) (664, 2.35946029424667358398e-01) (665, 2.14239299297332763672e-01) (666, 3.05507212877273559570e-01) (667, 1.54953241348266601562e-01) (668, 3.13731580972671508789e-01) (669, 1.82156354188919067383e-01) (670, 1.96481525897979736328e-01) (671, 3.33660632371902465820e-01) (672, 2.58971750736236572266e-01) (673, 3.02099913358688354492e-01) (674, 2.17920124530792236328e-01) (675, 2.28766769170761108398e-01) (676, 1.61887228488922119141e-01) (677, 1.70519113540649414062e-01) (678, 1.82362765073776245117e-01) (679, 1.85773074626922607422e-01) (680, 2.52666562795639038086e-01) (681, 3.01799118518829345703e-01) (682, 1.55537143349647521973e-01) (683, 2.85700172185897827148e-01) (684, 2.36515432596206665039e-01) (685, 2.92544186115264892578e-01) (686, 2.32842355966567993164e-01) (687, 1.52842223644256591797e-01) (688, 1.59694224596023559570e-01) (689, 3.15542995929718017578e-01) (690, 2.20056295394897460938e-01) (691, 2.92778640985488891602e-01) (692, 3.18922549486160278320e-01) (693, 2.22723156213760375977e-01) (694, 2.19720035791397094727e-01) (695, 2.02868580818176269531e-01) (696, 2.84962445497512817383e-01) (697, 1.73227235674858093262e-01) (698, 2.05821812152862548828e-01) (699, 2.46694058179855346680e-01) (700, 2.03383564949035644531e-01) (701, 2.50303328037261962891e-01) (702, 2.28354692459106445312e-01) (703, 3.10355335474014282227e-01) (704, 2.00403213500976562500e-01) (705, 2.94274806976318359375e-01) (706, 1.87122106552124023438e-01) (707, 2.10290431976318359375e-01) (708, 3.12793910503387451172e-01) (709, 2.17484861612319946289e-01) (710, 2.44063496589660644531e-01) (711, 2.13460475206375122070e-01) (712, 1.67283967137336730957e-01) (713, 2.47600615024566650391e-01) (714, 3.47160667181015014648e-01) (715, 2.51799404621124267578e-01) (716, 1.88144803047180175781e-01) (717, 2.28002995252609252930e-01) (718, 2.52641618251800537109e-01) (719, 1.95839017629623413086e-01) (720, 1.91545993089675903320e-01) (721, 3.20697873830795288086e-01) (722, 3.36617648601531982422e-01) (723, 1.58468544483184814453e-01) (724, 1.91421031951904296875e-01) (725, 2.04337686300277709961e-01) (726, 2.09337115287780761719e-01) (727, 3.24383467435836791992e-01) (728, 2.25564897060394287109e-01) (729, 2.63158917427062988281e-01) (730, 2.19077527523040771484e-01) (731, 2.76948451995849609375e-01) (732, 1.61462217569351196289e-01) (733, 2.95432209968566894531e-01) (734, 2.35303789377212524414e-01) (735, 2.09865421056747436523e-01) (736, 2.37707018852233886719e-01) (737, 2.70425885915756225586e-01) (738, 2.68155843019485473633e-01) (739, 1.98500931262969970703e-01) (740, 3.35910707712173461914e-01) (741, 1.60219311714172363281e-01) (742, 2.59961396455764770508e-01) (743, 3.51194679737091064453e-01) (744, 2.55819916725158691406e-01) (745, 2.55122035741806030273e-01) (746, 2.50994086265563964844e-01) (747, 2.91964709758758544922e-01) (748, 3.31125020980834960938e-01) (749, 3.51635664701461791992e-01) (750, 3.35803717374801635742e-01) (751, 1.70670986175537109375e-01) (752, 3.20333570241928100586e-01) (753, 3.20421367883682250977e-01) (754, 1.77139520645141601562e-01) (755, 1.59754604101181030273e-01) (756, 1.72759056091308593750e-01) (757, 2.34476625919342041016e-01) (758, 3.32138061523437500000e-01) (759, 2.46323943138122558594e-01) (760, 3.45635503530502319336e-01) (761, 1.99215590953826904297e-01) (762, 1.71272397041320800781e-01) (763, 1.55097737908363342285e-01) (764, 3.42647790908813476562e-01) (765, 2.54576176404953002930e-01) (766, 2.12963134050369262695e-01) (767, 2.28354781866073608398e-01) (768, 1.73002034425735473633e-01) (769, 3.29118967056274414062e-01) (770, 2.74855703115463256836e-01) (771, 1.56912773847579956055e-01) (772, 3.37338268756866455078e-01) (773, 1.82817071676254272461e-01) (774, 1.56107440590858459473e-01) (775, 2.41158187389373779297e-01) (776, 2.85939097404479980469e-01) (777, 2.55101501941680908203e-01) (778, 1.81122884154319763184e-01) (779, 2.65064120292663574219e-01) (780, 2.54737198352813720703e-01) (781, 1.64926588535308837891e-01) (782, 2.83735096454620361328e-01) (783, 2.23070740699768066406e-01) (784, 3.33347946405410766602e-01) (785, 3.08874607086181640625e-01) (786, 2.30825334787368774414e-01) (787, 1.54107004404067993164e-01) (788, 1.91351234912872314453e-01) (789, 2.10963398218154907227e-01) (790, 2.48430937528610229492e-01) (791, 1.84986755251884460449e-01) (792, 2.58178979158401489258e-01) (793, 2.67703294754028320312e-01) (794, 1.88084483146667480469e-01) (795, 2.48826742172241210938e-01) (796, 1.70279473066329956055e-01) (797, 2.49047607183456420898e-01) (798, 3.25181514024734497070e-01) (799, 1.91281497478485107422e-01) (800, 2.26166576147079467773e-01) (801, 2.48037219047546386719e-01) (802, 1.96194261312484741211e-01) (803, 2.11504846811294555664e-01) (804, 2.78854280710220336914e-01) (805, 2.00301676988601684570e-01) (806, 3.00663024187088012695e-01) (807, 2.12793380022048950195e-01) (808, 3.03403198719024658203e-01) (809, 3.29785883426666259766e-01) (810, 3.25857490301132202148e-01) (811, 2.06140369176864624023e-01) (812, 3.42712461948394775391e-01) (813, 2.57592588663101196289e-01) (814, 2.77211099863052368164e-01) (815, 3.24060410261154174805e-01) (816, 2.14467197656631469727e-01) (817, 1.56036436557769775391e-01) (818, 3.26167404651641845703e-01) (819, 2.53818422555923461914e-01) (820, 2.14999794960021972656e-01) (821, 2.22598344087600708008e-01) (822, 2.86805182695388793945e-01) (823, 3.21178764104843139648e-01) (824, 3.38301628828048706055e-01) (825, 3.22889626026153564453e-01) (826, 2.18005508184432983398e-01) (827, 1.56581088900566101074e-01) (828, 2.19937264919281005859e-01) (829, 1.91187024116516113281e-01) (830, 1.95862591266632080078e-01) (831, 2.94103831052780151367e-01) (832, 2.87224233150482177734e-01) (833, 2.40056842565536499023e-01) (834, 1.53608649969100952148e-01) (835, 2.14078515768051147461e-01) (836, 2.88358509540557861328e-01) (837, 3.02271664142608642578e-01) (838, 2.74871885776519775391e-01) (839, 2.39761680364608764648e-01) (840, 2.80057519674301147461e-01) (841, 2.48729377985000610352e-01) (842, 2.93902069330215454102e-01) (843, 2.70770013332366943359e-01) (844, 1.54321938753128051758e-01) (845, 2.19113171100616455078e-01) (846, 2.42830425500869750977e-01) (847, 2.16789126396179199219e-01) (848, 2.23149567842483520508e-01) (849, 2.16997832059860229492e-01) (850, 3.18607538938522338867e-01) (851, 2.86149352788925170898e-01) (852, 2.87596166133880615234e-01) (853, 2.53412723541259765625e-01) (854, 2.55328118801116943359e-01) (855, 2.73897796869277954102e-01) (856, 2.24302351474761962891e-01) (857, 3.21333616971969604492e-01) (858, 2.78478860855102539062e-01) (859, 2.92239576578140258789e-01) (860, 1.60520642995834350586e-01) (861, 3.22341442108154296875e-01) (862, 2.34343409538269042969e-01) (863, 2.95744866132736206055e-01) (864, 2.10398256778717041016e-01) (865, 2.35952049493789672852e-01) (866, 1.57823383808135986328e-01) (867, 3.46756756305694580078e-01) (868, 1.86223685741424560547e-01) (869, 2.80695259571075439453e-01) (870, 2.34518438577651977539e-01) (871, 3.14281225204467773438e-01) (872, 1.77424609661102294922e-01) (873, 1.76420509815216064453e-01) (874, 2.33051210641860961914e-01) (875, 1.79746568202972412109e-01) (876, 2.43533641099929809570e-01) (877, 3.23881655931472778320e-01) (878, 2.44535684585571289062e-01) (879, 3.14683228731155395508e-01) (880, 1.88879489898681640625e-01) (881, 2.11143225431442260742e-01) (882, 2.48832583427429199219e-01) (883, 3.24475616216659545898e-01) (884, 3.12555938959121704102e-01) (885, 1.52160704135894775391e-01) (886, 2.46373414993286132812e-01) (887, 1.84858292341232299805e-01) (888, 3.21494311094284057617e-01) (889, 1.72852277755737304688e-01) (890, 3.25097858905792236328e-01) (891, 3.30014973878860473633e-01) (892, 3.43193680047988891602e-01) (893, 2.07441270351409912109e-01) (894, 2.73759841918945312500e-01) (895, 2.01591938734054565430e-01) (896, 2.91393280029296875000e-01) (897, 2.79583185911178588867e-01) (898, 1.96348696947097778320e-01) (899, 3.25616985559463500977e-01) (900, 2.08278447389602661133e-01) (0, 1.34867131710052490234e-01) (1, 1.43898218870162963867e-01) (2, 8.97030457854270935059e-02) (3, 1.59287631511688232422e-01) (4, 2.49494090676307678223e-02) (5, 1.17449603974819183350e-01) (6, 5.08212670683860778809e-02) (7, 