FANN_FLO_2.1
num_layers=3
learning_rate=0.700000
connection_rate=1.000000
network_type=0
learning_momentum=0.000000
training_algorithm=2
train_error_function=1
train_stop_function=0
cascade_output_change_fraction=0.010000
quickprop_decay=-0.000100
quickprop_mu=1.750000
rprop_increase_factor=1.200000
rprop_decrease_factor=0.500000
rprop_delta_min=0.000000
rprop_delta_max=50.000000
rprop_delta_zero=0.100000
cascade_output_stagnation_epochs=12
cascade_candidate_change_fraction=0.010000
cascade_candidate_stagnation_epochs=12
cascade_max_out_epochs=150
cascade_max_cand_epochs=150
cascade_num_candidate_groups=2
bit_fail_limit=3.49999994039535522461e-01
cascade_candidate_limit=1.00000000000000000000e+03
cascade_weight_multiplier=4.00000005960464477539e-01
cascade_activation_functions_count=10
cascade_activation_functions=3 5 7 8 10 11 14 15 16 17 
cascade_activation_steepnesses_count=4
cascade_activation_steepnesses=2.50000000000000000000e-01 5.00000000000000000000e-01 7.50000000000000000000e-01 1.00000000000000000000e+00 
layer_sizes=901 101 37 
scale_included=0
neurons (num_inputs, activation_function, activation_steepness)=(0, 0, 0.00000000000000000000e+00) (0, 0, 0.00000000000000000000e+00) (0, 0, 0.00000000000000000000e+00) (0, 0, 0.00000000000000000000e+00) (0, 0, 0.00000000000000000000e+00) (0, 0, 0.00000000000000000000e+00) (0, 0, 0.00000000000000000000e+00) (0, 0, 0.00000000000000000000e+00) (0, 0, 0.00000000000000000000e+00) (0, 0, 0.00000000000000000000e+00) (0, 0, 0.00000000000000000000e+00) (0, 0, 0.00000000000000000000e+00) (0, 0, 0.00000000000000000000e+00) (0, 0, 0.00000000000000000000e+00) (0, 0, 0.00000000000000000000e+00) (0, 0, 0.00000000000000000000e+00) (0, 0, 0.00000000000000000000e+00) (0, 0, 0.00000000000000000000e+00) (0, 0, 0.00000000000000000000e+00) (0, 0, 0.00000000000000000000e+00) (0, 0, 0.00000000000000000000e+00) (0, 0, 0.00000000000000000000e+00) (0, 0, 0.00000000000000000000e+00) (0, 0, 0.00000000000000000000e+00) (0, 0, 0.00000000000000000000e+00) (0, 0, 0.00000000000000000000e+00) (0, 0, 0.00000000000000000000e+00) (0, 0, 0.00000000000000000000e+00) (0, 0, 0.00000000000000000000e+00) (0, 0, 0.00000000000000000000e+00) (0, 0, 0.00000000000000000000e+00) (0, 0, 0.00000000000000000000e+00) (0, 0, 0.00000000000000000000e+00) (0, 0, 0.00000000000000000000e+00) (0, 0, 0.00000000000000000000e+00) (0, 0, 0.00000000000000000000e+00) (0, 0, 0.00000000000000000000e+00) (0, 0, 0.00000000000000000000e+00) (0, 0, 0.00000000000000000000e+00) (0, 0, 0.00000000000000000000e+00) (0, 0, 0.00000000000000000000e+00) (0, 0, 0.00000000000000000000e+00) (0, 0, 0.00000000000000000000e+00) (0, 0, 0.00000000000000000000e+00) (0, 0, 0.00000000000000000000e+00) (0, 0, 0.00000000000000000000e+00) (0, 0, 0.00000000000000000000e+00) (0, 0, 0.00000000000000000000e+00) (0, 0, 0.00000000000000000000e+00) (0, 0, 0.00000000000000000000e+00) (0, 0, 0.00000000000000000000e+00) (0, 0, 0.00000000000000000000e+00) (0, 0, 0.00000000000000000000e+00) (0, 0, 0.00000000000000000000e+00) (0, 0, 0.00000000000000000000e+00) (0, 0, 0.00000000000000000000e+00) (0, 0, 0.00000000000000000000e+00) (0, 0, 0.00000000000000000000e+00) (0, 0, 0.00000000000000000000e+00) (0, 0, 0.00000000000000000000e+00) (0, 0, 0.00000000000000000000e+00) (0, 0, 0.00000000000000000000e+00) (0, 0, 0.00000000000000000000e+00) (0, 0, 0.00000000000000000000e+00) (0, 0, 0.00000000000000000000e+00) (0, 0, 0.00000000000000000000e+00) (0, 0, 0.00000000000000000000e+00) (0, 0, 0.00000000000000000000e+00) (0, 0, 0.00000000000000000000e+00) (0, 0, 0.00000000000000000000e+00) (0, 0, 0.00000000000000000000e+00) (0, 0, 0.00000000000000000000e+00) (0, 0, 0.00000000000000000000e+00) (0, 0, 0.00000000000000000000e+00) (0, 0, 0.00000000000000000000e+00) (0, 0, 0.00000000000000000000e+00) (0, 0, 0.00000000000000000000e+00) (0, 0, 0.00000000000000000000e+00) (0, 0, 0.00000000000000000000e+00) (0, 0, 0.00000000000000000000e+00) (0, 0, 0.00000000000000000000e+00) (0, 0, 0.00000000000000000000e+00) (0, 0, 0.00000000000000000000e+00) (0, 0, 0.00000000000000000000e+00) (0, 0, 0.00000000000000000000e+00) (0, 0, 0.00000000000000000000e+00) (0, 0, 0.00000000000000000000e+00) (0, 0, 0.00000000000000000000e+00) (0, 0, 0.00000000000000000000e+00) (0, 0, 0.00000000000000000000e+00) (0, 0, 0.00000000000000000000e+00) (0, 0, 0.00000000000000000000e+00) (0, 0, 0.00000000000000000000e+00) (0, 0, 0.00000000000000000000e+00) (0, 0, 0.00000000000000000000e+00) (0, 0, 0.00000000000000000000e+00) (0, 0, 0.00000000000000000000e+00) (0, 0, 0.00000000000000000000e+00) (0, 0, 0.00000000000000000000e+00) (0, 0, 0.00000000000000000000e+00) (0, 0, 0.00000000000000000000e+00) (0, 0, 0.00000000000000000000e+00) (0, 0, 0.00000000000000000000e+00) (0, 0, 0.00000000000000000000e+00) (0, 0, 0.00000000000000000000e+00) (0, 0, 0.00000000000000000000e+00) (0, 0, 0.00000000000000000000e+00) (0, 0, 0.00000000000000000000e+00) (0, 0, 0.00000000000000000000e+00) (0, 0, 0.00000000000000000000e+00) (0, 0, 0.00000000000000000000e+00) (0, 0, 0.00000000000000000000e+00) (0, 0, 0.00000000000000000000e+00) (0, 0, 0.00000000000000000000e+00) (0, 0, 0.00000000000000000000e+00) (0, 0, 0.00000000000000000000e+00) (0, 0, 0.00000000000000000000e+00) (0, 0, 0.00000000000000000000e+00) (0, 0, 0.00000000000000000000e+00) (0, 0, 0.00000000000000000000e+00) (0, 0, 0.00000000000000000000e+00) (0, 0, 0.00000000000000000000e+00) (0, 0, 0.00000000000000000000e+00) (0, 0, 0.00000000000000000000e+00) (0, 0, 0.00000000000000000000e+00) (0, 0, 0.00000000000000000000e+00) (0, 0, 0.00000000000000000000e+00) (0, 0, 0.00000000000000000000e+00) (0, 0, 0.00000000000000000000e+00) (0, 0, 0.00000000000000000000e+00) (0, 0, 0.00000000000000000000e+00) (0, 0, 0.00000000000000000000e+00) (0, 0, 0.00000000000000000000e+00) (0, 0, 0.00000000000000000000e+00) (0, 0, 0.00000000000000000000e+00) (0, 0, 0.00000000000000000000e+00) (0, 0, 0.00000000000000000000e+00) (0, 0, 0.00000000000000000000e+00) (0, 0, 0.00000000000000000000e+00) (0, 0, 0.00000000000000000000e+00) (0, 0, 0.00000000000000000000e+00) (0, 0, 0.00000000000000000000e+00) (0, 0, 0.00000000000000000000e+00) (0, 0, 0.00000000000000000000e+00) (0, 0, 0.00000000000000000000e+00) (0, 0, 0.00000000000000000000e+00) (0, 0, 0.00000000000000000000e+00) (0, 0, 0.00000000000000000000e+00) (0, 0, 0.00000000000000000000e+00) (0, 0, 0.00000000000000000000e+00) (0, 0, 0.00000000000000000000e+00) (0, 0, 0.00000000000000000000e+00) (0, 0, 0.00000000000000000000e+00) (0, 0, 0.00000000000000000000e+00) (0, 0, 0.00000000000000000000e+00) (0, 0, 0.00000000000000000000e+00) (0, 0, 0.00000000000000000000e+00) (0, 0, 0.00000000000000000000e+00) (0, 0, 0.00000000000000000000e+00) (0, 0, 0.00000000000000000000e+00) (0, 0, 0.00000000000000000000e+00) (0, 0, 0.00000000000000000000e+00) (0, 0, 0.00000000000000000000e+00) (0, 0, 0.00000000000000000000e+00) (0, 0, 0.00000000000000000000e+00) (0, 0, 0.00000000000000000000e+00) (0, 0, 0.00000000000000000000e+00) (0, 0, 0.00000000000000000000e+00) (0, 0, 0.00000000000000000000e+00) (0, 0, 0.00000000000000000000e+00) (0, 0, 0.00000000000000000000e+00) (0, 0, 0.00000000000000000000e+00) (0, 0, 0.00000000000000000000e+00) (0, 0, 0.00000000000000000000e+00) (0, 0, 0.00000000000000000000e+00) (0, 0, 0.00000000000000000000e+00) (0, 0, 0.00000000000000000000e+00) (0, 0, 0.00000000000000000000e+00) (0, 0, 0.00000000000000000000e+00) (0, 0, 0.00000000000000000000e+00) (0, 0, 0.00000000000000000000e+00) (0, 0, 0.00000000000000000000e+00) (0, 0, 0.00000000000000000000e+00) (0, 0, 0.00000000000000000000e+00) (0, 0, 0.00000000000000000000e+00) (0, 0, 0.00000000000000000000e+00) (0, 0, 0.00000000000000000000e+00) (0, 0, 0.00000000000000000000e+00) (0, 0, 0.00000000000000000000e+00) (0, 0, 0.00000000000000000000e+00) (0, 0, 0.00000000000000000000e+00) (0, 0, 0.00000000000000000000e+00) (0, 0, 0.00000000000000000000e+00) (0, 0, 0.00000000000000000000e+00) (0, 0, 0.00000000000000000000e+00) (0, 0, 0.00000000000000000000e+00) (0, 0, 0.00000000000000000000e+00) (0, 0, 0.00000000000000000000e+00) (0, 0, 0.00000000000000000000e+00) (0, 0, 0.00000000000000000000e+00) (0, 0, 0.00000000000000000000e+00) (0, 0, 0.00000000000000000000e+00) (0, 0, 0.00000000000000000000e+00) (0, 0, 0.00000000000000000000e+00) (0, 0, 0.00000000000000000000e+00) (0, 0, 0.00000000000000000000e+00) (0, 0, 0.00000000000000000000e+00) (0, 0, 0.00000000000000000000e+00) (0, 0, 0.00000000000000000000e+00) (0, 0, 0.00000000000000000000e+00) (0, 0, 0.00000000000000000000e+00) (0, 0, 0.00000000000000000000e+00) (0, 0, 0.00000000000000000000e+00) (0, 0, 0.00000000000000000000e+00) (0, 0, 0.00000000000000000000e+00) (0, 0, 0.00000000000000000000e+00) (0, 0, 0.00000000000000000000e+00) (0, 0, 0.00000000000000000000e+00) (0, 0, 0.00000000000000000000e+00) (0, 0, 0.00000000000000000000e+00) (0, 0, 0.00000000000000000000e+00) (0, 0, 0.00000000000000000000e+00) (0, 0, 0.00000000000000000000e+00) (0, 0, 0.00000000000000000000e+00) (0, 0, 0.00000000000000000000e+00) (0, 0, 0.00000000000000000000e+00) (0, 0, 0.00000000000000000000e+00) (0, 0, 0.00000000000000000000e+00) (0, 0, 0.00000000000000000000e+00) (0, 0, 0.00000000000000000000e+00) (0, 0, 0.00000000000000000000e+00) (0, 0, 0.00000000000000000000e+00) (0, 0, 0.00000000000000000000e+00) (0, 0, 0.00000000000000000000e+00) (0, 0, 0.00000000000000000000e+00) (0, 0, 0.00000000000000000000e+00) (0, 0, 0.00000000000000000000e+00) (0, 0, 0.00000000000000000000e+00) (0, 0, 0.00000000000000000000e+00) (0, 0, 0.00000000000000000000e+00) (0, 0, 0.00000000000000000000e+00) (0, 0, 0.00000000000000000000e+00) (0, 0, 0.00000000000000000000e+00) (0, 0, 0.00000000000000000000e+00) (0, 0, 0.00000000000000000000e+00) (0, 0, 0.00000000000000000000e+00) (0, 0, 0.00000000000000000000e+00) (0, 0, 0.00000000000000000000e+00) (0, 0, 0.00000000000000000000e+00) (0, 0, 0.00000000000000000000e+00) (0, 0, 0.00000000000000000000e+00) (0, 0, 0.00000000000000000000e+00) (0, 0, 0.00000000000000000000e+00) (0, 0, 0.00000000000000000000e+00) (0, 0, 0.00000000000000000000e+00) (0, 0, 0.00000000000000000000e+00) (0, 0, 0.00000000000000000000e+00) (0, 0, 0.00000000000000000000e+00) (0, 0, 0.00000000000000000000e+00) (0, 0, 0.00000000000000000000e+00) (0, 0, 0.00000000000000000000e+00) (0, 0, 0.00000000000000000000e+00) (0, 0, 0.00000000000000000000e+00) (0, 0, 0.00000000000000000000e+00) (0, 0, 0.00000000000000000000e+00) (0, 0, 0.00000000000000000000e+00) (0, 0, 0.00000000000000000000e+00) (0, 0, 0.00000000000000000000e+00) (0, 0, 0.00000000000000000000e+00) (0, 0, 0.00000000000000000000e+00) (0, 0, 0.00000000000000000000e+00) (0, 0, 0.00000000000000000000e+00) (0, 0, 0.00000000000000000000e+00) (0, 0, 0.00000000000000000000e+00) (0, 0, 0.00000000000000000000e+00) (0, 0, 0.00000000000000000000e+00) (0, 0, 0.00000000000000000000e+00) (0, 0, 0.00000000000000000000e+00) (0, 0, 0.00000000000000000000e+00) (0, 0, 0.00000000000000000000e+00) (0, 0, 0.00000000000000000000e+00) (0, 0, 0.00000000000000000000e+00) (0, 0, 0.00000000000000000000e+00) (0, 0, 0.00000000000000000000e+00) (0, 0, 0.00000000000000000000e+00) (0, 0, 0.00000000000000000000e+00) (0, 0, 0.00000000000000000000e+00) (0, 0, 0.00000000000000000000e+00) (0, 0, 0.00000000000000000000e+00) (0, 0, 0.00000000000000000000e+00) (0, 0, 0.00000000000000000000e+00) (0, 0, 0.00000000000000000000e+00) (0, 0, 0.00000000000000000000e+00) (0, 0, 0.00000000000000000000e+00) (0, 0, 0.00000000000000000000e+00) (0, 0, 0.00000000000000000000e+00) (0, 0, 0.00000000000000000000e+00) (0, 0, 0.00000000000000000000e+00) (0, 0, 0.00000000000000000000e+00) (0, 0, 0.00000000000000000000e+00) (0, 0, 0.00000000000000000000e+00) (0, 0, 0.00000000000000000000e+00) (0, 0, 0.00000000000000000000e+00) (0, 0, 0.00000000000000000000e+00) (0, 0, 0.00000000000000000000e+00) (0, 0, 0.00000000000000000000e+00) (0, 0, 0.00000000000000000000e+00) (0, 0, 0.00000000000000000000e+00) (0, 0, 0.00000000000000000000e+00) (0, 0, 0.00000000000000000000e+00) (0, 0, 0.00000000000000000000e+00) (0, 0, 0.00000000000000000000e+00) (0, 0, 0.00000000000000000000e+00) (0, 0, 0.00000000000000000000e+00) (0, 0, 0.00000000000000000000e+00) (0, 0, 0.00000000000000000000e+00) (0, 0, 0.00000000000000000000e+00) (0, 0, 0.00000000000000000000e+00) (0, 0, 0.00000000000000000000e+00) (0, 0, 0.00000000000000000000e+00) (0, 0, 0.00000000000000000000e+00) (0, 0, 0.00000000000000000000e+00) (0, 0, 0.00000000000000000000e+00) (0, 0, 0.00000000000000000000e+00) (0, 0, 0.00000000000000000000e+00) (0, 0, 0.00000000000000000000e+00) (0, 0, 0.00000000000000000000e+00) (0, 0, 0.00000000000000000000e+00) (0, 0, 0.00000000000000000000e+00) (0, 0, 0.00000000000000000000e+00) (0, 0, 0.00000000000000000000e+00) (0, 0, 0.00000000000000000000e+00) (0, 0, 0.00000000000000000000e+00) (0, 0, 0.00000000000000000000e+00) (0, 0, 0.00000000000000000000e+00) (0, 0, 0.00000000000000000000e+00) (0, 0, 0.00000000000000000000e+00) (0, 0, 0.00000000000000000000e+00) (0, 0, 0.00000000000000000000e+00) (0, 0, 0.00000000000000000000e+00) (0, 0, 0.00000000000000000000e+00) (0, 0, 0.00000000000000000000e+00) (0, 0, 0.00000000000000000000e+00) (0, 0, 0.00000000000000000000e+00) (0, 0, 0.00000000000000000000e+00) (0, 0, 0.00000000000000000000e+00) (0, 0, 0.00000000000000000000e+00) (0, 0, 0.00000000000000000000e+00) (0, 0, 0.00000000000000000000e+00) (0, 0, 0.00000000000000000000e+00) (0, 0, 0.00000000000000000000e+00) (0, 0, 0.00000000000000000000e+00) (0, 0, 0.00000000000000000000e+00) (0, 0, 0.00000000000000000000e+00) (0, 0, 0.00000000000000000000e+00) (0, 0, 0.00000000000000000000e+00) (0, 0, 0.00000000000000000000e+00) (0, 0, 0.00000000000000000000e+00) (0, 0, 0.00000000000000000000e+00) (0, 0, 0.00000000000000000000e+00) (0, 0, 0.00000000000000000000e+00) (0, 0, 0.00000000000000000000e+00) (0, 0, 0.00000000000000000000e+00) (0, 0, 0.00000000000000000000e+00) (0, 0, 0.00000000000000000000e+00) (0, 0, 0.00000000000000000000e+00) (0, 0, 0.00000000000000000000e+00) (0, 0, 0.00000000000000000000e+00) (0, 0, 0.00000000000000000000e+00) (0, 0, 0.00000000000000000000e+00) (0, 0, 0.00000000000000000000e+00) (0, 0, 0.00000000000000000000e+00) (0, 0, 0.00000000000000000000e+00) (0, 0, 0.00000000000000000000e+00) (0, 0, 0.00000000000000000000e+00) (0, 0, 0.00000000000000000000e+00) (0, 0, 0.00000000000000000000e+00) (0, 0, 0.00000000000000000000e+00) (0, 0, 0.00000000000000000000e+00) (0, 0, 0.00000000000000000000e+00) (0, 0, 0.00000000000000000000e+00) (0, 0, 0.00000000000000000000e+00) (0, 0, 0.00000000000000000000e+00) (0, 0, 0.00000000000000000000e+00) (0, 0, 0.00000000000000000000e+00) (0, 0, 0.00000000000000000000e+00) (0, 0, 0.00000000000000000000e+00) (0, 0, 0.00000000000000000000e+00) (0, 0, 0.00000000000000000000e+00) (0, 0, 0.00000000000000000000e+00) (0, 0, 0.00000000000000000000e+00) (0, 0, 0.00000000000000000000e+00) (0, 0, 0.00000000000000000000e+00) (0, 0, 0.00000000000000000000e+00) (0, 0, 0.00000000000000000000e+00) (0, 0, 0.00000000000000000000e+00) (0, 0, 0.00000000000000000000e+00) (0, 0, 0.00000000000000000000e+00) (0, 0, 0.00000000000000000000e+00) (0, 0, 0.00000000000000000000e+00) (0, 0, 0.00000000000000000000e+00) (0, 0, 0.00000000000000000000e+00) (0, 0, 0.00000000000000000000e+00) (0, 0, 0.00000000000000000000e+00) (0, 0, 0.00000000000000000000e+00) (0, 0, 0.00000000000000000000e+00) (0, 0, 0.00000000000000000000e+00) (0, 0, 0.00000000000000000000e+00) (0, 0, 0.00000000000000000000e+00) (0, 0, 0.00000000000000000000e+00) (0, 0, 0.00000000000000000000e+00) (0, 0, 0.00000000000000000000e+00) (0, 0, 0.00000000000000000000e+00) (0, 0, 0.00000000000000000000e+00) (0, 0, 0.00000000000000000000e+00) (0, 0, 0.00000000000000000000e+00) (0, 0, 0.00000000000000000000e+00) (0, 0, 0.00000000000000000000e+00) (0, 0, 0.00000000000000000000e+00) (0, 0, 0.00000000000000000000e+00) (0, 0, 0.00000000000000000000e+00) (0, 0, 0.00000000000000000000e+00) (0, 0, 0.00000000000000000000e+00) (0, 0, 0.00000000000000000000e+00) (0, 0, 0.00000000000000000000e+00) (0, 0, 0.00000000000000000000e+00) (0, 0, 0.00000000000000000000e+00) (0, 0, 0.00000000000000000000e+00) (0, 0, 0.00000000000000000000e+00) (0, 0, 0.00000000000000000000e+00) (0, 0, 0.00000000000000000000e+00) (0, 0, 0.00000000000000000000e+00) (0, 0, 0.00000000000000000000e+00) (0, 0, 0.00000000000000000000e+00) (0, 0, 0.00000000000000000000e+00) (0, 0, 0.00000000000000000000e+00) (0, 0, 0.00000000000000000000e+00) (0, 0, 0.00000000000000000000e+00) (0, 0, 0.00000000000000000000e+00) (0, 0, 0.00000000000000000000e+00) (0, 0, 0.00000000000000000000e+00) (0, 0, 0.00000000000000000000e+00) (0, 0, 0.00000000000000000000e+00) (0, 0, 0.00000000000000000000e+00) (0, 0, 0.00000000000000000000e+00) (0, 0, 0.00000000000000000000e+00) (0, 0, 0.00000000000000000000e+00) (0, 0, 0.00000000000000000000e+00) (0, 0, 0.00000000000000000000e+00) (0, 0, 0.00000000000000000000e+00) (0, 0, 0.00000000000000000000e+00) (0, 0, 0.00000000000000000000e+00) (0, 0, 0.00000000000000000000e+00) (0, 0, 0.00000000000000000000e+00) (0, 0, 0.00000000000000000000e+00) (0, 0, 0.00000000000000000000e+00) (0, 0, 0.00000000000000000000e+00) (0, 0, 0.00000000000000000000e+00) (0, 0, 0.00000000000000000000e+00) (0, 0, 0.00000000000000000000e+00) (0, 0, 0.00000000000000000000e+00) (0, 0, 0.00000000000000000000e+00) (0, 0, 0.00000000000000000000e+00) (0, 0, 0.00000000000000000000e+00) (0, 0, 0.00000000000000000000e+00) (0, 0, 0.00000000000000000000e+00) (0, 0, 0.00000000000000000000e+00) (0, 0, 0.00000000000000000000e+00) (0, 0, 0.00000000000000000000e+00) (0, 0, 0.00000000000000000000e+00) (0, 0, 0.00000000000000000000e+00) (0, 0, 0.00000000000000000000e+00) (0, 0, 0.00000000000000000000e+00) (0, 0, 0.00000000000000000000e+00) (0, 0, 0.00000000000000000000e+00) (0, 0, 0.00000000000000000000e+00) (0, 0, 0.00000000000000000000e+00) (0, 0, 0.00000000000000000000e+00) (0, 0, 0.00000000000000000000e+00) (0, 0, 0.00000000000000000000e+00) (0, 0, 0.00000000000000000000e+00) (0, 0, 0.00000000000000000000e+00) (0, 0, 0.00000000000000000000e+00) (0, 0, 0.00000000000000000000e+00) (0, 0, 0.00000000000000000000e+00) (0, 0, 0.00000000000000000000e+00) (0, 0, 0.00000000000000000000e+00) (0, 0, 0.00000000000000000000e+00) (0, 0, 0.00000000000000000000e+00) (0, 0, 0.00000000000000000000e+00) (0, 0, 0.00000000000000000000e+00) (0, 0, 0.00000000000000000000e+00) (0, 0, 0.00000000000000000000e+00) (0, 0, 0.00000000000000000000e+00) (0, 0, 0.00000000000000000000e+00) (0, 0, 0.00000000000000000000e+00) (0, 0, 0.00000000000000000000e+00) (0, 0, 0.00000000000000000000e+00) (0, 0, 0.00000000000000000000e+00) (0, 0, 0.00000000000000000000e+00) (0, 0, 0.00000000000000000000e+00) (0, 0, 0.00000000000000000000e+00) (0, 0, 0.00000000000000000000e+00) (0, 0, 0.00000000000000000000e+00) (0, 0, 0.00000000000000000000e+00) (0, 0, 0.00000000000000000000e+00) (0, 0, 0.00000000000000000000e+00) (0, 0, 0.00000000000000000000e+00) (0, 0, 0.00000000000000000000e+00) (0, 0, 0.00000000000000000000e+00) (0, 0, 0.00000000000000000000e+00) (0, 0, 0.00000000000000000000e+00) (0, 0, 0.00000000000000000000e+00) (0, 0, 0.00000000000000000000e+00) (0, 0, 0.00000000000000000000e+00) (0, 0, 0.00000000000000000000e+00) (0, 0, 0.00000000000000000000e+00) (0, 0, 0.00000000000000000000e+00) (0, 0, 0.00000000000000000000e+00) (0, 0, 0.00000000000000000000e+00) (0, 0, 0.00000000000000000000e+00) (0, 0, 0.00000000000000000000e+00) (0, 0, 0.00000000000000000000e+00) (0, 0, 0.00000000000000000000e+00) (0, 0, 0.00000000000000000000e+00) (0, 0, 0.00000000000000000000e+00) (0, 0, 0.00000000000000000000e+00) (0, 0, 0.00000000000000000000e+00) (0, 0, 0.00000000000000000000e+00) (0, 0, 0.00000000000000000000e+00) (0, 0, 0.00000000000000000000e+00) (0, 0, 0.00000000000000000000e+00) (0, 0, 0.00000000000000000000e+00) (0, 0, 0.00000000000000000000e+00) (0, 0, 0.00000000000000000000e+00) (0, 0, 0.00000000000000000000e+00) (0, 0, 0.00000000000000000000e+00) (0, 0, 0.00000000000000000000e+00) (0, 0, 0.00000000000000000000e+00) (0, 0, 0.00000000000000000000e+00) (0, 0, 0.00000000000000000000e+00) (0, 0, 0.00000000000000000000e+00) (0, 0, 0.00000000000000000000e+00) (0, 0, 0.00000000000000000000e+00) (0, 0, 0.00000000000000000000e+00) (0, 0, 0.00000000000000000000e+00) (0, 0, 0.00000000000000000000e+00) (0, 0, 0.00000000000000000000e+00) (0, 0, 0.00000000000000000000e+00) (0, 0, 0.00000000000000000000e+00) (0, 0, 0.00000000000000000000e+00) (0, 0, 0.00000000000000000000e+00) (0, 0, 0.00000000000000000000e+00) (0, 0, 0.00000000000000000000e+00) (0, 0, 0.00000000000000000000e+00) (0, 0, 0.00000000000000000000e+00) (0, 0, 0.00000000000000000000e+00) (0, 0, 0.00000000000000000000e+00) (0, 0, 0.00000000000000000000e+00) (0, 0, 0.00000000000000000000e+00) (0, 0, 0.00000000000000000000e+00) (0, 0, 0.00000000000000000000e+00) (0, 0, 0.00000000000000000000e+00) (0, 0, 0.00000000000000000000e+00) (0, 0, 0.00000000000000000000e+00) (0, 0, 0.00000000000000000000e+00) (0, 0, 0.00000000000000000000e+00) (0, 0, 0.00000000000000000000e+00) (0, 0, 0.00000000000000000000e+00) (0, 0, 0.00000000000000000000e+00) (0, 0, 0.00000000000000000000e+00) (0, 0, 0.00000000000000000000e+00) (0, 0, 0.00000000000000000000e+00) (0, 0, 0.00000000000000000000e+00) (0, 0, 0.00000000000000000000e+00) (0, 0, 0.00000000000000000000e+00) (0, 0, 0.00000000000000000000e+00) (0, 0, 0.00000000000000000000e+00) (0, 0, 0.00000000000000000000e+00) (0, 0, 0.00000000000000000000e+00) (0, 0, 0.00000000000000000000e+00) (0, 0, 0.00000000000000000000e+00) (0, 0, 0.00000000000000000000e+00) (0, 0, 0.00000000000000000000e+00) (0, 0, 0.00000000000000000000e+00) (0, 0, 0.00000000000000000000e+00) (0, 0, 0.00000000000000000000e+00) (0, 0, 0.00000000000000000000e+00) (0, 0, 0.00000000000000000000e+00) (0, 0, 0.00000000000000000000e+00) (0, 0, 0.00000000000000000000e+00) (0, 0, 0.00000000000000000000e+00) (0, 0, 0.00000000000000000000e+00) (0, 0, 0.00000000000000000000e+00) (0, 0, 0.00000000000000000000e+00) (0, 0, 0.00000000000000000000e+00) (0, 0, 0.00000000000000000000e+00) (0, 0, 0.00000000000000000000e+00) (0, 0, 0.00000000000000000000e+00) (0, 0, 0.00000000000000000000e+00) (0, 0, 0.00000000000000000000e+00) (0, 0, 0.00000000000000000000e+00) (0, 0, 0.00000000000000000000e+00) (0, 0, 0.00000000000000000000e+00) (0, 0, 0.00000000000000000000e+00) (0, 0, 0.00000000000000000000e+00) (0, 0, 0.00000000000000000000e+00) (0, 0, 0.00000000000000000000e+00) (0, 0, 0.00000000000000000000e+00) (0, 0, 0.00000000000000000000e+00) (0, 0, 0.00000000000000000000e+00) (0, 0, 0.00000000000000000000e+00) (0, 0, 0.00000000000000000000e+00) (0, 0, 0.00000000000000000000e+00) (0, 0, 0.00000000000000000000e+00) (0, 0, 0.00000000000000000000e+00) (0, 0, 0.00000000000000000000e+00) (0, 0, 0.00000000000000000000e+00) (0, 0, 0.00000000000000000000e+00) (0, 0, 0.00000000000000000000e+00) (0, 0, 0.00000000000000000000e+00) (0, 0, 0.00000000000000000000e+00) (0, 0, 0.00000000000000000000e+00) (0, 0, 0.00000000000000000000e+00) (0, 0, 0.00000000000000000000e+00) (0, 0, 0.00000000000000000000e+00) (0, 0, 0.00000000000000000000e+00) (0, 0, 0.00000000000000000000e+00) (0, 0, 0.00000000000000000000e+00) (0, 0, 0.00000000000000000000e+00) (0, 0, 0.00000000000000000000e+00) (0, 0, 0.00000000000000000000e+00) (0, 0, 0.00000000000000000000e+00) (0, 0, 0.00000000000000000000e+00) (0, 0, 0.00000000000000000000e+00) (0, 0, 0.00000000000000000000e+00) (0, 0, 0.00000000000000000000e+00) (0, 0, 0.00000000000000000000e+00) (0, 0, 0.00000000000000000000e+00) (0, 0, 0.00000000000000000000e+00) (0, 0, 0.00000000000000000000e+00) (0, 0, 0.00000000000000000000e+00) (0, 0, 0.00000000000000000000e+00) (0, 0, 0.00000000000000000000e+00) (0, 0, 0.00000000000000000000e+00) (0, 0, 0.00000000000000000000e+00) (0, 0, 0.00000000000000000000e+00) (0, 0, 0.00000000000000000000e+00) (0, 0, 0.00000000000000000000e+00) (0, 0, 0.00000000000000000000e+00) (0, 0, 0.00000000000000000000e+00) (0, 0, 0.00000000000000000000e+00) (0, 0, 0.00000000000000000000e+00) (0, 0, 0.00000000000000000000e+00) (0, 0, 0.00000000000000000000e+00) (0, 0, 0.00000000000000000000e+00) (0, 0, 0.00000000000000000000e+00) (0, 0, 0.00000000000000000000e+00) (0, 0, 0.00000000000000000000e+00) (0, 0, 0.00000000000000000000e+00) (0, 0, 0.00000000000000000000e+00) (0, 0, 0.00000000000000000000e+00) (0, 0, 0.00000000000000000000e+00) (0, 0, 0.00000000000000000000e+00) (0, 0, 0.00000000000000000000e+00) (0, 0, 0.00000000000000000000e+00) (0, 0, 0.00000000000000000000e+00) (0, 0, 0.00000000000000000000e+00) (0, 0, 0.00000000000000000000e+00) (0, 0, 0.00000000000000000000e+00) (0, 0, 0.00000000000000000000e+00) (0, 0, 0.00000000000000000000e+00) (0, 0, 0.00000000000000000000e+00) (0, 0, 0.00000000000000000000e+00) (0, 0, 0.00000000000000000000e+00) (0, 0, 0.00000000000000000000e+00) (0, 0, 0.00000000000000000000e+00) (0, 0, 0.00000000000000000000e+00) (0, 0, 0.00000000000000000000e+00) (0, 0, 0.00000000000000000000e+00) (0, 0, 0.00000000000000000000e+00) (0, 0, 0.00000000000000000000e+00) (0, 0, 0.00000000000000000000e+00) (0, 0, 0.00000000000000000000e+00) (0, 0, 0.00000000000000000000e+00) (0, 0, 0.00000000000000000000e+00) (0, 0, 0.00000000000000000000e+00) (0, 0, 0.00000000000000000000e+00) (0, 0, 0.00000000000000000000e+00) (0, 0, 0.00000000000000000000e+00) (0, 0, 0.00000000000000000000e+00) (0, 0, 0.00000000000000000000e+00) (0, 0, 0.00000000000000000000e+00) (0, 0, 0.00000000000000000000e+00) (0, 0, 0.00000000000000000000e+00) (0, 0, 0.00000000000000000000e+00) (0, 0, 0.00000000000000000000e+00) (0, 0, 0.00000000000000000000e+00) (0, 0, 0.00000000000000000000e+00) (0, 0, 0.00000000000000000000e+00) (0, 0, 0.00000000000000000000e+00) (0, 0, 0.00000000000000000000e+00) (0, 0, 0.00000000000000000000e+00) (0, 0, 0.00000000000000000000e+00) (0, 0, 0.00000000000000000000e+00) (0, 0, 0.00000000000000000000e+00) (0, 0, 0.00000000000000000000e+00) (0, 0, 0.00000000000000000000e+00) (0, 0, 0.00000000000000000000e+00) (0, 0, 0.00000000000000000000e+00) (0, 0, 0.00000000000000000000e+00) (0, 0, 0.00000000000000000000e+00) (0, 0, 0.00000000000000000000e+00) (0, 0, 0.00000000000000000000e+00) (0, 0, 0.00000000000000000000e+00) (0, 0, 0.00000000000000000000e+00) (0, 0, 0.00000000000000000000e+00) (0, 0, 0.00000000000000000000e+00) (0, 0, 0.00000000000000000000e+00) (0, 0, 0.00000000000000000000e+00) (0, 0, 0.00000000000000000000e+00) (0, 0, 0.00000000000000000000e+00) (0, 0, 0.00000000000000000000e+00) (0, 0, 0.00000000000000000000e+00) (0, 0, 0.00000000000000000000e+00) (0, 0, 0.00000000000000000000e+00) (0, 0, 0.00000000000000000000e+00) (0, 0, 0.00000000000000000000e+00) (0, 0, 0.00000000000000000000e+00) (0, 0, 0.00000000000000000000e+00) (0, 0, 0.00000000000000000000e+00) (0, 0, 0.00000000000000000000e+00) (0, 0, 0.00000000000000000000e+00) (0, 0, 0.00000000000000000000e+00) (0, 0, 0.00000000000000000000e+00) (0, 0, 0.00000000000000000000e+00) (0, 0, 0.00000000000000000000e+00) (0, 0, 0.00000000000000000000e+00) (0, 0, 0.00000000000000000000e+00) (0, 0, 0.00000000000000000000e+00) (0, 0, 0.00000000000000000000e+00) (0, 0, 0.00000000000000000000e+00) (0, 0, 0.00000000000000000000e+00) (0, 0, 0.00000000000000000000e+00) (0, 0, 0.00000000000000000000e+00) (0, 0, 0.00000000000000000000e+00) (0, 0, 0.00000000000000000000e+00) (0, 0, 0.00000000000000000000e+00) (0, 0, 0.00000000000000000000e+00) (0, 0, 0.00000000000000000000e+00) (0, 0, 0.00000000000000000000e+00) (0, 0, 0.00000000000000000000e+00) (0, 0, 0.00000000000000000000e+00) (0, 0, 0.00000000000000000000e+00) (0, 0, 0.00000000000000000000e+00) (0, 0, 0.00000000000000000000e+00) (0, 0, 0.00000000000000000000e+00) (0, 0, 0.00000000000000000000e+00) (0, 0, 0.00000000000000000000e+00) (0, 0, 0.00000000000000000000e+00) (0, 0, 0.00000000000000000000e+00) (0, 0, 0.00000000000000000000e+00) (0, 0, 0.00000000000000000000e+00) (0, 0, 0.00000000000000000000e+00) (0, 0, 0.00000000000000000000e+00) (0, 0, 0.00000000000000000000e+00) (0, 0, 0.00000000000000000000e+00) (0, 0, 0.00000000000000000000e+00) (0, 0, 0.00000000000000000000e+00) (0, 0, 0.00000000000000000000e+00) (0, 0, 0.00000000000000000000e+00) (0, 0, 0.00000000000000000000e+00) (0, 0, 0.00000000000000000000e+00) (0, 0, 0.00000000000000000000e+00) (0, 0, 0.00000000000000000000e+00) (0, 0, 0.00000000000000000000e+00) (0, 0, 0.00000000000000000000e+00) (0, 0, 0.00000000000000000000e+00) (0, 0, 0.00000000000000000000e+00) (0, 0, 0.00000000000000000000e+00) (0, 0, 0.00000000000000000000e+00) (0, 0, 0.00000000000000000000e+00) (0, 0, 0.00000000000000000000e+00) (0, 0, 0.00000000000000000000e+00) (0, 0, 0.00000000000000000000e+00) (0, 0, 0.00000000000000000000e+00) (0, 0, 0.00000000000000000000e+00) (0, 0, 0.00000000000000000000e+00) (0, 0, 0.00000000000000000000e+00) (0, 0, 0.00000000000000000000e+00) (0, 0, 0.00000000000000000000e+00) (0, 0, 0.00000000000000000000e+00) (0, 0, 0.00000000000000000000e+00) (0, 0, 0.00000000000000000000e+00) (0, 0, 0.00000000000000000000e+00) (0, 0, 0.00000000000000000000e+00) (0, 0, 0.00000000000000000000e+00) (0, 0, 0.00000000000000000000e+00) (0, 0, 0.00000000000000000000e+00) (0, 0, 0.00000000000000000000e+00) (0, 0, 0.00000000000000000000e+00) (0, 0, 0.00000000000000000000e+00) (0, 0, 0.00000000000000000000e+00) (0, 0, 0.00000000000000000000e+00) (0, 0, 0.00000000000000000000e+00) (0, 0, 0.00000000000000000000e+00) (0, 0, 0.00000000000000000000e+00) (0, 0, 0.00000000000000000000e+00) (0, 0, 0.00000000000000000000e+00) (0, 0, 0.00000000000000000000e+00) (0, 0, 0.00000000000000000000e+00) (0, 0, 0.00000000000000000000e+00) (0, 0, 0.00000000000000000000e+00) (0, 0, 0.00000000000000000000e+00) (0, 0, 0.00000000000000000000e+00) (0, 0, 0.00000000000000000000e+00) (0, 0, 0.00000000000000000000e+00) (0, 0, 0.00000000000000000000e+00) (0, 0, 0.00000000000000000000e+00) (0, 0, 0.00000000000000000000e+00) (0, 0, 0.00000000000000000000e+00) (0, 0, 0.00000000000000000000e+00) (0, 0, 0.00000000000000000000e+00) (0, 0, 0.00000000000000000000e+00) (0, 0, 0.00000000000000000000e+00) (0, 0, 0.00000000000000000000e+00) (0, 0, 0.00000000000000000000e+00) (0, 0, 0.00000000000000000000e+00) (0, 0, 0.00000000000000000000e+00) (0, 0, 0.00000000000000000000e+00) (0, 0, 0.00000000000000000000e+00) (0, 0, 0.00000000000000000000e+00) (0, 0, 0.00000000000000000000e+00) (0, 0, 0.00000000000000000000e+00) (0, 0, 0.00000000000000000000e+00) (0, 0, 0.00000000000000000000e+00) (0, 0, 0.00000000000000000000e+00) (0, 0, 0.00000000000000000000e+00) (0, 0, 0.00000000000000000000e+00) (0, 0, 0.00000000000000000000e+00) (0, 0, 0.00000000000000000000e+00) (0, 0, 0.00000000000000000000e+00) (0, 0, 0.00000000000000000000e+00) (0, 0, 0.00000000000000000000e+00) (0, 0, 0.00000000000000000000e+00) (0, 0, 0.00000000000000000000e+00) (0, 0, 0.00000000000000000000e+00) (0, 0, 0.00000000000000000000e+00) (0, 0, 0.00000000000000000000e+00) (0, 0, 0.00000000000000000000e+00) (0, 0, 0.00000000000000000000e+00) (0, 0, 0.00000000000000000000e+00) (0, 0, 0.00000000000000000000e+00) (0, 0, 0.00000000000000000000e+00) (0, 0, 0.00000000000000000000e+00) (0, 0, 0.00000000000000000000e+00) (0, 0, 0.00000000000000000000e+00) (0, 0, 0.00000000000000000000e+00) (0, 0, 0.00000000000000000000e+00) (0, 0, 0.00000000000000000000e+00) (0, 0, 0.00000000000000000000e+00) (0, 0, 0.00000000000000000000e+00) (0, 0, 0.00000000000000000000e+00) (0, 0, 0.00000000000000000000e+00) (0, 0, 0.00000000000000000000e+00) (0, 0, 0.00000000000000000000e+00) (0, 0, 0.00000000000000000000e+00) (0, 0, 0.00000000000000000000e+00) (0, 0, 0.00000000000000000000e+00) (0, 0, 0.00000000000000000000e+00) (0, 0, 0.00000000000000000000e+00) (0, 0, 0.00000000000000000000e+00) (0, 0, 0.00000000000000000000e+00) (0, 0, 0.00000000000000000000e+00) (0, 0, 0.00000000000000000000e+00) (0, 0, 0.00000000000000000000e+00) (0, 0, 0.00000000000000000000e+00) (0, 0, 0.00000000000000000000e+00) (0, 0, 0.00000000000000000000e+00) (0, 0, 0.00000000000000000000e+00) (0, 0, 0.00000000000000000000e+00) (0, 0, 0.00000000000000000000e+00) (0, 0, 0.00000000000000000000e+00) (0, 0, 0.00000000000000000000e+00) (0, 0, 0.00000000000000000000e+00) (0, 0, 0.00000000000000000000e+00) (0, 0, 0.00000000000000000000e+00) (0, 0, 0.00000000000000000000e+00) (0, 0, 0.00000000000000000000e+00) (0, 0, 0.00000000000000000000e+00) (0, 0, 0.00000000000000000000e+00) (0, 0, 0.00000000000000000000e+00) (0, 0, 0.00000000000000000000e+00) (0, 0, 0.00000000000000000000e+00) (0, 0, 0.00000000000000000000e+00) (0, 0, 0.00000000000000000000e+00) (0, 0, 0.00000000000000000000e+00) (0, 0, 0.00000000000000000000e+00) (0, 0, 0.00000000000000000000e+00) (0, 0, 0.00000000000000000000e+00) (0, 0, 0.00000000000000000000e+00) (901, 10, 5.00000000000000000000e-01) (901, 10, 5.00000000000000000000e-01) (901, 10, 5.00000000000000000000e-01) (901, 10, 5.00000000000000000000e-01) (901, 10, 5.00000000000000000000e-01) (901, 10, 5.00000000000000000000e-01) (901, 10, 5.00000000000000000000e-01) (901, 10, 5.00000000000000000000e-01) (901, 10, 5.00000000000000000000e-01) (901, 10, 5.00000000000000000000e-01) (901, 10, 5.00000000000000000000e-01) (901, 10, 5.00000000000000000000e-01) (901, 10, 5.00000000000000000000e-01) (901, 10, 5.00000000000000000000e-01) (901, 10, 5.00000000000000000000e-01) (901, 10, 5.00000000000000000000e-01) (901, 10, 5.00000000000000000000e-01) (901, 10, 5.00000000000000000000e-01) (901, 10, 5.00000000000000000000e-01) (901, 10, 5.00000000000000000000e-01) (901, 10, 5.00000000000000000000e-01) (901, 10, 5.00000000000000000000e-01) (901, 10, 5.00000000000000000000e-01) (901, 10, 5.00000000000000000000e-01) (901, 10, 5.00000000000000000000e-01) (901, 10, 5.00000000000000000000e-01) (901, 10, 5.00000000000000000000e-01) (901, 10, 5.00000000000000000000e-01) (901, 10, 5.00000000000000000000e-01) (901, 10, 5.00000000000000000000e-01) (901, 10, 5.00000000000000000000e-01) (901, 10, 5.00000000000000000000e-01) (901, 10, 5.00000000000000000000e-01) (901, 10, 5.00000000000000000000e-01) (901, 10, 5.00000000000000000000e-01) (901, 10, 5.00000000000000000000e-01) (901, 10, 5.00000000000000000000e-01) (901, 10, 5.00000000000000000000e-01) (901, 10, 5.00000000000000000000e-01) (901, 10, 5.00000000000000000000e-01) (901, 10, 5.00000000000000000000e-01) (901, 10, 5.00000000000000000000e-01) (901, 10, 5.00000000000000000000e-01) (901, 10, 5.00000000000000000000e-01) (901, 10, 5.00000000000000000000e-01) (901, 10, 5.00000000000000000000e-01) (901, 10, 5.00000000000000000000e-01) (901, 10, 5.00000000000000000000e-01) (901, 10, 5.00000000000000000000e-01) (901, 10, 5.00000000000000000000e-01) (901, 10, 5.00000000000000000000e-01) (901, 10, 5.00000000000000000000e-01) (901, 10, 5.00000000000000000000e-01) (901, 10, 5.00000000000000000000e-01) (901, 10, 5.00000000000000000000e-01) (901, 10, 5.00000000000000000000e-01) (901, 10, 5.00000000000000000000e-01) (901, 10, 5.00000000000000000000e-01) (901, 10, 5.00000000000000000000e-01) (901, 10, 5.00000000000000000000e-01) (901, 10, 5.00000000000000000000e-01) (901, 10, 5.00000000000000000000e-01) (901, 10, 5.00000000000000000000e-01) (901, 10, 5.00000000000000000000e-01) (901, 10, 5.00000000000000000000e-01) (901, 10, 5.00000000000000000000e-01) (901, 10, 5.00000000000000000000e-01) (901, 10, 5.00000000000000000000e-01) (901, 10, 5.00000000000000000000e-01) (901, 10, 5.00000000000000000000e-01) (901, 10, 5.00000000000000000000e-01) (901, 10, 5.00000000000000000000e-01) (901, 10, 5.00000000000000000000e-01) (901, 10, 5.00000000000000000000e-01) (901, 10, 5.00000000000000000000e-01) (901, 10, 5.00000000000000000000e-01) (901, 10, 5.00000000000000000000e-01) (901, 10, 5.00000000000000000000e-01) (901, 10, 5.00000000000000000000e-01) (901, 10, 5.00000000000000000000e-01) (901, 10, 5.00000000000000000000e-01) (901, 10, 5.00000000000000000000e-01) (901, 10, 5.00000000000000000000e-01) (901, 10, 5.00000000000000000000e-01) (901, 10, 5.00000000000000000000e-01) (901, 10, 5.00000000000000000000e-01) (901, 10, 5.00000000000000000000e-01) (901, 10, 5.00000000000000000000e-01) (901, 10, 5.00000000000000000000e-01) (901, 10, 5.00000000000000000000e-01) (901, 10, 5.00000000000000000000e-01) (901, 10, 5.00000000000000000000e-01) (901, 10, 5.00000000000000000000e-01) (901, 10, 5.00000000000000000000e-01) (901, 10, 5.00000000000000000000e-01) (901, 10, 5.00000000000000000000e-01) (901, 10, 5.00000000000000000000e-01) (901, 10, 5.00000000000000000000e-01) (901, 10, 5.00000000000000000000e-01) (901, 10, 5.00000000000000000000e-01) (0, 10, 0.00000000000000000000e+00) (101, 10, 5.00000000000000000000e-01) (101, 10, 5.00000000000000000000e-01) (101, 10, 5.00000000000000000000e-01) (101, 10, 5.00000000000000000000e-01) (101, 10, 5.00000000000000000000e-01) (101, 10, 5.00000000000000000000e-01) (101, 10, 5.00000000000000000000e-01) (101, 10, 5.00000000000000000000e-01) (101, 10, 5.00000000000000000000e-01) (101, 10, 5.00000000000000000000e-01) (101, 10, 5.00000000000000000000e-01) (101, 10, 5.00000000000000000000e-01) (101, 10, 5.00000000000000000000e-01) (101, 10, 5.00000000000000000000e-01) (101, 10, 5.00000000000000000000e-01) (101, 10, 5.00000000000000000000e-01) (101, 10, 5.00000000000000000000e-01) (101, 10, 5.00000000000000000000e-01) (101, 10, 5.00000000000000000000e-01) (101, 10, 5.00000000000000000000e-01) (101, 10, 5.00000000000000000000e-01) (101, 10, 5.00000000000000000000e-01) (101, 10, 5.00000000000000000000e-01) (101, 10, 5.00000000000000000000e-01) (101, 10, 5.00000000000000000000e-01) (101, 10, 5.00000000000000000000e-01) (101, 10, 5.00000000000000000000e-01) (101, 10, 5.00000000000000000000e-01) (101, 10, 5.00000000000000000000e-01) (101, 10, 5.00000000000000000000e-01) (101, 10, 5.00000000000000000000e-01) (101, 10, 5.00000000000000000000e-01) (101, 10, 5.00000000000000000000e-01) (101, 10, 5.00000000000000000000e-01) (101, 10, 5.00000000000000000000e-01) (101, 10, 5.00000000000000000000e-01) (0, 10, 0.00000000000000000000e+00) 
connections (connected_to_neuron, weight)=(0, 7.55569577217102050781e-01) (1, 9.14940595626831054688e-01) (2, 7.62369096279144287109e-01) (3, 9.15075719356536865234e-01) (4, 8.20137739181518554688e-01) (5, 9.09361302852630615234e-01) (6, 9.42544102668762207031e-01) (7, 1.01233065128326416016e+00) (8, 1.00901234149932861328e+00) (9, 9.56361711025238037109e-01) (10, 9.35044765472412109375e-01) (11, 9.15091097354888916016e-01) (12, 8.57179164886474609375e-01) (13, 1.24052584171295166016e+00) (14, 6.80999219417572021484e-01) (15, 5.85161149501800537109e-01) (16, 6.84096693992614746094e-01) (17, 6.48976445198059082031e-01) (18, 6.67295515537261962891e-01) (19, 5.79923570156097412109e-01) (20, 9.07874703407287597656e-01) (21, 8.52240383625030517578e-01) (22, 9.13902401924133300781e-01) (23, 8.60629618167877197266e-01) (24, 6.74929678440093994141e-01) (25, 6.84934139251708984375e-01) (26, 6.97800755500793457031e-01) (27, 9.24132466316223144531e-01) (28, 9.37717139720916748047e-01) (29, 8.24814796447753906250e-01) (30, 9.22463417053222656250e-01) (31, 7.55100905895233154297e-01) (32, 9.01652753353118896484e-01) (33, 8.46729993820190429688e-01) (34, 1.06587326526641845703e+00) (35, 1.01740372180938720703e+00) (36, 2.45056200027465820312e+00) (37, 2.46908879280090332031e+00) (38, 2.49040579795837402344e+00) (39, 2.42130494117736816406e+00) (40, 1.97891712188720703125e+00) (41, 1.97891712188720703125e+00) (42, 2.08986282348632812500e+00) (43, 1.23696398735046386719e+00) (44, 7.29239821434020996094e-01) (45, 7.44947850704193115234e-01) (46, 6.86157047748565673828e-01) (47, 6.90458357334136962891e-01) (48, 8.18363189697265625000e-01) (49, 8.48808646202087402344e-01) (50, 9.63416695594787597656e-01) (51, 8.62290024757385253906e-01) (52, 1.32423770427703857422e+00) (53, 1.44550919532775878906e+00) (54, 1.47187030315399169922e+00) (55, 1.40069031715393066406e+00) (56, 8.89680624008178710938e-01) (57, 9.28908348083496093750e-01) (58, 7.11347997188568115234e-01) (59, 6.56208693981170654297e-01) (60, 9.45926249027252197266e-01) (61, 9.35417652130126953125e-01) (62, 9.46715056896209716797e-01) (63, 9.19508934020996093750e-01) (64, 2.47661828994750976562e+00) (65, 2.43946051597595214844e+00) (66, 4.98430633544921875000e+00) (67, 1.11535348892211914062e+01) (68, 1.82836151123046875000e+01) (69, 1.82292575836181640625e+01) (70, 1.81525421142578125000e+01) (71, 8.32045459747314453125e+00) (72, 4.30763244628906250000e+00) (73, 1.87545251846313476562e+00) (74, 8.30158829689025878906e-01) (75, 8.38829159736633300781e-01) (76, 7.67718851566314697266e-01) (77, 8.89824628829956054688e-01) (78, 9.01410460472106933594e-01) (79, 2.45431995391845703125e+00) (80, 4.37817382812500000000e+00) (81, 8.33691596984863281250e+00) (82, 1.82938499450683593750e+01) (83, 2.38102855682373046875e+01) (84, 2.39318351745605468750e+01) (85, 1.02966318130493164062e+01) (86, 1.02980442047119140625e+01) (87, 1.30287504196166992188e+00) (88, 9.03778672218322753906e-01) (89, 8.69088232517242431641e-01) (90, 8.48710060119628906250e-01) (91, 8.94624471664428710938e-01) (92, 1.05837094783782958984e+00) (93, 1.56842207908630371094e+00) (94, 2.47480487823486328125e+00) (95, 1.10602846145629882812e+01) (96, 8.64671039581298828125e+00) (97, 4.19782524108886718750e+01) (98, 4.19587554931640625000e+01) (99, 1.83135547637939453125e+01) (100, 1.81258296966552734375e+01) (101, 4.29182004928588867188e+00) (102, 1.89205098152160644531e+00) (103, 1.03536319732666015625e+00) (104, 6.26202642917633056641e-01) (105, 8.37594509124755859375e-01) (106, 1.07644069194793701172e+00) (107, 5.84327578544616699219e-01) (108, 1.85409474372863769531e+00) (109, 2.50491905212402343750e+00) (110, 4.35063600540161132812e+00) (111, 1.81754035949707031250e+01) (112, 5.55777740478515625000e+01) (113, 5.55750198364257812500e+01) (114, 5.55345840454101562500e+01) (115, 5.55486831665039062500e+01) (116, 5.55498886108398437500e+01) (117, 1.02057228088378906250e+01) (118, 2.52189660072326660156e+00) (119, 1.02676475048065185547e+00) (120, 9.11301851272583007812e-01) (121, 8.75997722148895263672e-01) (122, 9.23708140850067138672e-01) (123, 1.39624309539794921875e+00) (124, 1.43604075908660888672e+00) (125, 2.33294272422790527344e+00) (126, 4.23061704635620117188e+00) (127, 4.20844221115112304688e+00) (128, 4.23129463195800781250e+00) (129, 2.09115004539489746094e+00) (130, 1.43256151676177978516e+00) (131, 8.44024181365966796875e-01) (132, 4.61960494518280029297e-01) (133, 4.25824165344238281250e-01) (134, 6.92178249359130859375e-01) (135, 6.10383033752441406250e-01) (136, 5.32862305641174316406e-01) (137, 7.27586090564727783203e-01) (138, 9.31448280811309814453e-01) (139, 2.19173717498779296875e+00) (140, 5.25723600387573242188e+00) (141, 1.11260156631469726562e+01) (142, 5.55464172363281250000e+01) (143, 5.54758911132812500000e+01) (144, 5.55326614379882812500e+01) (145, 5.54541015625000000000e+01) (146, 5.55976638793945312500e+01) (147, 2.37896728515625000000e+01) (148, 2.48216748237609863281e+00) (149, 1.39541757106781005859e+00) (150, 7.62215614318847656250e-01) (151, 6.76901996135711669922e-01) (152, 9.60569322109222412109e-01) (153, 8.76858711242675781250e-01) (154, 1.17236304283142089844e+00) (155, 1.28726625442504882812e+00) (156, 1.15977549552917480469e+00) (157, 1.33184862136840820312e+00) (158, 1.59468662738800048828e+00) (159, 8.28268110752105712891e-01) (160, 6.04604899883270263672e-01) (161, 5.57790994644165039062e-01) (162, 6.64078772068023681641e-01) (163, 6.49233877658843994141e-01) (164, 1.57832396030426025391e+00) (165, 1.02041494846343994141e+00) (166, 7.24830210208892822266e-01) (167, 5.64359188079833984375e-01) (168, 6.69298648834228515625e-01) (169, 1.30216622352600097656e+00) (170, 2.21168470382690429688e+00) (171, 5.34535932540893554688e+00) (172, 1.10927286148071289062e+01) (173, 5.54275665283203125000e+01) (174, 5.54621276855468750000e+01) (175, 5.54570159912109375000e+01) (176, 5.54547653198242187500e+01) (177, 2.37669143676757812500e+01) (178, 2.42986941337585449219e+00) (179, 2.51002812385559082031e+00) (180, 8.65825176239013671875e-01) (181, 7.50197350978851318359e-01) (182, 7.90683984756469726562e-01) (183, 8.88208627700805664062e-01) (184, 1.28723001480102539062e+00) (185, 1.19565701484680175781e+00) (186, 1.17428588867187500000e+00) (187, 1.07648968696594238281e+00) (188, 7.45374202728271484375e-01) (189, 6.85460746288299560547e-01) (190, 5.92990994453430175781e-01) (191, 8.85204374790191650391e-01) (192, 7.46510446071624755859e-01) (193, 1.57678937911987304688e+00) (194, 1.60995197296142578125e+00) (195, 8.22773873805999755859e-01) (196, 7.02771782875061035156e-01) (197, 5.74640154838562011719e-01) (198, 6.66052043437957763672e-01) (199, 1.08887517452239990234e+00) (200, 1.37051093578338623047e+00) (201, 2.53703117370605468750e+00) (202, 1.10010938644409179688e+01) (203, 2.38822231292724609375e+01) (204, 5.55935897827148437500e+01) (205, 5.54948501586914062500e+01) (206, 2.39123382568359375000e+01) (207, 1.11629190444946289062e+01) (208, 2.44494223594665527344e+00) (209, 2.38128185272216796875e+00) (210, 8.00873041152954101562e-01) (211, 6.68879389762878417969e-01) (212, 7.60470628738403320312e-01) (213, 9.58049535751342773438e-01) (214, 8.44716846942901611328e-01) (215, 7.12857842445373535156e-01) (216, 6.60426497459411621094e-01) (217, 6.88037812709808349609e-01) (218, 6.93482697010040283203e-01) (219, 7.06070601940155029297e-01) (220, 8.67339611053466796875e-01) (221, 8.13933074474334716797e-01) (222, 1.73144268989562988281e+00) (223, 1.57446599006652832031e+00) (224, 8.88662040233612060547e-01) (225, 5.65522432327270507812e-01) (226, 6.23665034770965576172e-01) (227, 6.33589088916778564453e-01) (228, 9.86050248146057128906e-01) (229, 1.20652198791503906250e+00) (230, 9.25392508506774902344e-01) (231, 2.41928839683532714844e+00) (232, 5.28927278518676757812e+00) (233, 2.39293098449707031250e+01) (234, 2.39305038452148437500e+01) (235, 2.38577651977539062500e+01) (236, 1.10046997070312500000e+01) (237, 5.28010988235473632812e+00) (238, 2.46239447593688964844e+00) (239, 9.48530614376068115234e-01) (240, 7.98569262027740478516e-01) (241, 6.92258775234222412109e-01) (242, 7.79140889644622802734e-01) (243, 5.70454359054565429688e-01) (244, 7.32747137546539306641e-01) (245, 6.37005150318145751953e-01) (246, 6.11203432083129882812e-01) (247, 5.40713071823120117188e-01) (248, 6.79046690464019775391e-01) (249, 9.96243238449096679688e-01) (250, 1.75166189670562744141e+00) (251, 1.66235339641571044922e+00) (252, 1.59185290336608886719e+00) (253, 9.20665144920349121094e-01) (254, 6.60947024822235107422e-01) (255, 7.06940054893493652344e-01) (256, 7.28342950344085693359e-01) (257, 7.40200221538543701172e-01) (258, 1.09409737586975097656e+00) (259, 1.07766211032867431641e+00) (260, 9.68889832496643066406e-01) (261, 2.55837488174438476562e+00) (262, 2.45455884933471679688e+00) (263, 5.24919128417968750000e+00) (264, 5.31486892700195312500e+00) (265, 5.21224737167358398438e+00) (266, 5.34603023529052734375e+00) (267, 1.59901082515716552734e+00) (268, 1.49993240833282470703e+00) (269, 9.16564464569091796875e-01) (270, 7.69644618034362792969e-01) (271, 7.72685348987579345703e-01) (272, 6.49275481700897216797e-01) (273, 5.60200035572052001953e-01) (274, 6.80739700794219970703e-01) (275, 6.35994613170623779297e-01) (276, 5.49651324748992919922e-01) (277, 4.34423953294754028320e-01) (278, 9.69422817230224609375e-01) (279, 1.02793586254119873047e+00) (280, 1.00219917297363281250e+00) (281, 9.60942625999450683594e-01) (282, 5.95856368541717529297e-01) (283, 6.99619412422180175781e-01) (284, 5.89472413063049316406e-01) (285, 7.12391674518585205078e-01) (286, 6.62147641181945800781e-01) (287, 9.63702917098999023438e-01) (288, 1.20616006851196289062e+00) (289, 1.25800800323486328125e+00) (290, 8.73233377933502197266e-01) (291, 7.81726241111755371094e-01) (292, 2.52781581878662109375e+00) (293, 2.51882076263427734375e+00) (294, 2.38476586341857910156e+00) (295, 2.48356437683105468750e+00) (296, 1.32675504684448242188e+00) (297, 1.32648313045501708984e+00) (298, 9.42901074886322021484e-01) (299, 1.34862494468688964844e+00) (300, 7.46268987655639648438e-01) (301, 5.52997827529907226562e-01) (302, 6.26461505889892578125e-01) (303, 7.00620889663696289062e-01) (304, 5.31729519367218017578e-01) (305, 5.44509470462799072266e-01) (306, 5.10523498058319091797e-01) (307, 5.09273231029510498047e-01) (308, 8.94896745681762695312e-01) (309, 1.03669238090515136719e+00) (310, 1.06367635726928710938e+00) (311, 1.01839351654052734375e+00) (312, 5.84641873836517333984e-01) (313, 5.80830335617065429688e-01) (314, 6.39310419559478759766e-01) (315, 6.29702568054199218750e-01) (316, 9.39109563827514648438e-01) (317, 9.47345495223999023438e-01) (318, 1.20284938812255859375e+00) (319, 1.25673341751098632812e+00) (320, 9.39500868320465087891e-01) (321, 9.87515985965728759766e-01) (322, 7.49892771244049072266e-01) (323, 1.46469902992248535156e+00) (324, 1.45217275619506835938e+00) (325, 1.43142676353454589844e+00) (326, 1.37725460529327392578e+00) (327, 1.30086517333984375000e+00) (328, 1.27984738349914550781e+00) (329, 1.32964026927947998047e+00) (330, 6.48377895355224609375e-01) (331, 7.31267452239990234375e-01) (332, 7.09068059921264648438e-01) (333, 7.01194584369659423828e-01) (334, 6.78036570549011230469e-01) (335, 6.47535741329193115234e-01) (336, 6.12592518329620361328e-01) (337, 5.08251309394836425781e-01) (338, 8.98625075817108154297e-01) (339, 8.87918710708618164062e-01) (340, 1.07141101360321044922e+00) (341, 5.49308478832244873047e-01) (342, 6.93319380283355712891e-01) (343, 5.77350556850433349609e-01) (344, 5.85727035999298095703e-01) (345, 9.78517293930053710938e-01) (346, 1.05294084548950195312e+00) (347, 9.80424761772155761719e-01) (348, 9.91151571273803710938e-01) (349, 9.67223286628723144531e-01) (350, 1.01950848102569580078e+00) (351, 1.08090782165527343750e+00) (352, 1.05344831943511962891e+00) (353, 8.43919038772583007812e-01) (354, 1.35096871852874755859e+00) (355, 1.31098294258117675781e+00) (356, 1.18491363525390625000e+00) (357, 1.20240700244903564453e+00) (358, 8.47978532314300537109e-01) (359, 9.00891363620758056641e-01) (360, 7.30935037136077880859e-01) (361, 7.13085830211639404297e-01) (362, 6.48888230323791503906e-01) (363, 6.58534646034240722656e-01) (364, 5.89511573314666748047e-01) (365, 4.73216325044631958008e-01) (366, 5.51699757575988769531e-01) (367, 8.51455569267272949219e-01) (368, 9.83730435371398925781e-01) (369, 1.03075444698333740234e+00) (370, 6.96491420269012451172e-01) (371, 6.42148435115814208984e-01) (372, 7.01360523700714111328e-01) (373, 6.45398736000061035156e-01) (374, 6.75087332725524902344e-01) (375, 7.42675721645355224609e-01) (376, 9.02637660503387451172e-01) (377, 8.06749463081359863281e-01) (378, 8.01822066307067871094e-01) (379, 7.59077906608581542969e-01) (380, 8.39261591434478759766e-01) (381, 6.02269470691680908203e-01) (382, 5.84161043167114257812e-01) (383, 7.07802534103393554688e-01) (384, 8.15683305263519287109e-01) (385, 6.69240355491638183594e-01) (386, 6.13249003887176513672e-01) (387, 7.58297026157379150391e-01) (388, 6.29347443580627441406e-01) (389, 6.77956938743591308594e-01) (390, 6.38583242893218994141e-01) (391, 5.76919794082641601562e-01) (392, 6.07680141925811767578e-01) (393, 6.51749491691589355469e-01) (394, 5.98409593105316162109e-01) (395, 4.12711977958679199219e-01) (396, 4.85295206308364868164e-01) (397, 7.11405932903289794922e-01) (398, 1.03305888175964355469e+00) (399, 1.04945516586303710938e+00) (400, 6.07431948184967041016e-01) (401, 6.50847852230072021484e-01) (402, 6.12901151180267333984e-01) (403, 5.64380586147308349609e-01) (404, 9.42134141921997070312e-01) (405, 9.57009434700012207031e-01) (406, 7.76077270507812500000e-01) (407, 5.25691449642181396484e-01) (408, 3.99548947811126708984e-01) (409, 4.13689494132995605469e-01) (410, 5.04928529262542724609e-01) (411, 5.28840124607086181641e-01) (412, 8.77912580966949462891e-01) (413, 1.75334060192108154297e+00) (414, 9.00662422180175781250e-01) (415, 9.62361216545104980469e-01) (416, 5.40114820003509521484e-01) (417, 6.35209083557128906250e-01) (418, 6.41955792903900146484e-01) (419, 6.39693796634674072266e-01) (420, 6.92468762397766113281e-01) (421, 6.97176396846771240234e-01) (422, 5.62333822250366210938e-01) (423, 4.27663415670394897461e-01) (424, 5.66134572029113769531e-01) (425, 4.67280626296997070312e-01) (426, 4.39156740903854370117e-01) (427, 7.20880985260009765625e-01) (428, 1.05573260784149169922e+00) (429, 7.18354701995849609375e-01) (430, 7.27453172206878662109e-01) (431, 5.84462165832519531250e-01) (432, 7.10884034633636474609e-01) (433, 9.86241936683654785156e-01) (434, 9.94730353355407714844e-01) (435, 1.06868779659271240234e+00) (436, 9.85406756401062011719e-01) (437, 1.01296317577362060547e+00) (438, 9.74728822708129882812e-01) (439, 6.43177032470703125000e-01) (440, 6.84874057769775390625e-01) (441, 7.37878620624542236328e-01) (442, 5.72663605213165283203e-01) (443, 9.39232349395751953125e-01) (444, 1.10213112831115722656e+00) (445, 8.42301249504089355469e-01) (446, 7.44515061378479003906e-01) (447, 6.88037574291229248047e-01) (448, 6.14503860473632812500e-01) (449, 6.54874384403228759766e-01) (450, 5.99371016025543212891e-01) (451, 5.23609876632690429688e-01) (452, 6.29041194915771484375e-01) (453, 5.78913390636444091797e-01) (454, 4.76162463426589965820e-01) (455, 5.20064830780029296875e-01) (456, 4.44975405931472778320e-01) (457, 9.54880714416503906250e-01) (458, 6.57194793224334716797e-01) (459, 7.28070139884948730469e-01) (460, 5.94532847404479980469e-01) (461, 7.26329505443572998047e-01) (462, 6.54213845729827880859e-01) (463, 6.92213475704193115234e-01) (464, 7.53848612308502197266e-01) (465, 6.90221488475799560547e-01) (466, 7.98235654830932617188e-01) (467, 9.77984666824340820312e-01) (468, 9.93460059165954589844e-01) (469, 1.33208501338958740234e+00) (470, 1.37058174610137939453e+00) (471, 9.74510192871093750000e-01) (472, 7.27430343627929687500e-01) (473, 8.00711870193481445312e-01) (474, 8.00506174564361572266e-01) (475, 6.05068445205688476562e-01) (476, 6.49837493896484375000e-01) (477, 6.14068448543548583984e-01) (478, 5.42370796203613281250e-01) (479, 5.81981718540191650391e-01) (480, 5.85053503513336181641e-01) (481, 5.63916802406311035156e-01) (482, 5.64184188842773437500e-01) (483, 5.02220332622528076172e-01) (484, 4.67719465494155883789e-01) (485, 6.20776236057281494141e-01) (486, 6.32247745990753173828e-01) (487, 5.03880500793457031250e-01) (488, 6.03018939495086669922e-01) (489, 6.15947842597961425781e-01) (490, 7.57844209671020507812e-01) (491, 8.46914172172546386719e-01) (492, 7.71451473236083984375e-01) (493, 6.55927300453186035156e-01) (494, 7.03334450721740722656e-01) (495, 9.92397785186767578125e-01) (496, 9.99163389205932617188e-01) (497, 2.42853832244873046875e+00) (498, 5.27750062942504882812e+00) (499, 5.24819564819335937500e+00) (500, 1.10842208862304687500e+01) (501, 5.17431640625000000000e+00) (502, 5.35063743591308593750e+00) (503, 5.32675552368164062500e+00) (504, 1.92551028728485107422e+00) (505, 8.08713495731353759766e-01) (506, 5.89393854141235351562e-01) (507, 5.90100944042205810547e-01) (508, 5.36207497119903564453e-01) (509, 5.46193182468414306641e-01) (510, 6.67991459369659423828e-01) (511, 6.46702885627746582031e-01) (512, 5.68702757358551025391e-01) (513, 5.57064890861511230469e-01) (514, 4.73812431097030639648e-01) (515, 6.27607941627502441406e-01) (516, 5.69026827812194824219e-01) (517, 6.91396117210388183594e-01) (518, 7.24054872989654541016e-01) (519, 7.58998036384582519531e-01) (520, 1.25055253505706787109e+00) (521, 1.18895614147186279297e+00) (522, 9.40550088882446289062e-01) (523, 9.22025203704833984375e-01) (524, 9.30821478366851806641e-01) (525, 1.51464450359344482422e+00) (526, 1.57722091674804687500e+00) (527, 3.03119063377380371094e+00) (528, 3.01058220863342285156e+00) (529, 2.93400883674621582031e+00) (530, 2.92026543617248535156e+00) (531, 5.24020957946777343750e+00) (532, 5.26298284530639648438e+00) (533, 5.22556066513061523438e+00) (534, 2.12362861633300781250e+00) (535, 6.27433240413665771484e-01) (536, 6.04236483573913574219e-01) (537, 5.29368102550506591797e-01) (538, 6.19467794895172119141e-01) (539, 5.87222158908843994141e-01) (540, 6.01003110408782958984e-01) (541, 5.90896487236022949219e-01) (542, 4.92517739534378051758e-01) (543, 4.65062052011489868164e-01) (544, 5.09613931179046630859e-01) (545, 5.57515859603881835938e-01) (546, 6.78005933761596679688e-01) (547, 6.63976788520812988281e-01) (548, 6.88712239265441894531e-01) (549, 7.81414210796356201172e-01) (550, 1.30573666095733642578e+00) (551, 1.34002029895782470703e+00) (552, 1.06962406635284423828e+00) (553, 8.48161756992340087891e-01) (554, 1.36440980434417724609e+00) (555, 1.40431165695190429688e+00) (556, 1.45636117458343505859e+00) (557, 1.53469622135162353516e+00) (558, 1.39015996456146240234e+00) (559, 2.77750396728515625000e+00) (560, 2.77926564216613769531e+00) (561, 2.96242284774780273438e+00) (562, 3.00002932548522949219e+00) (563, 1.50503861904144287109e+00) (564, 1.04102933406829833984e+00) (565, 5.86718380451202392578e-01) (566, 4.97906088829040527344e-01) (567, 4.55324441194534301758e-01) (568, 5.18020272254943847656e-01) (569, 6.87660217285156250000e-01) (570, 5.91671824455261230469e-01) (571, 5.92927455902099609375e-01) (572, 5.73912680149078369141e-01) (573, 5.79545736312866210938e-01) (574, 6.19642078876495361328e-01) (575, 4.74712282419204711914e-01) (576, 5.22397518157958984375e-01) (577, 6.96064114570617675781e-01) (578, 7.78489351272583007812e-01) (579, 9.03572142124176025391e-01) (580, 1.32347667217254638672e+00) (581, 9.49680626392364501953e-01) (582, 9.58820044994354248047e-01) (583, 9.94975686073303222656e-01) (584, 1.46006262302398681641e+00) (585, 1.45116150379180908203e+00) (586, 1.13922512531280517578e+00) (587, 1.15587222576141357422e+00) (588, 1.22530627250671386719e+00) (589, 1.18138253688812255859e+00) (590, 1.22947061061859130859e+00) (591, 1.30066633224487304688e+00) (592, 1.33657956123352050781e+00) (593, 8.86973023414611816406e-01) (594, 9.11786794662475585938e-01) (595, 5.97404897212982177734e-01) (596, 4.66226011514663696289e-01) (597, 5.81893920898437500000e-01) (598, 5.74015796184539794922e-01) (599, 5.78215897083282470703e-01) (600, 6.55442953109741210938e-01) (601, 5.05888104438781738281e-01) (602, 5.03262877464294433594e-01) (603, 5.24711728096008300781e-01) (604, 6.17553532123565673828e-01) (605, 5.14090538024902343750e-01) (606, 5.76679170131683349609e-01) (607, 4.93522942066192626953e-01) (608, 6.89591467380523681641e-01) (609, 9.10710334777832031250e-01) (610, 9.68610584735870361328e-01) (611, 1.00212275981903076172e+00) (612, 1.05592107772827148438e+00) (613, 8.64606559276580810547e-01) (614, 1.28488612174987792969e+00) (615, 1.26948285102844238281e+00) (616, 1.25570595264434814453e+00) (617, 1.15747940540313720703e+00) (618, 1.15872311592102050781e+00) (619, 1.05249655246734619141e+00) (620, 1.20340824127197265625e+00) (621, 1.05273985862731933594e+00) (622, 9.13503050804138183594e-01) (623, 6.51585578918457031250e-01) (624, 5.49848318099975585938e-01) (625, 5.42788028717041015625e-01) (626, 4.93591934442520141602e-01) (627, 5.21897375583648681641e-01) (628, 5.10570883750915527344e-01) (629, 4.44571703672409057617e-01) (630, 5.26145815849304199219e-01) (631, 4.76681083440780639648e-01) (632, 4.97890740633010864258e-01) (633, 4.97148305177688598633e-01) (634, 5.35428762435913085938e-01) (635, 5.22232472896575927734e-01) (636, 6.16110622882843017578e-01) (637, 6.93538784980773925781e-01) (638, 8.87058556079864501953e-01) (639, 9.84844028949737548828e-01) (640, 9.28604841232299804688e-01) (641, 1.05119919776916503906e+00) (642, 9.82496917247772216797e-01) (643, 1.24775862693786621094e+00) (644, 1.36979424953460693359e+00) (645, 1.06413662433624267578e+00) (646, 1.21249318122863769531e+00) (647, 1.15886831283569335938e+00) (648, 1.17922413349151611328e+00) (649, 1.09206080436706542969e+00) (650, 1.13220953941345214844e+00) (651, 1.10347688198089599609e+00) (652, 7.27285504341125488281e-01) (653, 5.92694818973541259766e-01) (654, 5.12670516967773437500e-01) (655, 6.17095470428466796875e-01) (656, 4.32381004095077514648e-01) (657, 5.03160595893859863281e-01) (658, 4.77729409933090209961e-01) (659, 5.19915878772735595703e-01) (660, 6.18609368801116943359e-01) (661, 5.63611507415771484375e-01) (662, 5.95012903213500976562e-01) (663, 6.21002852916717529297e-01) (664, 6.46095693111419677734e-01) (665, 6.76944077014923095703e-01) (666, 6.16985499858856201172e-01) (667, 9.45815205574035644531e-01) (668, 1.41592776775360107422e+00) (669, 1.46798217296600341797e+00) (670, 1.46105551719665527344e+00) (671, 1.05251538753509521484e+00) (672, 9.12246942520141601562e-01) (673, 1.33811974525451660156e+00) (674, 8.44367682933807373047e-01) (675, 1.07879471778869628906e+00) (676, 1.22868633270263671875e+00) (677, 1.06712877750396728516e+00) (678, 1.15850770473480224609e+00) (679, 1.12875497341156005859e+00) (680, 1.11679768562316894531e+00) (681, 1.01417148113250732422e+00) (682, 6.51480019092559814453e-01) (683, 4.98746007680892944336e-01) (684, 6.72154963016510009766e-01) (685, 4.63805973529815673828e-01) (686, 5.74512302875518798828e-01) (687, 4.13739532232284545898e-01) (688, 5.46009361743927001953e-01) (689, 4.41511064767837524414e-01) (690, 7.08583474159240722656e-01) (691, 4.96738225221633911133e-01) (692, 5.66775262355804443359e-01) (693, 5.30890226364135742188e-01) (694, 6.22490286827087402344e-01) (695, 6.93936824798583984375e-01) (696, 1.33477842807769775391e+00) (697, 2.40601992607116699219e+00) (698, 1.40867984294891357422e+00) (699, 1.42897546291351318359e+00) (700, 9.68127191066741943359e-01) (701, 8.94135594367980957031e-01) (702, 8.40757250785827636719e-01) (703, 9.25969541072845458984e-01) (704, 7.58601963520050048828e-01) (705, 1.09951567649841308594e+00) (706, 1.21503233909606933594e+00) (707, 1.04910242557525634766e+00) (708, 1.08748912811279296875e+00) (709, 1.13114809989929199219e+00) (710, 1.06454837322235107422e+00) (711, 1.12774109840393066406e+00) (712, 6.35485053062438964844e-01) (713, 6.41608357429504394531e-01) (714, 4.91775840520858764648e-01) (715, 6.07295572757720947266e-01) (716, 6.04391396045684814453e-01) (717, 5.75491726398468017578e-01) (718, 6.00077927112579345703e-01) (719, 5.76433539390563964844e-01) (720, 8.62848162651062011719e-01) (721, 5.49035370349884033203e-01) (722, 6.25677525997161865234e-01) (723, 5.72543203830718994141e-01) (724, 7.60991275310516357422e-01) (725, 6.00673794746398925781e-01) (726, 6.38292491436004638672e-01) (727, 7.22454071044921875000e-01) (728, 8.74216556549072265625e-01) (729, 8.49036574363708496094e-01) (730, 9.53493595123291015625e-01) (731, 1.30557644367218017578e+00) (732, 8.04819822311401367188e-01) (733, 8.55898499488830566406e-01) (734, 1.11063575744628906250e+00) (735, 1.12944209575653076172e+00) (736, 1.21722841262817382812e+00) (737, 1.04651272296905517578e+00) (738, 1.09938919544219970703e+00) (739, 9.91408228874206542969e-01) (740, 1.10111522674560546875e+00) (741, 9.58308815956115722656e-01) (742, 6.80232107639312744141e-01) (743, 6.39264225959777832031e-01) (744, 5.85140168666839599609e-01) (745, 4.71663415431976318359e-01) (746, 5.68452894687652587891e-01) (747, 5.78800916671752929688e-01) (748, 4.26198095083236694336e-01) (749, 5.94563663005828857422e-01) (750, 7.64316380023956298828e-01) (751, 4.86119717359542846680e-01) (752, 4.96104925870895385742e-01) (753, 5.32913684844970703125e-01) (754, 5.83552062511444091797e-01) (755, 4.70408320426940917969e-01) (756, 5.36673069000244140625e-01) (757, 6.96831464767456054688e-01) (758, 7.07775413990020751953e-01) (759, 5.95559716224670410156e-01) (760, 9.07490074634552001953e-01) (761, 7.56458461284637451172e-01) (762, 7.82269120216369628906e-01) (763, 1.05464673042297363281e+00) (764, 1.17837738990783691406e+00) (765, 1.15471899509429931641e+00) (766, 1.10493350028991699219e+00) (767, 1.04553306102752685547e+00) (768, 1.08792269229888916016e+00) (769, 7.37477481365203857422e-01) (770, 7.11930751800537109375e-01) (771, 6.64027154445648193359e-01) (772, 4.84543651342391967773e-01) (773, 4.85126167535781860352e-01) (774, 4.91095870733261108398e-01) (775, 5.91169714927673339844e-01) (776, 4.78682845830917358398e-01) (777, 4.59452003240585327148e-01) (778, 6.06637239456176757812e-01) (779, 5.30913710594177246094e-01) (780, 7.71351933479309082031e-01) (781, 5.60796678066253662109e-01) (782, 5.69539189338684082031e-01) (783, 5.19512414932250976562e-01) (784, 6.31000161170959472656e-01) (785, 4.66667085886001586914e-01) (786, 5.00673532485961914062e-01) (787, 4.77565944194793701172e-01) (788, 6.39905273914337158203e-01) (789, 6.42106473445892333984e-01) (790, 5.11040806770324707031e-01) (791, 4.92222756147384643555e-01) (792, 5.41094720363616943359e-01) (793, 5.29142975807189941406e-01) (794, 4.78496581315994262695e-01) (795, 4.77080196142196655273e-01) (796, 5.49495220184326171875e-01) (797, 4.85826611518859863281e-01) (798, 4.95927035808563232422e-01) (799, 5.02706646919250488281e-01) (800, 4.78892266750335693359e-01) (801, 6.63445949554443359375e-01) (802, 5.80772101879119873047e-01) (803, 4.34849023818969726562e-01) (804, 4.19985175132751464844e-01) (805, 4.71771091222763061523e-01) (806, 4.51443284749984741211e-01) (807, 4.85842019319534301758e-01) (808, 5.36003768444061279297e-01) (809, 6.47349834442138671875e-01) (810, 8.10623347759246826172e-01) (811, 7.36392974853515625000e-01) (812, 6.09567165374755859375e-01) (813, 6.34134650230407714844e-01) (814, 7.09877490997314453125e-01) (815, 6.70033931732177734375e-01) (816, 5.13146519660949707031e-01) (817, 6.22895777225494384766e-01) (818, 6.43903970718383789062e-01) (819, 4.83027100563049316406e-01) (820, 5.94977557659149169922e-01) (821, 4.93013292551040649414e-01) (822, 5.35314500331878662109e-01) (823, 4.58382219076156616211e-01) (824, 3.92913013696670532227e-01) (825, 4.25811111927032470703e-01) (826, 4.11198198795318603516e-01) (827, 5.45840740203857421875e-01) (828, 4.73826766014099121094e-01) (829, 4.74182367324829101562e-01) (830, 5.79882860183715820312e-01) (831, 4.99636709690093994141e-01) (832, 4.98008072376251220703e-01) (833, 5.36309719085693359375e-01) (834, 5.13715147972106933594e-01) (835, 4.85257118940353393555e-01) (836, 5.82462847232818603516e-01) (837, 5.69939076900482177734e-01) (838, 5.97131907939910888672e-01) (839, 5.07735908031463623047e-01) (840, 7.19159841537475585938e-01) (841, 7.32644498348236083984e-01) (842, 6.98100984096527099609e-01) (843, 6.76634609699249267578e-01) (844, 7.14686691761016845703e-01) (845, 6.26802980899810791016e-01) (846, 6.36372327804565429688e-01) (847, 3.98219108581542968750e-01) (848, 4.97506409883499145508e-01) (849, 4.77104842662811279297e-01) (850, 4.89757716655731201172e-01) (851, 6.11890256404876708984e-01) (852, 5.15423536300659179688e-01) (853, 5.47885358333587646484e-01) (854, 4.68504786491394042969e-01) (855, 5.43332278728485107422e-01) (856, 3.89941036701202392578e-01) (857, 5.22504150867462158203e-01) (858, 5.05417585372924804688e-01) (859, 5.00462651252746582031e-01) (860, 6.01956784725189208984e-01) (861, 5.15010774135589599609e-01) (862, 5.93777477741241455078e-01) (863, 4.75312590599060058594e-01) (864, 5.84152579307556152344e-01) (865, 4.77088063955307006836e-01) (866, 5.23800492286682128906e-01) (867, 5.65031290054321289062e-01) (868, 6.01449370384216308594e-01) (869, 7.46271848678588867188e-01) (870, 7.74638056755065917969e-01) (871, 8.15965294837951660156e-01) (872, 7.03355252742767333984e-01) (873, 6.91563725471496582031e-01) (874, 7.11424529552459716797e-01) (875, 8.36866497993469238281e-01) (876, 7.37191438674926757812e-01) (877, 7.66621589660644531250e-01) (878, 7.45334208011627197266e-01) (879, 6.23991370201110839844e-01) (880, 5.28427839279174804688e-01) (881, 4.48356658220291137695e-01) (882, 5.04363179206848144531e-01) (883, 4.31140571832656860352e-01) (884, 5.73694825172424316406e-01) (885, 5.50320804119110107422e-01) (886, 3.92507791519165039062e-01) (887, 5.51608264446258544922e-01) (888, 4.34240937232971191406e-01) (889, 5.65165162086486816406e-01) (890, 5.30951321125030517578e-01) (891, 5.15077948570251464844e-01) (892, 6.06643438339233398438e-01) (893, 6.51196181774139404297e-01) (894, 5.53621411323547363281e-01) (895, 5.83559751510620117188e-01) (896, 6.84284567832946777344e-01) (897, 5.96658885478973388672e-01) (898, 7.44397461414337158203e-01) (899, 6.52007281780242919922e-01) (900, 8.00911605358123779297e-01) (0, 1.27631342411041259766e+00) (1, 1.22525048255920410156e+00) (2, 1.29891991615295410156e+00) (3, 1.27902114391326904297e+00) (4, 1.24781918525695800781e+00) (5, 1.24693059921264648438e+00) (6, 1.16412007808685302734e+00) (7, 1.16234815120697021484e+00) (8, 1.27519869804382324219e+00) (9, 1.31457877159118652344e+00) (10, 1.33605122566223144531e+00) (11, 1.30176651477813720703e+00) (12, 1.19715309143066406250e+00) (13, 1.43371260166168212891e+00) (14, 1.34401047229766845703e+00) (15, 1.41602289676666259766e+00) (16, 1.23940455913543701172e+00) (17, 1.34089374542236328125e+00) (18, 1.29553878307342529297e+00) (19, 1.27949094772338867188e+00) (20, 1.34676635265350341797e+00) (21, 1.28553795814514160156e+00) (22, 1.17583799362182617188e+00) (23, 1.28766644001007080078e+00) (24, 1.29209983348846435547e+00) (25, 1.18383681774139404297e+00) (26, 1.19638991355895996094e+00) (27, 1.11319756507873535156e+00) (28, 1.22359025478363037109e+00) (29, 1.34375333786010742188e+00) (30, 1.28360402584075927734e+00) (31, 1.35173571109771728516e+00) (32, 1.18407237529754638672e+00) (33, 1.16082906723022460938e+00) (34, 1.17490828037261962891e+00) (35, 8.30868363380432128906e-01) (36, 8.06736469268798828125e-01) (37, 8.08922410011291503906e-01) (38, 8.45048666000366210938e-01) (39, 7.33767151832580566406e-01) (40, 6.74363136291503906250e-01) (41, 7.31961786746978759766e-01) (42, 8.20549428462982177734e-01) (43, 1.01854777336120605469e+00) (44, 1.46535646915435791016e+00) (45, 2.62146782875061035156e+00) (46, 2.63043284416198730469e+00) (47, 2.69642639160156250000e+00) (48, 2.72588396072387695312e+00) (49, 1.33056294918060302734e+00) (50, 1.43205475807189941406e+00) (51, 1.27724170684814453125e+00) (52, 8.90004634857177734375e-01) (53, 7.18560099601745605469e-01) (54, 7.27121353149414062500e-01) (55, 8.33936572074890136719e-01) (56, 1.20708429813385009766e+00) (57, 1.22819876670837402344e+00) (58, 1.25182151794433593750e+00) (59, 1.08250641822814941406e+00) (60, 1.33146464824676513672e+00) (61, 1.22141134738922119141e+00) (62, 1.32022809982299804688e+00) (63, 8.77750337123870849609e-01) (64, 7.81217217445373535156e-01) (65, 7.65030264854431152344e-01) (66, 6.10298395156860351562e-01) (67, 5.93488037586212158203e-01) (68, 5.76601147651672363281e-01) (69, 5.49049794673919677734e-01) (70, 8.86789262294769287109e-01) (71, 8.37158918380737304688e-01) (72, 1.52721846103668212891e+00) (73, 1.54709637165069580078e+00) (74, 1.51161384582519531250e+00) (75, 1.49622631072998046875e+00) (76, 1.63006269931793212891e+00) (77, 3.15328598022460937500e+00) (78, 3.20389223098754882812e+00) (79, 1.29995155334472656250e+00) (80, 1.23704421520233154297e+00) (81, 9.59896147251129150391e-01) (82, 6.63973212242126464844e-01) (83, 4.28502738475799560547e-01) (84, 6.09156191349029541016e-01) (85, 6.59306406974792480469e-01) (86, 6.05596005916595458984e-01) (87, 5.77459037303924560547e-01) (88, 1.15939319133758544922e+00) (89, 1.19631004333496093750e+00) (90, 1.26977527141571044922e+00) (91, 1.24384808540344238281e+00) (92, 1.34047055244445800781e+00) (93, 7.88980066776275634766e-01) (94, 5.70422887802124023438e-01) (95, 5.70512235164642333984e-01) (96, 6.55690252780914306641e-01) (97, 5.95971465110778808594e-01) (98, 4.75395560264587402344e-01) (99, 5.84466278553009033203e-01) (100, 7.89548754692077636719e-01) (101, 8.85129332542419433594e-01) (102, 1.60284745693206787109e+00) (103, 1.51888346672058105469e+00) (104, 1.67855846881866455078e+00) (105, 3.09155893325805664062e+00) (106, 3.13529992103576660156e+00) (107, 3.17190384864807128906e+00) (108, 2.58323860168457031250e+00) (109, 2.47758579254150390625e+00) (110, 2.42057609558105468750e+00) (111, 1.79386091232299804688e+00) (112, 9.15927529335021972656e-01) (113, 6.03840053081512451172e-01) (114, 6.81789994239807128906e-01) (115, 4.39221620559692382812e-01) (116, 6.35481834411621093750e-01) (117, 5.95080852508544921875e-01) (118, 7.84381151199340820312e-01) (119, 1.20077204704284667969e+00) (120, 1.20120048522949218750e+00) (121, 1.20271039009094238281e+00) (122, 1.09645211696624755859e+00) (123, 1.12258589267730712891e+00) (124, 7.99655914306640625000e-01) (125, 7.48765110969543457031e-01) (126, 7.74988353252410888672e-01) (127, 6.03900015354156494141e-01) (128, 5.22186875343322753906e-01) (129, 1.09122955799102783203e+00) (130, 1.42557311058044433594e+00) (131, 2.40303015708923339844e+00) (132, 4.77742576599121093750e+00) (133, 4.73539733886718750000e+00) (134, 4.89348936080932617188e+00) (135, 4.76952600479125976562e+00) (136, 1.08447675704956054688e+01) (137, 1.08466005325317382812e+01) (138, 1.07592420578002929688e+01) (139, 5.53730249404907226562e+00) (140, 5.63348293304443359375e+00) (141, 2.51505327224731445312e+00) (142, 2.54686188697814941406e+00) (143, 1.06165134906768798828e+00) (144, 6.79704189300537109375e-01) (145, 6.83962941169738769531e-01) (146, 6.53686940670013427734e-01) (147, 8.13219487667083740234e-01) (148, 8.17936480045318603516e-01) (149, 1.21242702007293701172e+00) (150, 1.23346281051635742188e+00) (151, 1.16769075393676757812e+00) (152, 1.26696932315826416016e+00) (153, 1.18174684047698974609e+00) (154, 7.58137404918670654297e-01) (155, 6.29386305809020996094e-01) (156, 6.53261184692382812500e-01) (157, 1.26565122604370117188e+00) (158, 2.29528260231018066406e+00) (159, 2.34100508689880371094e+00) (160, 2.43323755264282226562e+00) (161, 2.35359001159667968750e+00) (162, 2.33403325080871582031e+00) (163, 2.34262752532958984375e+00) (164, 2.42095184326171875000e+00) (165, 2.32372951507568359375e+00) (166, 2.40836095809936523438e+00) (167, 4.73019266128540039062e+00) (168, 4.83480310440063476562e+00) (169, 4.83207559585571289062e+00) (170, 2.58964157104492187500e+00) (171, 2.59043216705322265625e+00) (172, 4.84329938888549804688e+00) (173, 4.83263731002807617188e+00) (174, 1.33019173145294189453e+00) (175, 1.38483715057373046875e+00) (176, 9.20487761497497558594e-01) (177, 8.33627402782440185547e-01) (178, 1.23684668540954589844e+00) (179, 1.27601957321166992188e+00) (180, 1.15784490108489990234e+00) (181, 1.32214140892028808594e+00) (182, 1.22462546825408935547e+00) (183, 1.10653626918792724609e+00) (184, 7.71748960018157958984e-01) (185, 7.05511868000030517578e-01) (186, 8.30603182315826416016e-01) (187, 2.32604432106018066406e+00) (188, 2.24639248847961425781e+00) (189, 2.43260645866394042969e+00) (190, 2.42128992080688476562e+00) (191, 2.43387079238891601562e+00) (192, 1.33115541934967041016e+00) (193, 1.26452457904815673828e+00) (194, 1.28569996356964111328e+00) (195, 1.27059066295623779297e+00) (196, 1.30673730373382568359e+00) (197, 1.41254401206970214844e+00) (198, 1.29699027538299560547e+00) (199, 8.55809271335601806641e-01) (200, 9.58888411521911621094e-01) (201, 1.00086402893066406250e+00) (202, 4.79166507720947265625e+00) (203, 4.74764823913574218750e+00) (204, 2.32092785835266113281e+00) (205, 2.40589118003845214844e+00) (206, 2.41651964187622070312e+00) (207, 1.27300727367401123047e+00) (208, 1.27111017704010009766e+00) (209, 1.24437046051025390625e+00) (210, 1.31254923343658447266e+00) (211, 1.19247758388519287109e+00) (212, 1.11066329479217529297e+00) (213, 1.01889669895172119141e+00) (214, 7.36984312534332275391e-01) (215, 8.05161535739898681641e-01) (216, 8.88185083866119384766e-01) (217, 2.42678833007812500000e+00) (218, 2.43792653083801269531e+00) (219, 2.37038111686706542969e+00) (220, 2.41363549232482910156e+00) (221, 1.40417540073394775391e+00) (222, 1.34921073913574218750e+00) (223, 1.29903161525726318359e+00) (224, 1.43222236633300781250e+00) (225, 1.39843308925628662109e+00) (226, 1.33314466476440429688e+00) (227, 1.30248212814331054688e+00) (228, 9.41015243530273437500e-01) (229, 9.60173130035400390625e-01) (230, 8.70267629623413085938e-01) (231, 8.96910369396209716797e-01) (232, 1.33998191356658935547e+00) (233, 1.39162409305572509766e+00) (234, 2.33198547363281250000e+00) (235, 4.88246631622314453125e+00) (236, 4.81907129287719726562e+00) (237, 2.30274581909179687500e+00) (238, 2.26096200942993164062e+00) (239, 1.38638854026794433594e+00) (240, 1.26459348201751708984e+00) (241, 1.32775199413299560547e+00) (242, 1.27147138118743896484e+00) (243, 1.05697894096374511719e+00) (244, 9.98480677604675292969e-01) (245, 7.31204926967620849609e-01) (246, 7.54999577999114990234e-01) (247, 1.08353948593139648438e+00) (248, 2.26471400260925292969e+00) (249, 2.29964685440063476562e+00) (250, 2.38570952415466308594e+00) (251, 1.42330849170684814453e+00) (252, 1.25806283950805664062e+00) (253, 1.28916096687316894531e+00) (254, 1.28586256504058837891e+00) (255, 1.20226144790649414062e+00) (256, 1.19957029819488525391e+00) (257, 9.49045360088348388672e-01) (258, 8.86327981948852539062e-01) (259, 9.55654144287109375000e-01) (260, 9.06225204467773437500e-01) (261, 9.53602373600006103516e-01) (262, 1.37996315956115722656e+00) (263, 1.24321389198303222656e+00) (264, 2.35151505470275878906e+00) (265, 4.78505086898803710938e+00) (266, 4.88920259475708007812e+00) (267, 4.72482681274414062500e+00) (268, 2.38400363922119140625e+00) (269, 2.24637150764465332031e+00) (270, 1.31911289691925048828e+00) (271, 1.20283782482147216797e+00) (272, 1.25744676589965820312e+00) (273, 1.07230627536773681641e+00) (274, 9.11648631095886230469e-01) (275, 8.70521962642669677734e-01) (276, 8.02077114582061767578e-01) (277, 1.02010250091552734375e+00) (278, 1.27845191955566406250e+00) (279, 2.26780533790588378906e+00) (280, 1.35659325122833251953e+00) (281, 1.26329219341278076172e+00) (282, 1.24535429477691650391e+00) (283, 1.32663238048553466797e+00) (284, 1.26442945003509521484e+00) (285, 1.24319314956665039062e+00) (286, 9.62024390697479248047e-01) (287, 6.93166077136993408203e-01) (288, 6.03342950344085693359e-01) (289, 6.41394913196563720703e-01) (290, 6.82590365409851074219e-01) (291, 9.10539031028747558594e-01) (292, 1.37790632247924804688e+00) (293, 1.22676098346710205078e+00) (294, 2.36004137992858886719e+00) (295, 2.34448981285095214844e+00) (296, 4.82688045501708984375e+00) (297, 4.80348443984985351562e+00) (298, 4.82355737686157226562e+00) (299, 2.30709099769592285156e+00) (300, 1.24847137928009033203e+00) (301, 1.16796004772186279297e+00) (302, 1.19325232505798339844e+00) (303, 9.87640261650085449219e-01) (304, 6.36441469192504882812e-01) (305, 6.56011819839477539062e-01) (306, 6.87537729740142822266e-01) (307, 1.01284015178680419922e+00) (308, 8.77005994319915771484e-01) (309, 8.00085127353668212891e-01) (310, 8.42197299003601074219e-01) (311, 8.68038892745971679688e-01) (312, 1.25064563751220703125e+00) (313, 1.23805654048919677734e+00) (314, 1.19672238826751708984e+00) (315, 1.29338026046752929688e+00) (316, 7.47179448604583740234e-01) (317, 5.21201908588409423828e-01) (318, 6.38378322124481201172e-01) (319, 7.51493275165557861328e-01) (320, 6.48980498313903808594e-01) (321, 8.89140307903289794922e-01) (322, 1.24494123458862304688e+00) (323, 1.22785770893096923828e+00) (324, 1.36445415019989013672e+00) (325, 2.42005133628845214844e+00) (326, 4.84544992446899414062e+00) (327, 4.75485706329345703125e+00) (328, 4.77777624130249023438e+00) (329, 2.30718064308166503906e+00) (330, 1.26056373119354248047e+00) (331, 1.32245481014251708984e+00) (332, 1.22938144207000732422e+00) (333, 9.35537934303283691406e-01) (334, 6.35352909564971923828e-01) (335, 5.43507516384124755859e-01) (336, 6.84409141540527343750e-01) (337, 5.42323708534240722656e-01) (338, 1.14422202110290527344e+00) (339, 8.25912833213806152344e-01) (340, 1.19388914108276367188e+00) (341, 1.29615104198455810547e+00) (342, 1.19066584110260009766e+00) (343, 1.25960350036621093750e+00) (344, 7.09378778934478759766e-01) (345, 6.01902127265930175781e-01) (346, 4.99347090721130371094e-01) (347, 6.28721237182617187500e-01) (348, 6.12254440784454345703e-01) (349, 6.09613478183746337891e-01) (350, 9.04715895652770996094e-01) (351, 1.33352077007293701172e+00) (352, 1.36707544326782226562e+00) (353, 1.38342726230621337891e+00) (354, 1.42799317836761474609e+00) (355, 2.35588002204895019531e+00) (356, 4.87658119201660156250e+00) (357, 4.83696556091308593750e+00) (358, 4.86497735977172851562e+00) (359, 2.29253053665161132812e+00) (360, 1.34276163578033447266e+00) (361, 1.22174811363220214844e+00) (362, 1.09830868244171142578e+00) (363, 7.27291226387023925781e-01) (364, 6.82544231414794921875e-01) (365, 5.90946853160858154297e-01) (366, 6.90231978893280029297e-01) (367, 6.31450951099395751953e-01) (368, 7.34111666679382324219e-01) (369, 1.09895157814025878906e+00) (370, 1.26377952098846435547e+00) (371, 1.20563781261444091797e+00) (372, 1.12355828285217285156e+00) (373, 5.18456757068634033203e-01) (374, 5.29252469539642333984e-01) (375, 4.41330075263977050781e-01) (376, 5.62778353691101074219e-01) (377, 5.39169430732727050781e-01) (378, 6.36276781558990478516e-01) (379, 5.32333433628082275391e-01) (380, 1.34063518047332763672e+00) (381, 1.31699490547180175781e+00) (382, 1.35223770141601562500e+00) (383, 1.35954260826110839844e+00) (384, 2.37631893157958984375e+00) (385, 4.86261510848999023438e+00) (386, 4.78852462768554687500e+00) (387, 4.80714035034179687500e+00) (388, 4.79578733444213867188e+00) (389, 2.29167556762695312500e+00) (390, 1.29828655719757080078e+00) (391, 1.23475611209869384766e+00) (392, 1.19674730300903320312e+00) (393, 1.07831740379333496094e+00) (394, 6.13879084587097167969e-01) (395, 5.12931644916534423828e-01) (396, 5.38478434085845947266e-01) (397, 7.68608868122100830078e-01) (398, 7.23804056644439697266e-01) (399, 7.81132578849792480469e-01) (400, 6.61188781261444091797e-01) (401, 1.13613760471343994141e+00) (402, 5.68923115730285644531e-01) (403, 6.90276622772216796875e-01) (404, 5.98763287067413330078e-01) (405, 6.00729107856750488281e-01) (406, 6.85395777225494384766e-01) (407, 4.50691998004913330078e-01) (408, 7.05215752124786376953e-01) (409, 9.22984421253204345703e-01) (410, 1.17487752437591552734e+00) (411, 1.37176465988159179688e+00) (412, 1.29755496978759765625e+00) (413, 1.43049359321594238281e+00) (414, 2.40720391273498535156e+00) (415, 4.03632736206054687500e+00) (416, 4.14598226547241210938e+00) (417, 4.74996948242187500000e+00) (418, 2.39228963851928710938e+00) (419, 2.29059171676635742188e+00) (420, 1.24026048183441162109e+00) (421, 1.24481678009033203125e+00) (422, 1.20867133140563964844e+00) (423, 9.18729662895202636719e-01) (424, 6.48392140865325927734e-01) (425, 6.79835677146911621094e-01) (426, 5.48165619373321533203e-01) (427, 6.27695739269256591797e-01) (428, 6.65624558925628662109e-01) (429, 7.56867110729217529297e-01) (430, 6.95978522300720214844e-01) (431, 8.13963890075683593750e-01) (432, 7.88976311683654785156e-01) (433, 7.27274239063262939453e-01) (434, 6.52794539928436279297e-01) (435, 5.55054962635040283203e-01) (436, 5.11351525783538818359e-01) (437, 6.39777064323425292969e-01) (438, 7.31721520423889160156e-01) (439, 9.37292397022247314453e-01) (440, 1.29441857337951660156e+00) (441, 1.27185547351837158203e+00) (442, 1.41817867755889892578e+00) (443, 3.46150279045104980469e+00) (444, 3.52033209800720214844e+00) (445, 3.58253765106201171875e+00) (446, 3.50468564033508300781e+00) (447, 4.02692222595214843750e+00) (448, 2.13897752761840820312e+00) (449, 1.24830162525177001953e+00) (450, 1.22677862644195556641e+00) (451, 1.22958242893218994141e+00) (452, 1.25664079189300537109e+00) (453, 9.88088965415954589844e-01) (454, 1.07106137275695800781e+00) (455, 8.27782273292541503906e-01) (456, 7.58530676364898681641e-01) (457, 7.09833085536956787109e-01) (458, 6.74911141395568847656e-01) (459, 7.11305618286132812500e-01) (460, 7.53850579261779785156e-01) (461, 7.87123084068298339844e-01) (462, 7.41502702236175537109e-01) (463, 1.20604181289672851562e+00) (464, 1.04852914810180664062e+00) (465, 7.03508615493774414062e-01) (466, 5.60383617877960205078e-01) (467, 5.51151216030120849609e-01) (468, 7.72021591663360595703e-01) (469, 9.20834422111511230469e-01) (470, 2.23630785942077636719e+00) (471, 4.67075824737548828125e+00) (472, 7.42956876754760742188e+00) (473, 3.45474600791931152344e+00) (474, 3.53191876411437988281e+00) (475, 3.51548790931701660156e+00) (476, 3.59789156913757324219e+00) (477, 1.87674593925476074219e+00) (478, 1.22297513484954833984e+00) (479, 1.38429903984069824219e+00) (480, 1.31781244277954101562e+00) (481, 1.33665263652801513672e+00) (482, 1.17740368843078613281e+00) (483, 1.22628533840179443359e+00) (484, 1.34668374061584472656e+00) (485, 8.83424639701843261719e-01) (486, 6.38182222843170166016e-01) (487, 1.43121159076690673828e+00) (488, 1.30623745918273925781e+00) (489, 1.40349185466766357422e+00) (490, 9.25701439380645751953e-01) (491, 8.38919758796691894531e-01) (492, 8.03600132465362548828e-01) (493, 9.13238584995269775391e-01) (494, 1.22375667095184326172e+00) (495, 1.26768791675567626953e+00) (496, 8.25870156288146972656e-01) (497, 9.26599323749542236328e-01) (498, 8.57707262039184570312e-01) (499, 1.69059562683105468750e+00) (500, 5.15374040603637695312e+00) (501, 1.19532232284545898438e+01) (502, 7.77746248245239257812e+00) (503, 2.09556841850280761719e+00) (504, 1.39216768741607666016e+00) (505, 1.18927264213562011719e+00) (506, 7.81951963901519775391e-01) (507, 6.57311916351318359375e-01) (508, 7.43430078029632568359e-01) (509, 9.66837882995605468750e-01) (510, 1.26180076599121093750e+00) (511, 1.22238099575042724609e+00) (512, 1.14961624145507812500e+00) (513, 1.29103648662567138672e+00) (514, 1.30049824714660644531e+00) (515, 9.61149454116821289062e-01) (516, 8.26293110847473144531e-01) (517, 2.25250506401062011719e+00) (518, 1.43117558956146240234e+00) (519, 1.37134516239166259766e+00) (520, 1.41023755073547363281e+00) (521, 1.33199417591094970703e+00) (522, 1.42968380451202392578e+00) (523, 1.27002012729644775391e+00) (524, 1.30141508579254150391e+00) (525, 2.31455421447753906250e+00) (526, 1.48217034339904785156e+00) (527, 2.59164428710937500000e+00) (528, 2.69623088836669921875e+00) (529, 5.58925819396972656250e+00) (530, 5.54951047897338867188e+00) (531, 1.07820425033569335938e+01) (532, 2.29008507728576660156e+00) (533, 2.08187174797058105469e+00) (534, 1.09375643730163574219e+00) (535, 5.41186273097991943359e-01) (536, 5.03139197826385498047e-01) (537, 6.08247637748718261719e-01) (538, 7.16713786125183105469e-01) (539, 1.13103282451629638672e+00) (540, 1.31545341014862060547e+00) (541, 1.33824861049652099609e+00) (542, 1.19953942298889160156e+00) (543, 1.31690180301666259766e+00) (544, 1.28111720085144042969e+00) (545, 7.64887154102325439453e-01) (546, 9.29883182048797607422e-01) (547, 2.44381642341613769531e+00) (548, 2.25620698928833007812e+00) (549, 2.38770079612731933594e+00) (550, 2.35722947120666503906e+00) (551, 2.40851259231567382812e+00) (552, 4.71979665756225585938e+00) (553, 4.80846929550170898438e+00) (554, 4.90008926391601562500e+00) (555, 4.78473424911499023438e+00) (556, 2.67730116844177246094e+00) (557, 2.65318799018859863281e+00) (558, 5.64664649963378906250e+00) (559, 5.64376306533813476562e+00) (560, 1.08185291290283203125e+01) (561, 4.74416875839233398438e+00) (562, 2.67297506332397460938e+00) (563, 1.29012894630432128906e+00) (564, 6.66391968727111816406e-01) (565, 4.76029694080352783203e-01) (566, 5.28612732887268066406e-01) (567, 4.99687254428863525391e-01) (568, 7.10781514644622802734e-01) (569, 1.22838580608367919922e+00) (570, 1.16413354873657226562e+00) (571, 1.31111884117126464844e+00) (572, 1.28938364982604980469e+00) (573, 1.21550512313842773438e+00) (574, 1.27985262870788574219e+00) (575, 1.22233283519744873047e+00) (576, 8.32224428653717041016e-01) (577, 2.34614181518554687500e+00) (578, 2.31798124313354492188e+00) (579, 2.32724618911743164062e+00) (580, 4.74611663818359375000e+00) (581, 4.88748550415039062500e+00) (582, 4.74803304672241210938e+00) (583, 4.76212024688720703125e+00) (584, 4.79216146469116210938e+00) (585, 4.74432897567749023438e+00) (586, 4.84306192398071289062e+00) (587, 4.76563262939453125000e+00) (588, 4.89368724822998046875e+00) (589, 4.81181716918945312500e+00) (590, 4.73150539398193359375e+00) (591, 4.75441265106201171875e+00) (592, 1.38487768173217773438e+00) (593, 7.09496080875396728516e-01) (594, 6.54935598373413085938e-01) (595, 5.75497686862945556641e-01) (596, 5.20046949386596679688e-01) (597, 5.50236999988555908203e-01) (598, 6.68540835380554199219e-01) (599, 1.13208281993865966797e+00) (600, 1.18865978717803955078e+00) (601, 1.31755828857421875000e+00) (602, 1.16595089435577392578e+00) (603, 1.25895833969116210938e+00) (604, 1.11397814750671386719e+00) (605, 1.22671842575073242188e+00) (606, 1.24746000766754150391e+00) (607, 2.35352587699890136719e+00) (608, 2.29560947418212890625e+00) (609, 4.83188724517822265625e+00) (610, 4.89304637908935546875e+00) (611, 4.79596662521362304688e+00) (612, 4.81557941436767578125e+00) (613, 4.73728609085083007812e+00) (614, 4.85429430007934570312e+00) (615, 4.70394754409790039062e+00) (616, 4.77782201766967773438e+00) (617, 4.79356288909912109375e+00) (618, 4.76578760147094726562e+00) (619, 2.34543943405151367188e+00) (620, 1.43427181243896484375e+00) (621, 1.27463805675506591797e+00) (622, 1.19179296493530273438e+00) (623, 8.37867259979248046875e-01) (624, 7.99202740192413330078e-01) (625, 6.44328176975250244141e-01) (626, 5.21692037582397460938e-01) (627, 6.27576947212219238281e-01) (628, 7.10241496562957763672e-01) (629, 1.09148728847503662109e+00) (630, 1.16969680786132812500e+00) (631, 1.20722854137420654297e+00) (632, 1.26087760925292968750e+00) (633, 1.11656260490417480469e+00) (634, 1.11801886558532714844e+00) (635, 7.10622489452362060547e-01) (636, 2.43453884124755859375e+00) (637, 2.34240007400512695312e+00) (638, 4.83191394805908203125e+00) (639, 4.74242258071899414062e+00) (640, 4.72852802276611328125e+00) (641, 4.82116699218750000000e+00) (642, 4.83459615707397460938e+00) (643, 2.41803789138793945312e+00) (644, 1.38734483718872070312e+00) (645, 1.31778216361999511719e+00) (646, 1.37315344810485839844e+00) (647, 1.26137375831604003906e+00) (648, 1.40755200386047363281e+00) (649, 1.38360178470611572266e+00) (650, 1.23698699474334716797e+00) (651, 1.31703674793243408203e+00) (652, 1.16562783718109130859e+00) (653, 6.95033907890319824219e-01) (654, 8.06735992431640625000e-01) (655, 7.32442796230316162109e-01) (656, 6.39575898647308349609e-01) (657, 6.82877779006958007812e-01) (658, 8.54276597499847412109e-01) (659, 1.22839272022247314453e+00) (660, 1.33827960491180419922e+00) (661, 1.33230066299438476562e+00) (662, 1.08745324611663818359e+00) (663, 1.25098919868469238281e+00) (664, 1.10069537162780761719e+00) (665, 7.41238832473754882812e-01) (666, 2.43985223770141601562e+00) (667, 2.25798368453979492188e+00) (668, 4.85140466690063476562e+00) (669, 4.82600688934326171875e+00) (670, 4.75464677810668945312e+00) (671, 4.87613964080810546875e+00) (672, 1.27606546878814697266e+00) (673, 1.41813468933105468750e+00) (674, 1.34534525871276855469e+00) (675, 1.42693269252777099609e+00) (676, 1.24789309501647949219e+00) (677, 1.23047506809234619141e+00) (678, 1.20028269290924072266e+00) (679, 1.18220400810241699219e+00) (680, 1.19238197803497314453e+00) (681, 8.46594870090484619141e-01) (682, 6.74412012100219726562e-01) (683, 6.43440902233123779297e-01) (684, 6.18381381034851074219e-01) (685, 6.54503881931304931641e-01) (686, 6.35500848293304443359e-01) (687, 5.47107398509979248047e-01) (688, 7.14636743068695068359e-01) (689, 1.16835260391235351562e+00) (690, 1.33941471576690673828e+00) (691, 1.16120564937591552734e+00) (692, 1.15248537063598632812e+00) (693, 1.07869982719421386719e+00) (694, 7.62615203857421875000e-01) (695, 8.03601324558258056641e-01) (696, 2.22726225852966308594e+00) (697, 2.29754543304443359375e+00) (698, 4.81469678878784179688e+00) (699, 4.70382452011108398438e+00) (700, 4.87779331207275390625e+00) (701, 1.39823496341705322266e+00) (702, 1.40885543823242187500e+00) (703, 1.25006520748138427734e+00) (704, 1.32834589481353759766e+00) (705, 1.26617705821990966797e+00) (706, 1.18897414207458496094e+00) (707, 1.19130766391754150391e+00) (708, 1.31172060966491699219e+00) (709, 1.16756188869476318359e+00) (710, 7.82836854457855224609e-01) (711, 8.42510461807250976562e-01) (712, 6.34414315223693847656e-01) (713, 5.54166972637176513672e-01) (714, 6.14443957805633544922e-01) (715, 4.77305412292480468750e-01) (716, 6.68288111686706542969e-01) (717, 5.39094984531402587891e-01) (718, 6.91994428634643554688e-01) (719, 1.13237929344177246094e+00) (720, 1.20044505596160888672e+00) (721, 1.13969838619232177734e+00) (722, 1.21633422374725341797e+00) (723, 6.87581479549407958984e-01) (724, 5.82582473754882812500e-01) (725, 7.15462327003479003906e-01) (726, 6.23431384563446044922e-01) (727, 1.37450766563415527344e+00) (728, 2.29432225227355957031e+00) (729, 2.25377106666564941406e+00) (730, 2.36210775375366210938e+00) (731, 1.25904011726379394531e+00) (732, 1.40624678134918212891e+00) (733, 1.27365756034851074219e+00) (734, 1.22108161449432373047e+00) (735, 1.29811513423919677734e+00) (736, 1.35490310192108154297e+00) (737, 1.22512435913085937500e+00) (738, 1.26772797107696533203e+00) (739, 1.24492883682250976562e+00) (740, 8.02011489868164062500e-01) (741, 8.31479668617248535156e-01) (742, 5.78613698482513427734e-01) (743, 6.94001376628875732422e-01) (744, 4.49498951435089111328e-01) (745, 6.17567479610443115234e-01) (746, 5.21250426769256591797e-01) (747, 6.71577811241149902344e-01) (748, 6.95123314857482910156e-01) (749, 1.16269946098327636719e+00) (750, 1.09695434570312500000e+00) (751, 8.21957528591156005859e-01) (752, 8.43209028244018554688e-01) (753, 6.77472770214080810547e-01) (754, 6.33879661560058593750e-01) (755, 5.20598948001861572266e-01) (756, 6.64369702339172363281e-01) (757, 5.40867567062377929688e-01) (758, 1.01397216320037841797e+00) (759, 2.24988603591918945312e+00) (760, 1.26667141914367675781e+00) (761, 1.22938978672027587891e+00) (762, 1.21162056922912597656e+00) (763, 1.38489437103271484375e+00) (764, 1.31811583042144775391e+00) (765, 1.24777066707611083984e+00) (766, 1.26131463050842285156e+00) (767, 1.25132417678833007812e+00) (768, 1.25120019912719726562e+00) (769, 7.75131046772003173828e-01) (770, 8.71424257755279541016e-01) (771, 8.34126591682434082031e-01) (772, 6.35378360748291015625e-01) (773, 5.05518436431884765625e-01) (774, 5.83608388900756835938e-01) (775, 6.30623877048492431641e-01) (776, 5.47845125198364257812e-01) (777, 6.20838224887847900391e-01) (778, 8.65465939044952392578e-01) (779, 1.11974060535430908203e+00) (780, 1.12271809577941894531e+00) (781, 8.75560224056243896484e-01) (782, 8.64447474479675292969e-01) (783, 7.12049365043640136719e-01) (784, 6.47840678691864013672e-01) (785, 6.03014469146728515625e-01) (786, 5.13962686061859130859e-01) (787, 6.27087771892547607422e-01) (788, 6.68616116046905517578e-01) (789, 5.90799629688262939453e-01) (790, 8.09936821460723876953e-01) (791, 9.28713440895080566406e-01) (792, 1.12774300575256347656e+00) (793, 1.00451493263244628906e+00) (794, 8.56517195701599121094e-01) (795, 8.20879578590393066406e-01) (796, 1.06735420227050781250e+00) (797, 6.60322010517120361328e-01) (798, 6.14693820476531982422e-01) (799, 7.62792825698852539062e-01) (800, 5.39294540882110595703e-01) (801, 4.55936878919601440430e-01) (802, 4.91742432117462158203e-01) (803, 5.22917211055755615234e-01) (804, 5.16318976879119873047e-01) (805, 6.34331047534942626953e-01) (806, 5.89854419231414794922e-01) (807, 6.47026419639587402344e-01) (808, 6.99870347976684570312e-01) (809, 7.36905038356781005859e-01) (810, 1.34812450408935546875e+00) (811, 7.37238228321075439453e-01) (812, 7.53916084766387939453e-01) (813, 6.65015876293182373047e-01) (814, 7.17211484909057617188e-01) (815, 6.69680595397949218750e-01) (816, 5.35342395305633544922e-01) (817, 5.55908083915710449219e-01) (818, 8.66047620773315429688e-01) (819, 9.53501641750335693359e-01) (820, 6.26102149486541748047e-01) (821, 6.50338411331176757812e-01) (822, 5.59095203876495361328e-01) (823, 5.72023868560791015625e-01) (824, 5.36961436271667480469e-01) (825, 4.49273765087127685547e-01) (826, 4.38799262046813964844e-01) (827, 4.86178219318389892578e-01) (828, 5.25130748748779296875e-01) (829, 4.66116547584533691406e-01) (830, 5.85617780685424804688e-01) (831, 6.17802441120147705078e-01) (832, 4.95587140321731567383e-01) (833, 4.55010384321212768555e-01) (834, 5.15187501907348632812e-01) (835, 6.61620378494262695312e-01) (836, 5.39055585861206054688e-01) (837, 6.80605292320251464844e-01) (838, 5.96175909042358398438e-01) (839, 8.67739737033843994141e-01) (840, 1.38080585002899169922e+00) (841, 1.20412468910217285156e+00) (842, 9.09665286540985107422e-01) (843, 7.49790608882904052734e-01) (844, 8.83597493171691894531e-01) (845, 7.90747821331024169922e-01) (846, 1.01287508010864257812e+00) (847, 1.01234376430511474609e+00) (848, 9.90372002124786376953e-01) (849, 8.68348240852355957031e-01) (850, 6.98447346687316894531e-01) (851, 6.12887382507324218750e-01) (852, 6.84400737285614013672e-01) (853, 4.67845678329467773438e-01) (854, 4.88770961761474609375e-01) (855, 4.81087625026702880859e-01) (856, 4.59770381450653076172e-01) (857, 4.70378965139389038086e-01) (858, 5.60176610946655273438e-01) (859, 5.66746652126312255859e-01) (860, 5.23122966289520263672e-01) (861, 5.24538576602935791016e-01) (862, 6.56785607337951660156e-01) (863, 6.76613152027130126953e-01) (864, 6.34269654750823974609e-01) (865, 5.30018985271453857422e-01) (866, 6.25762581825256347656e-01) (867, 6.60854458808898925781e-01) (868, 8.53290617465972900391e-01) (869, 9.44580435752868652344e-01) (870, 1.27803730964660644531e+00) (871, 1.33878386020660400391e+00) (872, 1.34571194648742675781e+00) (873, 8.73688280582427978516e-01) (874, 9.74560201168060302734e-01) (875, 9.66841280460357666016e-01) (876, 9.01349484920501708984e-01) (877, 1.47926402091979980469e+00) (878, 1.05342876911163330078e+00) (879, 6.59279227256774902344e-01) (880, 8.17296266555786132812e-01) (881, 5.26579856872558593750e-01) (882, 6.53721988201141357422e-01) (883, 6.68619155883789062500e-01) (884, 5.17981648445129394531e-01) (885, 6.70916974544525146484e-01) (886, 5.36491990089416503906e-01) (887, 5.64537227153778076172e-01) (888, 6.72115683555603027344e-01) (889, 1.08323109149932861328e+00) (890, 1.08795630931854248047e+00) (891, 1.20569062232971191406e+00) (892, 1.21914815902709960938e+00) (893, 1.32609939575195312500e+00) (894, 8.81722927093505859375e-01) (895, 9.81919884681701660156e-01) (896, 9.47857141494750976562e-01) (897, 9.67309713363647460938e-01) (898, 1.28453683853149414062e+00) (899, 1.28777325153350830078e+00) (900, 1.29083502292633056641e+00) (0, 6.63386434316635131836e-02) (1, -6.96783661842346191406e-02) (2, -5.96885085105895996094e-02) (3, -6.29663169384002685547e-02) (4, -9.81114357709884643555e-02) (5, 5.26133403182029724121e-02) (6, -1.61563120782375335693e-02) (7, 5.20446971058845520020e-02) (8, -5.70269264280796051025e-02) (9, 1.04513540863990783691e-02) (10, 3.22577767074108123779e-02) (11, -5.01905232667922973633e-02) (12, -5.07022291421890258789e-02) (13, 4.23363130539655685425e-03) (14, -2.83490791916847229004e-02) (15, -7.59254917502403259277e-02) (16, 4.45853918790817260742e-02) (17, 4.00479882955551147461e-02) (18, -4.36393581330776214600e-02) (19, 2.11787112057209014893e-02) (20, 5.12566827237606048584e-02) (21, -1.11194282770156860352e-01) (22, -1.03835716843605041504e-01) (23, -3.57001251541078090668e-03) (24, 4.89877015352249145508e-02) (25, -4.34566438198089599609e-02) (26, 2.27462574839591979980e-02) (27, 1.33041618391871452332e-02) (28, 5.75059130787849426270e-02) (29, 4.41356338560581207275e-02) 