FANN_FLO_2.1
num_layers=3
learning_rate=0.700000
connection_rate=1.000000
network_type=0
learning_momentum=0.000000
training_algorithm=2
train_error_function=1
train_stop_function=0
cascade_output_change_fraction=0.010000
quickprop_decay=-0.000100
quickprop_mu=1.750000
rprop_increase_factor=1.200000
rprop_decrease_factor=0.500000
rprop_delta_min=0.000000
rprop_delta_max=50.000000
rprop_delta_zero=0.100000
cascade_output_stagnation_epochs=12
cascade_candidate_change_fraction=0.010000
cascade_candidate_stagnation_epochs=12
cascade_max_out_epochs=150
cascade_max_cand_epochs=150
cascade_num_candidate_groups=2
bit_fail_limit=3.49999994039535522461e-01
cascade_candidate_limit=1.00000000000000000000e+03
cascade_weight_multiplier=4.00000005960464477539e-01
cascade_activation_functions_count=10
cascade_activation_functions=3 5 7 8 10 11 14 15 16 17 
cascade_activation_steepnesses_count=4
cascade_activation_steepnesses=2.50000000000000000000e-01 5.00000000000000000000e-01 7.50000000000000000000e-01 1.00000000000000000000e+00 
layer_sizes=901 101 37 
scale_included=0
neurons (num_inputs, activation_function, activation_steepness)=(0, 0, 0.00000000000000000000e+00) (0, 0, 0.00000000000000000000e+00) (0, 0, 0.00000000000000000000e+00) (0, 0, 0.00000000000000000000e+00) (0, 0, 0.00000000000000000000e+00) (0, 0, 0.00000000000000000000e+00) (0, 0, 0.00000000000000000000e+00) (0, 0, 0.00000000000000000000e+00) (0, 0, 0.00000000000000000000e+00) (0, 0, 0.00000000000000000000e+00) (0, 0, 0.00000000000000000000e+00) (0, 0, 0.00000000000000000000e+00) (0, 0, 0.00000000000000000000e+00) (0, 0, 0.00000000000000000000e+00) (0, 0, 0.00000000000000000000e+00) (0, 0, 0.00000000000000000000e+00) (0, 0, 0.00000000000000000000e+00) (0, 0, 0.00000000000000000000e+00) (0, 0, 0.00000000000000000000e+00) (0, 0, 0.00000000000000000000e+00) (0, 0, 0.00000000000000000000e+00) (0, 0, 0.00000000000000000000e+00) (0, 0, 0.00000000000000000000e+00) (0, 0, 0.00000000000000000000e+00) (0, 0, 0.00000000000000000000e+00) (0, 0, 0.00000000000000000000e+00) (0, 0, 0.00000000000000000000e+00) (0, 0, 0.00000000000000000000e+00) (0, 0, 0.00000000000000000000e+00) (0, 0, 0.00000000000000000000e+00) (0, 0, 0.00000000000000000000e+00) (0, 0, 0.00000000000000000000e+00) (0, 0, 0.00000000000000000000e+00) (0, 0, 0.00000000000000000000e+00) (0, 0, 0.00000000000000000000e+00) (0, 0, 0.00000000000000000000e+00) (0, 0, 0.00000000000000000000e+00) (0, 0, 0.00000000000000000000e+00) (0, 0, 0.00000000000000000000e+00) (0, 0, 0.00000000000000000000e+00) (0, 0, 0.00000000000000000000e+00) (0, 0, 0.00000000000000000000e+00) (0, 0, 0.00000000000000000000e+00) (0, 0, 0.00000000000000000000e+00) (0, 0, 0.00000000000000000000e+00) (0, 0, 0.00000000000000000000e+00) (0, 0, 0.00000000000000000000e+00) (0, 0, 0.00000000000000000000e+00) (0, 0, 0.00000000000000000000e+00) (0, 0, 0.00000000000000000000e+00) (0, 0, 0.00000000000000000000e+00) (0, 0, 0.00000000000000000000e+00) (0, 0, 0.00000000000000000000e+00) (0, 0, 0.00000000000000000000e+00) (0, 0, 0.00000000000000000000e+00) (0, 0, 0.00000000000000000000e+00) (0, 0, 0.00000000000000000000e+00) (0, 0, 0.00000000000000000000e+00) (0, 0, 0.00000000000000000000e+00) (0, 0, 0.00000000000000000000e+00) (0, 0, 0.00000000000000000000e+00) (0, 0, 0.00000000000000000000e+00) (0, 0, 0.00000000000000000000e+00) (0, 0, 0.00000000000000000000e+00) (0, 0, 0.00000000000000000000e+00) (0, 0, 0.00000000000000000000e+00) (0, 0, 0.00000000000000000000e+00) (0, 0, 0.00000000000000000000e+00) (0, 0, 0.00000000000000000000e+00) (0, 0, 0.00000000000000000000e+00) (0, 0, 0.00000000000000000000e+00) (0, 0, 0.00000000000000000000e+00) (0, 0, 0.00000000000000000000e+00) (0, 0, 0.00000000000000000000e+00) (0, 0, 0.00000000000000000000e+00) (0, 0, 0.00000000000000000000e+00) (0, 0, 0.00000000000000000000e+00) (0, 0, 0.00000000000000000000e+00) (0, 0, 0.00000000000000000000e+00) (0, 0, 0.00000000000000000000e+00) (0, 0, 0.00000000000000000000e+00) (0, 0, 0.00000000000000000000e+00) (0, 0, 0.00000000000000000000e+00) (0, 0, 0.00000000000000000000e+00) (0, 0, 0.00000000000000000000e+00) (0, 0, 0.00000000000000000000e+00) (0, 0, 0.00000000000000000000e+00) (0, 0, 0.00000000000000000000e+00) (0, 0, 0.00000000000000000000e+00) (0, 0, 0.00000000000000000000e+00) (0, 0, 0.00000000000000000000e+00) (0, 0, 0.00000000000000000000e+00) (0, 0, 0.00000000000000000000e+00) (0, 0, 0.00000000000000000000e+00) (0, 0, 0.00000000000000000000e+00) (0, 0, 0.00000000000000000000e+00) (0, 0, 0.00000000000000000000e+00) (0, 0, 0.00000000000000000000e+00) (0, 0, 0.00000000000000000000e+00) (0, 0, 0.00000000000000000000e+00) (0, 0, 0.00000000000000000000e+00) (0, 0, 0.00000000000000000000e+00) (0, 0, 0.00000000000000000000e+00) (0, 0, 0.00000000000000000000e+00) (0, 0, 0.00000000000000000000e+00) (0, 0, 0.00000000000000000000e+00) (0, 0, 0.00000000000000000000e+00) (0, 0, 0.00000000000000000000e+00) (0, 0, 0.00000000000000000000e+00) (0, 0, 0.00000000000000000000e+00) (0, 0, 0.00000000000000000000e+00) (0, 0, 0.00000000000000000000e+00) (0, 0, 0.00000000000000000000e+00) (0, 0, 0.00000000000000000000e+00) (0, 0, 0.00000000000000000000e+00) (0, 0, 0.00000000000000000000e+00) (0, 0, 0.00000000000000000000e+00) (0, 0, 0.00000000000000000000e+00) (0, 0, 0.00000000000000000000e+00) (0, 0, 0.00000000000000000000e+00) (0, 0, 0.00000000000000000000e+00) (0, 0, 0.00000000000000000000e+00) (0, 0, 0.00000000000000000000e+00) (0, 0, 0.00000000000000000000e+00) (0, 0, 0.00000000000000000000e+00) (0, 0, 0.00000000000000000000e+00) (0, 0, 0.00000000000000000000e+00) (0, 0, 0.00000000000000000000e+00) (0, 0, 0.00000000000000000000e+00) (0, 0, 0.00000000000000000000e+00) (0, 0, 0.00000000000000000000e+00) (0, 0, 0.00000000000000000000e+00) (0, 0, 0.00000000000000000000e+00) (0, 0, 0.00000000000000000000e+00) (0, 0, 0.00000000000000000000e+00) (0, 0, 0.00000000000000000000e+00) (0, 0, 0.00000000000000000000e+00) (0, 0, 0.00000000000000000000e+00) (0, 0, 0.00000000000000000000e+00) (0, 0, 0.00000000000000000000e+00) (0, 0, 0.00000000000000000000e+00) (0, 0, 0.00000000000000000000e+00) (0, 0, 0.00000000000000000000e+00) (0, 0, 0.00000000000000000000e+00) (0, 0, 0.00000000000000000000e+00) (0, 0, 0.00000000000000000000e+00) (0, 0, 0.00000000000000000000e+00) (0, 0, 0.00000000000000000000e+00) (0, 0, 0.00000000000000000000e+00) (0, 0, 0.00000000000000000000e+00) (0, 0, 0.00000000000000000000e+00) (0, 0, 0.00000000000000000000e+00) (0, 0, 0.00000000000000000000e+00) (0, 0, 0.00000000000000000000e+00) (0, 0, 0.00000000000000000000e+00) (0, 0, 0.00000000000000000000e+00) (0, 0, 0.00000000000000000000e+00) (0, 0, 0.00000000000000000000e+00) (0, 0, 0.00000000000000000000e+00) (0, 0, 0.00000000000000000000e+00) (0, 0, 0.00000000000000000000e+00) (0, 0, 0.00000000000000000000e+00) (0, 0, 0.00000000000000000000e+00) (0, 0, 0.00000000000000000000e+00) (0, 0, 0.00000000000000000000e+00) (0, 0, 0.00000000000000000000e+00) (0, 0, 0.00000000000000000000e+00) (0, 0, 0.00000000000000000000e+00) (0, 0, 0.00000000000000000000e+00) (0, 0, 0.00000000000000000000e+00) (0, 0, 0.00000000000000000000e+00) (0, 0, 0.00000000000000000000e+00) (0, 0, 0.00000000000000000000e+00) (0, 0, 0.00000000000000000000e+00) (0, 0, 0.00000000000000000000e+00) (0, 0, 0.00000000000000000000e+00) (0, 0, 0.00000000000000000000e+00) (0, 0, 0.00000000000000000000e+00) (0, 0, 0.00000000000000000000e+00) (0, 0, 0.00000000000000000000e+00) (0, 0, 0.00000000000000000000e+00) (0, 0, 0.00000000000000000000e+00) (0, 0, 0.00000000000000000000e+00) (0, 0, 0.00000000000000000000e+00) (0, 0, 0.00000000000000000000e+00) (0, 0, 0.00000000000000000000e+00) (0, 0, 0.00000000000000000000e+00) (0, 0, 0.00000000000000000000e+00) (0, 0, 0.00000000000000000000e+00) (0, 0, 0.00000000000000000000e+00) (0, 0, 0.00000000000000000000e+00) (0, 0, 0.00000000000000000000e+00) (0, 0, 0.00000000000000000000e+00) (0, 0, 0.00000000000000000000e+00) (0, 0, 0.00000000000000000000e+00) (0, 0, 0.00000000000000000000e+00) (0, 0, 0.00000000000000000000e+00) (0, 0, 0.00000000000000000000e+00) (0, 0, 0.00000000000000000000e+00) (0, 0, 0.00000000000000000000e+00) (0, 0, 0.00000000000000000000e+00) (0, 0, 0.00000000000000000000e+00) (0, 0, 0.00000000000000000000e+00) (0, 0, 0.00000000000000000000e+00) (0, 0, 0.00000000000000000000e+00) (0, 0, 0.00000000000000000000e+00) (0, 0, 0.00000000000000000000e+00) (0, 0, 0.00000000000000000000e+00) (0, 0, 0.00000000000000000000e+00) (0, 0, 0.00000000000000000000e+00) (0, 0, 0.00000000000000000000e+00) (0, 0, 0.00000000000000000000e+00) (0, 0, 0.00000000000000000000e+00) (0, 0, 0.00000000000000000000e+00) (0, 0, 0.00000000000000000000e+00) (0, 0, 0.00000000000000000000e+00) (0, 0, 0.00000000000000000000e+00) (0, 0, 0.00000000000000000000e+00) (0, 0, 0.00000000000000000000e+00) (0, 0, 0.00000000000000000000e+00) (0, 0, 0.00000000000000000000e+00) (0, 0, 0.00000000000000000000e+00) (0, 0, 0.00000000000000000000e+00) (0, 0, 0.00000000000000000000e+00) (0, 0, 0.00000000000000000000e+00) (0, 0, 0.00000000000000000000e+00) (0, 0, 0.00000000000000000000e+00) (0, 0, 0.00000000000000000000e+00) (0, 0, 0.00000000000000000000e+00) (0, 0, 0.00000000000000000000e+00) (0, 0, 0.00000000000000000000e+00) (0, 0, 0.00000000000000000000e+00) (0, 0, 0.00000000000000000000e+00) (0, 0, 0.00000000000000000000e+00) (0, 0, 0.00000000000000000000e+00) (0, 0, 0.00000000000000000000e+00) (0, 0, 0.00000000000000000000e+00) (0, 0, 0.00000000000000000000e+00) (0, 0, 0.00000000000000000000e+00) (0, 0, 0.00000000000000000000e+00) (0, 0, 0.00000000000000000000e+00) (0, 0, 0.00000000000000000000e+00) (0, 0, 0.00000000000000000000e+00) (0, 0, 0.00000000000000000000e+00) (0, 0, 0.00000000000000000000e+00) (0, 0, 0.00000000000000000000e+00) (0, 0, 0.00000000000000000000e+00) (0, 0, 0.00000000000000000000e+00) (0, 0, 0.00000000000000000000e+00) (0, 0, 0.00000000000000000000e+00) (0, 0, 0.00000000000000000000e+00) (0, 0, 0.00000000000000000000e+00) (0, 0, 0.00000000000000000000e+00) (0, 0, 0.00000000000000000000e+00) (0, 0, 0.00000000000000000000e+00) (0, 0, 0.00000000000000000000e+00) (0, 0, 0.00000000000000000000e+00) (0, 0, 0.00000000000000000000e+00) (0, 0, 0.00000000000000000000e+00) (0, 0, 0.00000000000000000000e+00) (0, 0, 0.00000000000000000000e+00) (0, 0, 0.00000000000000000000e+00) (0, 0, 0.00000000000000000000e+00) (0, 0, 0.00000000000000000000e+00) (0, 0, 0.00000000000000000000e+00) (0, 0, 0.00000000000000000000e+00) (0, 0, 0.00000000000000000000e+00) (0, 0, 0.00000000000000000000e+00) (0, 0, 0.00000000000000000000e+00) (0, 0, 0.00000000000000000000e+00) (0, 0, 0.00000000000000000000e+00) (0, 0, 0.00000000000000000000e+00) (0, 0, 0.00000000000000000000e+00) (0, 0, 0.00000000000000000000e+00) (0, 0, 0.00000000000000000000e+00) (0, 0, 0.00000000000000000000e+00) (0, 0, 0.00000000000000000000e+00) (0, 0, 0.00000000000000000000e+00) (0, 0, 0.00000000000000000000e+00) (0, 0, 0.00000000000000000000e+00) (0, 0, 0.00000000000000000000e+00) (0, 0, 0.00000000000000000000e+00) (0, 0, 0.00000000000000000000e+00) (0, 0, 0.00000000000000000000e+00) (0, 0, 0.00000000000000000000e+00) (0, 0, 0.00000000000000000000e+00) (0, 0, 0.00000000000000000000e+00) (0, 0, 0.00000000000000000000e+00) (0, 0, 0.00000000000000000000e+00) (0, 0, 0.00000000000000000000e+00) (0, 0, 0.00000000000000000000e+00) (0, 0, 0.00000000000000000000e+00) (0, 0, 0.00000000000000000000e+00) (0, 0, 0.00000000000000000000e+00) (0, 0, 0.00000000000000000000e+00) (0, 0, 0.00000000000000000000e+00) (0, 0, 0.00000000000000000000e+00) (0, 0, 0.00000000000000000000e+00) (0, 0, 0.00000000000000000000e+00) (0, 0, 0.00000000000000000000e+00) (0, 0, 0.00000000000000000000e+00) (0, 0, 0.00000000000000000000e+00) (0, 0, 0.00000000000000000000e+00) (0, 0, 0.00000000000000000000e+00) (0, 0, 0.00000000000000000000e+00) (0, 0, 0.00000000000000000000e+00) (0, 0, 0.00000000000000000000e+00) (0, 0, 0.00000000000000000000e+00) (0, 0, 0.00000000000000000000e+00) (0, 0, 0.00000000000000000000e+00) (0, 0, 0.00000000000000000000e+00) (0, 0, 0.00000000000000000000e+00) (0, 0, 0.00000000000000000000e+00) (0, 0, 0.00000000000000000000e+00) (0, 0, 0.00000000000000000000e+00) (0, 0, 0.00000000000000000000e+00) (0, 0, 0.00000000000000000000e+00) (0, 0, 0.00000000000000000000e+00) (0, 0, 0.00000000000000000000e+00) (0, 0, 0.00000000000000000000e+00) (0, 0, 0.00000000000000000000e+00) (0, 0, 0.00000000000000000000e+00) (0, 0, 0.00000000000000000000e+00) (0, 0, 0.00000000000000000000e+00) (0, 0, 0.00000000000000000000e+00) (0, 0, 0.00000000000000000000e+00) (0, 0, 0.00000000000000000000e+00) (0, 0, 0.00000000000000000000e+00) (0, 0, 0.00000000000000000000e+00) (0, 0, 0.00000000000000000000e+00) (0, 0, 0.00000000000000000000e+00) (0, 0, 0.00000000000000000000e+00) (0, 0, 0.00000000000000000000e+00) (0, 0, 0.00000000000000000000e+00) (0, 0, 0.00000000000000000000e+00) (0, 0, 0.00000000000000000000e+00) (0, 0, 0.00000000000000000000e+00) (0, 0, 0.00000000000000000000e+00) (0, 0, 0.00000000000000000000e+00) (0, 0, 0.00000000000000000000e+00) (0, 0, 0.00000000000000000000e+00) (0, 0, 0.00000000000000000000e+00) (0, 0, 0.00000000000000000000e+00) (0, 0, 0.00000000000000000000e+00) (0, 0, 0.00000000000000000000e+00) (0, 0, 0.00000000000000000000e+00) (0, 0, 0.00000000000000000000e+00) (0, 0, 0.00000000000000000000e+00) (0, 0, 0.00000000000000000000e+00) (0, 0, 0.00000000000000000000e+00) (0, 0, 0.00000000000000000000e+00) (0, 0, 0.00000000000000000000e+00) (0, 0, 0.00000000000000000000e+00) (0, 0, 0.00000000000000000000e+00) (0, 0, 0.00000000000000000000e+00) (0, 0, 0.00000000000000000000e+00) (0, 0, 0.00000000000000000000e+00) (0, 0, 0.00000000000000000000e+00) (0, 0, 0.00000000000000000000e+00) (0, 0, 0.00000000000000000000e+00) (0, 0, 0.00000000000000000000e+00) (0, 0, 0.00000000000000000000e+00) (0, 0, 0.00000000000000000000e+00) (0, 0, 0.00000000000000000000e+00) (0, 0, 0.00000000000000000000e+00) (0, 0, 0.00000000000000000000e+00) (0, 0, 0.00000000000000000000e+00) (0, 0, 0.00000000000000000000e+00) (0, 0, 0.00000000000000000000e+00) (0, 0, 0.00000000000000000000e+00) (0, 0, 0.00000000000000000000e+00) (0, 0, 0.00000000000000000000e+00) (0, 0, 0.00000000000000000000e+00) (0, 0, 0.00000000000000000000e+00) (0, 0, 0.00000000000000000000e+00) (0, 0, 0.00000000000000000000e+00) (0, 0, 0.00000000000000000000e+00) (0, 0, 0.00000000000000000000e+00) (0, 0, 0.00000000000000000000e+00) (0, 0, 0.00000000000000000000e+00) (0, 0, 0.00000000000000000000e+00) (0, 0, 0.00000000000000000000e+00) (0, 0, 0.00000000000000000000e+00) (0, 0, 0.00000000000000000000e+00) (0, 0, 0.00000000000000000000e+00) (0, 0, 0.00000000000000000000e+00) (0, 0, 0.00000000000000000000e+00) (0, 0, 0.00000000000000000000e+00) (0, 0, 0.00000000000000000000e+00) (0, 0, 0.00000000000000000000e+00) (0, 0, 0.00000000000000000000e+00) (0, 0, 0.00000000000000000000e+00) (0, 0, 0.00000000000000000000e+00) (0, 0, 0.00000000000000000000e+00) (0, 0, 0.00000000000000000000e+00) (0, 0, 0.00000000000000000000e+00) (0, 0, 0.00000000000000000000e+00) (0, 0, 0.00000000000000000000e+00) (0, 0, 0.00000000000000000000e+00) (0, 0, 0.00000000000000000000e+00) (0, 0, 0.00000000000000000000e+00) (0, 0, 0.00000000000000000000e+00) (0, 0, 0.00000000000000000000e+00) (0, 0, 0.00000000000000000000e+00) (0, 0, 0.00000000000000000000e+00) (0, 0, 0.00000000000000000000e+00) (0, 0, 0.00000000000000000000e+00) (0, 0, 0.00000000000000000000e+00) (0, 0, 0.00000000000000000000e+00) (0, 0, 0.00000000000000000000e+00) (0, 0, 0.00000000000000000000e+00) (0, 0, 0.00000000000000000000e+00) (0, 0, 0.00000000000000000000e+00) (0, 0, 0.00000000000000000000e+00) (0, 0, 0.00000000000000000000e+00) (0, 0, 0.00000000000000000000e+00) (0, 0, 0.00000000000000000000e+00) (0, 0, 0.00000000000000000000e+00) (0, 0, 0.00000000000000000000e+00) (0, 0, 0.00000000000000000000e+00) (0, 0, 0.00000000000000000000e+00) (0, 0, 0.00000000000000000000e+00) (0, 0, 0.00000000000000000000e+00) (0, 0, 0.00000000000000000000e+00) (0, 0, 0.00000000000000000000e+00) (0, 0, 0.00000000000000000000e+00) (0, 0, 0.00000000000000000000e+00) (0, 0, 0.00000000000000000000e+00) (0, 0, 0.00000000000000000000e+00) (0, 0, 0.00000000000000000000e+00) (0, 0, 0.00000000000000000000e+00) (0, 0, 0.00000000000000000000e+00) (0, 0, 0.00000000000000000000e+00) (0, 0, 0.00000000000000000000e+00) (0, 0, 0.00000000000000000000e+00) (0, 0, 0.00000000000000000000e+00) (0, 0, 0.00000000000000000000e+00) (0, 0, 0.00000000000000000000e+00) (0, 0, 0.00000000000000000000e+00) (0, 0, 0.00000000000000000000e+00) (0, 0, 0.00000000000000000000e+00) (0, 0, 0.00000000000000000000e+00) (0, 0, 0.00000000000000000000e+00) (0, 0, 0.00000000000000000000e+00) (0, 0, 0.00000000000000000000e+00) (0, 0, 0.00000000000000000000e+00) (0, 0, 0.00000000000000000000e+00) (0, 0, 0.00000000000000000000e+00) (0, 0, 0.00000000000000000000e+00) (0, 0, 0.00000000000000000000e+00) (0, 0, 0.00000000000000000000e+00) (0, 0, 0.00000000000000000000e+00) (0, 0, 0.00000000000000000000e+00) (0, 0, 0.00000000000000000000e+00) (0, 0, 0.00000000000000000000e+00) (0, 0, 0.00000000000000000000e+00) (0, 0, 0.00000000000000000000e+00) (0, 0, 0.00000000000000000000e+00) (0, 0, 0.00000000000000000000e+00) (0, 0, 0.00000000000000000000e+00) (0, 0, 0.00000000000000000000e+00) (0, 0, 0.00000000000000000000e+00) (0, 0, 0.00000000000000000000e+00) (0, 0, 0.00000000000000000000e+00) (0, 0, 0.00000000000000000000e+00) (0, 0, 0.00000000000000000000e+00) (0, 0, 0.00000000000000000000e+00) (0, 0, 0.00000000000000000000e+00) (0, 0, 0.00000000000000000000e+00) (0, 0, 0.00000000000000000000e+00) (0, 0, 0.00000000000000000000e+00) (0, 0, 0.00000000000000000000e+00) (0, 0, 0.00000000000000000000e+00) (0, 0, 0.00000000000000000000e+00) (0, 0, 0.00000000000000000000e+00) (0, 0, 0.00000000000000000000e+00) (0, 0, 0.00000000000000000000e+00) (0, 0, 0.00000000000000000000e+00) (0, 0, 0.00000000000000000000e+00) (0, 0, 0.00000000000000000000e+00) (0, 0, 0.00000000000000000000e+00) (0, 0, 0.00000000000000000000e+00) (0, 0, 0.00000000000000000000e+00) (0, 0, 0.00000000000000000000e+00) (0, 0, 0.00000000000000000000e+00) (0, 0, 0.00000000000000000000e+00) (0, 0, 0.00000000000000000000e+00) (0, 0, 0.00000000000000000000e+00) (0, 0, 0.00000000000000000000e+00) (0, 0, 0.00000000000000000000e+00) (0, 0, 0.00000000000000000000e+00) (0, 0, 0.00000000000000000000e+00) (0, 0, 0.00000000000000000000e+00) (0, 0, 0.00000000000000000000e+00) (0, 0, 0.00000000000000000000e+00) (0, 0, 0.00000000000000000000e+00) (0, 0, 0.00000000000000000000e+00) (0, 0, 0.00000000000000000000e+00) (0, 0, 0.00000000000000000000e+00) (0, 0, 0.00000000000000000000e+00) (0, 0, 0.00000000000000000000e+00) (0, 0, 0.00000000000000000000e+00) (0, 0, 0.00000000000000000000e+00) (0, 0, 0.00000000000000000000e+00) (0, 0, 0.00000000000000000000e+00) (0, 0, 0.00000000000000000000e+00) (0, 0, 0.00000000000000000000e+00) (0, 0, 0.00000000000000000000e+00) (0, 0, 0.00000000000000000000e+00) (0, 0, 0.00000000000000000000e+00) (0, 0, 0.00000000000000000000e+00) (0, 0, 0.00000000000000000000e+00) (0, 0, 0.00000000000000000000e+00) (0, 0, 0.00000000000000000000e+00) (0, 0, 0.00000000000000000000e+00) (0, 0, 0.00000000000000000000e+00) (0, 0, 0.00000000000000000000e+00) (0, 0, 0.00000000000000000000e+00) (0, 0, 0.00000000000000000000e+00) (0, 0, 0.00000000000000000000e+00) (0, 0, 0.00000000000000000000e+00) (0, 0, 0.00000000000000000000e+00) (0, 0, 0.00000000000000000000e+00) (0, 0, 0.00000000000000000000e+00) (0, 0, 0.00000000000000000000e+00) (0, 0, 0.00000000000000000000e+00) (0, 0, 0.00000000000000000000e+00) (0, 0, 0.00000000000000000000e+00) (0, 0, 0.00000000000000000000e+00) (0, 0, 0.00000000000000000000e+00) (0, 0, 0.00000000000000000000e+00) (0, 0, 0.00000000000000000000e+00) (0, 0, 0.00000000000000000000e+00) (0, 0, 0.00000000000000000000e+00) (0, 0, 0.00000000000000000000e+00) (0, 0, 0.00000000000000000000e+00) (0, 0, 0.00000000000000000000e+00) (0, 0, 0.00000000000000000000e+00) (0, 0, 0.00000000000000000000e+00) (0, 0, 0.00000000000000000000e+00) (0, 0, 0.00000000000000000000e+00) (0, 0, 0.00000000000000000000e+00) (0, 0, 0.00000000000000000000e+00) (0, 0, 0.00000000000000000000e+00) (0, 0, 0.00000000000000000000e+00) (0, 0, 0.00000000000000000000e+00) (0, 0, 0.00000000000000000000e+00) (0, 0, 0.00000000000000000000e+00) (0, 0, 0.00000000000000000000e+00) (0, 0, 0.00000000000000000000e+00) (0, 0, 0.00000000000000000000e+00) (0, 0, 0.00000000000000000000e+00) (0, 0, 0.00000000000000000000e+00) (0, 0, 0.00000000000000000000e+00) (0, 0, 0.00000000000000000000e+00) (0, 0, 0.00000000000000000000e+00) (0, 0, 0.00000000000000000000e+00) (0, 0, 0.00000000000000000000e+00) (0, 0, 0.00000000000000000000e+00) (0, 0, 0.00000000000000000000e+00) (0, 0, 0.00000000000000000000e+00) (0, 0, 0.00000000000000000000e+00) (0, 0, 0.00000000000000000000e+00) (0, 0, 0.00000000000000000000e+00) (0, 0, 0.00000000000000000000e+00) (0, 0, 0.00000000000000000000e+00) (0, 0, 0.00000000000000000000e+00) (0, 0, 0.00000000000000000000e+00) (0, 0, 0.00000000000000000000e+00) (0, 0, 0.00000000000000000000e+00) (0, 0, 0.00000000000000000000e+00) (0, 0, 0.00000000000000000000e+00) (0, 0, 0.00000000000000000000e+00) (0, 0, 0.00000000000000000000e+00) (0, 0, 0.00000000000000000000e+00) (0, 0, 0.00000000000000000000e+00) (0, 0, 0.00000000000000000000e+00) (0, 0, 0.00000000000000000000e+00) (0, 0, 0.00000000000000000000e+00) (0, 0, 0.00000000000000000000e+00) (0, 0, 0.00000000000000000000e+00) (0, 0, 0.00000000000000000000e+00) (0, 0, 0.00000000000000000000e+00) (0, 0, 0.00000000000000000000e+00) (0, 0, 0.00000000000000000000e+00) (0, 0, 0.00000000000000000000e+00) (0, 0, 0.00000000000000000000e+00) (0, 0, 0.00000000000000000000e+00) (0, 0, 0.00000000000000000000e+00) (0, 0, 0.00000000000000000000e+00) (0, 0, 0.00000000000000000000e+00) (0, 0, 0.00000000000000000000e+00) (0, 0, 0.00000000000000000000e+00) (0, 0, 0.00000000000000000000e+00) (0, 0, 0.00000000000000000000e+00) (0, 0, 0.00000000000000000000e+00) (0, 0, 0.00000000000000000000e+00) (0, 0, 0.00000000000000000000e+00) (0, 0, 0.00000000000000000000e+00) (0, 0, 0.00000000000000000000e+00) (0, 0, 0.00000000000000000000e+00) (0, 0, 0.00000000000000000000e+00) (0, 0, 0.00000000000000000000e+00) (0, 0, 0.00000000000000000000e+00) (0, 0, 0.00000000000000000000e+00) (0, 0, 0.00000000000000000000e+00) (0, 0, 0.00000000000000000000e+00) (0, 0, 0.00000000000000000000e+00) (0, 0, 0.00000000000000000000e+00) (0, 0, 0.00000000000000000000e+00) (0, 0, 0.00000000000000000000e+00) (0, 0, 0.00000000000000000000e+00) (0, 0, 0.00000000000000000000e+00) (0, 0, 0.00000000000000000000e+00) (0, 0, 0.00000000000000000000e+00) (0, 0, 0.00000000000000000000e+00) (0, 0, 0.00000000000000000000e+00) (0, 0, 0.00000000000000000000e+00) (0, 0, 0.00000000000000000000e+00) (0, 0, 0.00000000000000000000e+00) (0, 0, 0.00000000000000000000e+00) (0, 0, 0.00000000000000000000e+00) (0, 0, 0.00000000000000000000e+00) (0, 0, 0.00000000000000000000e+00) (0, 0, 0.00000000000000000000e+00) (0, 0, 0.00000000000000000000e+00) (0, 0, 0.00000000000000000000e+00) (0, 0, 0.00000000000000000000e+00) (0, 0, 0.00000000000000000000e+00) (0, 0, 0.00000000000000000000e+00) (0, 0, 0.00000000000000000000e+00) (0, 0, 0.00000000000000000000e+00) (0, 0, 0.00000000000000000000e+00) (0, 0, 0.00000000000000000000e+00) (0, 0, 0.00000000000000000000e+00) (0, 0, 0.00000000000000000000e+00) (0, 0, 0.00000000000000000000e+00) (0, 0, 0.00000000000000000000e+00) (0, 0, 0.00000000000000000000e+00) (0, 0, 0.00000000000000000000e+00) (0, 0, 0.00000000000000000000e+00) (0, 0, 0.00000000000000000000e+00) (0, 0, 0.00000000000000000000e+00) (0, 0, 0.00000000000000000000e+00) (0, 0, 0.00000000000000000000e+00) (0, 0, 0.00000000000000000000e+00) (0, 0, 0.00000000000000000000e+00) (0, 0, 0.00000000000000000000e+00) (0, 0, 0.00000000000000000000e+00) (0, 0, 0.00000000000000000000e+00) (0, 0, 0.00000000000000000000e+00) (0, 0, 0.00000000000000000000e+00) (0, 0, 0.00000000000000000000e+00) (0, 0, 0.00000000000000000000e+00) (0, 0, 0.00000000000000000000e+00) (0, 0, 0.00000000000000000000e+00) (0, 0, 0.00000000000000000000e+00) (0, 0, 0.00000000000000000000e+00) (0, 0, 0.00000000000000000000e+00) (0, 0, 0.00000000000000000000e+00) (0, 0, 0.00000000000000000000e+00) (0, 0, 0.00000000000000000000e+00) (0, 0, 0.00000000000000000000e+00) (0, 0, 0.00000000000000000000e+00) (0, 0, 0.00000000000000000000e+00) (0, 0, 0.00000000000000000000e+00) (0, 0, 0.00000000000000000000e+00) (0, 0, 0.00000000000000000000e+00) (0, 0, 0.00000000000000000000e+00) (0, 0, 0.00000000000000000000e+00) (0, 0, 0.00000000000000000000e+00) (0, 0, 0.00000000000000000000e+00) (0, 0, 0.00000000000000000000e+00) (0, 0, 0.00000000000000000000e+00) (0, 0, 0.00000000000000000000e+00) (0, 0, 0.00000000000000000000e+00) (0, 0, 0.00000000000000000000e+00) (0, 0, 0.00000000000000000000e+00) (0, 0, 0.00000000000000000000e+00) (0, 0, 0.00000000000000000000e+00) (0, 0, 0.00000000000000000000e+00) (0, 0, 0.00000000000000000000e+00) (0, 0, 0.00000000000000000000e+00) (0, 0, 0.00000000000000000000e+00) (0, 0, 0.00000000000000000000e+00) (0, 0, 0.00000000000000000000e+00) (0, 0, 0.00000000000000000000e+00) (0, 0, 0.00000000000000000000e+00) (0, 0, 0.00000000000000000000e+00) (0, 0, 0.00000000000000000000e+00) (0, 0, 0.00000000000000000000e+00) (0, 0, 0.00000000000000000000e+00) (0, 0, 0.00000000000000000000e+00) (0, 0, 0.00000000000000000000e+00) (0, 0, 0.00000000000000000000e+00) (0, 0, 0.00000000000000000000e+00) (0, 0, 0.00000000000000000000e+00) (0, 0, 0.00000000000000000000e+00) (0, 0, 0.00000000000000000000e+00) (0, 0, 0.00000000000000000000e+00) (0, 0, 0.00000000000000000000e+00) (0, 0, 0.00000000000000000000e+00) (0, 0, 0.00000000000000000000e+00) (0, 0, 0.00000000000000000000e+00) (0, 0, 0.00000000000000000000e+00) (0, 0, 0.00000000000000000000e+00) (0, 0, 0.00000000000000000000e+00) (0, 0, 0.00000000000000000000e+00) (0, 0, 0.00000000000000000000e+00) (0, 0, 0.00000000000000000000e+00) (0, 0, 0.00000000000000000000e+00) (0, 0, 0.00000000000000000000e+00) (0, 0, 0.00000000000000000000e+00) (0, 0, 0.00000000000000000000e+00) (0, 0, 0.00000000000000000000e+00) (0, 0, 0.00000000000000000000e+00) (0, 0, 0.00000000000000000000e+00) (0, 0, 0.00000000000000000000e+00) (0, 0, 0.00000000000000000000e+00) (0, 0, 0.00000000000000000000e+00) (0, 0, 0.00000000000000000000e+00) (0, 0, 0.00000000000000000000e+00) (0, 0, 0.00000000000000000000e+00) (0, 0, 0.00000000000000000000e+00) (0, 0, 0.00000000000000000000e+00) (0, 0, 0.00000000000000000000e+00) (0, 0, 0.00000000000000000000e+00) (0, 0, 0.00000000000000000000e+00) (0, 0, 0.00000000000000000000e+00) (0, 0, 0.00000000000000000000e+00) (0, 0, 0.00000000000000000000e+00) (0, 0, 0.00000000000000000000e+00) (0, 0, 0.00000000000000000000e+00) (0, 0, 0.00000000000000000000e+00) (0, 0, 0.00000000000000000000e+00) (0, 0, 0.00000000000000000000e+00) (0, 0, 0.00000000000000000000e+00) (0, 0, 0.00000000000000000000e+00) (0, 0, 0.00000000000000000000e+00) (0, 0, 0.00000000000000000000e+00) (0, 0, 0.00000000000000000000e+00) (0, 0, 0.00000000000000000000e+00) (0, 0, 0.00000000000000000000e+00) (0, 0, 0.00000000000000000000e+00) (0, 0, 0.00000000000000000000e+00) (0, 0, 0.00000000000000000000e+00) (0, 0, 0.00000000000000000000e+00) (0, 0, 0.00000000000000000000e+00) (0, 0, 0.00000000000000000000e+00) (0, 0, 0.00000000000000000000e+00) (0, 0, 0.00000000000000000000e+00) (0, 0, 0.00000000000000000000e+00) (0, 0, 0.00000000000000000000e+00) (0, 0, 0.00000000000000000000e+00) (0, 0, 0.00000000000000000000e+00) (0, 0, 0.00000000000000000000e+00) (0, 0, 0.00000000000000000000e+00) (0, 0, 0.00000000000000000000e+00) (0, 0, 0.00000000000000000000e+00) (0, 0, 0.00000000000000000000e+00) (0, 0, 0.00000000000000000000e+00) (0, 0, 0.00000000000000000000e+00) (0, 0, 0.00000000000000000000e+00) (0, 0, 0.00000000000000000000e+00) (0, 0, 0.00000000000000000000e+00) (0, 0, 0.00000000000000000000e+00) (0, 0, 0.00000000000000000000e+00) (0, 0, 0.00000000000000000000e+00) (0, 0, 0.00000000000000000000e+00) (0, 0, 0.00000000000000000000e+00) (0, 0, 0.00000000000000000000e+00) (0, 0, 0.00000000000000000000e+00) (0, 0, 0.00000000000000000000e+00) (0, 0, 0.00000000000000000000e+00) (0, 0, 0.00000000000000000000e+00) (0, 0, 0.00000000000000000000e+00) (0, 0, 0.00000000000000000000e+00) (0, 0, 0.00000000000000000000e+00) (0, 0, 0.00000000000000000000e+00) (0, 0, 0.00000000000000000000e+00) (0, 0, 0.00000000000000000000e+00) (0, 0, 0.00000000000000000000e+00) (0, 0, 0.00000000000000000000e+00) (0, 0, 0.00000000000000000000e+00) (0, 0, 0.00000000000000000000e+00) (0, 0, 0.00000000000000000000e+00) (0, 0, 0.00000000000000000000e+00) (0, 0, 0.00000000000000000000e+00) (0, 0, 0.00000000000000000000e+00) (0, 0, 0.00000000000000000000e+00) (0, 0, 0.00000000000000000000e+00) (0, 0, 0.00000000000000000000e+00) (0, 0, 0.00000000000000000000e+00) (0, 0, 0.00000000000000000000e+00) (0, 0, 0.00000000000000000000e+00) (0, 0, 0.00000000000000000000e+00) (0, 0, 0.00000000000000000000e+00) (0, 0, 0.00000000000000000000e+00) (0, 0, 0.00000000000000000000e+00) (0, 0, 0.00000000000000000000e+00) (0, 0, 0.00000000000000000000e+00) (0, 0, 0.00000000000000000000e+00) (0, 0, 0.00000000000000000000e+00) (0, 0, 0.00000000000000000000e+00) (0, 0, 0.00000000000000000000e+00) (0, 0, 0.00000000000000000000e+00) (0, 0, 0.00000000000000000000e+00) (0, 0, 0.00000000000000000000e+00) (0, 0, 0.00000000000000000000e+00) (0, 0, 0.00000000000000000000e+00) (0, 0, 0.00000000000000000000e+00) (0, 0, 0.00000000000000000000e+00) (0, 0, 0.00000000000000000000e+00) (0, 0, 0.00000000000000000000e+00) (0, 0, 0.00000000000000000000e+00) (0, 0, 0.00000000000000000000e+00) (0, 0, 0.00000000000000000000e+00) (0, 0, 0.00000000000000000000e+00) (0, 0, 0.00000000000000000000e+00) (0, 0, 0.00000000000000000000e+00) (0, 0, 0.00000000000000000000e+00) (0, 0, 0.00000000000000000000e+00) (0, 0, 0.00000000000000000000e+00) (0, 0, 0.00000000000000000000e+00) (0, 0, 0.00000000000000000000e+00) (0, 0, 0.00000000000000000000e+00) (0, 0, 0.00000000000000000000e+00) (0, 0, 0.00000000000000000000e+00) (0, 0, 0.00000000000000000000e+00) (0, 0, 0.00000000000000000000e+00) (0, 0, 0.00000000000000000000e+00) (0, 0, 0.00000000000000000000e+00) (0, 0, 0.00000000000000000000e+00) (0, 0, 0.00000000000000000000e+00) (0, 0, 0.00000000000000000000e+00) (0, 0, 0.00000000000000000000e+00) (0, 0, 0.00000000000000000000e+00) (0, 0, 0.00000000000000000000e+00) (0, 0, 0.00000000000000000000e+00) (0, 0, 0.00000000000000000000e+00) (0, 0, 0.00000000000000000000e+00) (0, 0, 0.00000000000000000000e+00) (0, 0, 0.00000000000000000000e+00) (0, 0, 0.00000000000000000000e+00) (0, 0, 0.00000000000000000000e+00) (0, 0, 0.00000000000000000000e+00) (0, 0, 0.00000000000000000000e+00) (0, 0, 0.00000000000000000000e+00) (0, 0, 0.00000000000000000000e+00) (0, 0, 0.00000000000000000000e+00) (0, 0, 0.00000000000000000000e+00) (0, 0, 0.00000000000000000000e+00) (0, 0, 0.00000000000000000000e+00) (0, 0, 0.00000000000000000000e+00) (0, 0, 0.00000000000000000000e+00) (0, 0, 0.00000000000000000000e+00) (0, 0, 0.00000000000000000000e+00) (0, 0, 0.00000000000000000000e+00) (0, 0, 0.00000000000000000000e+00) (0, 0, 0.00000000000000000000e+00) (0, 0, 0.00000000000000000000e+00) (0, 0, 0.00000000000000000000e+00) (0, 0, 0.00000000000000000000e+00) (0, 0, 0.00000000000000000000e+00) (0, 0, 0.00000000000000000000e+00) (0, 0, 0.00000000000000000000e+00) (0, 0, 0.00000000000000000000e+00) (0, 0, 0.00000000000000000000e+00) (0, 0, 0.00000000000000000000e+00) (0, 0, 0.00000000000000000000e+00) (0, 0, 0.00000000000000000000e+00) (0, 0, 0.00000000000000000000e+00) (0, 0, 0.00000000000000000000e+00) (0, 0, 0.00000000000000000000e+00) (0, 0, 0.00000000000000000000e+00) (0, 0, 0.00000000000000000000e+00) (0, 0, 0.00000000000000000000e+00) (0, 0, 0.00000000000000000000e+00) (0, 0, 0.00000000000000000000e+00) (0, 0, 0.00000000000000000000e+00) (0, 0, 0.00000000000000000000e+00) (0, 0, 0.00000000000000000000e+00) (0, 0, 0.00000000000000000000e+00) (0, 0, 0.00000000000000000000e+00) (0, 0, 0.00000000000000000000e+00) (0, 0, 0.00000000000000000000e+00) (0, 0, 0.00000000000000000000e+00) (0, 0, 0.00000000000000000000e+00) (0, 0, 0.00000000000000000000e+00) (0, 0, 0.00000000000000000000e+00) (0, 0, 0.00000000000000000000e+00) (0, 0, 0.00000000000000000000e+00) (0, 0, 0.00000000000000000000e+00) (0, 0, 0.00000000000000000000e+00) (0, 0, 0.00000000000000000000e+00) (0, 0, 0.00000000000000000000e+00) (0, 0, 0.00000000000000000000e+00) (0, 0, 0.00000000000000000000e+00) (0, 0, 0.00000000000000000000e+00) (0, 0, 0.00000000000000000000e+00) (0, 0, 0.00000000000000000000e+00) (901, 10, 5.00000000000000000000e-01) (901, 10, 5.00000000000000000000e-01) (901, 10, 5.00000000000000000000e-01) (901, 10, 5.00000000000000000000e-01) (901, 10, 5.00000000000000000000e-01) (901, 10, 5.00000000000000000000e-01) (901, 10, 5.00000000000000000000e-01) (901, 10, 5.00000000000000000000e-01) (901, 10, 5.00000000000000000000e-01) (901, 10, 5.00000000000000000000e-01) (901, 10, 5.00000000000000000000e-01) (901, 10, 5.00000000000000000000e-01) (901, 10, 5.00000000000000000000e-01) (901, 10, 5.00000000000000000000e-01) (901, 10, 5.00000000000000000000e-01) (901, 10, 5.00000000000000000000e-01) (901, 10, 5.00000000000000000000e-01) (901, 10, 5.00000000000000000000e-01) (901, 10, 5.00000000000000000000e-01) (901, 10, 5.00000000000000000000e-01) (901, 10, 5.00000000000000000000e-01) (901, 10, 5.00000000000000000000e-01) (901, 10, 5.00000000000000000000e-01) (901, 10, 5.00000000000000000000e-01) (901, 10, 5.00000000000000000000e-01) (901, 10, 5.00000000000000000000e-01) (901, 10, 5.00000000000000000000e-01) (901, 10, 5.00000000000000000000e-01) (901, 10, 5.00000000000000000000e-01) (901, 10, 5.00000000000000000000e-01) (901, 10, 5.00000000000000000000e-01) (901, 10, 5.00000000000000000000e-01) (901, 10, 5.00000000000000000000e-01) (901, 10, 5.00000000000000000000e-01) (901, 10, 5.00000000000000000000e-01) (901, 10, 5.00000000000000000000e-01) (901, 10, 5.00000000000000000000e-01) (901, 10, 5.00000000000000000000e-01) (901, 10, 5.00000000000000000000e-01) (901, 10, 5.00000000000000000000e-01) (901, 10, 5.00000000000000000000e-01) (901, 10, 5.00000000000000000000e-01) (901, 10, 5.00000000000000000000e-01) (901, 10, 5.00000000000000000000e-01) (901, 10, 5.00000000000000000000e-01) (901, 10, 5.00000000000000000000e-01) (901, 10, 5.00000000000000000000e-01) (901, 10, 5.00000000000000000000e-01) (901, 10, 5.00000000000000000000e-01) (901, 10, 5.00000000000000000000e-01) (901, 10, 5.00000000000000000000e-01) (901, 10, 5.00000000000000000000e-01) (901, 10, 5.00000000000000000000e-01) (901, 10, 5.00000000000000000000e-01) (901, 10, 5.00000000000000000000e-01) (901, 10, 5.00000000000000000000e-01) (901, 10, 5.00000000000000000000e-01) (901, 10, 5.00000000000000000000e-01) (901, 10, 5.00000000000000000000e-01) (901, 10, 5.00000000000000000000e-01) (901, 10, 5.00000000000000000000e-01) (901, 10, 5.00000000000000000000e-01) (901, 10, 5.00000000000000000000e-01) (901, 10, 5.00000000000000000000e-01) (901, 10, 5.00000000000000000000e-01) (901, 10, 5.00000000000000000000e-01) (901, 10, 5.00000000000000000000e-01) (901, 10, 5.00000000000000000000e-01) (901, 10, 5.00000000000000000000e-01) (901, 10, 5.00000000000000000000e-01) (901, 10, 5.00000000000000000000e-01) (901, 10, 5.00000000000000000000e-01) (901, 10, 5.00000000000000000000e-01) (901, 10, 5.00000000000000000000e-01) (901, 10, 5.00000000000000000000e-01) (901, 10, 5.00000000000000000000e-01) (901, 10, 5.00000000000000000000e-01) (901, 10, 5.00000000000000000000e-01) (901, 10, 5.00000000000000000000e-01) (901, 10, 5.00000000000000000000e-01) (901, 10, 5.00000000000000000000e-01) (901, 10, 5.00000000000000000000e-01) (901, 10, 5.00000000000000000000e-01) (901, 10, 5.00000000000000000000e-01) (901, 10, 5.00000000000000000000e-01) (901, 10, 5.00000000000000000000e-01) (901, 10, 5.00000000000000000000e-01) (901, 10, 5.00000000000000000000e-01) (901, 10, 5.00000000000000000000e-01) (901, 10, 5.00000000000000000000e-01) (901, 10, 5.00000000000000000000e-01) (901, 10, 5.00000000000000000000e-01) (901, 10, 5.00000000000000000000e-01) (901, 10, 5.00000000000000000000e-01) (901, 10, 5.00000000000000000000e-01) (901, 10, 5.00000000000000000000e-01) (901, 10, 5.00000000000000000000e-01) (901, 10, 5.00000000000000000000e-01) (901, 10, 5.00000000000000000000e-01) (901, 10, 5.00000000000000000000e-01) (0, 10, 0.00000000000000000000e+00) (101, 10, 5.00000000000000000000e-01) (101, 10, 5.00000000000000000000e-01) (101, 10, 5.00000000000000000000e-01) (101, 10, 5.00000000000000000000e-01) (101, 10, 5.00000000000000000000e-01) (101, 10, 5.00000000000000000000e-01) (101, 10, 5.00000000000000000000e-01) (101, 10, 5.00000000000000000000e-01) (101, 10, 5.00000000000000000000e-01) (101, 10, 5.00000000000000000000e-01) (101, 10, 5.00000000000000000000e-01) (101, 10, 5.00000000000000000000e-01) (101, 10, 5.00000000000000000000e-01) (101, 10, 5.00000000000000000000e-01) (101, 10, 5.00000000000000000000e-01) (101, 10, 5.00000000000000000000e-01) (101, 10, 5.00000000000000000000e-01) (101, 10, 5.00000000000000000000e-01) (101, 10, 5.00000000000000000000e-01) (101, 10, 5.00000000000000000000e-01) (101, 10, 5.00000000000000000000e-01) (101, 10, 5.00000000000000000000e-01) (101, 10, 5.00000000000000000000e-01) (101, 10, 5.00000000000000000000e-01) (101, 10, 5.00000000000000000000e-01) (101, 10, 5.00000000000000000000e-01) (101, 10, 5.00000000000000000000e-01) (101, 10, 5.00000000000000000000e-01) (101, 10, 5.00000000000000000000e-01) (101, 10, 5.00000000000000000000e-01) (101, 10, 5.00000000000000000000e-01) (101, 10, 5.00000000000000000000e-01) (101, 10, 5.00000000000000000000e-01) (101, 10, 5.00000000000000000000e-01) (101, 10, 5.00000000000000000000e-01) (101, 10, 5.00000000000000000000e-01) (0, 10, 0.00000000000000000000e+00) 
connections (connected_to_neuron, weight)=(0, 1.50000000000000000000e+03) (1, 1.50000000000000000000e+03) (2, 1.50000000000000000000e+03) (3, 1.50000000000000000000e+03) (4, 1.50000000000000000000e+03) (5, 1.50000000000000000000e+03) (6, 1.50000000000000000000e+03) (7, 1.50000000000000000000e+03) (8, 1.50000000000000000000e+03) (9, 1.50000000000000000000e+03) (10, 1.50000000000000000000e+03) (11, 1.50000000000000000000e+03) (12, 1.50000000000000000000e+03) (13, 1.50000000000000000000e+03) (14, 1.50000000000000000000e+03) (15, 1.50000000000000000000e+03) (16, 1.50000000000000000000e+03) (17, 1.50000000000000000000e+03) (18, 1.50000000000000000000e+03) (19, 1.50000000000000000000e+03) (20, 1.50000000000000000000e+03) (21, 1.50000000000000000000e+03) (22, 1.50000000000000000000e+03) (23, 1.50000000000000000000e+03) (24, 1.50000000000000000000e+03) (25, 1.50000000000000000000e+03) (26, 1.50000000000000000000e+03) (27, 1.50000000000000000000e+03) (28, 1.50000000000000000000e+03) (29, 1.50000000000000000000e+03) (30, 1.50000000000000000000e+03) (31, 1.50000000000000000000e+03) (32, 1.50000000000000000000e+03) (33, 1.50000000000000000000e+03) (34, 1.50000000000000000000e+03) (35, 1.50000000000000000000e+03) (36, 1.50000000000000000000e+03) (37, 1.50000000000000000000e+03) (38, 1.50000000000000000000e+03) (39, 1.50000000000000000000e+03) (40, 1.50000000000000000000e+03) (41, 1.50000000000000000000e+03) (42, 1.50000000000000000000e+03) (43, 1.50000000000000000000e+03) (44, 1.50000000000000000000e+03) (45, 1.50000000000000000000e+03) (46, 1.50000000000000000000e+03) (47, 1.50000000000000000000e+03) (48, 1.50000000000000000000e+03) (49, 1.50000000000000000000e+03) (50, 1.50000000000000000000e+03) (51, 1.18801232910156250000e+03) (52, 1.49999890136718750000e+03) (53, 1.49999670410156250000e+03) (54, 1.49999768066406250000e+03) (55, 1.49999902343750000000e+03) (56, 1.50000000000000000000e+03) (57, 1.50000000000000000000e+03) (58, 1.50000000000000000000e+03) (59, 1.50000000000000000000e+03) (60, 1.50000000000000000000e+03) (61, 1.50000000000000000000e+03) (62, 1.50000000000000000000e+03) (63, 1.49998278808593750000e+03) (64, 1.49999121093750000000e+03) (65, 1.49997558593750000000e+03) (66, 1.49999121093750000000e+03) (67, 1.49999816894531250000e+03) (68, 1.50000000000000000000e+03) (69, 1.50000000000000000000e+03) (70, 1.50000000000000000000e+03) (71, 1.50000000000000000000e+03) (72, 1.50000000000000000000e+03) (73, 1.50000000000000000000e+03) (74, 1.50000000000000000000e+03) (75, 1.50000000000000000000e+03) (76, 1.50000000000000000000e+03) (77, 1.50000000000000000000e+03) (78, 1.50000000000000000000e+03) (79, 1.50000000000000000000e+03) (80, 1.50000000000000000000e+03) (81, 1.49999951171875000000e+03) (82, 1.49999743652343750000e+03) (83, 1.49972412109375000000e+03) (84, 1.49931750488281250000e+03) (85, 1.49997656250000000000e+03) (86, 1.49998010253906250000e+03) (87, 1.49999938964843750000e+03) (88, 1.50000000000000000000e+03) (89, 1.50000000000000000000e+03) (90, 1.50000000000000000000e+03) (91, 1.49999890136718750000e+03) (92, 1.49998547363281250000e+03) (93, 1.49992541503906250000e+03) (94, 1.49957348632812500000e+03) (95, 1.49946264648437500000e+03) (96, 1.49999145507812500000e+03) (97, 1.50000000000000000000e+03) (98, 1.50000000000000000000e+03) (99, 1.50000000000000000000e+03) (100, 1.50000000000000000000e+03) (101, 1.50000000000000000000e+03) (102, 1.50000000000000000000e+03) (103, 1.50000000000000000000e+03) (104, 1.50000000000000000000e+03) (105, 1.50000000000000000000e+03) (106, 4.74423339843750000000e+02) (107, 2.06440639495849609375e+01) (108, 2.94064605712890625000e+02) (109, 1.50000000000000000000e+03) (110, 1.50000000000000000000e+03) (111, 1.50000000000000000000e+03) (112, 1.50000000000000000000e+03) (113, 1.49999853515625000000e+03) (114, 1.49996752929687500000e+03) (115, 1.49999426269531250000e+03) (116, 1.49999462890625000000e+03) (117, 1.50000000000000000000e+03) (118, 1.50000000000000000000e+03) (119, 1.50000000000000000000e+03) (120, 1.49999853515625000000e+03) (121, 1.49999218750000000000e+03) (122, 1.49985009765625000000e+03) (123, 1.49494873046875000000e+03) (124, 1.49901904296875000000e+03) (125, 1.49998583984375000000e+03) (126, 1.50000000000000000000e+03) (127, 1.50000000000000000000e+03) (128, 1.50000000000000000000e+03) (129, 1.50000000000000000000e+03) (130, 1.50000000000000000000e+03) (131, 1.50000000000000000000e+03) (132, 1.50000000000000000000e+03) (133, 1.50000000000000000000e+03) (134, 1.50000000000000000000e+03) (135, 5.79443603515625000000e+02) (136, 1.39364376068115234375e+01) (137, 1.06756114959716796875e+01) (138, 7.90548522949218750000e+02) (139, 1.50000000000000000000e+03) (140, 1.50000000000000000000e+03) (141, 1.50000000000000000000e+03) (142, 1.50000000000000000000e+03) (143, 1.50000000000000000000e+03) (144, 1.50000000000000000000e+03) (145, 1.50000000000000000000e+03) (146, 1.50000000000000000000e+03) (147, 1.50000000000000000000e+03) (148, 1.50000000000000000000e+03) (149, 1.50000000000000000000e+03) (150, 1.49999829101562500000e+03) (151, 1.49998962402343750000e+03) (152, 1.49561291503906250000e+03) (153, 4.85198364257812500000e+02) (154, 1.49987719726562500000e+03) (155, 1.49994104003906250000e+03) (156, 1.50000000000000000000e+03) (157, 1.50000000000000000000e+03) (158, 1.50000000000000000000e+03) (159, 1.50000000000000000000e+03) (160, 1.50000000000000000000e+03) (161, 1.50000000000000000000e+03) (162, 1.50000000000000000000e+03) (163, 1.50000000000000000000e+03) (164, 1.50000000000000000000e+03) (165, 9.67873382568359375000e+00) (166, 4.24623775482177734375e+00) (167, 4.05338668823242187500e+00) (168, 1.06521682739257812500e+02) (169, 1.50000000000000000000e+03) (170, 1.50000000000000000000e+03) (171, 1.50000000000000000000e+03) (172, 1.50000000000000000000e+03) (173, 1.50000000000000000000e+03) (174, 1.50000000000000000000e+03) (175, 1.50000000000000000000e+03) (176, 1.50000000000000000000e+03) (177, 1.50000000000000000000e+03) (178, 1.50000000000000000000e+03) (179, 1.50000000000000000000e+03) (180, 1.49999938964843750000e+03) (181, 1.49999328613281250000e+03) (182, 1.49935754394531250000e+03) (183, 1.49629443359375000000e+03) (184, 1.49999560546875000000e+03) (185, 1.50000000000000000000e+03) (186, 1.50000000000000000000e+03) (187, 1.50000000000000000000e+03) (188, 1.50000000000000000000e+03) (189, 1.50000000000000000000e+03) (190, 1.50000000000000000000e+03) (191, 1.50000000000000000000e+03) (192, 1.50000000000000000000e+03) (193, 1.50000000000000000000e+03) (194, 1.50000000000000000000e+03) (195, 8.77788639068603515625e+00) (196, 2.35782217979431152344e+00) (197, 2.30289006233215332031e+00) (198, 2.28918056488037109375e+01) (199, 1.50000000000000000000e+03) (200, 1.50000000000000000000e+03) (201, 1.50000000000000000000e+03) (202, 1.50000000000000000000e+03) (203, 1.50000000000000000000e+03) (204, 1.50000000000000000000e+03) (205, 1.50000000000000000000e+03) (206, 1.50000000000000000000e+03) (207, 1.50000000000000000000e+03) (208, 1.50000000000000000000e+03) (209, 1.50000000000000000000e+03) (210, 1.50000000000000000000e+03) (211, 1.49999645996093750000e+03) (212, 1.49998767089843750000e+03) (213, 1.49999267578125000000e+03) (214, 1.49999987792968750000e+03) (215, 1.50000000000000000000e+03) (216, 1.50000000000000000000e+03) (217, 1.50000000000000000000e+03) (218, 1.50000000000000000000e+03) (219, 1.50000000000000000000e+03) (220, 1.50000000000000000000e+03) (221, 1.50000000000000000000e+03) (222, 1.50000000000000000000e+03) (223, 1.50000000000000000000e+03) (224, 1.49999987792968750000e+03) (225, 1.98591446876525878906e+00) (226, 1.63837075233459472656e+00) (227, 1.63794100284576416016e+00) (228, 4.97421169281005859375e+00) (229, 9.65948181152343750000e+02) (230, 1.50000000000000000000e+03) (231, 1.50000000000000000000e+03) (232, 1.50000000000000000000e+03) (233, 1.50000000000000000000e+03) (234, 1.50000000000000000000e+03) (235, 1.50000000000000000000e+03) (236, 1.50000000000000000000e+03) (237, 1.50000000000000000000e+03) (238, 1.50000000000000000000e+03) (239, 1.50000000000000000000e+03) (240, 1.50000000000000000000e+03) (241, 1.50000000000000000000e+03) (242, 1.49999780273437500000e+03) (243, 1.49999963378906250000e+03) (244, 1.50000000000000000000e+03) (245, 1.50000000000000000000e+03) (246, 1.50000000000000000000e+03) (247, 1.50000000000000000000e+03) (248, 1.50000000000000000000e+03) (249, 1.50000000000000000000e+03) (250, 1.50000000000000000000e+03) (251, 1.50000000000000000000e+03) (252, 1.50000000000000000000e+03) (253, 1.50000000000000000000e+03) (254, 1.49999987792968750000e+03) (255, 1.76471579074859619141e+00) (256, 1.56362962722778320312e+00) (257, 1.51960849761962890625e+00) (258, 3.27160930633544921875e+00) (259, 3.54349970817565917969e+00) (260, 1.50000000000000000000e+03) (261, 1.50000000000000000000e+03) (262, 1.50000000000000000000e+03) (263, 1.50000000000000000000e+03) (264, 1.50000000000000000000e+03) (265, 1.50000000000000000000e+03) (266, 1.50000000000000000000e+03) (267, 1.50000000000000000000e+03) (268, 1.50000000000000000000e+03) (269, 1.50000000000000000000e+03) (270, 1.50000000000000000000e+03) (271, 1.50000000000000000000e+03) (272, 1.50000000000000000000e+03) (273, 1.50000000000000000000e+03) (274, 1.50000000000000000000e+03) (275, 1.50000000000000000000e+03) (276, 1.50000000000000000000e+03) (277, 1.50000000000000000000e+03) (278, 1.50000000000000000000e+03) (279, 1.50000000000000000000e+03) (280, 1.50000000000000000000e+03) (281, 1.50000000000000000000e+03) (282, 1.50000000000000000000e+03) (283, 1.50000000000000000000e+03) (284, 1.50000000000000000000e+03) (285, 1.54189276695251464844e+00) (286, 1.24512100219726562500e+00) (287, 2.21934676170349121094e+00) (288, 2.70928120613098144531e+00) (289, 3.16662859916687011719e+00) (290, 1.50000000000000000000e+03) (291, 1.50000000000000000000e+03) (292, 1.50000000000000000000e+03) (293, 1.50000000000000000000e+03) (294, 1.50000000000000000000e+03) (295, 1.50000000000000000000e+03) (296, 1.50000000000000000000e+03) (297, 1.50000000000000000000e+03) (298, 1.50000000000000000000e+03) (299, 1.50000000000000000000e+03) (300, 1.50000000000000000000e+03) (301, 1.50000000000000000000e+03) (302, 1.50000000000000000000e+03) (303, 1.50000000000000000000e+03) (304, 1.50000000000000000000e+03) (305, 1.50000000000000000000e+03) (306, 1.50000000000000000000e+03) (307, 1.50000000000000000000e+03) (308, 1.50000000000000000000e+03) (309, 1.50000000000000000000e+03) (310, 1.50000000000000000000e+03) (311, 1.50000000000000000000e+03) (312, 1.50000000000000000000e+03) (313, 1.50000000000000000000e+03) (314, 1.50000000000000000000e+03) (315, 1.02114534378051757812e+00) (316, 8.32155823707580566406e-01) (317, 3.43393623828887939453e-01) (318, 1.89894807338714599609e+00) (319, 2.71423649787902832031e+00) (320, 1.49999987792968750000e+03) (321, 1.50000000000000000000e+03) (322, 1.50000000000000000000e+03) (323, 1.50000000000000000000e+03) (324, 1.50000000000000000000e+03) (325, 1.50000000000000000000e+03) (326, 1.50000000000000000000e+03) (327, 1.50000000000000000000e+03) (328, 1.50000000000000000000e+03) (329, 1.50000000000000000000e+03) (330, 1.50000000000000000000e+03) (331, 1.50000000000000000000e+03) (332, 1.50000000000000000000e+03) (333, 1.50000000000000000000e+03) (334, 1.50000000000000000000e+03) (335, 1.50000000000000000000e+03) (336, 1.50000000000000000000e+03) (337, 1.50000000000000000000e+03) (338, 1.50000000000000000000e+03) (339, 1.50000000000000000000e+03) (340, 1.50000000000000000000e+03) (341, 1.50000000000000000000e+03) (342, 1.50000000000000000000e+03) (343, 1.50000000000000000000e+03) (344, 1.50000000000000000000e+03) (345, 1.50000000000000000000e+03) (346, 3.33867907524108886719e-01) (347, -2.43063062429428100586e-01) (348, -1.32895684242248535156e+00) (349, 2.71583271026611328125e+00) (350, 1.49999987792968750000e+03) (351, 1.50000000000000000000e+03) (352, 1.50000000000000000000e+03) (353, 1.50000000000000000000e+03) (354, 1.50000000000000000000e+03) (355, 1.50000000000000000000e+03) (356, 1.50000000000000000000e+03) (357, 1.50000000000000000000e+03) (358, 1.50000000000000000000e+03) (359, 1.50000000000000000000e+03) (360, 1.50000000000000000000e+03) (361, 1.50000000000000000000e+03) (362, 1.50000000000000000000e+03) (363, 1.50000000000000000000e+03) (364, 1.50000000000000000000e+03) (365, 1.50000000000000000000e+03) (366, 1.50000000000000000000e+03) (367, 1.50000000000000000000e+03) (368, 1.50000000000000000000e+03) (369, 1.50000000000000000000e+03) (370, 1.50000000000000000000e+03) (371, 1.50000000000000000000e+03) (372, 1.50000000000000000000e+03) (373, 1.50000000000000000000e+03) (374, 1.50000000000000000000e+03) (375, 1.50000000000000000000e+03) (376, 1.50000000000000000000e+03) (377, 1.49999987792968750000e+03) (378, 1.49999987792968750000e+03) (379, 1.49999987792968750000e+03) (380, 1.49999975585937500000e+03) (381, 1.50000000000000000000e+03) (382, 1.50000000000000000000e+03) (383, 1.50000000000000000000e+03) (384, 1.50000000000000000000e+03) (385, 1.50000000000000000000e+03) (386, 1.50000000000000000000e+03) (387, 1.50000000000000000000e+03) (388, 1.50000000000000000000e+03) (389, 1.50000000000000000000e+03) (390, 1.50000000000000000000e+03) (391, 1.50000000000000000000e+03) (392, 1.50000000000000000000e+03) (393, 1.50000000000000000000e+03) (394, 1.50000000000000000000e+03) (395, 1.49999621582031250000e+03) (396, 1.50000000000000000000e+03) (397, 1.50000000000000000000e+03) (398, 1.50000000000000000000e+03) (399, 1.50000000000000000000e+03) (400, 1.50000000000000000000e+03) (401, 1.50000000000000000000e+03) (402, 1.50000000000000000000e+03) (403, 1.50000000000000000000e+03) (404, 1.50000000000000000000e+03) (405, 1.50000000000000000000e+03) (406, 1.50000000000000000000e+03) (407, 1.50000000000000000000e+03) (408, 1.50000000000000000000e+03) (409, 1.49999987792968750000e+03) (410, 1.49999804687500000000e+03) (411, 1.49999755859375000000e+03) (412, 1.49999145507812500000e+03) (413, 1.49999560546875000000e+03) (414, 1.49998181152343750000e+03) (415, 1.50000000000000000000e+03) (416, 6.55374938964843750000e+02) (417, 1.50000000000000000000e+03) (418, 1.50000000000000000000e+03) (419, 1.50000000000000000000e+03) (420, 4.47418746948242187500e+01) (421, 2.90622558593750000000e+02) (422, 1.50000000000000000000e+03) (423, 1.49669287109375000000e+03) (424, 1.45566699218750000000e+03) (425, 1.46076123046875000000e+03) (426, 1.50000000000000000000e+03) (427, 1.50000000000000000000e+03) (428, 1.50000000000000000000e+03) (429, 1.50000000000000000000e+03) (430, 1.50000000000000000000e+03) (431, 1.50000000000000000000e+03) (432, 1.50000000000000000000e+03) (433, 1.50000000000000000000e+03) (434, 1.50000000000000000000e+03) (435, 1.50000000000000000000e+03) (436, 1.50000000000000000000e+03) (437, 1.50000000000000000000e+03) (438, 1.50000000000000000000e+03) (439, 1.50000000000000000000e+03) (440, 1.49999987792968750000e+03) (441, 1.49999670410156250000e+03) (442, 2.70683441162109375000e+02) (443, 6.86875641345977783203e-01) (444, -1.43840051269531250000e+03) (445, -1.50000000000000000000e+03) (446, -1.49697717285156250000e+03) (447, -1.48927380371093750000e+03) (448, 3.51312988281250000000e+02) (449, 2.31701217651367187500e+02) (450, 9.71907958984375000000e+01) (451, 1.50000000000000000000e+03) (452, 1.50000000000000000000e+03) (453, 1.50000000000000000000e+03) (454, 1.50000000000000000000e+03) (455, 1.49272253417968750000e+03) (456, 1.50000000000000000000e+03) (457, 1.50000000000000000000e+03) (458, 1.50000000000000000000e+03) (459, 1.50000000000000000000e+03) (460, 1.50000000000000000000e+03) (461, 1.50000000000000000000e+03) (462, 1.50000000000000000000e+03) (463, 1.50000000000000000000e+03) (464, 1.50000000000000000000e+03) (465, 1.50000000000000000000e+03) (466, 1.50000000000000000000e+03) (467, 1.50000000000000000000e+03) (468, 1.50000000000000000000e+03) (469, 1.50000000000000000000e+03) (470, 1.49999987792968750000e+03) (471, 1.49999255371093750000e+03) (472, -1.41204162597656250000e+03) (473, -1.50000000000000000000e+03) (474, -1.50000000000000000000e+03) (475, -1.49999841308593750000e+03) (476, -1.48234973144531250000e+03) (477, -1.46184741210937500000e+03) (478, -1.38291723632812500000e+03) (479, 1.29861862182617187500e+02) (480, 1.50000000000000000000e+03) (481, 1.50000000000000000000e+03) (482, 1.50000000000000000000e+03) (483, 1.50000000000000000000e+03) (484, 1.50000000000000000000e+03) (485, 1.50000000000000000000e+03) (486, 1.50000000000000000000e+03) (487, 1.50000000000000000000e+03) (488, 1.50000000000000000000e+03) (489, 1.50000000000000000000e+03) (490, 1.50000000000000000000e+03) (491, 1.50000000000000000000e+03) (492, 1.50000000000000000000e+03) (493, 1.50000000000000000000e+03) (494, 1.50000000000000000000e+03) (495, 1.50000000000000000000e+03) (496, 1.50000000000000000000e+03) (497, 1.50000000000000000000e+03) (498, 1.50000000000000000000e+03) (499, 1.50000000000000000000e+03) (500, 1.49999987792968750000e+03) (501, 1.49999230957031250000e+03) (502, -1.41968957519531250000e+03) (503, -1.50000000000000000000e+03) (504, -1.50000000000000000000e+03) (505, -1.49806372070312500000e+03) (506, -1.44341857910156250000e+03) (507, -1.49955895996093750000e+03) (508, -2.20257492065429687500e+02) (509, 6.75464965820312500000e+02) (510, 1.50000000000000000000e+03) (511, 1.50000000000000000000e+03) (512, 1.50000000000000000000e+03) (513, 1.50000000000000000000e+03) (514, 1.50000000000000000000e+03) (515, 1.50000000000000000000e+03) (516, 1.50000000000000000000e+03) (517, 1.50000000000000000000e+03) (518, 1.50000000000000000000e+03) (519, 1.50000000000000000000e+03) (520, 1.50000000000000000000e+03) (521, 1.50000000000000000000e+03) (522, 1.50000000000000000000e+03) (523, 1.50000000000000000000e+03) (524, 1.50000000000000000000e+03) (525, 1.50000000000000000000e+03) (526, 1.50000000000000000000e+03) (527, 1.50000000000000000000e+03) (528, 1.50000000000000000000e+03) (529, 1.50000000000000000000e+03) (530, 1.49999987792968750000e+03) (531, 1.49992773437500000000e+03) (532, 1.49984436035156250000e+03) (533, 9.33698806762695312500e+01) (534, -1.49806054687500000000e+03) (535, -1.48148522949218750000e+03) (536, -1.07767480468750000000e+03) (537, -8.22884559631347656250e+00) (538, 1.50000000000000000000e+03) (539, 1.50000000000000000000e+03) (540, 1.50000000000000000000e+03) (541, 1.50000000000000000000e+03) (542, 1.50000000000000000000e+03) (543, 1.50000000000000000000e+03) (544, 1.50000000000000000000e+03) (545, 1.50000000000000000000e+03) (546, 1.50000000000000000000e+03) (547, 1.50000000000000000000e+03) (548, 1.50000000000000000000e+03) (549, 1.50000000000000000000e+03) (550, 1.50000000000000000000e+03) (551, 1.50000000000000000000e+03) (552, 1.50000000000000000000e+03) (553, 1.50000000000000000000e+03) (554, 1.50000000000000000000e+03) (555, 1.50000000000000000000e+03) (556, 1.50000000000000000000e+03) (557, 1.50000000000000000000e+03) (558, 1.50000000000000000000e+03) (559, 1.50000000000000000000e+03) (560, 1.50000000000000000000e+03) (561, 1.50000000000000000000e+03) (562, 1.49999279785156250000e+03) (563, 9.14361328125000000000e+02) (564, 3.29728102684020996094e+00) (565, 8.65104317665100097656e-01) (566, 1.50000000000000000000e+03) (567, 1.50000000000000000000e+03) (568, 1.50000000000000000000e+03) (569, 1.50000000000000000000e+03) (570, 1.50000000000000000000e+03) (571, 1.50000000000000000000e+03) (572, 1.50000000000000000000e+03) (573, 1.50000000000000000000e+03) (574, 1.50000000000000000000e+03) (575, 1.50000000000000000000e+03) (576, 1.50000000000000000000e+03) (577, 1.50000000000000000000e+03) (578, 1.50000000000000000000e+03) (579, 1.50000000000000000000e+03) (580, 1.50000000000000000000e+03) (581, 1.50000000000000000000e+03) (582, 1.50000000000000000000e+03) (583, 1.50000000000000000000e+03) (584, 1.50000000000000000000e+03) (585, 1.50000000000000000000e+03) (586, 1.50000000000000000000e+03) (587, 1.50000000000000000000e+03) (588, 1.50000000000000000000e+03) (589, 1.50000000000000000000e+03) (590, 1.50000000000000000000e+03) (591, 1.50000000000000000000e+03) (592, 1.50000000000000000000e+03) (593, 1.49999914550781250000e+03) (594, 2.47257080078125000000e+02) (595, 3.01103744506835937500e+01) (596, 1.50000000000000000000e+03) (597, 1.50000000000000000000e+03) (598, 1.50000000000000000000e+03) (599, 1.50000000000000000000e+03) (600, 1.50000000000000000000e+03) (601, 1.50000000000000000000e+03) (602, 1.50000000000000000000e+03) (603, 1.50000000000000000000e+03) (604, 1.50000000000000000000e+03) (605, 1.50000000000000000000e+03) (606, 1.50000000000000000000e+03) (607, 1.50000000000000000000e+03) (608, 1.50000000000000000000e+03) (609, 1.50000000000000000000e+03) (610, 1.50000000000000000000e+03) (611, 1.50000000000000000000e+03) (612, 1.50000000000000000000e+03) (613, 1.50000000000000000000e+03) (614, 1.50000000000000000000e+03) (615, 1.50000000000000000000e+03) (616, 1.50000000000000000000e+03) (617, 1.50000000000000000000e+03) (618, 1.50000000000000000000e+03) (619, 1.50000000000000000000e+03) (620, 1.50000000000000000000e+03) (621, 1.50000000000000000000e+03) (622, 1.50000000000000000000e+03) (623, 1.50000000000000000000e+03) (624, 1.50000000000000000000e+03) (625, 1.50000000000000000000e+03) (626, 1.50000000000000000000e+03) (627, 1.50000000000000000000e+03) (628, 1.50000000000000000000e+03) (629, 1.50000000000000000000e+03) (630, 1.50000000000000000000e+03) (631, 1.50000000000000000000e+03) (632, 1.50000000000000000000e+03) (633, 1.50000000000000000000e+03) (634, 1.50000000000000000000e+03) (635, 1.50000000000000000000e+03) (636, 1.50000000000000000000e+03) (637, 1.50000000000000000000e+03) (638, 1.50000000000000000000e+03) (639, 1.50000000000000000000e+03) (640, 1.50000000000000000000e+03) (641, 1.50000000000000000000e+03) (642, 1.50000000000000000000e+03) (643, 1.50000000000000000000e+03) (644, 1.50000000000000000000e+03) (645, 1.50000000000000000000e+03) (646, 1.50000000000000000000e+03) (647, 1.50000000000000000000e+03) (648, 1.50000000000000000000e+03) (649, 1.50000000000000000000e+03) (650, 1.50000000000000000000e+03) (651, 1.50000000000000000000e+03) (652, 1.50000000000000000000e+03) (653, 1.50000000000000000000e+03) (654, 1.50000000000000000000e+03) (655, 1.50000000000000000000e+03) (656, 1.50000000000000000000e+03) (657, 1.50000000000000000000e+03) (658, 1.50000000000000000000e+03) (659, 1.50000000000000000000e+03) (660, 1.50000000000000000000e+03) (661, 1.50000000000000000000e+03) (662, 1.50000000000000000000e+03) (663, 1.50000000000000000000e+03) (664, 1.50000000000000000000e+03) (665, 1.50000000000000000000e+03) (666, 1.50000000000000000000e+03) (667, 1.50000000000000000000e+03) (668, 1.50000000000000000000e+03) (669, 1.50000000000000000000e+03) (670, 1.50000000000000000000e+03) (671, 1.50000000000000000000e+03) (672, 1.69073928833007812500e+02) (673, 2.12787208557128906250e+01) (674, 2.32545299530029296875e+01) (675, 1.50000000000000000000e+03) (676, 1.50000000000000000000e+03) (677, 1.50000000000000000000e+03) (678, 1.50000000000000000000e+03) (679, 1.50000000000000000000e+03) (680, 1.50000000000000000000e+03) (681, 1.50000000000000000000e+03) (682, 1.50000000000000000000e+03) (683, 1.50000000000000000000e+03) (684, 1.50000000000000000000e+03) (685, 1.50000000000000000000e+03) (686, 1.50000000000000000000e+03) (687, 1.50000000000000000000e+03) (688, 1.50000000000000000000e+03) (689, 1.50000000000000000000e+03) (690, 1.50000000000000000000e+03) (691, 1.50000000000000000000e+03) (692, 1.50000000000000000000e+03) (693, 1.50000000000000000000e+03) (694, 1.50000000000000000000e+03) (695, 1.50000000000000000000e+03) (696, 1.50000000000000000000e+03) (697, 1.50000000000000000000e+03) (698, 1.50000000000000000000e+03) (699, 1.50000000000000000000e+03) (700, 1.50000000000000000000e+03) (701, 1.50000000000000000000e+03) (702, 1.23269710540771484375e+01) (703, 1.18903532028198242188e+01) (704, 1.24200572967529296875e+01) (705, 2.75927600860595703125e+01) (706, 1.50000000000000000000e+03) (707, 1.50000000000000000000e+03) (708, 1.50000000000000000000e+03) (709, 1.50000000000000000000e+03) (710, 1.50000000000000000000e+03) (711, 1.50000000000000000000e+03) (712, 1.50000000000000000000e+03) (713, 1.50000000000000000000e+03) (714, 1.50000000000000000000e+03) (715, 1.50000000000000000000e+03) (716, 1.50000000000000000000e+03) (717, 1.50000000000000000000e+03) (718, 1.50000000000000000000e+03) (719, 1.50000000000000000000e+03) (720, 1.50000000000000000000e+03) (721, 1.50000000000000000000e+03) (722, 1.50000000000000000000e+03) (723, 1.50000000000000000000e+03) (724, 1.50000000000000000000e+03) (725, 1.50000000000000000000e+03) (726, 1.50000000000000000000e+03) (727, 1.50000000000000000000e+03) (728, 1.50000000000000000000e+03) (729, 1.50000000000000000000e+03) (730, 1.50000000000000000000e+03) (731, 1.50000000000000000000e+03) (732, 1.28382539749145507812e+01) (733, 8.57207965850830078125e+00) (734, 8.56217861175537109375e+00) (735, 1.23754768371582031250e+01) (736, 3.86852302551269531250e+01) (737, 1.49910888671875000000e+03) (738, 1.49999987792968750000e+03) (739, 1.50000000000000000000e+03) (740, 1.50000000000000000000e+03) (741, 1.50000000000000000000e+03) (742, 1.50000000000000000000e+03) (743, 1.50000000000000000000e+03) (744, 1.50000000000000000000e+03) (745, 1.50000000000000000000e+03) (746, 1.48777807617187500000e+03) (747, 1.49999975585937500000e+03) (748, 1.50000000000000000000e+03) (749, 1.50000000000000000000e+03) (750, 1.49999975585937500000e+03) (751, 1.49999829101562500000e+03) (752, 1.49999670410156250000e+03) (753, 1.49999902343750000000e+03) (754, 1.48789099121093750000e+03) (755, 1.50000000000000000000e+03) (756, 1.50000000000000000000e+03) (757, 1.50000000000000000000e+03) (758, 1.50000000000000000000e+03) (759, 1.50000000000000000000e+03) (760, 1.50000000000000000000e+03) (761, 2.03619194030761718750e+01) (762, 4.55880832672119140625e+00) (763, 2.27904701232910156250e+00) (764, -3.19426012039184570312e+00) (765, 1.92216300964355468750e+00) (766, 3.48322820663452148438e+00) (767, 3.30952148437500000000e+01) (768, 1.49476208496093750000e+03) (769, 1.49999987792968750000e+03) (770, 1.50000000000000000000e+03) (771, 1.50000000000000000000e+03) (772, 1.50000000000000000000e+03) (773, 1.50000000000000000000e+03) (774, 1.50000000000000000000e+03) (775, 1.50000000000000000000e+03) (776, 1.50000000000000000000e+03) (777, 1.49998889160156250000e+03) (778, 1.49998925781250000000e+03) (779, 1.50000000000000000000e+03) (780, 1.49999975585937500000e+03) (781, 1.49999829101562500000e+03) (782, 1.49999291992187500000e+03) (783, 1.49999145507812500000e+03) (784, 1.49999768066406250000e+03) (785, 1.50000000000000000000e+03) (786, 1.50000000000000000000e+03) (787, 1.50000000000000000000e+03) (788, 1.50000000000000000000e+03) (789, 1.50000000000000000000e+03) (790, 1.67579793930053710938e+00) (791, -3.27107399702072143555e-01) (792, -1.49998583984375000000e+03) (793, -1.43435864257812500000e+03) (794, -1.49947216796875000000e+03) (795, -1.49937524414062500000e+03) (796, -1.45726928710937500000e+03) (797, -1.41127136230468750000e+03) (798, -1.35515701770782470703e+00) (799, 1.44112515449523925781e+00) (800, 2.54106354713439941406e+00) (801, 1.50000000000000000000e+03) (802, 1.50000000000000000000e+03) (803, 1.50000000000000000000e+03) (804, 1.50000000000000000000e+03) (805, 1.50000000000000000000e+03) (806, 1.50000000000000000000e+03) (807, 1.50000000000000000000e+03) (808, 1.50000000000000000000e+03) (809, 1.50000000000000000000e+03) (810, 1.49999975585937500000e+03) (811, 1.49999902343750000000e+03) (812, 1.49999145507812500000e+03) (813, 1.49999487304687500000e+03) (814, 1.49999755859375000000e+03) (815, 1.49914562988281250000e+03) (816, 1.50000000000000000000e+03) (817, 1.50000000000000000000e+03) (818, 1.50000000000000000000e+03) (819, 1.50000000000000000000e+03) (820, -1.28079980468750000000e+03) (821, -1.49994189453125000000e+03) (822, -1.48370324707031250000e+03) (823, -1.47063903808593750000e+03) (824, -1.49942309570312500000e+03) (825, -1.49360180664062500000e+03) (826, -1.50000000000000000000e+03) (827, -1.50000000000000000000e+03) (828, -7.22919607162475585938e+00) (829, -5.10559310913085937500e+01) (830, -4.93012771606445312500e+01) (831, 6.32029190063476562500e+01) (832, 1.50000000000000000000e+03) (833, 1.50000000000000000000e+03) (834, 1.50000000000000000000e+03) (835, 1.50000000000000000000e+03) (836, 1.50000000000000000000e+03) (837, 1.50000000000000000000e+03) (838, 1.50000000000000000000e+03) (839, 1.50000000000000000000e+03) (840, 1.49999853515625000000e+03) (841, 1.50000000000000000000e+03) (842, 1.49999914550781250000e+03) (843, 1.49999523925781250000e+03) (844, 1.49999841308593750000e+03) (845, 1.49999230957031250000e+03) (846, 1.49999938964843750000e+03) (847, 1.49999987792968750000e+03) (848, 1.50000000000000000000e+03) (849, 3.33978042602539062500e+01) (850, -7.33552062988281250000e+02) (851, -1.03378491210937500000e+03) (852, -2.02716445922851562500e+02) (853, -1.48624658203125000000e+03) (854, -1.48629846191406250000e+03) (855, -3.92217099666595458984e-01) (856, 4.44304466247558593750e-01) (857, 6.69277250766754150391e-01) (858, 7.45728194713592529297e-01) (859, 1.39267134666442871094e+00) (860, 8.91842555999755859375e+00) (861, 1.50000000000000000000e+03) (862, 1.50000000000000000000e+03) (863, 1.50000000000000000000e+03) (864, 1.50000000000000000000e+03) (865, 1.50000000000000000000e+03) (866, 1.50000000000000000000e+03) (867, 1.50000000000000000000e+03) (868, 1.50000000000000000000e+03) (869, 1.50000000000000000000e+03) (870, 1.50000000000000000000e+03) (871, 1.50000000000000000000e+03) (872, 1.49999914550781250000e+03) (873, 1.49999914550781250000e+03) (874, 1.49999914550781250000e+03) (875, 1.49999914550781250000e+03) (876, 1.49999914550781250000e+03) (877, 1.49999987792968750000e+03) (878, 1.49999987792968750000e+03) (879, 1.55049957275390625000e+02) (880, -1.19251191616058349609e+00) (881, 1.29416929557919502258e-02) (882, 5.36200332641601562500e+00) (883, 2.24368453025817871094e+00) (884, 9.02857017517089843750e+00) (885, 1.75477081298828125000e+02) (886, 1.50000000000000000000e+03) (887, 1.50000000000000000000e+03) (888, 1.50000000000000000000e+03) (889, 1.50000000000000000000e+03) (890, 1.50000000000000000000e+03) (891, 1.50000000000000000000e+03) (892, 1.50000000000000000000e+03) (893, 1.50000000000000000000e+03) (894, 1.50000000000000000000e+03) (895, 1.50000000000000000000e+03) (896, 1.50000000000000000000e+03) (897, 1.50000000000000000000e+03) (898, 1.50000000000000000000e+03) (899, 1.50000000000000000000e+03) (900, 1.50000000000000000000e+03) (0, 1.50000000000000000000e+03) (1, 1.50000000000000000000e+03) (2, 1.50000000000000000000e+03) (3, 1.50000000000000000000e+03) (4, 1.50000000000000000000e+03) (5, 1.50000000000000000000e+03) (6, 1.50000000000000000000e+03) (7, 1.50000000000000000000e+03) (8, 1.50000000000000000000e+03) (9, 1.50000000000000000000e+03) (10, 1.50000000000000000000e+03) (11, 1.50000000000000000000e+03) (12, 1.50000000000000000000e+03) (13, 1.50000000000000000000e+03) (14, 1.50000000000000000000e+03) (15, 1.50000000000000000000e+03) (16, 1.50000000000000000000e+03) (17, 1.50000000000000000000e+03) (18, 1.50000000000000000000e+03) (19, 1.50000000000000000000e+03) (20, 1.50000000000000000000e+03) (21, 1.50000000000000000000e+03) (22, 1.50000000000000000000e+03) (23, 1.50000000000000000000e+03) (24, 1.50000000000000000000e+03) (25, 1.50000000000000000000e+03) (26, 1.50000000000000000000e+03) (27, 1.50000000000000000000e+03) (28, 1.50000000000000000000e+03) (29, 1.50000000000000000000e+03) (30, 1.50000000000000000000e+03) (31, 1.50000000000000000000e+03) (32, 1.50000000000000000000e+03) (33, 1.50000000000000000000e+03) (34, 1.50000000000000000000e+03) (35, 1.50000000000000000000e+03) (36, 1.50000000000000000000e+03) (37, 1.50000000000000000000e+03) (38, 1.50000000000000000000e+03) (39, 1.50000000000000000000e+03) (40, 1.50000000000000000000e+03) (41, 1.50000000000000000000e+03) (42, 1.50000000000000000000e+03) (43, 1.50000000000000000000e+03) (44, 1.50000000000000000000e+03) (45, 1.50000000000000000000e+03) (46, 1.50000000000000000000e+03) (47, 1.50000000000000000000e+03) (48, 1.50000000000000000000e+03) (49, 1.50000000000000000000e+03) (50, 1.50000000000000000000e+03) (51, 1.50000000000000000000e+03) (52, 1.49999987792968750000e+03) (53, 1.49999816894531250000e+03) (54, 1.49999853515625000000e+03) (55, 1.49999975585937500000e+03) (56, 1.50000000000000000000e+03) (57, 1.50000000000000000000e+03) (58, 1.50000000000000000000e+03) (59, 1.50000000000000000000e+03) (60, 1.50000000000000000000e+03) (61, 1.50000000000000000000e+03) (62, 1.50000000000000000000e+03) (63, 1.50000000000000000000e+03) (64, 1.49999963378906250000e+03) (65, 1.49999792480468750000e+03) (66, 1.50000000000000000000e+03) (67, 1.50000000000000000000e+03) (68, 1.50000000000000000000e+03) (69, 1.50000000000000000000e+03) (70, 1.50000000000000000000e+03) (71, 1.50000000000000000000e+03) (72, 1.50000000000000000000e+03) (73, 1.50000000000000000000e+03) (74, 1.50000000000000000000e+03) (75, 1.50000000000000000000e+03) (76, 1.50000000000000000000e+03) (77, 1.50000000000000000000e+03) (78, 1.50000000000000000000e+03) (79, 1.50000000000000000000e+03) (80, 1.50000000000000000000e+03) (81, 1.50000000000000000000e+03) (82, 1.50000000000000000000e+03) (83, 1.49996875000000000000e+03) (84, 1.49995373535156250000e+03) (85, 1.49998913574218750000e+03) (86, 1.49999218750000000000e+03) (87, 1.49999975585937500000e+03) (88, 1.50000000000000000000e+03) (89, 1.50000000000000000000e+03) (90, 1.50000000000000000000e+03) (91, 1.50000000000000000000e+03) (92, 1.49999780273437500000e+03) (93, 1.49999121093750000000e+03) (94, 1.49996008300781250000e+03) (95, 1.49995776367187500000e+03) (96, 1.49999633789062500000e+03) (97, 1.50000000000000000000e+03) (98, 1.50000000000000000000e+03) (99, 1.50000000000000000000e+03) (100, 1.50000000000000000000e+03) (101, 1.50000000000000000000e+03) (102, 1.50000000000000000000e+03) (103, 1.50000000000000000000e+03) (104, 1.50000000000000000000e+03) (105, 1.50000000000000000000e+03) (106, 1.50000000000000000000e+03) (107, 1.50000000000000000000e+03) (108, 1.50000000000000000000e+03) (109, 1.50000000000000000000e+03) (110, 1.50000000000000000000e+03) (111, 1.50000000000000000000e+03) (112, 1.50000000000000000000e+03) (113, 1.49999914550781250000e+03) (114, 1.49997912597656250000e+03) (115, 1.49999365234375000000e+03) (116, 1.49999377441406250000e+03) (117, 1.49999975585937500000e+03) (118, 1.50000000000000000000e+03) (119, 1.50000000000000000000e+03) (120, 1.50000000000000000000e+03) (121, 1.49999719238281250000e+03) (122, 1.49998315429687500000e+03) (123, 1.49982629394531250000e+03) (124, 1.49978247070312500000e+03) (125, 1.49998352050781250000e+03) (126, 1.50000000000000000000e+03) (127, 1.50000000000000000000e+03) (128, 1.50000000000000000000e+03) (129, 1.50000000000000000000e+03) (130, 1.50000000000000000000e+03) (131, 1.50000000000000000000e+03) (132, 1.50000000000000000000e+03) (133, 1.50000000000000000000e+03) (134, 1.50000000000000000000e+03) (135, 1.50000000000000000000e+03) (136, 1.50000000000000000000e+03) (137, 1.50000000000000000000e+03) (138, 1.50000000000000000000e+03) (139, 1.50000000000000000000e+03) (140, 1.50000000000000000000e+03) (141, 1.50000000000000000000e+03) (142, 1.50000000000000000000e+03) (143, 1.50000000000000000000e+03) (144, 1.50000000000000000000e+03) (145, 1.50000000000000000000e+03) (146, 1.50000000000000000000e+03) (147, 1.50000000000000000000e+03) (148, 1.50000000000000000000e+03) (149, 1.50000000000000000000e+03) (150, 1.50000000000000000000e+03) (151, 1.49999560546875000000e+03) (152, 1.49995898437500000000e+03) (153, 1.42168530273437500000e+03) (154, 1.49995471191406250000e+03) (155, 1.49999853515625000000e+03) (156, 1.50000000000000000000e+03) (157, 1.50000000000000000000e+03) (158, 1.50000000000000000000e+03) (159, 1.50000000000000000000e+03) (160, 1.50000000000000000000e+03) (161, 1.50000000000000000000e+03) (162, 1.50000000000000000000e+03) (163, 1.50000000000000000000e+03) (164, 1.50000000000000000000e+03) (165, 1.50000000000000000000e+03) (166, 8.80472595214843750000e+02) (167, 4.69338897705078125000e+02) (168, 1.50000000000000000000e+03) (169, 1.50000000000000000000e+03) (170, 1.50000000000000000000e+03) (171, 1.50000000000000000000e+03) (172, 1.50000000000000000000e+03) (173, 1.50000000000000000000e+03) (174, 1.50000000000000000000e+03) (175, 1.50000000000000000000e+03) (176, 1.50000000000000000000e+03) (177, 1.50000000000000000000e+03) (178, 1.50000000000000000000e+03) (179, 1.50000000000000000000e+03) (180, 1.50000000000000000000e+03) (181, 1.49999719238281250000e+03) (182, 1.49996740722656250000e+03) (183, 1.49971459960937500000e+03) (184, 1.49999523925781250000e+03) (185, 1.50000000000000000000e+03) (186, 1.50000000000000000000e+03) (187, 1.50000000000000000000e+03) (188, 1.50000000000000000000e+03) (189, 1.50000000000000000000e+03) (190, 1.50000000000000000000e+03) (191, 1.50000000000000000000e+03) (192, 1.50000000000000000000e+03) (193, 1.50000000000000000000e+03) (194, 1.50000000000000000000e+03) (195, 9.76607608795166015625e+00) (196, 6.51240634918212890625e+00) (197, 6.93176937103271484375e+00) (198, 1.50000000000000000000e+03) (199, 1.50000000000000000000e+03) (200, 1.50000000000000000000e+03) (201, 1.50000000000000000000e+03) (202, 1.50000000000000000000e+03) (203, 1.50000000000000000000e+03) (204, 1.50000000000000000000e+03) (205, 1.50000000000000000000e+03) (206, 1.50000000000000000000e+03) (207, 1.50000000000000000000e+03) (208, 1.50000000000000000000e+03) (209, 1.50000000000000000000e+03) (210, 1.50000000000000000000e+03) (211, 1.49999926757812500000e+03) (212, 1.49999511718750000000e+03) (213, 1.49999487304687500000e+03) (214, 1.50000000000000000000e+03) (215, 1.50000000000000000000e+03) (216, 1.50000000000000000000e+03) (217, 1.50000000000000000000e+03) (218, 1.50000000000000000000e+03) (219, 1.50000000000000000000e+03) (220, 1.50000000000000000000e+03) (221, 1.50000000000000000000e+03) (222, 1.50000000000000000000e+03) (223, 1.50000000000000000000e+03) (224, 1.50000000000000000000e+03) (225, 7.30692005157470703125e+00) (226, 4.97045707702636718750e+00) (227, 5.99216127395629882812e+00) (228, 1.50000000000000000000e+03) (229, 1.50000000000000000000e+03) (230, 1.50000000000000000000e+03) (231, 1.50000000000000000000e+03) (232, 1.50000000000000000000e+03) (233, 1.50000000000000000000e+03) (234, 1.50000000000000000000e+03) (235, 1.50000000000000000000e+03) (236, 1.50000000000000000000e+03) (237, 1.50000000000000000000e+03) (238, 1.50000000000000000000e+03) (239, 1.50000000000000000000e+03) (240, 1.50000000000000000000e+03) (241, 1.50000000000000000000e+03) (242, 1.50000000000000000000e+03) (243, 1.50000000000000000000e+03) (244, 1.50000000000000000000e+03) (245, 1.50000000000000000000e+03) (246, 1.50000000000000000000e+03) (247, 1.50000000000000000000e+03) (248, 1.50000000000000000000e+03) (249, 1.50000000000000000000e+03) (250, 1.50000000000000000000e+03) (251, 1.50000000000000000000e+03) (252, 1.50000000000000000000e+03) (253, 1.50000000000000000000e+03) (254, 5.95018249511718750000e+02) (255, 3.94303178787231445312e+00) (256, 3.59283733367919921875e+00) (257, 2.15896248817443847656e+00) (258, 3.51040720939636230469e+00) (259, 1.50000000000000000000e+03) (260, 1.50000000000000000000e+03) (261, 1.50000000000000000000e+03) (262, 1.50000000000000000000e+03) (263, 1.50000000000000000000e+03) (264, 1.50000000000000000000e+03) (265, 1.50000000000000000000e+03) (266, 1.50000000000000000000e+03) (267, 1.50000000000000000000e+03) (268, 1.50000000000000000000e+03) (269, 1.50000000000000000000e+03) (270, 1.50000000000000000000e+03) (271, 1.50000000000000000000e+03) (272, 1.50000000000000000000e+03) (273, 1.50000000000000000000e+03) (274, 1.50000000000000000000e+03) (275, 1.50000000000000000000e+03) (276, 1.50000000000000000000e+03) (277, 1.50000000000000000000e+03) (278, 1.50000000000000000000e+03) (279, 1.50000000000000000000e+03) (280, 1.50000000000000000000e+03) (281, 1.50000000000000000000e+03) (282, 1.50000000000000000000e+03) (283, 1.50000000000000000000e+03) (284, 1.50000000000000000000e+03) (285, 3.44590187072753906250e+00) (286, 1.73899817466735839844e+00) (287, 1.06832420825958251953e+00) (288, 1.38790798187255859375e+00) (289, 1.14773149490356445312e+01) (290, 1.50000000000000000000e+03) (291, 1.50000000000000000000e+03) (292, 1.50000000000000000000e+03) (293, 1.50000000000000000000e+03) (294, 1.50000000000000000000e+03) (295, 1.50000000000000000000e+03) (296, 1.50000000000000000000e+03) (297, 1.50000000000000000000e+03) (298, 1.50000000000000000000e+03) (299, 1.50000000000000000000e+03) (300, 1.50000000000000000000e+03) (301, 1.50000000000000000000e+03) (302, 1.50000000000000000000e+03) (303, 1.50000000000000000000e+03) (304, 1.50000000000000000000e+03) (305, 1.50000000000000000000e+03) (306, 1.50000000000000000000e+03) (307, 1.50000000000000000000e+03) (308, 1.50000000000000000000e+03) (309, 1.50000000000000000000e+03) (310, 1.50000000000000000000e+03) (311, 1.50000000000000000000e+03) (312, 1.50000000000000000000e+03) (313, 1.50000000000000000000e+03) (314, 1.50000000000000000000e+03) (315, 3.26656603813171386719e+00) (316, 1.10032260417938232422e+00) (317, 7.33449101448059082031e-01) (318, 1.25022387504577636719e+00) (319, 5.49081182479858398438e+00) (320, 1.50000000000000000000e+03) (321, 1.50000000000000000000e+03) (322, 1.50000000000000000000e+03) (323, 1.50000000000000000000e+03) (324, 1.50000000000000000000e+03) (325, 1.50000000000000000000e+03) (326, 1.50000000000000000000e+03) (327, 1.50000000000000000000e+03) (328, 1.50000000000000000000e+03) (329, 1.50000000000000000000e+03) (330, 1.50000000000000000000e+03) (331, 1.50000000000000000000e+03) (332, 1.50000000000000000000e+03) (333, 1.50000000000000000000e+03) (334, 1.50000000000000000000e+03) (335, 1.50000000000000000000e+03) (336, 1.50000000000000000000e+03) (337, 1.50000000000000000000e+03) (338, 1.50000000000000000000e+03) (339, 1.50000000000000000000e+03) (340, 1.50000000000000000000e+03) (341, 1.50000000000000000000e+03) (342, 1.50000000000000000000e+03) (343, 1.50000000000000000000e+03) (344, 1.50000000000000000000e+03) (345, 1.50000000000000000000e+03) (346, 3.77580761909484863281e+00) (347, 1.54924058914184570312e+00) (348, 4.80873291015625000000e+02) (349, 1.50000000000000000000e+03) (350, 1.50000000000000000000e+03) (351, 1.50000000000000000000e+03) (352, 1.50000000000000000000e+03) (353, 1.50000000000000000000e+03) (354, 1.50000000000000000000e+03) (355, 1.50000000000000000000e+03) (356, 1.50000000000000000000e+03) (357, 1.50000000000000000000e+03) (358, 1.50000000000000000000e+03) (359, 1.50000000000000000000e+03) (360, 1.50000000000000000000e+03) (361, 1.50000000000000000000e+03) (362, 1.50000000000000000000e+03) (363, 1.50000000000000000000e+03) (364, 1.50000000000000000000e+03) (365, 1.50000000000000000000e+03) (366, 1.50000000000000000000e+03) (367, 1.50000000000000000000e+03) (368, 1.50000000000000000000e+03) (369, 1.50000000000000000000e+03) (370, 1.50000000000000000000e+03) (371, 1.50000000000000000000e+03) (372, 1.50000000000000000000e+03) (373, 1.50000000000000000000e+03) (374, 1.50000000000000000000e+03) (375, 1.50000000000000000000e+03) (376, 1.50000000000000000000e+03) (377, 1.50000000000000000000e+03) (378, 1.50000000000000000000e+03) (379, 1.50000000000000000000e+03) (380, 1.50000000000000000000e+03) (381, 1.50000000000000000000e+03) (382, 1.50000000000000000000e+03) (383, 1.50000000000000000000e+03) (384, 1.50000000000000000000e+03) (385, 1.50000000000000000000e+03) (386, 1.50000000000000000000e+03) (387, 1.50000000000000000000e+03) (388, 1.50000000000000000000e+03) (389, 1.50000000000000000000e+03) (390, 1.50000000000000000000e+03) (391, 1.50000000000000000000e+03) (392, 1.50000000000000000000e+03) (393, 1.50000000000000000000e+03) (394, 1.50000000000000000000e+03) (395, 1.50000000000000000000e+03) (396, 1.50000000000000000000e+03) (397, 1.50000000000000000000e+03) (398, 1.50000000000000000000e+03) (399, 1.50000000000000000000e+03) (400, 1.50000000000000000000e+03) (401, 1.50000000000000000000e+03) (402, 1.50000000000000000000e+03) (403, 1.50000000000000000000e+03) (404, 1.50000000000000000000e+03) (405, 1.50000000000000000000e+03) (406, 1.50000000000000000000e+03) (407, 1.50000000000000000000e+03) (408, 1.50000000000000000000e+03) (409, 1.50000000000000000000e+03) (410, 1.50000000000000000000e+03) (411, 1.49999963378906250000e+03) (412, 1.49999914550781250000e+03) (413, 1.50000000000000000000e+03) (414, 1.49999987792968750000e+03) (415, 1.50000000000000000000e+03) (416, 1.50000000000000000000e+03) (417, 1.50000000000000000000e+03) (418, 1.50000000000000000000e+03) (419, 1.50000000000000000000e+03) (420, 1.50000000000000000000e+03) (421, 1.50000000000000000000e+03) (422, 1.50000000000000000000e+03) (423, 1.50000000000000000000e+03) (424, 1.50000000000000000000e+03) (425, 1.50000000000000000000e+03) (426, 1.50000000000000000000e+03) (427, 1.50000000000000000000e+03) (428, 1.50000000000000000000e+03) (429, 1.50000000000000000000e+03) (430, 1.50000000000000000000e+03) (431, 1.50000000000000000000e+03) (432, 1.50000000000000000000e+03) (433, 1.50000000000000000000e+03) (434, 1.50000000000000000000e+03) (435, 1.50000000000000000000e+03) (436, 1.50000000000000000000e+03) (437, 1.50000000000000000000e+03) (438, 1.50000000000000000000e+03) (439, 1.50000000000000000000e+03) (440, 1.50000000000000000000e+03) (441, 1.50000000000000000000e+03) (442, 1.49999218750000000000e+03) (443, 6.82606994628906250000e+02) (444, -6.37378275394439697266e-01) (445, 1.43128979206085205078e+00) (446, -8.56082439422607421875e+00) (447, 6.29646682739257812500e+00) (448, 1.50000000000000000000e+03) (449, 1.50000000000000000000e+03) (450, 1.50000000000000000000e+03) (451, 1.50000000000000000000e+03) (452, 1.50000000000000000000e+03) (453, 1.50000000000000000000e+03) (454, 1.50000000000000000000e+03) (455, 1.50000000000000000000e+03) (456, 1.50000000000000000000e+03) (457, 1.50000000000000000000e+03) (458, 1.50000000000000000000e+03) (459, 1.50000000000000000000e+03) (460, 1.50000000000000000000e+03) (461, 1.50000000000000000000e+03) (462, 1.50000000000000000000e+03) (463, 1.50000000000000000000e+03) (464, 1.50000000000000000000e+03) (465, 1.50000000000000000000e+03) (466, 1.50000000000000000000e+03) (467, 1.50000000000000000000e+03) (468, 1.50000000000000000000e+03) (469, 1.50000000000000000000e+03) (470, 1.50000000000000000000e+03) (471, 1.49999829101562500000e+03) (472, 2.56922397613525390625e+01) (473, -1.50000000000000000000e+03) (474, -1.50000000000000000000e+03) (475, -1.42778540039062500000e+03) (476, -1.41680322265625000000e+03) (477, -1.41539807128906250000e+03) (478, 1.50000000000000000000e+03) (479, 1.50000000000000000000e+03) (480, 1.50000000000000000000e+03) (481, 1.50000000000000000000e+03) (482, 1.50000000000000000000e+03) (483, 1.50000000000000000000e+03) (484, 1.50000000000000000000e+03) (485, 1.50000000000000000000e+03) (486, 1.50000000000000000000e+03) (487, 1.50000000000000000000e+03) (488, 1.50000000000000000000e+03) (489, 1.50000000000000000000e+03) (490, 1.50000000000000000000e+03) (491, 1.50000000000000000000e+03) (492, 1.50000000000000000000e+03) (493, 1.50000000000000000000e+03) (494, 1.50000000000000000000e+03) (495, 1.50000000000000000000e+03) (496, 1.50000000000000000000e+03) (497, 1.50000000000000000000e+03) (498, 1.50000000000000000000e+03) (499, 1.50000000000000000000e+03) (500, 1.49999951171875000000e+03) (501, 1.49998071289062500000e+03) (502, -1.42444714355468750000e+03) (503, -1.50000000000000000000e+03) (504, -1.45823083496093750000e+03) (505, -1.49384729003906250000e+03) (506, -1.49886596679687500000e+03) (507, -1.46387133789062500000e+03) (508, 1.50000000000000000000e+03) (509, 1.50000000000000000000e+03) (510, 1.50000000000000000000e+03) (511, 1.50000000000000000000e+03) (512, 1.50000000000000000000e+03) (513, 1.50000000000000000000e+03) (514, 1.50000000000000000000e+03) (515, 1.50000000000000000000e+03) (516, 1.50000000000000000000e+03) (517, 1.50000000000000000000e+03) (518, 1.50000000000000000000e+03) (519, 1.50000000000000000000e+03) (520, 1.50000000000000000000e+03) (521, 1.50000000000000000000e+03) (522, 1.50000000000000000000e+03) (523, 1.50000000000000000000e+03) (524, 1.50000000000000000000e+03) (525, 1.50000000000000000000e+03) (526, 1.50000000000000000000e+03) (527, 1.50000000000000000000e+03) (528, 1.50000000000000000000e+03) (529, 1.50000000000000000000e+03) (530, 1.49999768066406250000e+03) (531, 1.49997741699218750000e+03) (532, 1.01265106201171875000e+01) (533, -1.49312451171875000000e+03) (534, -1.42089733886718750000e+03) (535, -2.25806072354316711426e-01) (536, 1.84469146728515625000e+01) (537, 1.50000000000000000000e+03) (538, 1.50000000000000000000e+03) (539, 1.50000000000000000000e+03) (540, 1.50000000000000000000e+03) (541, 1.50000000000000000000e+03) (542, 1.50000000000000000000e+03) (543, 1.50000000000000000000e+03) (544, 1.50000000000000000000e+03) (545, 1.50000000000000000000e+03) (546, 1.50000000000000000000e+03) (547, 1.50000000000000000000e+03) (548, 1.50000000000000000000e+03) (549, 1.50000000000000000000e+03) (550, 1.50000000000000000000e+03) (551, 1.50000000000000000000e+03) (552, 1.50000000000000000000e+03) (553, 1.50000000000000000000e+03) (554, 1.50000000000000000000e+03) (555, 1.50000000000000000000e+03) (556, 1.50000000000000000000e+03) (557, 1.50000000000000000000e+03) (558, 1.50000000000000000000e+03) (559, 1.50000000000000000000e+03) (560, 1.49999987792968750000e+03) (561, 1.49999890136718750000e+03) (562, 1.20992073059082031250e+02) (563, 1.45750398635864257812e+01) (564, 2.00831866264343261719e+00) (565, 9.02929604053497314453e-01) (566, 1.50000000000000000000e+03) (567, 1.50000000000000000000e+03) (568, 1.50000000000000000000e+03) (569, 1.50000000000000000000e+03) (570, 1.50000000000000000000e+03) (571, 1.50000000000000000000e+03) (572, 1.50000000000000000000e+03) (573, 1.50000000000000000000e+03) (574, 1.50000000000000000000e+03) (575, 1.50000000000000000000e+03) (576, 1.50000000000000000000e+03) (577, 1.50000000000000000000e+03) (578, 1.50000000000000000000e+03) (579, 1.50000000000000000000e+03) (580, 1.50000000000000000000e+03) (581, 1.50000000000000000000e+03) (582, 1.50000000000000000000e+03) (583, 1.50000000000000000000e+03) (584, 1.50000000000000000000e+03) (585, 1.50000000000000000000e+03) (586, 1.50000000000000000000e+03) (587, 1.50000000000000000000e+03) (588, 1.50000000000000000000e+03) (589, 1.50000000000000000000e+03) (590, 1.50000000000000000000e+03) (591, 1.50000000000000000000e+03) (592, 1.49999645996093750000e+03) (593, 7.50039062500000000000e+01) (594, 2.23228149414062500000e+01) (595, 4.68315601348876953125e+00) (596, 1.50000000000000000000e+03) (597, 1.50000000000000000000e+03) (598, 1.50000000000000000000e+03) (599, 1.50000000000000000000e+03) (600, 1.50000000000000000000e+03) (601, 1.50000000000000000000e+03) (602, 1.50000000000000000000e+03) (603, 1.50000000000000000000e+03) (604, 1.50000000000000000000e+03) (605, 1.50000000000000000000e+03) (606, 1.50000000000000000000e+03) (607, 1.50000000000000000000e+03) (608, 1.50000000000000000000e+03) (609, 1.50000000000000000000e+03) (610, 1.50000000000000000000e+03) (611, 1.50000000000000000000e+03) (612, 1.50000000000000000000e+03) (613, 1.50000000000000000000e+03) (614, 1.50000000000000000000e+03) (615, 1.50000000000000000000e+03) (616, 1.50000000000000000000e+03) (617, 1.50000000000000000000e+03) (618, 1.50000000000000000000e+03) (619, 1.50000000000000000000e+03) (620, 1.50000000000000000000e+03) (621, 1.50000000000000000000e+03) (622, 1.50000000000000000000e+03) (623, 1.50000000000000000000e+03) (624, 1.50000000000000000000e+03) (625, 1.50000000000000000000e+03) (626, 1.50000000000000000000e+03) (627, 1.50000000000000000000e+03) (628, 1.50000000000000000000e+03) (629, 1.50000000000000000000e+03) (630, 1.50000000000000000000e+03) (631, 1.50000000000000000000e+03) (632, 1.50000000000000000000e+03) (633, 1.50000000000000000000e+03) (634, 1.50000000000000000000e+03) (635, 1.50000000000000000000e+03) (636, 1.50000000000000000000e+03) (637, 1.50000000000000000000e+03) (638, 1.50000000000000000000e+03) (639, 1.50000000000000000000e+03) (640, 1.50000000000000000000e+03) (641, 1.50000000000000000000e+03) (642, 1.50000000000000000000e+03) (643, 1.50000000000000000000e+03) (644, 1.50000000000000000000e+03) (645, 1.50000000000000000000e+03) (646, 1.50000000000000000000e+03) (647, 1.50000000000000000000e+03) (648, 1.50000000000000000000e+03) (649, 1.50000000000000000000e+03) (650, 1.50000000000000000000e+03) (651, 1.50000000000000000000e+03) (652, 1.50000000000000000000e+03) (653, 1.50000000000000000000e+03) (654, 1.50000000000000000000e+03) (655, 1.50000000000000000000e+03) (656, 1.50000000000000000000e+03) (657, 1.50000000000000000000e+03) (658, 1.50000000000000000000e+03) (659, 1.50000000000000000000e+03) (660, 1.50000000000000000000e+03) (661, 1.50000000000000000000e+03) (662, 1.50000000000000000000e+03) (663, 1.50000000000000000000e+03) (664, 1.50000000000000000000e+03) (665, 1.50000000000000000000e+03) (666, 1.50000000000000000000e+03) (667, 1.50000000000000000000e+03) (668, 1.50000000000000000000e+03) (669, 1.50000000000000000000e+03) (670, 1.50000000000000000000e+03) (671, 1.50000000000000000000e+03) (672, 1.50000000000000000000e+03) (673, 1.50000000000000000000e+03) (674, 6.70548522949218750000e+02) (675, 1.50000000000000000000e+03) (676, 1.50000000000000000000e+03) (677, 1.50000000000000000000e+03) (678, 1.50000000000000000000e+03) (679, 1.50000000000000000000e+03) (680, 1.50000000000000000000e+03) (681, 1.50000000000000000000e+03) (682, 1.50000000000000000000e+03) (683, 1.50000000000000000000e+03) (684, 1.50000000000000000000e+03) (685, 1.50000000000000000000e+03) (686, 1.50000000000000000000e+03) (687, 1.50000000000000000000e+03) (688, 1.50000000000000000000e+03) (689, 1.50000000000000000000e+03) (690, 1.50000000000000000000e+03) (691, 1.50000000000000000000e+03) (692, 1.50000000000000000000e+03) (693, 1.50000000000000000000e+03) (694, 1.50000000000000000000e+03) (695, 1.50000000000000000000e+03) (696, 1.50000000000000000000e+03) (697, 1.50000000000000000000e+03) (698, 1.50000000000000000000e+03) (699, 1.50000000000000000000e+03) (700, 1.50000000000000000000e+03) (701, 1.50000000000000000000e+03) (702, 1.50000000000000000000e+03) (703, 6.17228240966796875000e+01) (704, 2.59298210144042968750e+01) (705, 8.59053192138671875000e+01) (706, 1.42261825561523437500e+02) (707, 1.50000000000000000000e+03) (708, 1.50000000000000000000e+03) (709, 1.50000000000000000000e+03) (710, 1.50000000000000000000e+03) (711, 1.50000000000000000000e+03) (712, 1.50000000000000000000e+03) (713, 1.50000000000000000000e+03) (714, 1.50000000000000000000e+03) (715, 1.50000000000000000000e+03) (716, 1.50000000000000000000e+03) (717, 1.50000000000000000000e+03) (718, 1.50000000000000000000e+03) (719, 1.50000000000000000000e+03) (720, 1.50000000000000000000e+03) (721, 1.50000000000000000000e+03) (722, 1.50000000000000000000e+03) (723, 1.50000000000000000000e+03) (724, 1.50000000000000000000e+03) (725, 1.50000000000000000000e+03) (726, 1.50000000000000000000e+03) (727, 1.50000000000000000000e+03) (728, 1.50000000000000000000e+03) (729, 1.50000000000000000000e+03) (730, 1.50000000000000000000e+03) (731, 1.50000000000000000000e+03) (732, 1.86936988830566406250e+01) (733, 1.19538040161132812500e+01) (734, 1.15144767761230468750e+01) (735, 1.73715362548828125000e+01) (736, 3.55447654724121093750e+01) (737, 1.38519241333007812500e+02) (738, 1.50000000000000000000e+03) (739, 1.50000000000000000000e+03) (740, 1.50000000000000000000e+03) (741, 1.50000000000000000000e+03) (742, 1.50000000000000000000e+03) (743, 1.50000000000000000000e+03) (744, 1.50000000000000000000e+03) (745, 1.50000000000000000000e+03) (746, 1.49951611328125000000e+03) (747, 1.49999987792968750000e+03) (748, 1.50000000000000000000e+03) (749, 1.50000000000000000000e+03) (750, 1.50000000000000000000e+03) (751, 1.50000000000000000000e+03) (752, 1.49999938964843750000e+03) (753, 1.50000000000000000000e+03) (754, 1.50000000000000000000e+03) (755, 1.50000000000000000000e+03) (756, 1.50000000000000000000e+03) (757, 1.50000000000000000000e+03) (758, 1.50000000000000000000e+03) (759, 1.50000000000000000000e+03) (760, 1.50000000000000000000e+03) (761, 1.40634145736694335938e+01) (762, 3.32112360000610351562e+00) (763, 3.46299350261688232422e-01) (764, -1.26811865234375000000e+03) (765, -5.74626970291137695312e+00) (766, 5.94425916671752929688e+00) (767, 1.37752561569213867188e+01) (768, 3.03235534667968750000e+02) (769, 1.45352929687500000000e+03) (770, 1.50000000000000000000e+03) (771, 1.50000000000000000000e+03) (772, 1.50000000000000000000e+03) (773, 1.50000000000000000000e+03) (774, 1.50000000000000000000e+03) (775, 1.50000000000000000000e+03) (776, 1.50000000000000000000e+03) (777, 1.49999987792968750000e+03) (778, 1.50000000000000000000e+03) (779, 1.50000000000000000000e+03) (780, 1.50000000000000000000e+03) (781, 1.50000000000000000000e+03) (782, 1.49999877929687500000e+03) (783, 1.49999829101562500000e+03) (784, 1.49999963378906250000e+03) (785, 1.50000000000000000000e+03) (786, 1.50000000000000000000e+03) (787, 1.50000000000000000000e+03) (788, 1.50000000000000000000e+03) (789, 1.50000000000000000000e+03) (790, -1.99092216491699218750e+01) (791, -1.49602343750000000000e+03) (792, -1.38605078125000000000e+03) (793, -1.49999963378906250000e+03) (794, -1.49185949707031250000e+03) (795, -1.49999658203125000000e+03) (796, -1.49993591308593750000e+03) (797, -1.49982006835937500000e+03) (798, -6.86275329589843750000e+01) (799, -3.60061225891113281250e+01) (800, 1.50445675849914550781e+00) (801, 1.50000000000000000000e+03) (802, 1.50000000000000000000e+03) (803, 1.50000000000000000000e+03) (804, 1.50000000000000000000e+03) (805, 1.50000000000000000000e+03) (806, 1.50000000000000000000e+03) (807, 1.50000000000000000000e+03) (808, 1.50000000000000000000e+03) (809, 1.50000000000000000000e+03) (810, 1.50000000000000000000e+03) (811, 1.50000000000000000000e+03) (812, 1.49999987792968750000e+03) (813, 1.49999987792968750000e+03) (814, 1.49999975585937500000e+03) (815, 1.49999963378906250000e+03) (816, 1.50000000000000000000e+03) (817, 1.50000000000000000000e+03) (818, 1.50000000000000000000e+03) (819, 5.05039245605468750000e+02) (820, -1.49983642578125000000e+03) (821, -1.49957250976562500000e+03) (822, -1.49851452636718750000e+03) (823, -1.45453552246093750000e+03) (824, -1.48909948730468750000e+03) (825, -1.46016784667968750000e+03) (826, -1.43826843261718750000e+03) (827, -1.49999938964843750000e+03) (828, -1.04978698730468750000e+03) (829, -5.69600830078125000000e+02) (830, -3.04092407226562500000e+01) (831, 1.50000000000000000000e+03) (832, 1.50000000000000000000e+03) (833, 1.50000000000000000000e+03) (834, 1.50000000000000000000e+03) (835, 1.50000000000000000000e+03) (836, 1.50000000000000000000e+03) (837, 1.50000000000000000000e+03) (838, 1.50000000000000000000e+03) (839, 1.50000000000000000000e+03) (840, 1.50000000000000000000e+03) (841, 1.50000000000000000000e+03) (842, 1.50000000000000000000e+03) (843, 1.49999987792968750000e+03) (844, 1.49999987792968750000e+03) (845, 1.49999975585937500000e+03) (846, 1.49999987792968750000e+03) (847, 1.50000000000000000000e+03) (848, 1.50000000000000000000e+03) (849, 7.28918991088867187500e+01) (850, -1.49950402832031250000e+03) (851, -1.49626342773437500000e+03) (852, -1.48999426269531250000e+03) (853, -1.49677038574218750000e+03) (854, -1.49934753417968750000e+03) (855, -5.17340820312500000000e+02) (856, 2.44508266448974609375e-01) (857, 7.42383003234863281250e-01) (858, 1.68343889713287353516e+00) (859, 1.50000000000000000000e+03) (860, 1.50000000000000000000e+03) (861, 1.50000000000000000000e+03) (862, 1.50000000000000000000e+03) (863, 1.50000000000000000000e+03) (864, 1.50000000000000000000e+03) (865, 1.50000000000000000000e+03) (866, 1.50000000000000000000e+03) (867, 1.50000000000000000000e+03) (868, 1.50000000000000000000e+03) (869, 1.50000000000000000000e+03) (870, 1.50000000000000000000e+03) (871, 1.50000000000000000000e+03) (872, 1.50000000000000000000e+03) (873, 1.50000000000000000000e+03) (874, 1.50000000000000000000e+03) (875, 1.50000000000000000000e+03) (876, 1.50000000000000000000e+03) (877, 1.50000000000000000000e+03) (878, 1.50000000000000000000e+03) (879, 1.50000000000000000000e+03) (880, 5.09289979934692382812e+00) (881, 2.85289344787597656250e+01) (882, 1.50000000000000000000e+03) (883, 7.53034820556640625000e+01) (884, 6.82620849609375000000e+02) (885, 1.50000000000000000000e+03) (886, 1.50000000000000000000e+03) (887, 1.50000000000000000000e+03) (888, 1.50000000000000000000e+03) (889, 1.50000000000000000000e+03) (890, 1.50000000000000000000e+03) (891, 1.50000000000000000000e+03) (892, 1.50000000000000000000e+03) (893, 1.50000000000000000000e+03) (894, 1.50000000000000000000e+03) (895, 1.50000000000000000000e+03) (896, 1.50000000000000000000e+03) (897, 1.50000000000000000000e+03) (898, 1.50000000000000000000e+03) (899, 1.50000000000000000000e+03) (900, 1.50000000000000000000e+03) (0, 1.50000000000000000000e+03) (1, 1.50000000000000000000e+03) (2, 1.50000000000000000000e+03) (3, 1.50000000000000000000e+03) (4, 1.50000000000000000000e+03) (5, 1.50000000000000000000e+03) (6, 1.50000000000000000000e+03) (7, 1.50000000000000000000e+03) (8, 1.50000000000000000000e+03) (9, 1.50000000000000000000e+03) (10, 1.50000000000000000000e+03) (11, 1.50000000000000000000e+03) (12, 1.50000000000000000000e+03) (13, 1.50000000000000000000e+03) (14, 1.50000000000000000000e+03) (15, 1.50000000000000000000e+03) (16, 1.49997204589843750000e+03) (17, 1.49996313476562500000e+03) (18, 1.50000000000000000000e+03) (19, 1.50000000000000000000e+03) (20, 1.50000000000000000000e+03) (21, 1.50000000000000000000e+03) (22, 1.50000000000000000000e+03) (23, 1.50000000000000000000e+03) (24, 1.50000000000000000000e+03) (25, 1.50000000000000000000e+03) (26, 1.50000000000000000000e+03) (27, 