FANN_FLO_2.1
num_layers=3
learning_rate=0.700000
connection_rate=1.000000
network_type=0
learning_momentum=0.000000
training_algorithm=2
train_error_function=1
train_stop_function=0
cascade_output_change_fraction=0.010000
quickprop_decay=-0.000100
quickprop_mu=1.750000
rprop_increase_factor=1.200000
rprop_decrease_factor=0.500000
rprop_delta_min=0.000000
rprop_delta_max=50.000000
rprop_delta_zero=0.100000
cascade_output_stagnation_epochs=12
cascade_candidate_change_fraction=0.010000
cascade_candidate_stagnation_epochs=12
cascade_max_out_epochs=150
cascade_max_cand_epochs=150
cascade_num_candidate_groups=2
bit_fail_limit=3.49999994039535522461e-01
cascade_candidate_limit=1.00000000000000000000e+03
cascade_weight_multiplier=4.00000005960464477539e-01
cascade_activation_functions_count=10
cascade_activation_functions=3 5 7 8 10 11 14 15 16 17 
cascade_activation_steepnesses_count=4
cascade_activation_steepnesses=2.50000000000000000000e-01 5.00000000000000000000e-01 7.50000000000000000000e-01 1.00000000000000000000e+00 
layer_sizes=901 101 37 
scale_included=0
neurons (num_inputs, activation_function, activation_steepness)=(0, 0, 0.00000000000000000000e+00) (0, 0, 0.00000000000000000000e+00) (0, 0, 0.00000000000000000000e+00) (0, 0, 0.00000000000000000000e+00) (0, 0, 0.00000000000000000000e+00) (0, 0, 0.00000000000000000000e+00) (0, 0, 0.00000000000000000000e+00) (0, 0, 0.00000000000000000000e+00) (0, 0, 0.00000000000000000000e+00) (0, 0, 0.00000000000000000000e+00) (0, 0, 0.00000000000000000000e+00) (0, 0, 0.00000000000000000000e+00) (0, 0, 0.00000000000000000000e+00) (0, 0, 0.00000000000000000000e+00) (0, 0, 0.00000000000000000000e+00) (0, 0, 0.00000000000000000000e+00) (0, 0, 0.00000000000000000000e+00) (0, 0, 0.00000000000000000000e+00) (0, 0, 0.00000000000000000000e+00) (0, 0, 0.00000000000000000000e+00) (0, 0, 0.00000000000000000000e+00) (0, 0, 0.00000000000000000000e+00) (0, 0, 0.00000000000000000000e+00) (0, 0, 0.00000000000000000000e+00) (0, 0, 0.00000000000000000000e+00) (0, 0, 0.00000000000000000000e+00) (0, 0, 0.00000000000000000000e+00) (0, 0, 0.00000000000000000000e+00) (0, 0, 0.00000000000000000000e+00) (0, 0, 0.00000000000000000000e+00) (0, 0, 0.00000000000000000000e+00) (0, 0, 0.00000000000000000000e+00) (0, 0, 0.00000000000000000000e+00) (0, 0, 0.00000000000000000000e+00) (0, 0, 0.00000000000000000000e+00) (0, 0, 0.00000000000000000000e+00) (0, 0, 0.00000000000000000000e+00) (0, 0, 0.00000000000000000000e+00) (0, 0, 0.00000000000000000000e+00) (0, 0, 0.00000000000000000000e+00) (0, 0, 0.00000000000000000000e+00) (0, 0, 0.00000000000000000000e+00) (0, 0, 0.00000000000000000000e+00) (0, 0, 0.00000000000000000000e+00) (0, 0, 0.00000000000000000000e+00) (0, 0, 0.00000000000000000000e+00) (0, 0, 0.00000000000000000000e+00) (0, 0, 0.00000000000000000000e+00) (0, 0, 0.00000000000000000000e+00) (0, 0, 0.00000000000000000000e+00) (0, 0, 0.00000000000000000000e+00) (0, 0, 0.00000000000000000000e+00) (0, 0, 0.00000000000000000000e+00) (0, 0, 0.00000000000000000000e+00) (0, 0, 0.00000000000000000000e+00) (0, 0, 0.00000000000000000000e+00) (0, 0, 0.00000000000000000000e+00) (0, 0, 0.00000000000000000000e+00) (0, 0, 0.00000000000000000000e+00) (0, 0, 0.00000000000000000000e+00) (0, 0, 0.00000000000000000000e+00) (0, 0, 0.00000000000000000000e+00) (0, 0, 0.00000000000000000000e+00) (0, 0, 0.00000000000000000000e+00) (0, 0, 0.00000000000000000000e+00) (0, 0, 0.00000000000000000000e+00) (0, 0, 0.00000000000000000000e+00) (0, 0, 0.00000000000000000000e+00) (0, 0, 0.00000000000000000000e+00) (0, 0, 0.00000000000000000000e+00) (0, 0, 0.00000000000000000000e+00) (0, 0, 0.00000000000000000000e+00) (0, 0, 0.00000000000000000000e+00) (0, 0, 0.00000000000000000000e+00) (0, 0, 0.00000000000000000000e+00) (0, 0, 0.00000000000000000000e+00) (0, 0, 0.00000000000000000000e+00) (0, 0, 0.00000000000000000000e+00) (0, 0, 0.00000000000000000000e+00) (0, 0, 0.00000000000000000000e+00) (0, 0, 0.00000000000000000000e+00) (0, 0, 0.00000000000000000000e+00) (0, 0, 0.00000000000000000000e+00) (0, 0, 0.00000000000000000000e+00) (0, 0, 0.00000000000000000000e+00) (0, 0, 0.00000000000000000000e+00) (0, 0, 0.00000000000000000000e+00) (0, 0, 0.00000000000000000000e+00) (0, 0, 0.00000000000000000000e+00) (0, 0, 0.00000000000000000000e+00) (0, 0, 0.00000000000000000000e+00) (0, 0, 0.00000000000000000000e+00) (0, 0, 0.00000000000000000000e+00) (0, 0, 0.00000000000000000000e+00) (0, 0, 0.00000000000000000000e+00) (0, 0, 0.00000000000000000000e+00) (0, 0, 0.00000000000000000000e+00) (0, 0, 0.00000000000000000000e+00) (0, 0, 0.00000000000000000000e+00) (0, 0, 0.00000000000000000000e+00) (0, 0, 0.00000000000000000000e+00) (0, 0, 0.00000000000000000000e+00) (0, 0, 0.00000000000000000000e+00) (0, 0, 0.00000000000000000000e+00) (0, 0, 0.00000000000000000000e+00) (0, 0, 0.00000000000000000000e+00) (0, 0, 0.00000000000000000000e+00) (0, 0, 0.00000000000000000000e+00) (0, 0, 0.00000000000000000000e+00) (0, 0, 0.00000000000000000000e+00) (0, 0, 0.00000000000000000000e+00) (0, 0, 0.00000000000000000000e+00) (0, 0, 0.00000000000000000000e+00) (0, 0, 0.00000000000000000000e+00) (0, 0, 0.00000000000000000000e+00) (0, 0, 0.00000000000000000000e+00) (0, 0, 0.00000000000000000000e+00) (0, 0, 0.00000000000000000000e+00) (0, 0, 0.00000000000000000000e+00) (0, 0, 0.00000000000000000000e+00) (0, 0, 0.00000000000000000000e+00) (0, 0, 0.00000000000000000000e+00) (0, 0, 0.00000000000000000000e+00) (0, 0, 0.00000000000000000000e+00) (0, 0, 0.00000000000000000000e+00) (0, 0, 0.00000000000000000000e+00) (0, 0, 0.00000000000000000000e+00) (0, 0, 0.00000000000000000000e+00) (0, 0, 0.00000000000000000000e+00) (0, 0, 0.00000000000000000000e+00) (0, 0, 0.00000000000000000000e+00) (0, 0, 0.00000000000000000000e+00) (0, 0, 0.00000000000000000000e+00) (0, 0, 0.00000000000000000000e+00) (0, 0, 0.00000000000000000000e+00) (0, 0, 0.00000000000000000000e+00) (0, 0, 0.00000000000000000000e+00) (0, 0, 0.00000000000000000000e+00) (0, 0, 0.00000000000000000000e+00) (0, 0, 0.00000000000000000000e+00) (0, 0, 0.00000000000000000000e+00) (0, 0, 0.00000000000000000000e+00) (0, 0, 0.00000000000000000000e+00) (0, 0, 0.00000000000000000000e+00) (0, 0, 0.00000000000000000000e+00) (0, 0, 0.00000000000000000000e+00) (0, 0, 0.00000000000000000000e+00) (0, 0, 0.00000000000000000000e+00) (0, 0, 0.00000000000000000000e+00) (0, 0, 0.00000000000000000000e+00) (0, 0, 0.00000000000000000000e+00) (0, 0, 0.00000000000000000000e+00) (0, 0, 0.00000000000000000000e+00) (0, 0, 0.00000000000000000000e+00) (0, 0, 0.00000000000000000000e+00) (0, 0, 0.00000000000000000000e+00) (0, 0, 0.00000000000000000000e+00) (0, 0, 0.00000000000000000000e+00) (0, 0, 0.00000000000000000000e+00) (0, 0, 0.00000000000000000000e+00) (0, 0, 0.00000000000000000000e+00) (0, 0, 0.00000000000000000000e+00) (0, 0, 0.00000000000000000000e+00) (0, 0, 0.00000000000000000000e+00) (0, 0, 0.00000000000000000000e+00) (0, 0, 0.00000000000000000000e+00) (0, 0, 0.00000000000000000000e+00) (0, 0, 0.00000000000000000000e+00) (0, 0, 0.00000000000000000000e+00) (0, 0, 0.00000000000000000000e+00) (0, 0, 0.00000000000000000000e+00) (0, 0, 0.00000000000000000000e+00) (0, 0, 0.00000000000000000000e+00) (0, 0, 0.00000000000000000000e+00) (0, 0, 0.00000000000000000000e+00) (0, 0, 0.00000000000000000000e+00) (0, 0, 0.00000000000000000000e+00) (0, 0, 0.00000000000000000000e+00) (0, 0, 0.00000000000000000000e+00) (0, 0, 0.00000000000000000000e+00) (0, 0, 0.00000000000000000000e+00) (0, 0, 0.00000000000000000000e+00) (0, 0, 0.00000000000000000000e+00) (0, 0, 0.00000000000000000000e+00) (0, 0, 0.00000000000000000000e+00) (0, 0, 0.00000000000000000000e+00) (0, 0, 0.00000000000000000000e+00) (0, 0, 0.00000000000000000000e+00) (0, 0, 0.00000000000000000000e+00) (0, 0, 0.00000000000000000000e+00) (0, 0, 0.00000000000000000000e+00) (0, 0, 0.00000000000000000000e+00) (0, 0, 0.00000000000000000000e+00) (0, 0, 0.00000000000000000000e+00) (0, 0, 0.00000000000000000000e+00) (0, 0, 0.00000000000000000000e+00) (0, 0, 0.00000000000000000000e+00) (0, 0, 0.00000000000000000000e+00) (0, 0, 0.00000000000000000000e+00) (0, 0, 0.00000000000000000000e+00) (0, 0, 0.00000000000000000000e+00) (0, 0, 0.00000000000000000000e+00) (0, 0, 0.00000000000000000000e+00) (0, 0, 0.00000000000000000000e+00) (0, 0, 0.00000000000000000000e+00) (0, 0, 0.00000000000000000000e+00) (0, 0, 0.00000000000000000000e+00) (0, 0, 0.00000000000000000000e+00) (0, 0, 0.00000000000000000000e+00) (0, 0, 0.00000000000000000000e+00) (0, 0, 0.00000000000000000000e+00) (0, 0, 0.00000000000000000000e+00) (0, 0, 0.00000000000000000000e+00) (0, 0, 0.00000000000000000000e+00) (0, 0, 0.00000000000000000000e+00) (0, 0, 0.00000000000000000000e+00) (0, 0, 0.00000000000000000000e+00) (0, 0, 0.00000000000000000000e+00) (0, 0, 0.00000000000000000000e+00) (0, 0, 0.00000000000000000000e+00) (0, 0, 0.00000000000000000000e+00) (0, 0, 0.00000000000000000000e+00) (0, 0, 0.00000000000000000000e+00) (0, 0, 0.00000000000000000000e+00) (0, 0, 0.00000000000000000000e+00) (0, 0, 0.00000000000000000000e+00) (0, 0, 0.00000000000000000000e+00) (0, 0, 0.00000000000000000000e+00) (0, 0, 0.00000000000000000000e+00) (0, 0, 0.00000000000000000000e+00) (0, 0, 0.00000000000000000000e+00) (0, 0, 0.00000000000000000000e+00) (0, 0, 0.00000000000000000000e+00) (0, 0, 0.00000000000000000000e+00) (0, 0, 0.00000000000000000000e+00) (0, 0, 0.00000000000000000000e+00) (0, 0, 0.00000000000000000000e+00) (0, 0, 0.00000000000000000000e+00) (0, 0, 0.00000000000000000000e+00) (0, 0, 0.00000000000000000000e+00) (0, 0, 0.00000000000000000000e+00) (0, 0, 0.00000000000000000000e+00) (0, 0, 0.00000000000000000000e+00) (0, 0, 0.00000000000000000000e+00) (0, 0, 0.00000000000000000000e+00) (0, 0, 0.00000000000000000000e+00) (0, 0, 0.00000000000000000000e+00) (0, 0, 0.00000000000000000000e+00) (0, 0, 0.00000000000000000000e+00) (0, 0, 0.00000000000000000000e+00) (0, 0, 0.00000000000000000000e+00) (0, 0, 0.00000000000000000000e+00) (0, 0, 0.00000000000000000000e+00) (0, 0, 0.00000000000000000000e+00) (0, 0, 0.00000000000000000000e+00) (0, 0, 0.00000000000000000000e+00) (0, 0, 0.00000000000000000000e+00) (0, 0, 0.00000000000000000000e+00) (0, 0, 0.00000000000000000000e+00) (0, 0, 0.00000000000000000000e+00) (0, 0, 0.00000000000000000000e+00) (0, 0, 0.00000000000000000000e+00) (0, 0, 0.00000000000000000000e+00) (0, 0, 0.00000000000000000000e+00) (0, 0, 0.00000000000000000000e+00) (0, 0, 0.00000000000000000000e+00) (0, 0, 0.00000000000000000000e+00) (0, 0, 0.00000000000000000000e+00) (0, 0, 0.00000000000000000000e+00) (0, 0, 0.00000000000000000000e+00) (0, 0, 0.00000000000000000000e+00) (0, 0, 0.00000000000000000000e+00) (0, 0, 0.00000000000000000000e+00) (0, 0, 0.00000000000000000000e+00) (0, 0, 0.00000000000000000000e+00) (0, 0, 0.00000000000000000000e+00) (0, 0, 0.00000000000000000000e+00) (0, 0, 0.00000000000000000000e+00) (0, 0, 0.00000000000000000000e+00) (0, 0, 0.00000000000000000000e+00) (0, 0, 0.00000000000000000000e+00) (0, 0, 0.00000000000000000000e+00) (0, 0, 0.00000000000000000000e+00) (0, 0, 0.00000000000000000000e+00) (0, 0, 0.00000000000000000000e+00) (0, 0, 0.00000000000000000000e+00) (0, 0, 0.00000000000000000000e+00) (0, 0, 0.00000000000000000000e+00) (0, 0, 0.00000000000000000000e+00) (0, 0, 0.00000000000000000000e+00) (0, 0, 0.00000000000000000000e+00) (0, 0, 0.00000000000000000000e+00) (0, 0, 0.00000000000000000000e+00) (0, 0, 0.00000000000000000000e+00) (0, 0, 0.00000000000000000000e+00) (0, 0, 0.00000000000000000000e+00) (0, 0, 0.00000000000000000000e+00) (0, 0, 0.00000000000000000000e+00) (0, 0, 0.00000000000000000000e+00) (0, 0, 0.00000000000000000000e+00) (0, 0, 0.00000000000000000000e+00) (0, 0, 0.00000000000000000000e+00) (0, 0, 0.00000000000000000000e+00) (0, 0, 0.00000000000000000000e+00) (0, 0, 0.00000000000000000000e+00) (0, 0, 0.00000000000000000000e+00) (0, 0, 0.00000000000000000000e+00) (0, 0, 0.00000000000000000000e+00) (0, 0, 0.00000000000000000000e+00) (0, 0, 0.00000000000000000000e+00) (0, 0, 0.00000000000000000000e+00) (0, 0, 0.00000000000000000000e+00) (0, 0, 0.00000000000000000000e+00) (0, 0, 0.00000000000000000000e+00) (0, 0, 0.00000000000000000000e+00) (0, 0, 0.00000000000000000000e+00) (0, 0, 0.00000000000000000000e+00) (0, 0, 0.00000000000000000000e+00) (0, 0, 0.00000000000000000000e+00) (0, 0, 0.00000000000000000000e+00) (0, 0, 0.00000000000000000000e+00) (0, 0, 0.00000000000000000000e+00) (0, 0, 0.00000000000000000000e+00) (0, 0, 0.00000000000000000000e+00) (0, 0, 0.00000000000000000000e+00) (0, 0, 0.00000000000000000000e+00) (0, 0, 0.00000000000000000000e+00) (0, 0, 0.00000000000000000000e+00) (0, 0, 0.00000000000000000000e+00) (0, 0, 0.00000000000000000000e+00) (0, 0, 0.00000000000000000000e+00) (0, 0, 0.00000000000000000000e+00) (0, 0, 0.00000000000000000000e+00) (0, 0, 0.00000000000000000000e+00) (0, 0, 0.00000000000000000000e+00) (0, 0, 0.00000000000000000000e+00) (0, 0, 0.00000000000000000000e+00) (0, 0, 0.00000000000000000000e+00) (0, 0, 0.00000000000000000000e+00) (0, 0, 0.00000000000000000000e+00) (0, 0, 0.00000000000000000000e+00) (0, 0, 0.00000000000000000000e+00) (0, 0, 0.00000000000000000000e+00) (0, 0, 0.00000000000000000000e+00) (0, 0, 0.00000000000000000000e+00) (0, 0, 0.00000000000000000000e+00) (0, 0, 0.00000000000000000000e+00) (0, 0, 0.00000000000000000000e+00) (0, 0, 0.00000000000000000000e+00) (0, 0, 0.00000000000000000000e+00) (0, 0, 0.00000000000000000000e+00) (0, 0, 0.00000000000000000000e+00) (0, 0, 0.00000000000000000000e+00) (0, 0, 0.00000000000000000000e+00) (0, 0, 0.00000000000000000000e+00) (0, 0, 0.00000000000000000000e+00) (0, 0, 0.00000000000000000000e+00) (0, 0, 0.00000000000000000000e+00) (0, 0, 0.00000000000000000000e+00) (0, 0, 0.00000000000000000000e+00) (0, 0, 0.00000000000000000000e+00) (0, 0, 0.00000000000000000000e+00) (0, 0, 0.00000000000000000000e+00) (0, 0, 0.00000000000000000000e+00) (0, 0, 0.00000000000000000000e+00) (0, 0, 0.00000000000000000000e+00) (0, 0, 0.00000000000000000000e+00) (0, 0, 0.00000000000000000000e+00) (0, 0, 0.00000000000000000000e+00) (0, 0, 0.00000000000000000000e+00) (0, 0, 0.00000000000000000000e+00) (0, 0, 0.00000000000000000000e+00) (0, 0, 0.00000000000000000000e+00) (0, 0, 0.00000000000000000000e+00) (0, 0, 0.00000000000000000000e+00) (0, 0, 0.00000000000000000000e+00) (0, 0, 0.00000000000000000000e+00) (0, 0, 0.00000000000000000000e+00) (0, 0, 0.00000000000000000000e+00) (0, 0, 0.00000000000000000000e+00) (0, 0, 0.00000000000000000000e+00) (0, 0, 0.00000000000000000000e+00) (0, 0, 0.00000000000000000000e+00) (0, 0, 0.00000000000000000000e+00) (0, 0, 0.00000000000000000000e+00) (0, 0, 0.00000000000000000000e+00) (0, 0, 0.00000000000000000000e+00) (0, 0, 0.00000000000000000000e+00) (0, 0, 0.00000000000000000000e+00) (0, 0, 0.00000000000000000000e+00) (0, 0, 0.00000000000000000000e+00) (0, 0, 0.00000000000000000000e+00) (0, 0, 0.00000000000000000000e+00) (0, 0, 0.00000000000000000000e+00) (0, 0, 0.00000000000000000000e+00) (0, 0, 0.00000000000000000000e+00) (0, 0, 0.00000000000000000000e+00) (0, 0, 0.00000000000000000000e+00) (0, 0, 0.00000000000000000000e+00) (0, 0, 0.00000000000000000000e+00) (0, 0, 0.00000000000000000000e+00) (0, 0, 0.00000000000000000000e+00) (0, 0, 0.00000000000000000000e+00) (0, 0, 0.00000000000000000000e+00) (0, 0, 0.00000000000000000000e+00) (0, 0, 0.00000000000000000000e+00) (0, 0, 0.00000000000000000000e+00) (0, 0, 0.00000000000000000000e+00) (0, 0, 0.00000000000000000000e+00) (0, 0, 0.00000000000000000000e+00) (0, 0, 0.00000000000000000000e+00) (0, 0, 0.00000000000000000000e+00) (0, 0, 0.00000000000000000000e+00) (0, 0, 0.00000000000000000000e+00) (0, 0, 0.00000000000000000000e+00) (0, 0, 0.00000000000000000000e+00) (0, 0, 0.00000000000000000000e+00) (0, 0, 0.00000000000000000000e+00) (0, 0, 0.00000000000000000000e+00) (0, 0, 0.00000000000000000000e+00) (0, 0, 0.00000000000000000000e+00) (0, 0, 0.00000000000000000000e+00) (0, 0, 0.00000000000000000000e+00) (0, 0, 0.00000000000000000000e+00) (0, 0, 0.00000000000000000000e+00) (0, 0, 0.00000000000000000000e+00) (0, 0, 0.00000000000000000000e+00) (0, 0, 0.00000000000000000000e+00) (0, 0, 0.00000000000000000000e+00) (0, 0, 0.00000000000000000000e+00) (0, 0, 0.00000000000000000000e+00) (0, 0, 0.00000000000000000000e+00) (0, 0, 0.00000000000000000000e+00) (0, 0, 0.00000000000000000000e+00) (0, 0, 0.00000000000000000000e+00) (0, 0, 0.00000000000000000000e+00) (0, 0, 0.00000000000000000000e+00) (0, 0, 0.00000000000000000000e+00) (0, 0, 0.00000000000000000000e+00) (0, 0, 0.00000000000000000000e+00) (0, 0, 0.00000000000000000000e+00) (0, 0, 0.00000000000000000000e+00) (0, 0, 0.00000000000000000000e+00) (0, 0, 0.00000000000000000000e+00) (0, 0, 0.00000000000000000000e+00) (0, 0, 0.00000000000000000000e+00) (0, 0, 0.00000000000000000000e+00) (0, 0, 0.00000000000000000000e+00) (0, 0, 0.00000000000000000000e+00) (0, 0, 0.00000000000000000000e+00) (0, 0, 0.00000000000000000000e+00) (0, 0, 0.00000000000000000000e+00) (0, 0, 0.00000000000000000000e+00) (0, 0, 0.00000000000000000000e+00) (0, 0, 0.00000000000000000000e+00) (0, 0, 0.00000000000000000000e+00) (0, 0, 0.00000000000000000000e+00) (0, 0, 0.00000000000000000000e+00) (0, 0, 0.00000000000000000000e+00) (0, 0, 0.00000000000000000000e+00) (0, 0, 0.00000000000000000000e+00) (0, 0, 0.00000000000000000000e+00) (0, 0, 0.00000000000000000000e+00) (0, 0, 0.00000000000000000000e+00) (0, 0, 0.00000000000000000000e+00) (0, 0, 0.00000000000000000000e+00) (0, 0, 0.00000000000000000000e+00) (0, 0, 0.00000000000000000000e+00) (0, 0, 0.00000000000000000000e+00) (0, 0, 0.00000000000000000000e+00) (0, 0, 0.00000000000000000000e+00) (0, 0, 0.00000000000000000000e+00) (0, 0, 0.00000000000000000000e+00) (0, 0, 0.00000000000000000000e+00) (0, 0, 0.00000000000000000000e+00) (0, 0, 0.00000000000000000000e+00) (0, 0, 0.00000000000000000000e+00) (0, 0, 0.00000000000000000000e+00) (0, 0, 0.00000000000000000000e+00) (0, 0, 0.00000000000000000000e+00) (0, 0, 0.00000000000000000000e+00) (0, 0, 0.00000000000000000000e+00) (0, 0, 0.00000000000000000000e+00) (0, 0, 0.00000000000000000000e+00) (0, 0, 0.00000000000000000000e+00) (0, 0, 0.00000000000000000000e+00) (0, 0, 0.00000000000000000000e+00) (0, 0, 0.00000000000000000000e+00) (0, 0, 0.00000000000000000000e+00) (0, 0, 0.00000000000000000000e+00) (0, 0, 0.00000000000000000000e+00) (0, 0, 0.00000000000000000000e+00) (0, 0, 0.00000000000000000000e+00) (0, 0, 0.00000000000000000000e+00) (0, 0, 0.00000000000000000000e+00) (0, 0, 0.00000000000000000000e+00) (0, 0, 0.00000000000000000000e+00) (0, 0, 0.00000000000000000000e+00) (0, 0, 0.00000000000000000000e+00) (0, 0, 0.00000000000000000000e+00) (0, 0, 0.00000000000000000000e+00) (0, 0, 0.00000000000000000000e+00) (0, 0, 0.00000000000000000000e+00) (0, 0, 0.00000000000000000000e+00) (0, 0, 0.00000000000000000000e+00) (0, 0, 0.00000000000000000000e+00) (0, 0, 0.00000000000000000000e+00) (0, 0, 0.00000000000000000000e+00) (0, 0, 0.00000000000000000000e+00) (0, 0, 0.00000000000000000000e+00) (0, 0, 0.00000000000000000000e+00) (0, 0, 0.00000000000000000000e+00) (0, 0, 0.00000000000000000000e+00) (0, 0, 0.00000000000000000000e+00) (0, 0, 0.00000000000000000000e+00) (0, 0, 0.00000000000000000000e+00) (0, 0, 0.00000000000000000000e+00) (0, 0, 0.00000000000000000000e+00) (0, 0, 0.00000000000000000000e+00) (0, 0, 0.00000000000000000000e+00) (0, 0, 0.00000000000000000000e+00) (0, 0, 0.00000000000000000000e+00) (0, 0, 0.00000000000000000000e+00) (0, 0, 0.00000000000000000000e+00) (0, 0, 0.00000000000000000000e+00) (0, 0, 0.00000000000000000000e+00) (0, 0, 0.00000000000000000000e+00) (0, 0, 0.00000000000000000000e+00) (0, 0, 0.00000000000000000000e+00) (0, 0, 0.00000000000000000000e+00) (0, 0, 0.00000000000000000000e+00) (0, 0, 0.00000000000000000000e+00) (0, 0, 0.00000000000000000000e+00) (0, 0, 0.00000000000000000000e+00) (0, 0, 0.00000000000000000000e+00) (0, 0, 0.00000000000000000000e+00) (0, 0, 0.00000000000000000000e+00) (0, 0, 0.00000000000000000000e+00) (0, 0, 0.00000000000000000000e+00) (0, 0, 0.00000000000000000000e+00) (0, 0, 0.00000000000000000000e+00) (0, 0, 0.00000000000000000000e+00) (0, 0, 0.00000000000000000000e+00) (0, 0, 0.00000000000000000000e+00) (0, 0, 0.00000000000000000000e+00) (0, 0, 0.00000000000000000000e+00) (0, 0, 0.00000000000000000000e+00) (0, 0, 0.00000000000000000000e+00) (0, 0, 0.00000000000000000000e+00) (0, 0, 0.00000000000000000000e+00) (0, 0, 0.00000000000000000000e+00) (0, 0, 0.00000000000000000000e+00) (0, 0, 0.00000000000000000000e+00) (0, 0, 0.00000000000000000000e+00) (0, 0, 0.00000000000000000000e+00) (0, 0, 0.00000000000000000000e+00) (0, 0, 0.00000000000000000000e+00) (0, 0, 0.00000000000000000000e+00) (0, 0, 0.00000000000000000000e+00) (0, 0, 0.00000000000000000000e+00) (0, 0, 0.00000000000000000000e+00) (0, 0, 0.00000000000000000000e+00) (0, 0, 0.00000000000000000000e+00) (0, 0, 0.00000000000000000000e+00) (0, 0, 0.00000000000000000000e+00) (0, 0, 0.00000000000000000000e+00) (0, 0, 0.00000000000000000000e+00) (0, 0, 0.00000000000000000000e+00) (0, 0, 0.00000000000000000000e+00) (0, 0, 0.00000000000000000000e+00) (0, 0, 0.00000000000000000000e+00) (0, 0, 0.00000000000000000000e+00) (0, 0, 0.00000000000000000000e+00) (0, 0, 0.00000000000000000000e+00) (0, 0, 0.00000000000000000000e+00) (0, 0, 0.00000000000000000000e+00) (0, 0, 0.00000000000000000000e+00) (0, 0, 0.00000000000000000000e+00) (0, 0, 0.00000000000000000000e+00) (0, 0, 0.00000000000000000000e+00) (0, 0, 0.00000000000000000000e+00) (0, 0, 0.00000000000000000000e+00) (0, 0, 0.00000000000000000000e+00) (0, 0, 0.00000000000000000000e+00) (0, 0, 0.00000000000000000000e+00) (0, 0, 0.00000000000000000000e+00) (0, 0, 0.00000000000000000000e+00) (0, 0, 0.00000000000000000000e+00) (0, 0, 0.00000000000000000000e+00) (0, 0, 0.00000000000000000000e+00) (0, 0, 0.00000000000000000000e+00) (0, 0, 0.00000000000000000000e+00) (0, 0, 0.00000000000000000000e+00) (0, 0, 0.00000000000000000000e+00) (0, 0, 0.00000000000000000000e+00) (0, 0, 0.00000000000000000000e+00) (0, 0, 0.00000000000000000000e+00) (0, 0, 0.00000000000000000000e+00) (0, 0, 0.00000000000000000000e+00) (0, 0, 0.00000000000000000000e+00) (0, 0, 0.00000000000000000000e+00) (0, 0, 0.00000000000000000000e+00) (0, 0, 0.00000000000000000000e+00) (0, 0, 0.00000000000000000000e+00) (0, 0, 0.00000000000000000000e+00) (0, 0, 0.00000000000000000000e+00) (0, 0, 0.00000000000000000000e+00) (0, 0, 0.00000000000000000000e+00) (0, 0, 0.00000000000000000000e+00) (0, 0, 0.00000000000000000000e+00) (0, 0, 0.00000000000000000000e+00) (0, 0, 0.00000000000000000000e+00) (0, 0, 0.00000000000000000000e+00) (0, 0, 0.00000000000000000000e+00) (0, 0, 0.00000000000000000000e+00) (0, 0, 0.00000000000000000000e+00) (0, 0, 0.00000000000000000000e+00) (0, 0, 0.00000000000000000000e+00) (0, 0, 0.00000000000000000000e+00) (0, 0, 0.00000000000000000000e+00) (0, 0, 0.00000000000000000000e+00) (0, 0, 0.00000000000000000000e+00) (0, 0, 0.00000000000000000000e+00) (0, 0, 0.00000000000000000000e+00) (0, 0, 0.00000000000000000000e+00) (0, 0, 0.00000000000000000000e+00) (0, 0, 0.00000000000000000000e+00) (0, 0, 0.00000000000000000000e+00) (0, 0, 0.00000000000000000000e+00) (0, 0, 0.00000000000000000000e+00) (0, 0, 0.00000000000000000000e+00) (0, 0, 0.00000000000000000000e+00) (0, 0, 0.00000000000000000000e+00) (0, 0, 0.00000000000000000000e+00) (0, 0, 0.00000000000000000000e+00) (0, 0, 0.00000000000000000000e+00) (0, 0, 0.00000000000000000000e+00) (0, 0, 0.00000000000000000000e+00) (0, 0, 0.00000000000000000000e+00) (0, 0, 0.00000000000000000000e+00) (0, 0, 0.00000000000000000000e+00) (0, 0, 0.00000000000000000000e+00) (0, 0, 0.00000000000000000000e+00) (0, 0, 0.00000000000000000000e+00) (0, 0, 0.00000000000000000000e+00) (0, 0, 0.00000000000000000000e+00) (0, 0, 0.00000000000000000000e+00) (0, 0, 0.00000000000000000000e+00) (0, 0, 0.00000000000000000000e+00) (0, 0, 0.00000000000000000000e+00) (0, 0, 0.00000000000000000000e+00) (0, 0, 0.00000000000000000000e+00) (0, 0, 0.00000000000000000000e+00) (0, 0, 0.00000000000000000000e+00) (0, 0, 0.00000000000000000000e+00) (0, 0, 0.00000000000000000000e+00) (0, 0, 0.00000000000000000000e+00) (0, 0, 0.00000000000000000000e+00) (0, 0, 0.00000000000000000000e+00) (0, 0, 0.00000000000000000000e+00) (0, 0, 0.00000000000000000000e+00) (0, 0, 0.00000000000000000000e+00) (0, 0, 0.00000000000000000000e+00) (0, 0, 0.00000000000000000000e+00) (0, 0, 0.00000000000000000000e+00) (0, 0, 0.00000000000000000000e+00) (0, 0, 0.00000000000000000000e+00) (0, 0, 0.00000000000000000000e+00) (0, 0, 0.00000000000000000000e+00) (0, 0, 0.00000000000000000000e+00) (0, 0, 0.00000000000000000000e+00) (0, 0, 0.00000000000000000000e+00) (0, 0, 0.00000000000000000000e+00) (0, 0, 0.00000000000000000000e+00) (0, 0, 0.00000000000000000000e+00) (0, 0, 0.00000000000000000000e+00) (0, 0, 0.00000000000000000000e+00) (0, 0, 0.00000000000000000000e+00) (0, 0, 0.00000000000000000000e+00) (0, 0, 0.00000000000000000000e+00) (0, 0, 0.00000000000000000000e+00) (0, 0, 0.00000000000000000000e+00) (0, 0, 0.00000000000000000000e+00) (0, 0, 0.00000000000000000000e+00) (0, 0, 0.00000000000000000000e+00) (0, 0, 0.00000000000000000000e+00) (0, 0, 0.00000000000000000000e+00) (0, 0, 0.00000000000000000000e+00) (0, 0, 0.00000000000000000000e+00) (0, 0, 0.00000000000000000000e+00) (0, 0, 0.00000000000000000000e+00) (0, 0, 0.00000000000000000000e+00) (0, 0, 0.00000000000000000000e+00) (0, 0, 0.00000000000000000000e+00) (0, 0, 0.00000000000000000000e+00) (0, 0, 0.00000000000000000000e+00) (0, 0, 0.00000000000000000000e+00) (0, 0, 0.00000000000000000000e+00) (0, 0, 0.00000000000000000000e+00) (0, 0, 0.00000000000000000000e+00) (0, 0, 0.00000000000000000000e+00) (0, 0, 0.00000000000000000000e+00) (0, 0, 0.00000000000000000000e+00) (0, 0, 0.00000000000000000000e+00) (0, 0, 0.00000000000000000000e+00) (0, 0, 0.00000000000000000000e+00) (0, 0, 0.00000000000000000000e+00) (0, 0, 0.00000000000000000000e+00) (0, 0, 0.00000000000000000000e+00) (0, 0, 0.00000000000000000000e+00) (0, 0, 0.00000000000000000000e+00) (0, 0, 0.00000000000000000000e+00) (0, 0, 0.00000000000000000000e+00) (0, 0, 0.00000000000000000000e+00) (0, 0, 0.00000000000000000000e+00) (0, 0, 0.00000000000000000000e+00) (0, 0, 0.00000000000000000000e+00) (0, 0, 0.00000000000000000000e+00) (0, 0, 0.00000000000000000000e+00) (0, 0, 0.00000000000000000000e+00) (0, 0, 0.00000000000000000000e+00) (0, 0, 0.00000000000000000000e+00) (0, 0, 0.00000000000000000000e+00) (0, 0, 0.00000000000000000000e+00) (0, 0, 0.00000000000000000000e+00) (0, 0, 0.00000000000000000000e+00) (0, 0, 0.00000000000000000000e+00) (0, 0, 0.00000000000000000000e+00) (0, 0, 0.00000000000000000000e+00) (0, 0, 0.00000000000000000000e+00) (0, 0, 0.00000000000000000000e+00) (0, 0, 0.00000000000000000000e+00) (0, 0, 0.00000000000000000000e+00) (0, 0, 0.00000000000000000000e+00) (0, 0, 0.00000000000000000000e+00) (0, 0, 0.00000000000000000000e+00) (0, 0, 0.00000000000000000000e+00) (0, 0, 0.00000000000000000000e+00) (0, 0, 0.00000000000000000000e+00) (0, 0, 0.00000000000000000000e+00) (0, 0, 0.00000000000000000000e+00) (0, 0, 0.00000000000000000000e+00) (0, 0, 0.00000000000000000000e+00) (0, 0, 0.00000000000000000000e+00) (0, 0, 0.00000000000000000000e+00) (0, 0, 0.00000000000000000000e+00) (0, 0, 0.00000000000000000000e+00) (0, 0, 0.00000000000000000000e+00) (0, 0, 0.00000000000000000000e+00) (0, 0, 0.00000000000000000000e+00) (0, 0, 0.00000000000000000000e+00) (0, 0, 0.00000000000000000000e+00) (0, 0, 0.00000000000000000000e+00) (0, 0, 0.00000000000000000000e+00) (0, 0, 0.00000000000000000000e+00) (0, 0, 0.00000000000000000000e+00) (0, 0, 0.00000000000000000000e+00) (0, 0, 0.00000000000000000000e+00) (0, 0, 0.00000000000000000000e+00) (0, 0, 0.00000000000000000000e+00) (0, 0, 0.00000000000000000000e+00) (0, 0, 0.00000000000000000000e+00) (0, 0, 0.00000000000000000000e+00) (0, 0, 0.00000000000000000000e+00) (0, 0, 0.00000000000000000000e+00) (0, 0, 0.00000000000000000000e+00) (0, 0, 0.00000000000000000000e+00) (0, 0, 0.00000000000000000000e+00) (0, 0, 0.00000000000000000000e+00) (0, 0, 0.00000000000000000000e+00) (0, 0, 0.00000000000000000000e+00) (0, 0, 0.00000000000000000000e+00) (0, 0, 0.00000000000000000000e+00) (0, 0, 0.00000000000000000000e+00) (0, 0, 0.00000000000000000000e+00) (0, 0, 0.00000000000000000000e+00) (0, 0, 0.00000000000000000000e+00) (0, 0, 0.00000000000000000000e+00) (0, 0, 0.00000000000000000000e+00) (0, 0, 0.00000000000000000000e+00) (0, 0, 0.00000000000000000000e+00) (0, 0, 0.00000000000000000000e+00) (0, 0, 0.00000000000000000000e+00) (0, 0, 0.00000000000000000000e+00) (0, 0, 0.00000000000000000000e+00) (0, 0, 0.00000000000000000000e+00) (0, 0, 0.00000000000000000000e+00) (0, 0, 0.00000000000000000000e+00) (0, 0, 0.00000000000000000000e+00) (0, 0, 0.00000000000000000000e+00) (0, 0, 0.00000000000000000000e+00) (0, 0, 0.00000000000000000000e+00) (0, 0, 0.00000000000000000000e+00) (0, 0, 0.00000000000000000000e+00) (0, 0, 0.00000000000000000000e+00) (0, 0, 0.00000000000000000000e+00) (0, 0, 0.00000000000000000000e+00) (0, 0, 0.00000000000000000000e+00) (0, 0, 0.00000000000000000000e+00) (0, 0, 0.00000000000000000000e+00) (0, 0, 0.00000000000000000000e+00) (0, 0, 0.00000000000000000000e+00) (0, 0, 0.00000000000000000000e+00) (0, 0, 0.00000000000000000000e+00) (0, 0, 0.00000000000000000000e+00) (0, 0, 0.00000000000000000000e+00) (0, 0, 0.00000000000000000000e+00) (0, 0, 0.00000000000000000000e+00) (0, 0, 0.00000000000000000000e+00) (0, 0, 0.00000000000000000000e+00) (0, 0, 0.00000000000000000000e+00) (0, 0, 0.00000000000000000000e+00) (0, 0, 0.00000000000000000000e+00) (0, 0, 0.00000000000000000000e+00) (0, 0, 0.00000000000000000000e+00) (0, 0, 0.00000000000000000000e+00) (0, 0, 0.00000000000000000000e+00) (0, 0, 0.00000000000000000000e+00) (0, 0, 0.00000000000000000000e+00) (0, 0, 0.00000000000000000000e+00) (0, 0, 0.00000000000000000000e+00) (0, 0, 0.00000000000000000000e+00) (0, 0, 0.00000000000000000000e+00) (0, 0, 0.00000000000000000000e+00) (0, 0, 0.00000000000000000000e+00) (0, 0, 0.00000000000000000000e+00) (0, 0, 0.00000000000000000000e+00) (0, 0, 0.00000000000000000000e+00) (0, 0, 0.00000000000000000000e+00) (0, 0, 0.00000000000000000000e+00) (0, 0, 0.00000000000000000000e+00) (0, 0, 0.00000000000000000000e+00) (0, 0, 0.00000000000000000000e+00) (0, 0, 0.00000000000000000000e+00) (0, 0, 0.00000000000000000000e+00) (0, 0, 0.00000000000000000000e+00) (0, 0, 0.00000000000000000000e+00) (0, 0, 0.00000000000000000000e+00) (0, 0, 0.00000000000000000000e+00) (0, 0, 0.00000000000000000000e+00) (0, 0, 0.00000000000000000000e+00) (0, 0, 0.00000000000000000000e+00) (0, 0, 0.00000000000000000000e+00) (0, 0, 0.00000000000000000000e+00) (0, 0, 0.00000000000000000000e+00) (0, 0, 0.00000000000000000000e+00) (0, 0, 0.00000000000000000000e+00) (0, 0, 0.00000000000000000000e+00) (0, 0, 0.00000000000000000000e+00) (0, 0, 0.00000000000000000000e+00) (0, 0, 0.00000000000000000000e+00) (0, 0, 0.00000000000000000000e+00) (0, 0, 0.00000000000000000000e+00) (0, 0, 0.00000000000000000000e+00) (0, 0, 0.00000000000000000000e+00) (0, 0, 0.00000000000000000000e+00) (0, 0, 0.00000000000000000000e+00) (0, 0, 0.00000000000000000000e+00) (0, 0, 0.00000000000000000000e+00) (0, 0, 0.00000000000000000000e+00) (0, 0, 0.00000000000000000000e+00) (0, 0, 0.00000000000000000000e+00) (0, 0, 0.00000000000000000000e+00) (0, 0, 0.00000000000000000000e+00) (0, 0, 0.00000000000000000000e+00) (0, 0, 0.00000000000000000000e+00) (0, 0, 0.00000000000000000000e+00) (0, 0, 0.00000000000000000000e+00) (0, 0, 0.00000000000000000000e+00) (0, 0, 0.00000000000000000000e+00) (0, 0, 0.00000000000000000000e+00) (0, 0, 0.00000000000000000000e+00) (0, 0, 0.00000000000000000000e+00) (0, 0, 0.00000000000000000000e+00) (0, 0, 0.00000000000000000000e+00) (0, 0, 0.00000000000000000000e+00) (0, 0, 0.00000000000000000000e+00) (0, 0, 0.00000000000000000000e+00) (0, 0, 0.00000000000000000000e+00) (0, 0, 0.00000000000000000000e+00) (0, 0, 0.00000000000000000000e+00) (0, 0, 0.00000000000000000000e+00) (0, 0, 0.00000000000000000000e+00) (0, 0, 0.00000000000000000000e+00) (0, 0, 0.00000000000000000000e+00) (0, 0, 0.00000000000000000000e+00) (0, 0, 0.00000000000000000000e+00) (0, 0, 0.00000000000000000000e+00) (0, 0, 0.00000000000000000000e+00) (0, 0, 0.00000000000000000000e+00) (0, 0, 0.00000000000000000000e+00) (0, 0, 0.00000000000000000000e+00) (0, 0, 0.00000000000000000000e+00) (0, 0, 0.00000000000000000000e+00) (0, 0, 0.00000000000000000000e+00) (0, 0, 0.00000000000000000000e+00) (0, 0, 0.00000000000000000000e+00) (0, 0, 0.00000000000000000000e+00) (0, 0, 0.00000000000000000000e+00) (0, 0, 0.00000000000000000000e+00) (0, 0, 0.00000000000000000000e+00) (901, 10, 5.00000000000000000000e-01) (901, 10, 5.00000000000000000000e-01) (901, 10, 5.00000000000000000000e-01) (901, 10, 5.00000000000000000000e-01) (901, 10, 5.00000000000000000000e-01) (901, 10, 5.00000000000000000000e-01) (901, 10, 5.00000000000000000000e-01) (901, 10, 5.00000000000000000000e-01) (901, 10, 5.00000000000000000000e-01) (901, 10, 5.00000000000000000000e-01) (901, 10, 5.00000000000000000000e-01) (901, 10, 5.00000000000000000000e-01) (901, 10, 5.00000000000000000000e-01) (901, 10, 5.00000000000000000000e-01) (901, 10, 5.00000000000000000000e-01) (901, 10, 5.00000000000000000000e-01) (901, 10, 5.00000000000000000000e-01) (901, 10, 5.00000000000000000000e-01) (901, 10, 5.00000000000000000000e-01) (901, 10, 5.00000000000000000000e-01) (901, 10, 5.00000000000000000000e-01) (901, 10, 5.00000000000000000000e-01) (901, 10, 5.00000000000000000000e-01) (901, 10, 5.00000000000000000000e-01) (901, 10, 5.00000000000000000000e-01) (901, 10, 5.00000000000000000000e-01) (901, 10, 5.00000000000000000000e-01) (901, 10, 5.00000000000000000000e-01) (901, 10, 5.00000000000000000000e-01) (901, 10, 5.00000000000000000000e-01) (901, 10, 5.00000000000000000000e-01) (901, 10, 5.00000000000000000000e-01) (901, 10, 5.00000000000000000000e-01) (901, 10, 5.00000000000000000000e-01) (901, 10, 5.00000000000000000000e-01) (901, 10, 5.00000000000000000000e-01) (901, 10, 5.00000000000000000000e-01) (901, 10, 5.00000000000000000000e-01) (901, 10, 5.00000000000000000000e-01) (901, 10, 5.00000000000000000000e-01) (901, 10, 5.00000000000000000000e-01) (901, 10, 5.00000000000000000000e-01) (901, 10, 5.00000000000000000000e-01) (901, 10, 5.00000000000000000000e-01) (901, 10, 5.00000000000000000000e-01) (901, 10, 5.00000000000000000000e-01) (901, 10, 5.00000000000000000000e-01) (901, 10, 5.00000000000000000000e-01) (901, 10, 5.00000000000000000000e-01) (901, 10, 5.00000000000000000000e-01) (901, 10, 5.00000000000000000000e-01) (901, 10, 5.00000000000000000000e-01) (901, 10, 5.00000000000000000000e-01) (901, 10, 5.00000000000000000000e-01) (901, 10, 5.00000000000000000000e-01) (901, 10, 5.00000000000000000000e-01) (901, 10, 5.00000000000000000000e-01) (901, 10, 5.00000000000000000000e-01) (901, 10, 5.00000000000000000000e-01) (901, 10, 5.00000000000000000000e-01) (901, 10, 5.00000000000000000000e-01) (901, 10, 5.00000000000000000000e-01) (901, 10, 5.00000000000000000000e-01) (901, 10, 5.00000000000000000000e-01) (901, 10, 5.00000000000000000000e-01) (901, 10, 5.00000000000000000000e-01) (901, 10, 5.00000000000000000000e-01) (901, 10, 5.00000000000000000000e-01) (901, 10, 5.00000000000000000000e-01) (901, 10, 5.00000000000000000000e-01) (901, 10, 5.00000000000000000000e-01) (901, 10, 5.00000000000000000000e-01) (901, 10, 5.00000000000000000000e-01) (901, 10, 5.00000000000000000000e-01) (901, 10, 5.00000000000000000000e-01) (901, 10, 5.00000000000000000000e-01) (901, 10, 5.00000000000000000000e-01) (901, 10, 5.00000000000000000000e-01) (901, 10, 5.00000000000000000000e-01) (901, 10, 5.00000000000000000000e-01) (901, 10, 5.00000000000000000000e-01) (901, 10, 5.00000000000000000000e-01) (901, 10, 5.00000000000000000000e-01) (901, 10, 5.00000000000000000000e-01) (901, 10, 5.00000000000000000000e-01) (901, 10, 5.00000000000000000000e-01) (901, 10, 5.00000000000000000000e-01) (901, 10, 5.00000000000000000000e-01) (901, 10, 5.00000000000000000000e-01) (901, 10, 5.00000000000000000000e-01) (901, 10, 5.00000000000000000000e-01) (901, 10, 5.00000000000000000000e-01) (901, 10, 5.00000000000000000000e-01) (901, 10, 5.00000000000000000000e-01) (901, 10, 5.00000000000000000000e-01) (901, 10, 5.00000000000000000000e-01) (901, 10, 5.00000000000000000000e-01) (901, 10, 5.00000000000000000000e-01) (901, 10, 5.00000000000000000000e-01) (901, 10, 5.00000000000000000000e-01) (0, 10, 0.00000000000000000000e+00) (101, 10, 5.00000000000000000000e-01) (101, 10, 5.00000000000000000000e-01) (101, 10, 5.00000000000000000000e-01) (101, 10, 5.00000000000000000000e-01) (101, 10, 5.00000000000000000000e-01) (101, 10, 5.00000000000000000000e-01) (101, 10, 5.00000000000000000000e-01) (101, 10, 5.00000000000000000000e-01) (101, 10, 5.00000000000000000000e-01) (101, 10, 5.00000000000000000000e-01) (101, 10, 5.00000000000000000000e-01) (101, 10, 5.00000000000000000000e-01) (101, 10, 5.00000000000000000000e-01) (101, 10, 5.00000000000000000000e-01) (101, 10, 5.00000000000000000000e-01) (101, 10, 5.00000000000000000000e-01) (101, 10, 5.00000000000000000000e-01) (101, 10, 5.00000000000000000000e-01) (101, 10, 5.00000000000000000000e-01) (101, 10, 5.00000000000000000000e-01) (101, 10, 5.00000000000000000000e-01) (101, 10, 5.00000000000000000000e-01) (101, 10, 5.00000000000000000000e-01) (101, 10, 5.00000000000000000000e-01) (101, 10, 5.00000000000000000000e-01) (101, 10, 5.00000000000000000000e-01) (101, 10, 5.00000000000000000000e-01) (101, 10, 5.00000000000000000000e-01) (101, 10, 5.00000000000000000000e-01) (101, 10, 5.00000000000000000000e-01) (101, 10, 5.00000000000000000000e-01) (101, 10, 5.00000000000000000000e-01) (101, 10, 5.00000000000000000000e-01) (101, 10, 5.00000000000000000000e-01) (101, 10, 5.00000000000000000000e-01) (101, 10, 5.00000000000000000000e-01) (0, 10, 0.00000000000000000000e+00) 
connections (connected_to_neuron, weight)=(0, 8.13252091407775878906e-01) (1, 9.72623109817504882812e-01) (2, 8.20051610469818115234e-01) (3, 9.72758233547210693359e-01) (4, 8.77820253372192382812e-01) (5, 9.67043817043304443359e-01) (6, 1.00022661685943603516e+00) (7, 1.07001316547393798828e+00) (8, 1.06669485569000244141e+00) (9, 1.01404428482055664062e+00) (10, 9.92727279663085937500e-01) (11, 9.72773611545562744141e-01) (12, 9.14861679077148437500e-01) (13, 1.37896394729614257812e+00) (14, 7.05033600330352783203e-01) (15, 6.09195530414581298828e-01) (16, 7.08131074905395507812e-01) (17, 6.73010826110839843750e-01) (18, 6.91329896450042724609e-01) (19, 6.03957951068878173828e-01) (20, 9.65557217597961425781e-01) (21, 9.09922897815704345703e-01) (22, 9.71584916114807128906e-01) (23, 9.18312132358551025391e-01) (24, 6.98964059352874755859e-01) (25, 7.08968520164489746094e-01) (26, 7.21835136413574218750e-01) (27, 9.81814980506896972656e-01) (28, 9.95399653911590576172e-01) (29, 8.82497310638427734375e-01) (30, 9.80145931243896484375e-01) (31, 8.12783420085906982422e-01) (32, 9.59335267543792724609e-01) (33, 9.04412508010864257812e-01) (34, 1.12355577945709228516e+00) (35, 1.07508623600006103516e+00) (36, 2.78281331062316894531e+00) (37, 2.80134010314941406250e+00) (38, 2.82265710830688476562e+00) (39, 2.75355625152587890625e+00) (40, 2.11735510826110839844e+00) (41, 2.11735510826110839844e+00) (42, 2.22830080986022949219e+00) (43, 1.29464650154113769531e+00) (44, 7.39254117012023925781e-01) (45, 7.68982231616973876953e-01) (46, 7.10191428661346435547e-01) (47, 7.00472712516784667969e-01) (48, 8.42397570610046386719e-01) (49, 8.72843027114868164062e-01) (50, 9.87451076507568359375e-01) (51, 8.86324405670166015625e-01) (52, 1.46267580986022949219e+00) (53, 1.58394730091094970703e+00) (54, 1.61030840873718261719e+00) (55, 1.53912842273712158203e+00) (56, 9.47363138198852539062e-01) (57, 9.86590862274169921875e-01) (58, 7.35382378101348876953e-01) (59, 6.80243074893951416016e-01) (60, 1.00360882282257080078e+00) (61, 9.93100166320800781250e-01) (62, 1.00439763069152832031e+00) (63, 9.77191448211669921875e-01) (64, 2.80886960029602050781e+00) (65, 2.77171182632446289062e+00) (66, 5.78170967102050781250e+00) (67, 1.30673027038574218750e+01) (68, 2.01973838806152343750e+01) (69, 2.01430263519287109375e+01) (70, 2.00663108825683593750e+01) (71, 9.11785793304443359375e+00) (72, 4.63988399505615234375e+00) (73, 1.93313503265380859375e+00) (74, 8.40173125267028808594e-01) (75, 8.62863540649414062500e-01) (76, 7.77733206748962402344e-01) (77, 9.13859009742736816406e-01) (78, 9.25444841384887695312e-01) (79, 2.59275794029235839844e+00) (80, 4.71042537689208984375e+00) (81, 9.13431930541992187500e+00) (82, 2.02076187133789062500e+01) (83, 2.84033279418945312500e+01) (84, 2.85248794555664062500e+01) (85, 1.22103996276855468750e+01) (86, 1.22118120193481445312e+01) (87, 1.44131314754486083984e+00) (88, 9.61461186408996582031e-01) (89, 9.26770746707916259766e-01) (90, 9.06392574310302734375e-01) (91, 9.52306985855102539062e-01) (92, 1.11605346202850341797e+00) (93, 1.70686018466949462891e+00) (94, 2.80705618858337402344e+00) (95, 1.29740524291992187500e+01) (96, 9.44411373138427734375e+00) (97, 4.65712966918945312500e+01) (98, 4.65517997741699218750e+01) (99, 2.02273235321044921875e+01) (100, 2.00395984649658203125e+01) (101, 4.62407159805297851562e+00) (102, 1.94973349571228027344e+00) (103, 1.05939757823944091797e+00) (104, 6.36216998100280761719e-01) (105, 8.95277023315429687500e-01) (106, 1.21487879753112792969e+00) (107, 6.08361959457397460938e-01) (108, 1.99253284931182861328e+00) (109, 2.64335703849792480469e+00) (110, 4.68288755416870117188e+00) (111, 2.00891723632812500000e+01) (112, 6.66010742187500000000e+01) (113, 6.65983276367187500000e+01) (114, 6.65578918457031250000e+01) (115, 6.65719909667968750000e+01) (116, 6.65731964111328125000e+01) (117, 1.21194906234741210938e+01) (118, 2.85414791107177734375e+00) (119, 1.08444726467132568359e+00) (120, 9.68984365463256835938e-01) (121, 9.33680236339569091797e-01) (122, 9.81390655040740966797e-01) (123, 1.45392560958862304688e+00) (124, 1.49372327327728271484e+00) (125, 2.39062523841857910156e+00) (126, 4.56286859512329101562e+00) (127, 4.54069375991821289062e+00) (128, 4.56354618072509765625e+00) (129, 2.22958803176879882812e+00) (130, 1.57099962234497070312e+00) (131, 9.01706695556640625000e-01) (132, 4.85994875431060791016e-01) (133, 4.49858546257019042969e-01) (134, 7.49860763549804687500e-01) (135, 6.68065547943115234375e-01) (136, 5.90544819831848144531e-01) (137, 7.85268604755401611328e-01) (138, 9.89130795001983642578e-01) (139, 2.52398848533630371094e+00) (140, 6.05463933944702148438e+00) (141, 1.30397834777832031250e+01) (142, 6.65697174072265625000e+01) (143, 6.64991912841796875000e+01) (144, 6.65559692382812500000e+01) (145, 6.64774017333984375000e+01) (146, 6.66209716796875000000e+01) (147, 2.83827171325683593750e+01) (148, 2.81441879272460937500e+00) (149, 1.53385567665100097656e+00) (150, 8.19898128509521484375e-01) (151, 6.86916351318359375000e-01) (152, 9.84603703022003173828e-01) (153, 9.00893092155456542969e-01) (154, 1.19639742374420166016e+00) (155, 1.31130063533782958984e+00) (156, 1.18380987644195556641e+00) (157, 1.38953113555908203125e+00) (158, 1.73312473297119140625e+00) (159, 8.85950624942779541016e-01) (160, 6.62287414073944091797e-01) (161, 6.15473508834838867188e-01) (162, 7.21761286258697509766e-01) (163, 7.87671923637390136719e-01) (164, 1.91057538986206054688e+00) (165, 1.15885305404663085938e+00) (166, 7.82512724399566650391e-01) (167, 6.22041702270507812500e-01) (168, 7.26981163024902343750e-01) (169, 1.44060432910919189453e+00) (170, 2.54393601417541503906e+00) (171, 6.14276266098022460938e+00) (172, 1.30064964294433593750e+01) (173, 6.64508666992187500000e+01) (174, 6.64854278564453125000e+01) (175, 6.64803161621093750000e+01) (176, 6.64780731201171875000e+01) (177, 2.83599586486816406250e+01) (178, 2.76212072372436523438e+00) (179, 2.84227943420410156250e+00) (180, 9.23507690429687500000e-01) (181, 7.74231731891632080078e-01) (182, 8.14718365669250488281e-01) (183, 9.12243008613586425781e-01) (184, 1.31126439571380615234e+00) (185, 1.21969139575958251953e+00) (186, 1.19832026958465576172e+00) (187, 1.10052406787872314453e+00) (188, 7.69408583641052246094e-01) (189, 7.43143260478973388672e-01) (190, 6.50673508644104003906e-01) (191, 1.02364242076873779297e+00) (192, 8.84948492050170898438e-01) (193, 1.90904068946838378906e+00) (194, 1.94220328330993652344e+00) (195, 9.61211919784545898438e-01) (196, 7.60454297065734863281e-01) (197, 6.32322669029235839844e-01) (198, 7.23734557628631591797e-01) (199, 1.22731328010559082031e+00) (200, 1.50894904136657714844e+00) (201, 2.86928248405456542969e+00) (202, 1.29148616790771484375e+01) (203, 2.84752655029296875000e+01) (204, 6.66168975830078125000e+01) (205, 6.65181579589843750000e+01) (206, 2.85053825378417968750e+01) (207, 1.30766868591308593750e+01) (208, 2.77719354629516601562e+00) (209, 2.71353316307067871094e+00) (210, 8.24907422065734863281e-01) (211, 6.92913770675659179688e-01) (212, 7.84505009651184082031e-01) (213, 9.82083916664123535156e-01) (214, 8.54731202125549316406e-01) (215, 7.17030465602874755859e-01) (216, 6.64599120616912841797e-01) (217, 6.98052167892456054688e-01) (218, 7.51165211200714111328e-01) (219, 7.63753116130828857422e-01) (220, 1.00577771663665771484e+00) (221, 9.52371120452880859375e-01) (222, 2.06369400024414062500e+00) (223, 1.90671730041503906250e+00) (224, 1.02710008621215820312e+00) (225, 6.23204946517944335938e-01) (226, 6.81347548961639404297e-01) (227, 6.91271603107452392578e-01) (228, 1.12448835372924804688e+00) (229, 1.34496009349822998047e+00) (230, 9.83075022697448730469e-01) (231, 2.75153970718383789062e+00) (232, 6.08667612075805664062e+00) (233, 2.85223541259765625000e+01) (234, 2.85235481262207031250e+01) (235, 2.84508094787597656250e+01) (236, 1.29184675216674804688e+01) (237, 6.07751321792602539062e+00) (238, 2.79464578628540039062e+00) (239, 1.00621318817138671875e+00) (240, 8.22603642940521240234e-01) (241, 7.16293156147003173828e-01) (242, 8.03175270557403564453e-01) (243, 5.80468654632568359375e-01) (244, 7.36919760704040527344e-01) (245, 6.41177773475646972656e-01) (246, 6.15376055240631103516e-01) (247, 5.44885694980621337891e-01) (248, 7.36729204654693603516e-01) (249, 1.13468134403228759766e+00) (250, 2.08391332626342773438e+00) (251, 1.99460482597351074219e+00) (252, 1.92410421371459960938e+00) (253, 1.05910325050354003906e+00) (254, 7.18629539012908935547e-01) (255, 7.64622569084167480469e-01) (256, 7.86025464534759521484e-01) (257, 7.97882735729217529297e-01) (258, 1.23253548145294189453e+00) (259, 1.21610021591186523438e+00) (260, 1.02657234668731689453e+00) (261, 2.89062619209289550781e+00) (262, 2.78681015968322753906e+00) (263, 6.04659461975097656250e+00) (264, 6.11227226257324218750e+00) (265, 6.00965070724487304688e+00) (266, 6.14343357086181640625e+00) (267, 1.73744893074035644531e+00) (268, 1.63837051391601562500e+00) (269, 9.74246978759765625000e-01) (270, 7.93678998947143554688e-01) (271, 7.96719729900360107422e-01) (272, 6.59289836883544921875e-01) (273, 5.70214390754699707031e-01) (274, 6.84912323951721191406e-01) (275, 6.40167236328125000000e-01) (276, 5.53823947906494140625e-01) (277, 4.44438278675079345703e-01) (278, 1.10786092281341552734e+00) (279, 1.16637396812438964844e+00) (280, 1.14063727855682373047e+00) (281, 1.09938073158264160156e+00) (282, 6.53538882732391357422e-01) (283, 7.57301926612854003906e-01) (284, 6.47154927253723144531e-01) (285, 7.70074188709259033203e-01) (286, 7.19830155372619628906e-01) (287, 1.10214102268218994141e+00) (288, 1.34459817409515380859e+00) (289, 1.39644610881805419922e+00) (290, 9.30915892124176025391e-01) (291, 8.05760622024536132812e-01) (292, 2.86006712913513183594e+00) (293, 2.85107207298278808594e+00) (294, 2.71701717376708984375e+00) (295, 2.81581568717956542969e+00) (296, 1.46519315242767333984e+00) (297, 1.46492123603820800781e+00) (298, 1.00058364868164062500e+00) (299, 1.48706305027008056641e+00) (300, 7.70303368568420410156e-01) (301, 5.63012123107910156250e-01) (302, 6.36475801467895507812e-01) (303, 7.04793512821197509766e-01) (304, 5.33468127250671386719e-01) (305, 5.46248078346252441406e-01) (306, 5.14696121215820312500e-01) (307, 5.33307611942291259766e-01) (308, 1.03333485126495361328e+00) (309, 1.17513048648834228516e+00) (310, 1.20211446285247802734e+00) (311, 1.15683162212371826172e+00) (312, 6.42324388027191162109e-01) (313, 6.38512849807739257812e-01) (314, 6.96992933750152587891e-01) (315, 6.87385082244873046875e-01) (316, 1.07754766941070556641e+00) (317, 1.08578360080718994141e+00) (318, 1.34128749370574951172e+00) (319, 1.39517152309417724609e+00) (320, 9.97183382511138916016e-01) (321, 1.04519855976104736328e+00) (322, 7.73927152156829833984e-01) (323, 1.60313713550567626953e+00) (324, 1.59061086177825927734e+00) (325, 1.56986486911773681641e+00) (326, 1.51569271087646484375e+00) (327, 1.43930327892303466797e+00) (328, 1.41828548908233642578e+00) (329, 1.46807837486267089844e+00) (330, 6.58392190933227539062e-01) (331, 7.41281747817993164062e-01) (332, 7.19082355499267578125e-01) (333, 7.05367207527160644531e-01) (334, 6.79775178432464599609e-01) (335, 6.49274349212646484375e-01) (336, 6.16765141487121582031e-01) (337, 5.32285690307617187500e-01) (338, 1.03706312179565429688e+00) (339, 1.02635681629180908203e+00) (340, 1.20984911918640136719e+00) (341, 6.06990993022918701172e-01) (342, 7.51001894474029541016e-01) (343, 6.35033071041107177734e-01) (344, 6.43409550189971923828e-01) (345, 1.11695539951324462891e+00) (346, 1.19137895107269287109e+00) (347, 1.11886286735534667969e+00) (348, 1.12958967685699462891e+00) (349, 1.10566139221191406250e+00) (350, 1.15794658660888671875e+00) (351, 1.21934592723846435547e+00) (352, 1.19188642501831054688e+00) (353, 9.01601552963256835938e-01) (354, 1.48940682411193847656e+00) (355, 1.44942104816436767578e+00) (356, 1.32335174083709716797e+00) (357, 1.34084510803222656250e+00) (358, 9.05661046504974365234e-01) (359, 9.58573877811431884766e-01) (360, 7.40949392318725585938e-01) (361, 7.23100185394287109375e-01) (362, 6.58902525901794433594e-01) (363, 6.60273253917694091797e-01) (364, 5.91250181198120117188e-01) (365, 4.74954932928085327148e-01) (366, 5.55872380733489990234e-01) (367, 9.09138083457946777344e-01) (368, 1.12216854095458984375e+00) (369, 1.16919255256652832031e+00) (370, 7.54173934459686279297e-01) (371, 6.99830949306488037109e-01) (372, 7.59043037891387939453e-01) (373, 7.03081250190734863281e-01) (374, 7.32769846916198730469e-01) (375, 8.00358235836029052734e-01) (376, 1.04107570648193359375e+00) (377, 9.45187509059906005859e-01) (378, 9.40260112285614013672e-01) (379, 8.97515952587127685547e-01) (380, 9.77699637413024902344e-01) (381, 6.59951984882354736328e-01) (382, 6.41843557357788085938e-01) (383, 7.65485048294067382812e-01) (384, 8.73365819454193115234e-01) (385, 7.26922869682312011719e-01) (386, 6.37283384799957275391e-01) (387, 7.82331407070159912109e-01) (388, 6.53381824493408203125e-01) (389, 7.01991319656372070312e-01) (390, 6.48597598075866699219e-01) (391, 5.86934089660644531250e-01) (392, 6.17694497108459472656e-01) (393, 6.55922114849090576172e-01) (394, 6.02582216262817382812e-01) (395, 4.16884601116180419922e-01) (396, 4.89467829465866088867e-01) (397, 7.35440313816070556641e-01) (398, 1.17149698734283447266e+00) (399, 1.18789327144622802734e+00) (400, 6.65114462375640869141e-01) (401, 7.08530366420745849609e-01) (402, 6.70583665370941162109e-01) (403, 6.22063100337982177734e-01) (404, 1.08057224750518798828e+00) (405, 1.09544754028320312500e+00) (406, 9.14515316486358642578e-01) (407, 5.83373963832855224609e-01) (408, 4.57231462001800537109e-01) (409, 4.71372008323669433594e-01) (410, 5.62611043453216552734e-01) (411, 5.86522638797760009766e-01) (412, 1.01635062694549560547e+00) (413, 2.08559203147888183594e+00) (414, 1.03910052776336669922e+00) (415, 1.10079932212829589844e+00) (416, 5.64149200916290283203e-01) (417, 6.59243464469909667969e-01) (418, 6.65990173816680908203e-01) (419, 6.63728177547454833984e-01) (420, 7.02483057975769042969e-01) (421, 7.07190752029418945312e-01) (422, 5.72348117828369140625e-01) (423, 4.31836038827896118164e-01) (424, 5.70307195186614990234e-01) (425, 4.71453249454498291016e-01) (426, 4.43329364061355590820e-01) (427, 7.78563499450683593750e-01) (428, 1.19417071342468261719e+00) (429, 7.76037216186523437500e-01) (430, 7.85135686397552490234e-01) (431, 6.42144680023193359375e-01) (432, 7.68566548824310302734e-01) (433, 1.12468004226684570312e+00) (434, 1.13316845893859863281e+00) (435, 1.20712590217590332031e+00) (436, 1.12384486198425292969e+00) (437, 1.15140128135681152344e+00) (438, 1.11316692829132080078e+00) (439, 7.00859546661376953125e-01) (440, 7.42556571960449218750e-01) (441, 7.95561134815216064453e-01) (442, 6.30346119403839111328e-01) (443, 1.07767045497894287109e+00) (444, 1.24056923389434814453e+00) (445, 8.99983763694763183594e-01) (446, 7.68549442291259765625e-01) (447, 6.98051929473876953125e-01) (448, 6.38538241386413574219e-01) (449, 7.12556898593902587891e-01) (450, 6.09385371208190917969e-01) (451, 5.33624172210693359375e-01) (452, 6.39055490493774414062e-01) (453, 5.88927745819091796875e-01) (454, 4.80335086584091186523e-01) (455, 5.24237453937530517578e-01) (456, 4.54989731311798095703e-01) (457, 1.09331881999969482422e+00) (458, 7.14877307415008544922e-01) (459, 7.85752654075622558594e-01) (460, 6.52215361595153808594e-01) (461, 7.84012019634246826172e-01) (462, 7.11896359920501708984e-01) (463, 7.16247856616973876953e-01) (464, 7.77882993221282958984e-01) (465, 7.14255869388580322266e-01) (466, 8.55918169021606445312e-01) (467, 1.03566718101501464844e+00) (468, 1.05114257335662841797e+00) (469, 1.47052311897277832031e+00) (470, 1.50901985168457031250e+00) (471, 1.03219270706176757812e+00) (472, 7.51464724540710449219e-01) (473, 8.24746251106262207031e-01) (474, 8.04678797721862792969e-01) (475, 6.09241068363189697266e-01) (476, 6.54010117053985595703e-01) (477, 6.24082803726196289062e-01) (478, 5.52385091781616210938e-01) (479, 6.06016099452972412109e-01) (480, 5.95067858695983886719e-01) (481, 5.73931097984313964844e-01) (482, 5.74198484420776367188e-01) (483, 5.12234687805175781250e-01) (484, 4.77733790874481201172e-01) (485, 6.30790591239929199219e-01) (486, 6.56282126903533935547e-01) (487, 5.27914881706237792969e-01) (488, 6.60701453685760498047e-01) (489, 6.39982223510742187500e-01) (490, 8.15526723861694335938e-01) (491, 9.04596686363220214844e-01) (492, 7.95485854148864746094e-01) (493, 6.79961681365966796875e-01) (494, 7.27368831634521484375e-01) (495, 1.05008029937744140625e+00) (496, 1.05684590339660644531e+00) (497, 2.76078963279724121094e+00) (498, 6.07490396499633789062e+00) (499, 6.04559898376464843750e+00) (500, 1.29979887008666992188e+01) (501, 5.97171974182128906250e+00) (502, 6.14804077148437500000e+00) (503, 6.12415885925292968750e+00) (504, 1.98319280147552490234e+00) (505, 8.18727850914001464844e-01) (506, 5.99408149719238281250e-01) (507, 5.94273567199707031250e-01) (508, 5.40380120277404785156e-01) (509, 5.70227563381195068359e-01) (510, 6.78005814552307128906e-01) (511, 6.56717181205749511719e-01) (512, 5.78717112541198730469e-01) (513, 5.67079186439514160156e-01) (514, 4.83826756477355957031e-01) (515, 6.51642322540283203125e-01) (516, 5.93061208724975585938e-01) (517, 7.15430498123168945312e-01) (518, 7.48089253902435302734e-01) (519, 7.83032417297363281250e-01) (520, 1.38899064064025878906e+00) (521, 1.32739424705505371094e+00) (522, 9.98232603073120117188e-01) (523, 9.79707717895507812500e-01) (524, 9.88503992557525634766e-01) (525, 1.65308260917663574219e+00) (526, 1.71565902233123779297e+00) (527, 3.36344194412231445312e+00) (528, 3.34283351898193359375e+00) (529, 3.26626014709472656250e+00) (530, 3.25251674652099609375e+00) (531, 6.03761291503906250000e+00) (532, 6.06038618087768554688e+00) (533, 6.02296400070190429688e+00) (534, 2.26206660270690917969e+00) (535, 6.37447595596313476562e-01) (536, 6.14250779151916503906e-01) (537, 5.33540725708007812500e-01) (538, 6.29482150077819824219e-01) (539, 6.11256539821624755859e-01) (540, 6.25037491321563720703e-01) (541, 6.00910782814025878906e-01) (542, 5.02532064914703369141e-01) (543, 4.75076377391815185547e-01) (544, 5.19628286361694335938e-01) (545, 5.81550240516662597656e-01) (546, 7.02040314674377441406e-01) (547, 6.88011169433593750000e-01) (548, 7.12746620178222656250e-01) (549, 8.05448591709136962891e-01) (550, 1.44417476654052734375e+00) (551, 1.47845840454101562500e+00) (552, 1.12730658054351806641e+00) (553, 9.05844271183013916016e-01) (554, 1.50284790992736816406e+00) (555, 1.54274976253509521484e+00) (556, 1.59479928016662597656e+00) (557, 1.67313432693481445312e+00) (558, 1.52859807014465332031e+00) (559, 3.10975527763366699219e+00) (560, 3.11151695251464843750e+00) (561, 3.29467415809631347656e+00) (562, 3.33228063583374023438e+00) (563, 1.64347672462463378906e+00) (564, 1.09871184825897216797e+00) (565, 5.96732735633850097656e-01) (566, 5.02078711986541748047e-01) (567, 4.59497064352035522461e-01) (568, 5.28034567832946777344e-01) (569, 7.11694598197937011719e-01) (570, 6.15706205368041992188e-01) (571, 6.02941751480102539062e-01) (572, 5.83927035331726074219e-01) (573, 5.89560031890869140625e-01) (574, 6.29656434059143066406e-01) (575, 4.98746663331985473633e-01) (576, 5.46431899070739746094e-01) (577, 7.20098495483398437500e-01) (578, 8.02523732185363769531e-01) (579, 9.61254656314849853516e-01) (580, 1.46191477775573730469e+00) (581, 1.00736320018768310547e+00) (582, 1.01650261878967285156e+00) (583, 1.05265820026397705078e+00) (584, 1.59850072860717773438e+00) (585, 1.58959960937500000000e+00) (586, 1.27766323089599609375e+00) (587, 1.29431033134460449219e+00) (588, 1.36374437808990478516e+00) (589, 1.31982064247131347656e+00) (590, 1.36790871620178222656e+00) (591, 1.43910443782806396484e+00) (592, 1.47501766681671142578e+00) (593, 9.44655537605285644531e-01) (594, 9.69469308853149414062e-01) (595, 6.01577520370483398438e-01) (596, 4.70398634672164916992e-01) (597, 5.86066544055938720703e-01) (598, 5.84030151367187500000e-01) (599, 6.02250277996063232422e-01) (600, 6.79477334022521972656e-01) (601, 5.29922485351562500000e-01) (602, 5.13277173042297363281e-01) (603, 5.34726023674011230469e-01) (604, 6.27567887306213378906e-01) (605, 5.38124918937683105469e-01) (606, 5.86693525314331054688e-01) (607, 5.03537297248840332031e-01) (608, 7.13625848293304443359e-01) (609, 9.68392848968505859375e-01) (610, 1.02629315853118896484e+00) (611, 1.05980527400970458984e+00) (612, 1.11360359191894531250e+00) (613, 9.22289073467254638672e-01) (614, 1.42332422733306884766e+00) (615, 1.40792095661163330078e+00) (616, 1.39414405822753906250e+00) (617, 1.29591751098632812500e+00) (618, 1.29716122150421142578e+00) (619, 1.19093465805053710938e+00) (620, 1.34184634685516357422e+00) (621, 1.19117796421051025391e+00) (622, 9.71185564994812011719e-01) (623, 6.75619959831237792969e-01) (624, 5.73882699012756347656e-01) (625, 5.52802324295043945312e-01) (626, 5.03606259822845458984e-01) (627, 5.26069998741149902344e-01) (628, 5.20585179328918457031e-01) (629, 4.54586029052734375000e-01) (630, 5.50180196762084960938e-01) (631, 4.86695408821105957031e-01) (632, 5.07905066013336181641e-01) (633, 5.01320958137512207031e-01) (634, 5.39601385593414306641e-01) (635, 5.32246828079223632812e-01) (636, 6.26124978065490722656e-01) (637, 7.17573165893554687500e-01) (638, 9.44741070270538330078e-01) (639, 1.04252660274505615234e+00) (640, 9.86287355422973632812e-01) (641, 1.10888171195983886719e+00) (642, 1.04017949104309082031e+00) (643, 1.38619673252105712891e+00) (644, 1.50823235511779785156e+00) (645, 1.20257472991943359375e+00) (646, 1.35093128681182861328e+00) (647, 1.29730641841888427734e+00) (648, 1.31766223907470703125e+00) (649, 1.23049890995025634766e+00) (650, 1.27064764499664306641e+00) (651, 1.24191498756408691406e+00) (652, 7.84968018531799316406e-01) (653, 6.16729199886322021484e-01) (654, 5.36704897880554199219e-01) (655, 6.27109766006469726562e-01) (656, 4.36553627252578735352e-01) (657, 5.07333219051361083984e-01) (658, 4.81902033090591430664e-01) (659, 5.24088501930236816406e-01) (660, 6.42643749713897705078e-01) (661, 5.73625802993774414062e-01) (662, 5.99185526371002197266e-01) (663, 6.25175476074218750000e-01) (664, 6.50268316268920898438e-01) (665, 7.00978457927703857422e-01) (666, 6.41019880771636962891e-01) (667, 1.00349771976470947266e+00) (668, 1.55436587333679199219e+00) (669, 1.60642027854919433594e+00) (670, 1.59949362277984619141e+00) (671, 1.11019790172576904297e+00) (672, 9.69929456710815429688e-01) (673, 1.47655785083770751953e+00) (674, 9.02050197124481201172e-01) (675, 1.21723282337188720703e+00) (676, 1.36712443828582763672e+00) (677, 1.20556688308715820312e+00) (678, 1.29694581031799316406e+00) (679, 1.26719307899475097656e+00) (680, 1.25523579120635986328e+00) (681, 1.15260958671569824219e+00) (682, 7.09162533283233642578e-01) (683, 5.22780418395996093750e-01) (684, 6.96189343929290771484e-01) (685, 4.67978596687316894531e-01) (686, 5.78684926033020019531e-01) (687, 4.17912155389785766602e-01) (688, 5.50181984901428222656e-01) (689, 4.45683687925338745117e-01) (690, 7.32617855072021484375e-01) (691, 5.00910878181457519531e-01) (692, 5.70947885513305664062e-01) (693, 5.35062849521636962891e-01) (694, 6.32504582405090332031e-01) (695, 7.03951120376586914062e-01) (696, 1.47321653366088867188e+00) (697, 2.73827123641967773438e+00) (698, 1.54711794853210449219e+00) (699, 1.56741356849670410156e+00) (700, 1.02580976486206054688e+00) (701, 9.51818108558654785156e-01) (702, 8.98439764976501464844e-01) (703, 9.83652055263519287109e-01) (704, 8.16284477710723876953e-01) (705, 1.23795378208160400391e+00) (706, 1.35347044467926025391e+00) (707, 1.18754053115844726562e+00) (708, 1.22592723369598388672e+00) (709, 1.26958620548248291016e+00) (710, 1.20298647880554199219e+00) (711, 1.26617920398712158203e+00) (712, 6.93167567253112792969e-01) (713, 6.65642738342285156250e-01) (714, 5.15810251235961914062e-01) (715, 6.11468195915222167969e-01) (716, 6.08564019203186035156e-01) (717, 5.79664349555969238281e-01) (718, 6.04250550270080566406e-01) (719, 5.80606162548065185547e-01) (720, 8.86882543563842773438e-01) (721, 5.53207993507385253906e-01) (722, 6.29850149154663085938e-01) (723, 5.76715826988220214844e-01) (724, 7.71005630493164062500e-01) (725, 6.10688090324401855469e-01) (726, 6.62326872348785400391e-01) (727, 7.46488451957702636719e-01) (728, 9.31899070739746093750e-01) (729, 9.06719088554382324219e-01) (730, 1.01117610931396484375e+00) (731, 1.44401454925537109375e+00) (732, 8.62502336502075195312e-01) (733, 9.13581013679504394531e-01) (734, 1.24907386302947998047e+00) (735, 1.26788020133972167969e+00) (736, 1.35566651821136474609e+00) (737, 1.18495082855224609375e+00) (738, 1.23782730102539062500e+00) (739, 1.12984633445739746094e+00) (740, 1.23955333232879638672e+00) (741, 1.09674692153930664062e+00) (742, 7.37914621829986572266e-01) (743, 6.63298606872558593750e-01) (744, 5.89312791824340820312e-01) (745, 4.75836038589477539062e-01) (746, 5.72625517845153808594e-01) (747, 5.82973539829254150391e-01) (748, 4.30370718240737915039e-01) (749, 5.98736286163330078125e-01) (750, 7.88350760936737060547e-01) (751, 4.96134042739868164062e-01) (752, 5.00277578830718994141e-01) (753, 5.37086308002471923828e-01) (754, 5.87724685668945312500e-01) (755, 4.72146928310394287109e-01) (756, 5.38411676883697509766e-01) (757, 7.06845760345458984375e-01) (758, 7.31809794902801513672e-01) (759, 6.05574011802673339844e-01) (760, 9.65172588825225830078e-01) (761, 8.14140975475311279297e-01) (762, 8.39951634407043457031e-01) (763, 1.19308483600616455078e+00) (764, 1.31681549549102783203e+00) (765, 1.29315710067749023438e+00) (766, 1.24337160587310791016e+00) (767, 1.18397116661071777344e+00) (768, 1.22636079788208007812e+00) (769, 7.95159995555877685547e-01) (770, 7.69613265991210937500e-01) (771, 7.21709668636322021484e-01) (772, 5.08578062057495117188e-01) (773, 5.09160578250885009766e-01) (774, 4.92834478616714477539e-01) (775, 5.92908322811126708984e-01) (776, 4.82855468988418579102e-01) (777, 4.63624626398086547852e-01) (778, 6.10809862613677978516e-01) (779, 5.35086333751678466797e-01) (780, 7.95386314392089843750e-01) (781, 5.84831058979034423828e-01) (782, 5.79553484916687011719e-01) (783, 5.29526710510253906250e-01) (784, 6.41014456748962402344e-01) (785, 4.70839709043502807617e-01) (786, 5.04846155643463134766e-01) (787, 4.81738567352294921875e-01) (788, 6.49919629096984863281e-01) (789, 6.52120828628540039062e-01) (790, 5.21055102348327636719e-01) (791, 5.02237081527709960938e-01) (792, 5.51109075546264648438e-01) (793, 5.39157271385192871094e-01) (794, 4.88510906696319580078e-01) (795, 4.87094521522521972656e-01) (796, 5.73529601097106933594e-01) (797, 5.09860992431640625000e-01) (798, 5.19961416721343994141e-01) (799, 5.26741027832031250000e-01) (800, 5.02926647663116455078e-01) (801, 6.87480330467224121094e-01) (802, 5.90786457061767578125e-01) (803, 4.39021646976470947266e-01) (804, 4.24157798290252685547e-01) (805, 4.81785416603088378906e-01) (806, 4.61457610130310058594e-01) (807, 4.90014642477035522461e-01) (808, 5.40176391601562500000e-01) (809, 6.57364130020141601562e-01) (810, 8.68305861949920654297e-01) (811, 7.94075489044189453125e-01) (812, 6.67249679565429687500e-01) (813, 6.91817164421081542969e-01) (814, 7.67560005187988281250e-01) (815, 6.94068312644958496094e-01) (816, 5.37180900573730468750e-01) (817, 6.46930158138275146484e-01) (818, 6.67938351631164550781e-01) (819, 5.07061481475830078125e-01) (820, 6.19011938571929931641e-01) (821, 5.03027617931365966797e-01) (822, 5.45328855514526367188e-01) (823, 4.62554842233657836914e-01) (824, 3.97085636854171752930e-01) (825, 4.27549719810485839844e-01) (826, 4.12936806678771972656e-01) (827, 5.50013363361358642578e-01) (828, 4.77999389171600341797e-01) (829, 4.84196692705154418945e-01) (830, 5.89897155761718750000e-01) (831, 5.23671090602874755859e-01) (832, 5.22042453289031982422e-01) (833, 5.46324014663696289062e-01) (834, 5.23729443550109863281e-01) (835, 4.95271444320678710938e-01) (836, 5.92477202415466308594e-01) (837, 5.79953432083129882812e-01) (838, 6.07146263122558593750e-01) (839, 5.17750263214111328125e-01) (840, 7.76842355728149414062e-01) (841, 7.90327012538909912109e-01) (842, 7.55783498287200927734e-01) (843, 7.34317123889923095703e-01) (844, 7.72369205951690673828e-01) (845, 6.84485495090484619141e-01) (846, 6.94054841995239257812e-01) (847, 4.08233433961868286133e-01) (848, 5.07520735263824462891e-01) (849, 5.01139223575592041016e-01) (850, 5.13792097568511962891e-01) (851, 6.21904611587524414062e-01) (852, 5.25437831878662109375e-01) (853, 5.49623966217041015625e-01) (854, 4.70243394374847412109e-01) (855, 5.45070886611938476562e-01) (856, 3.91679644584655761719e-01) (857, 5.26676774024963378906e-01) (858, 5.09590208530426025391e-01) (859, 5.24497032165527343750e-01) (860, 6.25991165637969970703e-01) (861, 5.39045155048370361328e-01) (862, 6.17811858654022216797e-01) (863, 4.99346971511840820312e-01) (864, 5.94166874885559082031e-01) (865, 4.87102389335632324219e-01) (866, 5.33814787864685058594e-01) (867, 5.75045585632324218750e-01) (868, 6.25483751296997070312e-01) (869, 7.70306229591369628906e-01) (870, 8.32320570945739746094e-01) (871, 8.73647809028625488281e-01) (872, 7.61037766933441162109e-01) (873, 7.49246239662170410156e-01) (874, 7.69107043743133544922e-01) (875, 8.94549012184143066406e-01) (876, 7.94873952865600585938e-01) (877, 8.24304103851318359375e-01) (878, 7.55348563194274902344e-01) (879, 6.48025751113891601562e-01) (880, 5.38442134857177734375e-01) (881, 4.52529281377792358398e-01) (882, 5.08535802364349365234e-01) (883, 4.35313194990158081055e-01) (884, 5.75433433055877685547e-01) (885, 5.52059412002563476562e-01) (886, 3.94246399402618408203e-01) (887, 5.61622619628906250000e-01) (888, 4.44255262613296508789e-01) (889, 5.89199542999267578125e-01) (890, 5.54985702037811279297e-01) (891, 5.39112329483032226562e-01) (892, 6.30677819252014160156e-01) (893, 6.75230562686920166016e-01) (894, 5.77655792236328125000e-01) (895, 6.07594132423400878906e-01) (896, 7.08318948745727539062e-01) (897, 6.20693266391754150391e-01) (898, 7.68431842327117919922e-01) (899, 6.76041662693023681641e-01) (900, 8.58594119548797607422e-01) (0, 1.41475152969360351562e+00) (1, 1.36368858814239501953e+00) (2, 1.43735802173614501953e+00) (3, 1.41745924949645996094e+00) (4, 1.38625729084014892578e+00) (5, 1.38536870479583740234e+00) (6, 1.30255818367004394531e+00) (7, 1.30078625679016113281e+00) (8, 1.41363680362701416016e+00) (9, 1.45301687717437744141e+00) (10, 1.47448933124542236328e+00) (11, 1.44020462036132812500e+00) (12, 1.33559119701385498047e+00) (13, 1.57215070724487304688e+00) (14, 1.48244857788085937500e+00) (15, 1.55446100234985351562e+00) (16, 1.37784266471862792969e+00) (17, 1.47933185100555419922e+00) (18, 1.43397688865661621094e+00) (19, 1.41792905330657958984e+00) (20, 1.48520445823669433594e+00) (21, 1.42397606372833251953e+00) (22, 1.31427609920501708984e+00) (23, 1.42610454559326171875e+00) (24, 1.43053793907165527344e+00) (25, 1.32227492332458496094e+00) (26, 1.33482801914215087891e+00) (27, 1.25163567066192626953e+00) (28, 1.36202836036682128906e+00) (29, 1.48219144344329833984e+00) (30, 1.42204213142395019531e+00) (31, 1.49017381668090820312e+00) (32, 1.32251048088073730469e+00) (33, 1.29926717281341552734e+00) (34, 1.31334638595581054688e+00) (35, 8.88550877571105957031e-01) (36, 8.64418983459472656250e-01) (37, 8.66604924201965332031e-01) (38, 9.02731180191040039062e-01) (39, 7.91449666023254394531e-01) (40, 6.98397517204284667969e-01) (41, 7.55996167659759521484e-01) (42, 8.44583809375762939453e-01) (43, 1.07623028755187988281e+00) (44, 1.60379457473754882812e+00) (45, 2.95371913909912109375e+00) (46, 2.96268415451049804688e+00) (47, 3.02867770195007324219e+00) (48, 3.05813527107238769531e+00) (49, 1.46900105476379394531e+00) (50, 1.57049286365509033203e+00) (51, 1.41567981243133544922e+00) (52, 9.47687149047851562500e-01) (53, 7.76242613792419433594e-01) (54, 7.84803867340087890625e-01) (55, 8.91619086265563964844e-01) (56, 1.34552240371704101562e+00) (57, 1.36663687229156494141e+00) (58, 1.39025962352752685547e+00) (59, 1.22094452381134033203e+00) (60, 1.46990275382995605469e+00) (61, 1.35984945297241210938e+00) (62, 1.45866620540618896484e+00) (63, 9.35432851314544677734e-01) (64, 8.38899731636047363281e-01) (65, 8.22712779045104980469e-01) (66, 6.34332776069641113281e-01) (67, 5.97660660743713378906e-01) (68, 5.80773770809173583984e-01) (69, 5.59064149856567382812e-01) (70, 9.10823643207550048828e-01) (71, 8.94841432571411132812e-01) (72, 1.66565656661987304688e+00) (73, 1.68553447723388671875e+00) (74, 1.65005195140838623047e+00) (75, 1.63466441631317138672e+00) (76, 1.76850080490112304688e+00) (77, 3.48553729057312011719e+00) (78, 3.53614354133605957031e+00) (79, 1.35763406753540039062e+00) (80, 1.29472672939300537109e+00) (81, 9.83930528163909912109e-01) (82, 6.73987507820129394531e-01) (83, 4.38517063856124877930e-01) (84, 6.19170546531677246094e-01) (85, 6.83340787887573242188e-01) (86, 6.29630386829376220703e-01) (87, 6.01493418216705322266e-01) (88, 1.29783129692077636719e+00) (89, 1.33474814891815185547e+00) (90, 1.40821337699890136719e+00) (91, 1.38228619098663330078e+00) (92, 1.47890865802764892578e+00) (93, 8.46662580966949462891e-01) (94, 5.94457268714904785156e-01) (95, 5.94546616077423095703e-01) (96, 6.79724633693695068359e-01) (97, 6.00144088268280029297e-01) (98, 4.79568183422088623047e-01) (99, 5.88638901710510253906e-01) (100, 8.13583135604858398438e-01) (101, 9.42811846733093261719e-01) (102, 1.74128556251525878906e+00) (103, 1.65732157230377197266e+00) (104, 1.81699657440185546875e+00) (105, 3.42381024360656738281e+00) (106, 3.46755123138427734375e+00) (107, 3.50415515899658203125e+00) (108, 2.72167658805847167969e+00) (109, 2.61602377891540527344e+00) (110, 2.55901408195495605469e+00) (111, 1.93229901790618896484e+00) (112, 9.73610043525695800781e-01) (113, 6.13854408264160156250e-01) (114, 7.05824375152587890625e-01) (115, 4.49235945940017700195e-01) (116, 6.59516215324401855469e-01) (117, 6.19115233421325683594e-01) (118, 8.42063665390014648438e-01) (119, 1.33921015262603759766e+00) (120, 1.33963859081268310547e+00) (121, 1.34114849567413330078e+00) (122, 1.23489022254943847656e+00) (123, 1.26102399826049804688e+00) (124, 8.57338428497314453125e-01) (125, 8.06447625160217285156e-01) (126, 8.32670867443084716797e-01) (127, 6.27934396266937255859e-01) (128, 5.32201170921325683594e-01) (129, 1.14891207218170166016e+00) (130, 1.56401121616363525391e+00) (131, 2.73528146743774414062e+00) (132, 5.57482910156250000000e+00) (133, 5.53280067443847656250e+00) (134, 5.69089269638061523438e+00) (135, 5.56692934036254882812e+00) (136, 1.27585353851318359375e+01) (137, 1.27603683471679687500e+01) (138, 1.26730098724365234375e+01) (139, 6.33470582962036132812e+00) (140, 6.43088626861572265625e+00) (141, 2.84730458259582519531e+00) (142, 2.87911319732666015625e+00) (143, 1.11933386325836181641e+00) (144, 7.03738570213317871094e-01) (145, 7.41645455360412597656e-01) (146, 7.11369454860687255859e-01) (147, 8.70902001857757568359e-01) (148, 8.75618994235992431641e-01) (149, 1.35086512565612792969e+00) (150, 1.37190091609954833984e+00) (151, 1.30612885951995849609e+00) (152, 1.40540742874145507812e+00) (153, 1.32018494606018066406e+00) (154, 7.82171785831451416016e-01) (155, 6.39400601387023925781e-01) (156, 7.10943698883056640625e-01) (157, 1.40408933162689208984e+00) (158, 2.62753391265869140625e+00) (159, 2.67325639724731445312e+00) (160, 2.76548886299133300781e+00) (161, 2.68584132194519042969e+00) (162, 2.66628456115722656250e+00) (163, 2.67487883567810058594e+00) (164, 2.75320315361022949219e+00) (165, 2.65598082542419433594e+00) (166, 2.74061226844787597656e+00) (167, 5.52759599685668945312e+00) (168, 5.63220643997192382812e+00) (169, 5.62947893142700195312e+00) (170, 2.92189288139343261719e+00) (171, 2.92268347740173339844e+00) (172, 5.64070272445678710938e+00) (173, 5.63004064559936523438e+00) (174, 1.46862983703613281250e+00) (175, 1.52327525615692138672e+00) (176, 9.78170275688171386719e-01) (177, 8.91309916973114013672e-01) (178, 1.37528479099273681641e+00) (179, 1.41445767879486083984e+00) (180, 1.29628300666809082031e+00) (181, 1.46057951450347900391e+00) (182, 1.36306357383728027344e+00) (183, 1.16421878337860107422e+00) (184, 7.95783340930938720703e-01) (185, 7.29546248912811279297e-01) (186, 8.54637563228607177734e-01) (187, 2.65829563140869140625e+00) (188, 2.57864379882812500000e+00) (189, 2.76485776901245117188e+00) (190, 2.75354123115539550781e+00) (191, 2.76612210273742675781e+00) (192, 1.46959352493286132812e+00) (193, 1.40296268463134765625e+00) (194, 1.42413806915283203125e+00) (195, 1.40902876853942871094e+00) (196, 1.44517540931701660156e+00) (197, 1.55098211765289306641e+00) (198, 1.43542838096618652344e+00) (199, 9.13491785526275634766e-01) (200, 1.01657092571258544922e+00) (201, 1.05854654312133789062e+00) (202, 5.58906841278076171875e+00) (203, 5.54505157470703125000e+00) (204, 2.65317916870117187500e+00) (205, 2.73814249038696289062e+00) (206, 2.74877095222473144531e+00) (207, 1.41144537925720214844e+00) (208, 1.40954828262329101562e+00) (209, 1.38280856609344482422e+00) (210, 1.45098733901977539062e+00) (211, 1.33091568946838378906e+00) (212, 1.24910140037536621094e+00) (213, 1.07657921314239501953e+00) (214, 7.61018693447113037109e-01) (215, 8.29195916652679443359e-01) (216, 9.12219464778900146484e-01) (217, 2.75903964042663574219e+00) (218, 2.77017784118652343750e+00) (219, 2.70263242721557617188e+00) (220, 2.74588680267333984375e+00) (221, 1.54261350631713867188e+00) (222, 1.48764884471893310547e+00) (223, 1.43746972084045410156e+00) (224, 1.57066047191619873047e+00) (225, 1.53687119483947753906e+00) (226, 1.47158277034759521484e+00) (227, 1.44092023372650146484e+00) (228, 9.98697757720947265625e-01) (229, 1.01785564422607421875e+00) (230, 9.27950143814086914062e-01) (231, 9.54592883586883544922e-01) (232, 1.47842001914978027344e+00) (233, 1.53006219863891601562e+00) (234, 2.66423678398132324219e+00) (235, 5.67986965179443359375e+00) (236, 5.61647462844848632812e+00) (237, 2.63499712944030761719e+00) (238, 2.59321331977844238281e+00) (239, 1.52482664585113525391e+00) (240, 1.40303158760070800781e+00) (241, 1.46619009971618652344e+00) (242, 1.40990948677062988281e+00) (243, 1.11466145515441894531e+00) (244, 1.05616319179534912109e+00) (245, 7.55239307880401611328e-01) (246, 7.79033958911895751953e-01) (247, 1.14122200012207031250e+00) (248, 2.59696531295776367188e+00) (249, 2.63189816474914550781e+00) (250, 2.71796083450317382812e+00) (251, 1.56174659729003906250e+00) (252, 1.39650094509124755859e+00) (253, 1.42759907245635986328e+00) (254, 1.42430067062377929688e+00) (255, 1.34069955348968505859e+00) (256, 1.33800840377807617188e+00) (257, 1.00672793388366699219e+00) (258, 9.44010496139526367188e-01) (259, 1.01333665847778320312e+00) (260, 9.63907718658447265625e-01) (261, 1.01128494739532470703e+00) (262, 1.51840126514434814453e+00) (263, 1.38165199756622314453e+00) (264, 2.68376636505126953125e+00) (265, 5.58245420455932617188e+00) (266, 5.68660593032836914062e+00) (267, 5.52223014831542968750e+00) (268, 2.71625494956970214844e+00) (269, 2.57862281799316406250e+00) (270, 1.45755100250244140625e+00) (271, 1.34127593040466308594e+00) (272, 1.39588487148284912109e+00) (273, 1.12998878955841064453e+00) (274, 9.69331145286560058594e-01) (275, 8.94556343555450439453e-01) (276, 8.26111495494842529297e-01) (277, 1.07778501510620117188e+00) (278, 1.41689002513885498047e+00) (279, 2.60005664825439453125e+00) (280, 1.49503135681152343750e+00) (281, 1.40173029899597167969e+00) (282, 1.38379240036010742188e+00) (283, 1.46507048606872558594e+00) (284, 1.40286755561828613281e+00) (285, 1.38163125514984130859e+00) (286, 1.01970696449279785156e+00) (287, 7.17200458049774169922e-01) (288, 6.27377331256866455078e-01) (289, 6.65429294109344482422e-01) (290, 7.06624746322631835938e-01) (291, 9.68221545219421386719e-01) (292, 1.51634442806243896484e+00) (293, 1.36519908905029296875e+00) (294, 2.69229269027709960938e+00) (295, 2.67674112319946289062e+00) (296, 5.62428379058837890625e+00) (297, 5.60088777542114257812e+00) (298, 5.62096071243286132812e+00) (299, 2.63934230804443359375e+00) (300, 1.38690948486328125000e+00) (301, 1.30639815330505371094e+00) (302, 1.33169043064117431641e+00) (303, 1.04532277584075927734e+00) (304, 6.60475850105285644531e-01) (305, 6.66026115417480468750e-01) (306, 6.97552084922790527344e-01) (307, 1.07052266597747802734e+00) (308, 9.34688508510589599609e-01) (309, 8.57767641544342041016e-01) (310, 8.99879813194274902344e-01) (311, 9.25721406936645507812e-01) (312, 1.38908374309539794922e+00) (313, 1.37649464607238769531e+00) (314, 1.33516049385070800781e+00) (315, 1.43181836605072021484e+00) (316, 7.71213829517364501953e-01) (317, 5.31216263771057128906e-01) (318, 6.62412703037261962891e-01) (319, 7.75527656078338623047e-01) (320, 6.73014879226684570312e-01) (321, 9.46822822093963623047e-01) (322, 1.38337934017181396484e+00) (323, 1.36629581451416015625e+00) (324, 1.50289225578308105469e+00) (325, 2.75230264663696289062e+00) (326, 5.64285326004028320312e+00) (327, 5.55226039886474609375e+00) (328, 5.57517957687377929688e+00) (329, 2.63943195343017578125e+00) (330, 1.39900183677673339844e+00) (331, 1.46089291572570800781e+00) (332, 1.36781954765319824219e+00) (333, 9.93220448493957519531e-01) (334, 6.59387290477752685547e-01) (335, 5.53521871566772460938e-01) (336, 6.94423437118530273438e-01) (337, 5.52338004112243652344e-01) (338, 1.28266012668609619141e+00) (339, 8.83595347404479980469e-01) (340, 1.33232724666595458984e+00) (341, 1.43458914756774902344e+00) (342, 1.32910394668579101562e+00) (343, 1.39804160594940185547e+00) (344, 7.67061293125152587891e-01) (345, 6.25936508178710937500e-01) (346, 5.09361386299133300781e-01) (347, 6.38735532760620117188e-01) (348, 6.22268795967102050781e-01) (349, 6.19627833366394042969e-01) (350, 9.62398409843444824219e-01) (351, 1.47195887565612792969e+00) (352, 1.50551354885101318359e+00) (353, 1.52186536788940429688e+00) (354, 1.56643128395080566406e+00) (355, 2.68813133239746093750e+00) (356, 5.67398452758789062500e+00) (357, 5.63436889648437500000e+00) (358, 5.66238069534301757812e+00) (359, 2.62478184700012207031e+00) (360, 1.48119974136352539062e+00) (361, 1.36018621921539306641e+00) (362, 1.23674678802490234375e+00) (363, 7.51325607299804687500e-01) (364, 7.06578612327575683594e-01) (365, 6.00961208343505859375e-01) (366, 7.00246334075927734375e-01) (367, 6.55485332012176513672e-01) (368, 7.91794180870056152344e-01) (369, 1.23738968372344970703e+00) (370, 1.40221762657165527344e+00) (371, 1.34407591819763183594e+00) (372, 1.18124079704284667969e+00) (373, 5.28471112251281738281e-01) (374, 5.39266824722290039062e-01) (375, 4.45502698421478271484e-01) (376, 5.72792649269104003906e-01) (377, 5.49183726310729980469e-01) (378, 6.46291136741638183594e-01) (379, 5.42347788810729980469e-01) (380, 1.47907328605651855469e+00) (381, 1.45543301105499267578e+00) (382, 1.49067580699920654297e+00) (383, 1.49798071384429931641e+00) (384, 2.70857024192810058594e+00) (385, 5.66001844406127929688e+00) (386, 5.58592796325683593750e+00) (387, 5.60454368591308593750e+00) (388, 5.59319067001342773438e+00) (389, 2.62392687797546386719e+00) (390, 1.43672466278076171875e+00) (391, 1.37319421768188476562e+00) (392, 1.33518540859222412109e+00) (393, 1.13599991798400878906e+00) (394, 6.37913465499877929688e-01) (395, 5.22946000099182128906e-01) (396, 5.48492789268493652344e-01) (397, 7.92643249034881591797e-01) (398, 7.81486570835113525391e-01) (399, 8.38815093040466308594e-01) (400, 7.18871295452117919922e-01) (401, 1.27457571029663085938e+00) (402, 5.92957496643066406250e-01) (403, 7.14311003684997558594e-01) (404, 6.22797667980194091797e-01) (405, 6.24763488769531250000e-01) (406, 7.09430158138275146484e-01) (407, 4.60706323385238647461e-01) (408, 7.29250133037567138672e-01) (409, 9.80666935443878173828e-01) (410, 1.31331562995910644531e+00) (411, 1.51020276546478271484e+00) (412, 1.43599307537078857422e+00) (413, 1.56893169879913330078e+00) (414, 2.73945522308349609375e+00) (415, 4.36857891082763671875e+00) (416, 4.47823381423950195312e+00) (417, 5.54737281799316406250e+00) (418, 2.72454094886779785156e+00) (419, 2.62284302711486816406e+00) (420, 1.37869858741760253906e+00) (421, 1.38325488567352294922e+00) (422, 1.34710943698883056641e+00) (423, 9.76412177085876464844e-01) (424, 6.72426521778106689453e-01) (425, 6.89849972724914550781e-01) (426, 5.58179974555969238281e-01) (427, 6.51730120182037353516e-01) (428, 6.89658939838409423828e-01) (429, 8.14549624919891357422e-01) (430, 7.53661036491394042969e-01) (431, 8.71646404266357421875e-01) (432, 8.46658825874328613281e-01) (433, 7.84956753253936767578e-01) (434, 6.76828920841217041016e-01) (435, 5.79089343547821044922e-01) (436, 5.35385906696319580078e-01) (437, 6.63811445236206054688e-01) (438, 7.89404034614562988281e-01) (439, 9.94974911212921142578e-01) (440, 1.43285667896270751953e+00) (441, 1.41029357910156250000e+00) (442, 1.55661678314208984375e+00) (443, 3.59994077682495117188e+00) (444, 3.65877008438110351562e+00) (445, 3.72097563743591308594e+00) (446, 3.64312362670898437500e+00) (447, 4.35917377471923828125e+00) (448, 2.27741551399230957031e+00) (449, 1.38673973083496093750e+00) (450, 1.36521673202514648438e+00) (451, 1.36802053451538085938e+00) (452, 1.39507889747619628906e+00) (453, 1.04577147960662841797e+00) (454, 1.12874388694763183594e+00) (455, 8.51816654205322265625e-01) (456, 7.82565057277679443359e-01) (457, 7.33867466449737548828e-01) (458, 6.98945522308349609375e-01) (459, 7.35339999198913574219e-01) (460, 8.11533093452453613281e-01) (461, 8.44805598258972167969e-01) (462, 7.99185216426849365234e-01) (463, 1.34447991847991943359e+00) (464, 1.18696725368499755859e+00) (465, 7.61191129684448242188e-01) (466, 5.84417998790740966797e-01) (467, 5.75185596942901611328e-01) (468, 7.96055972576141357422e-01) (469, 9.78516936302185058594e-01) (470, 2.56855916976928710938e+00) (471, 5.46816158294677734375e+00) (472, 7.76182031631469726562e+00) (473, 3.59318399429321289062e+00) (474, 3.67035675048828125000e+00) (475, 3.65392589569091796875e+00) (476, 3.73632955551147460938e+00) (477, 1.93442845344543457031e+00) (478, 1.28065764904022216797e+00) (479, 1.52273714542388916016e+00) (480, 1.45625054836273193359e+00) (481, 1.47509074211120605469e+00) (482, 1.31584179401397705078e+00) (483, 1.36472344398498535156e+00) (484, 1.48512184619903564453e+00) (485, 9.41107153892517089844e-01) (486, 6.62216603755950927734e-01) (487, 1.56964969635009765625e+00) (488, 1.44467556476593017578e+00) (489, 1.54192996025085449219e+00) (490, 9.83383953571319580078e-01) (491, 8.96602272987365722656e-01) (492, 8.61282646656036376953e-01) (493, 9.70921099185943603516e-01) (494, 1.36219477653503417969e+00) (495, 1.40612602233886718750e+00) (496, 8.83552670478820800781e-01) (497, 9.84281837940216064453e-01) (498, 8.81741642951965332031e-01) (499, 1.82903373241424560547e+00) (500, 5.95114374160766601562e+00) (501, 1.38669910430908203125e+01) (502, 8.10971355438232421875e+00) (503, 2.15325093269348144531e+00) (504, 1.41620206832885742188e+00) (505, 1.19928693771362304688e+00) (506, 7.86124587059020996094e-01) (507, 6.61484539508819580078e-01) (508, 7.67464458942413330078e-01) (509, 1.02452039718627929688e+00) (510, 1.40023887157440185547e+00) (511, 1.36081910133361816406e+00) (512, 1.28805434703826904297e+00) (513, 1.42947459220886230469e+00) (514, 1.43893635272979736328e+00) (515, 1.01883196830749511719e+00) (516, 8.83975625038146972656e-01) (517, 2.58475637435913085938e+00) (518, 1.56961369514465332031e+00) (519, 1.50978326797485351562e+00) (520, 1.54867565631866455078e+00) (521, 1.47043228149414062500e+00) (522, 1.56812191009521484375e+00) (523, 1.40845823287963867188e+00) (524, 1.43985319137573242188e+00) (525, 2.64680552482604980469e+00) (526, 1.62060844898223876953e+00) (527, 2.92389559745788574219e+00) (528, 3.02848219871520996094e+00) (529, 6.38666152954101562500e+00) (530, 6.34691381454467773438e+00) (531, 1.26958103179931640625e+01) (532, 2.42852306365966796875e+00) (533, 2.13955426216125488281e+00) (534, 1.10377073287963867188e+00) (535, 5.41910707950592041016e-01) (536, 5.03863632678985595703e-01) (537, 6.09986245632171630859e-01) (538, 7.40748167037963867188e-01) (539, 1.18871533870697021484e+00) (540, 1.45389151573181152344e+00) (541, 1.47668671607971191406e+00) (542, 1.33797752857208251953e+00) (543, 1.45533990859985351562e+00) (544, 1.41955530643463134766e+00) (545, 8.22569668292999267578e-01) (546, 9.87565696239471435547e-01) (547, 2.77606773376464843750e+00) (548, 2.58845829963684082031e+00) (549, 2.71995210647583007812e+00) (550, 2.68948078155517578125e+00) (551, 2.74076390266418457031e+00) (552, 5.51719999313354492188e+00) (553, 5.60587263107299804688e+00) (554, 5.69749259948730468750e+00) (555, 5.58213758468627929688e+00) (556, 3.00955247879028320312e+00) (557, 2.98543930053710937500e+00) (558, 6.44404983520507812500e+00) (559, 6.44116640090942382812e+00) (560, 1.27322969436645507812e+01) (561, 5.54157209396362304688e+00) (562, 3.00522637367248535156e+00) (563, 1.34781146049499511719e+00) (564, 6.76406264305114746094e-01) (565, 4.77768301963806152344e-01) (566, 5.30351340770721435547e-01) (567, 5.03859877586364746094e-01) (568, 7.20795869827270507812e-01) (569, 1.36682391166687011719e+00) (570, 1.30257165431976318359e+00) (571, 1.44955694675445556641e+00) (572, 1.42782175540924072266e+00) (573, 1.35394322872161865234e+00) (574, 1.41829073429107666016e+00) (575, 1.36077094078063964844e+00) (576, 8.89906942844390869141e-01) (577, 2.67839312553405761719e+00) (578, 2.65023255348205566406e+00) (579, 2.65949749946594238281e+00) (580, 5.54351997375488281250e+00) (581, 5.68488883972167968750e+00) (582, 5.54543638229370117188e+00) (583, 5.55952358245849609375e+00) (584, 5.58956480026245117188e+00) (585, 5.54173231124877929688e+00) (586, 5.64046525955200195312e+00) (587, 5.56303596496582031250e+00) (588, 5.69109058380126953125e+00) (589, 5.60922050476074218750e+00) (590, 5.52890872955322265625e+00) (591, 5.55181598663330078125e+00) (592, 1.52331578731536865234e+00) (593, 7.67178595066070556641e-01) (594, 6.78969979286193847656e-01) (595, 5.79670310020446777344e-01) (596, 5.24219572544097900391e-01) (597, 5.54409623146057128906e-01) (598, 6.78555130958557128906e-01) (599, 1.27052092552185058594e+00) (600, 1.32709789276123046875e+00) (601, 1.45599639415740966797e+00) (602, 1.30438899993896484375e+00) (603, 1.39739644527435302734e+00) (604, 1.25241625308990478516e+00) (605, 1.36515653133392333984e+00) (606, 1.38589811325073242188e+00) (607, 2.68577718734741210938e+00) (608, 2.62786078453063964844e+00) (609, 5.62929058074951171875e+00) (610, 5.69044971466064453125e+00) (611, 5.59336996078491210938e+00) (612, 5.61298274993896484375e+00) (613, 5.53468942642211914062e+00) (614, 5.65169763565063476562e+00) (615, 5.50135087966918945312e+00) (616, 5.57522535324096679688e+00) (617, 5.59096622467041015625e+00) (618, 5.56319093704223632812e+00) (619, 2.67769074440002441406e+00) (620, 1.57270991802215576172e+00) (621, 1.41307616233825683594e+00) (622, 1.33023107051849365234e+00) (623, 8.95549774169921875000e-01) (624, 8.56885254383087158203e-01) (625, 6.54342532157897949219e-01) (626, 5.25864660739898681641e-01) (627, 6.31749570369720458984e-01) (628, 7.67924010753631591797e-01) (629, 1.22992539405822753906e+00) (630, 1.30813491344451904297e+00) (631, 1.34566664695739746094e+00) (632, 1.39931571483612060547e+00) (633, 1.25500071048736572266e+00) (634, 1.25645697116851806641e+00) (635, 7.68305003643035888672e-01) (636, 2.76679015159606933594e+00) (637, 2.67465138435363769531e+00) (638, 5.62931728363037109375e+00) (639, 5.53982591629028320312e+00) (640, 5.52593135833740234375e+00) (641, 5.61857032775878906250e+00) (642, 5.63199949264526367188e+00) (643, 2.75028920173645019531e+00) (644, 1.52578294277191162109e+00) (645, 1.45622026920318603516e+00) (646, 1.51159155368804931641e+00) (647, 1.39981186389923095703e+00) (648, 1.54599010944366455078e+00) (649, 1.52203989028930664062e+00) (650, 1.37542510032653808594e+00) (651, 1.45547485351562500000e+00) (652, 1.30406594276428222656e+00) (653, 7.52716422080993652344e-01) (654, 8.64418506622314453125e-01) (655, 7.56477177143096923828e-01) (656, 6.49590253829956054688e-01) (657, 6.92892074584960937500e-01) (658, 9.11959111690521240234e-01) (659, 1.36683082580566406250e+00) (660, 1.47671771049499511719e+00) (661, 1.47073876857757568359e+00) (662, 1.22589135169982910156e+00) (663, 1.38942730426788330078e+00) (664, 1.23913347721099853516e+00) (665, 7.98921346664428710938e-01) (666, 2.77210354804992675781e+00) (667, 2.59023499488830566406e+00) (668, 5.64880800247192382812e+00) (669, 5.62341022491455078125e+00) (670, 5.55205011367797851562e+00) (671, 5.67354297637939453125e+00) (672, 1.41450357437133789062e+00) (673, 1.55657279491424560547e+00) (674, 1.48378336429595947266e+00) (675, 1.56537079811096191406e+00) (676, 1.38633120059967041016e+00) (677, 1.36891317367553710938e+00) (678, 1.33872079849243164062e+00) (679, 1.32064211368560791016e+00) (680, 1.33082008361816406250e+00) (681, 9.04277384281158447266e-01) (682, 7.32094526290893554688e-01) (683, 6.67475283145904541016e-01) (684, 6.42415761947631835938e-01) (685, 6.78538262844085693359e-01) (686, 6.45515203475952148438e-01) (687, 5.57121753692626953125e-01) (688, 7.38671123981475830078e-01) (689, 1.30679070949554443359e+00) (690, 1.47785282135009765625e+00) (691, 1.29964375495910644531e+00) (692, 1.29092347621917724609e+00) (693, 1.21713793277740478516e+00) (694, 8.20297718048095703125e-01) (695, 8.61283838748931884766e-01) (696, 2.55951356887817382812e+00) (697, 2.62979674339294433594e+00) (698, 5.61210012435913085938e+00) (699, 5.50122785568237304688e+00) (700, 5.67519664764404296875e+00) (701, 1.53667306900024414062e+00) (702, 1.54729354381561279297e+00) (703, 1.38850331306457519531e+00) (704, 1.46678400039672851562e+00) (705, 1.40461516380310058594e+00) (706, 1.32741224765777587891e+00) (707, 1.32974576950073242188e+00) (708, 1.45015871524810791016e+00) (709, 1.30599999427795410156e+00) (710, 8.40519368648529052734e-01) (711, 9.00192975997924804688e-01) (712, 6.58448696136474609375e-01) (713, 5.78201353549957275391e-01) (714, 6.38478338718414306641e-01) (715, 4.87319737672805786133e-01) (716, 6.78302407264709472656e-01) (717, 5.49109339714050292969e-01) (718, 7.16028809547424316406e-01) (719, 1.27081739902496337891e+00) (720, 1.33888316154479980469e+00) (721, 1.27813649177551269531e+00) (722, 1.35477232933044433594e+00) (723, 6.97595834732055664062e-01) (724, 6.06616854667663574219e-01) (725, 7.39496707916259765625e-01) (726, 6.47465765476226806641e-01) (727, 1.51294577121734619141e+00) (728, 2.62657356262207031250e+00) (729, 2.58602237701416015625e+00) (730, 2.69435906410217285156e+00) (731, 1.39747822284698486328e+00) (732, 1.54468488693237304688e+00) (733, 1.41209566593170166016e+00) (734, 1.35951972007751464844e+00) (735, 1.43655323982238769531e+00) (736, 1.49334120750427246094e+00) (737, 1.36356246471405029297e+00) (738, 1.40616607666015625000e+00) (739, 1.38336694240570068359e+00) (740, 8.59694004058837890625e-01) (741, 8.89162182807922363281e-01) (742, 6.02648079395294189453e-01) (743, 7.18035757541656494141e-01) (744, 4.59513276815414428711e-01) (745, 6.27581834793090820312e-01) (746, 5.31264781951904296875e-01) (747, 6.81592106819152832031e-01) (748, 7.52805829048156738281e-01) (749, 1.30113756656646728516e+00) (750, 1.23539245128631591797e+00) (751, 8.79640042781829833984e-01) (752, 9.00891542434692382812e-01) (753, 7.01507151126861572266e-01) (754, 6.57914042472839355469e-01) (755, 5.44633328914642333984e-01) (756, 6.88404083251953125000e-01) (757, 5.64901947975158691406e-01) (758, 1.07165467739105224609e+00) (759, 2.58213734626770019531e+00) (760, 1.40510952472686767578e+00) (761, 1.36782789230346679688e+00) (762, 1.35005867481231689453e+00) (763, 1.52333247661590576172e+00) (764, 1.45655393600463867188e+00) (765, 1.38620877265930175781e+00) (766, 1.39975273609161376953e+00) (767, 1.38976228237152099609e+00) (768, 1.38963830471038818359e+00) (769, 8.32813560962677001953e-01) (770, 9.29106771945953369141e-01) (771, 8.91809105873107910156e-01) (772, 6.45392656326293945312e-01) (773, 5.15532732009887695312e-01) (774, 5.93622684478759765625e-01) (775, 6.40638232231140136719e-01) (776, 5.71879506111145019531e-01) (777, 6.30852580070495605469e-01) (778, 9.23148453235626220703e-01) (779, 1.25817871093750000000e+00) (780, 1.26115620136260986328e+00) (781, 9.33242738246917724609e-01) (782, 9.22129988670349121094e-01) (783, 7.36083745956420898438e-01) (784, 6.71875059604644775391e-01) (785, 6.27048850059509277344e-01) (786, 5.37997066974639892578e-01) (787, 6.51122152805328369141e-01) (788, 6.92650496959686279297e-01) (789, 6.00813984870910644531e-01) (790, 8.67619335651397705078e-01) (791, 9.86395955085754394531e-01) (792, 1.15177738666534423828e+00) (793, 1.02854931354522705078e+00) (794, 8.66531491279602050781e-01) (795, 8.30893874168395996094e-01) (796, 1.09138858318328857422e+00) (797, 6.84356391429901123047e-01) (798, 6.38728201389312744141e-01) (799, 8.20475339889526367188e-01) (800, 5.49308896064758300781e-01) (801, 4.65951204299926757812e-01) (802, 5.01756787300109863281e-01) (803, 5.32931566238403320312e-01) (804, 5.26333332061767578125e-01) (805, 6.44345402717590332031e-01) (806, 6.13888800144195556641e-01) (807, 6.71060800552368164062e-01) (808, 7.23904728889465332031e-01) (809, 7.94587552547454833984e-01) (810, 1.48656260967254638672e+00) (811, 7.94920742511749267578e-01) (812, 8.11598598957061767578e-01) (813, 6.89050257205963134766e-01) (814, 7.41245865821838378906e-01) (815, 6.93714976310729980469e-01) (816, 5.59376776218414306641e-01) (817, 5.79942464828491210938e-01) (818, 9.23730134963989257812e-01) (819, 1.01118421554565429688e+00) (820, 6.36116504669189453125e-01) (821, 6.54511034488677978516e-01) (822, 5.60833811759948730469e-01) (823, 5.72748303413391113281e-01) (824, 5.37685871124267578125e-01) (825, 4.49575603008270263672e-01) (826, 4.39101099967956542969e-01) (827, 4.86902624368667602539e-01) (828, 5.26869356632232666016e-01) (829, 4.70289170742034912109e-01) (830, 5.89790403842926025391e-01) (831, 6.21975064277648925781e-01) (832, 5.05601465702056884766e-01) (833, 4.65024709701538085938e-01) (834, 5.25201797485351562500e-01) (835, 6.85654759407043457031e-01) (836, 5.63089966773986816406e-01) (837, 7.04639673233032226562e-01) (838, 6.20210289955139160156e-01) (839, 9.25422251224517822266e-01) (840, 1.51924395561218261719e+00) (841, 1.34256279468536376953e+00) (842, 9.67347800731658935547e-01) (843, 8.07473123073577880859e-01) (844, 9.41280007362365722656e-01) (845, 8.14782202243804931641e-01) (846, 1.07055759429931640625e+00) (847, 1.07002627849578857422e+00) (848, 1.04805457592010498047e+00) (849, 9.26030755043029785156e-01) (850, 7.08461642265319824219e-01) (851, 6.17060005664825439453e-01) (852, 6.88573360443115234375e-01) (853, 4.68570083379745483398e-01) (854, 4.89495366811752319336e-01) (855, 4.81389462947845458984e-01) (856, 4.60072219371795654297e-01) (857, 4.71103370189666748047e-01) (858, 5.61915218830108642578e-01) (859, 5.68485260009765625000e-01) (860, 5.27295589447021484375e-01) (861, 5.28711199760437011719e-01) (862, 6.80819988250732421875e-01) (863, 7.00647532939910888672e-01) (864, 6.58304035663604736328e-01) (865, 5.54053366184234619141e-01) (866, 6.49796962738037109375e-01) (867, 6.84888839721679687500e-01) (868, 9.10973131656646728516e-01) (869, 1.00226294994354248047e+00) (870, 1.41647541522979736328e+00) (871, 1.47722196578979492188e+00) (872, 1.48415005207061767578e+00) (873, 9.31370794773101806641e-01) (874, 1.03224277496337890625e+00) (875, 1.02452385425567626953e+00) (876, 9.59031999111175537109e-01) (877, 1.61770212650299072266e+00) (878, 1.11111128330230712891e+00) (879, 6.69293522834777832031e-01) (880, 8.41330647468566894531e-01) (881, 5.36594152450561523438e-01) (882, 6.57894611358642578125e-01) (883, 6.72791779041290283203e-01) (884, 5.22154271602630615234e-01) (885, 6.75089597702026367188e-01) (886, 5.40664613246917724609e-01) (887, 5.68709850311279296875e-01) (888, 6.96150064468383789062e-01) (889, 1.14091360569000244141e+00) (890, 1.22639441490173339844e+00) (891, 1.34412872791290283203e+00) (892, 1.35758626461029052734e+00) (893, 1.46453750133514404297e+00) (894, 9.39405441284179687500e-01) (895, 1.03960239887237548828e+00) (896, 1.00553965568542480469e+00) (897, 1.02499222755432128906e+00) (898, 1.42297494411468505859e+00) (899, 1.42621135711669921875e+00) (900, 1.42927312850952148438e+00) (0, 6.70630559325218200684e-02) (1, -6.89539536833763122559e-02) (2, -5.89640922844409942627e-02) (3, -6.22419007122516632080e-02) (4, -9.73870232701301574707e-02) (5, 5.33377565443515777588e-02) (6, -1.54318958520889282227e-02) (7, 5.27691133320331573486e-02) (8, -5.63025102019309997559e-02) (9, 1.11757703125476837158e-02) (10, 3.25596183538436889648e-02) (11, -5.00647574663162231445e-02) (12, -5.05764633417129516602e-02) (13, 4.35939803719520568848e-03) (14, -2.82233133912086486816e-02) (15, -7.57997259497642517090e-02) (16, 4.47111576795578002930e-02) (17, 4.01737540960311889648e-02) (18, -4.33375164866447448730e-02) (19, 2.14805509895086288452e-02) (20, 5.15585243701934814453e-02) (21, -1.10469870269298553467e-01) (22, -1.03111304342746734619e-01) (23, -2.84559675492346286774e-03) (24, 4.91317026317119598389e-02) (25, -4.33126427233219146729e-02) (26, 2.28902567178010940552e-02) (27, 1.34481620043516159058e-02) (28, 5.78077547252178192139e-02) (29, 4.48600500822067260742e-02) 